9996 16
. -0.025375074 -0.085934564 -0.010012913 0.0032211735 -0.037305936 0.06894119 -0.017704198 -0.00054728857 -0.0066623404 -0.096534096 0.0007937442 -0.009941363 0.00851408 -0.028810643 0.012424023 -0.029924788
영화 -0.011366565 -0.13533072 0.01560183 0.039121747 -0.06848225 -0.024565762 -0.025283081 0.01386573 -0.008109397 -0.0073125456 -0.0083808955 -0.03955029 0.022022417 0.024100944 0.035731737 -0.057286672
다 0.003928741 -0.22117434 -0.03546038 0.072069585 -0.020739255 -0.037149847 0.08935121 0.01794372 -0.07480709 -0.13799948 0.024911081 0.074744575 0.021579474 0.08253029 0.048194516 0.08651358
고 -0.06648752 -0.056821853 -0.042473707 0.013346744 -0.0007608057 0.036317006 -0.029114526 0.07389588 0.050392896 -0.055626173 0.09289909 0.06975229 -0.04454499 0.022913966 -0.044636913 0.05134235
하 0.007807338 -0.027175257 -0.014294232 0.03856336 -0.006600491 -0.032770388 0.09836858 -0.015602992 0.0031299312 0.04855813 0.017254092 0.037742347 -0.017115805 -0.019547625 -0.03244878 -0.008077981
을 0.09095166 -0.048977625 -0.040166017 0.0096278135 0.09524642 -0.04793409 0.009566614 0.011172427 -0.0032423183 0.008228925 0.049535464 0.043762833 0.1571051 -0.034105044 0.07994934 -0.060940675
보 0.026902175 -0.14517412 0.01097921 0.028456708 -0.021806678 0.0043317135 0.007837501 0.024084564 0.0034747068 0.07637512 0.016659215 0.0019567593 0.10751237 0.12705933 0.12687428 -0.015039399
.. -0.025369078 -0.086388536 -0.024301294 -0.04584579 -0.053767674 -0.057976622 0.017913824 -0.014846058 0.065647006 -0.05568108 0.0014374802 0.03221607 0.12084986 0.00026895897 -0.046564687 0.033762
게 0.008164874 -0.07964756 -0.03349757 0.06253901 0.0019614568 0.020336278 0.025204455 0.009018818 -0.05499594 0.023734407 -0.09839149 0.025807792 0.19550148 0.012201378 0.087232254 -0.06589497
, -0.024815973 -0.04292014 0.022911029 0.054187015 -0.014919614 0.018923488 0.05447448 0.03233106 0.039391052 -0.019469708 0.03471391 0.04883558 0.046152845 0.03248584 -0.06084194 0.010840163
! -0.01531062 -0.10449984 0.039220657 -0.0075446405 -0.05836802 -0.008672494 -0.02935131 -0.10020557 -0.024406511 -0.018623684 -0.059533376 -0.09496398 -0.1431598 0.021194186 0.07522711 -0.11656693
지 0.004229393 0.19170631 0.008393226 -0.016206322 0.058261957 0.0334838 0.12344143 0.00594819 0.039763138 0.08340957 0.00027214037 0.104404315 0.075945556 0.042811733 -0.02321032 0.069969706
있 -0.07268844 0.0031821977 -0.020127082 -0.023418343 0.09463563 -0.030911619 0.025927056 0.10107306 -0.10545657 0.13591774 0.031461 0.02300453 -0.066957526 0.002973855 0.007684999 -0.074510925
없 0.001018632 0.032315135 0.024573624 -0.09309135 0.08263086 -0.15903106 0.15069067 -0.03826262 -0.029132983 -0.0301221 0.08930738 -0.026610795 0.18574367 -0.1593841 -0.0013740421 0.08686973
? 0.055328768 -0.030885719 -8.968156e-05 -0.035072204 0.095628664 -0.0581227 0.0023500216 0.064354315 0.051904127 -0.07195055 0.029014291 0.04236647 -0.08650236 -0.074097075 -0.021148792 0.09368582
좋 -0.061335582 0.098007716 0.0012951095 0.021763192 0.06470219 0.043239202 -0.06903365 -0.13145232 -0.01437391 0.11100746 -0.0046496633 0.031538848 -0.06694134 0.0016342602 0.15576853 -0.059644878
나 0.020582313 0.10198379 -0.015378548 -0.08209036 0.042716715 -0.039710682 0.00090408075 -0.06750854 0.035907056 0.039018605 0.00501752 -0.013041654 -0.024162313 -0.009512136 0.003067715 0.03320597
었 0.07762929 0.0432963 0.003761769 0.0525632 0.023744822 0.046144392 -0.027112348 0.005861465 0.032280628 0.00042207286 -0.061970446 -0.08657755 0.029014701 0.04870321 0.11311966 0.025256354
만 -0.029532095 -0.031530447 0.05567545 -0.04559471 0.15097566 -0.051531382 -9.3205e-05 -0.032325674 0.053299494 -0.01185403 0.039642353 -0.061176598 0.067777224 -0.038930308 0.118699625 0.02474932
는데 -0.0746574 0.12724735 -0.06270399 -0.010726136 0.05579757 0.11872417 0.09128332 0.045031115 -0.05019903 0.103441775 0.064106606 0.11958698 0.057368044 0.005753883 -0.069498904 -0.025496997
너무 0.093804374 0.10811223 -0.025909362 0.022577183 -0.21987666 0.021144243 -0.005088158 0.035795815 0.01201851 0.066812634 0.022407895 0.11977563 0.09904762 0.012027661 -0.04090849 0.046368644
봤 -0.0076468573 0.09802883 -0.028891988 0.035019323 -0.085648015 0.006209951 -0.047703136 0.012367012 -0.029950833 0.061180133 -0.03724928 -0.077356406 0.052296054 0.026052974 0.09909988 -0.025131043
적 -0.0059386427 0.10376727 0.024937648 -0.06100415 -0.012763917 0.08515167 0.018143233 0.017669154 -0.02545377 0.052896746 -0.033825 -0.058638666 0.05306019 -0.03268162 0.040450525 -0.027101122
안 -0.10942716 -0.034552902 0.10015471 0.032695837 0.22954454 -0.19253743 0.0695475 0.024835052 -0.028306289 -0.062304825 0.03903478 -0.1482826 0.04647204 -0.023100033 -0.02783357 -0.038581796
로 -2.089286e-05 0.04002947 -0.0058446317 -0.023163056 0.04875675 -0.040977992 -0.123682536 0.05437837 0.07401662 -0.116685 0.124999374 0.035420276 0.03038112 -0.01616522 -0.052060407 -0.0011274826
정말 0.030175764 -0.02962881 -0.032106407 -0.1521869 0.0405267 0.059020214 0.036113966 0.01544457 -0.04202928 0.056277785 0.09782831 0.09058806 -0.038745746 0.026522992 -0.05216136 0.05313219
음 -0.052602578 -0.17759873 0.03087899 0.050337497 -0.09040083 0.054767355 0.12685058 0.041251745 0.0554975 -0.07254121 0.02683845 -0.005574532 -0.021930942 0.04889875 0.011567372 0.052706998
것 -0.03134194 0.022183135 -0.057971578 0.0042211604 -0.028761694 0.061496247 0.046019103 0.008611444 0.0025945713 0.020191567 0.005036301 0.020613559 -0.04623638 0.013670217 -0.028556498 -0.005593932
아 0.05463018 0.009488502 -0.03497126 -0.043824393 0.031710204 -0.017857594 0.059525985 0.038417324 0.081757374 0.025645422 -0.06578399 0.019063406 0.029120892 -0.020858312 0.0114307 -0.05305593
네요 -0.019911861 -0.03902539 -0.029570261 0.014989688 -0.08267257 0.088778004 -0.018489424 -0.057265606 0.028364776 -0.06898721 -0.06161463 -0.061978403 -0.00622391 0.0066692657 0.053541563 -0.047105543
어 0.042466503 0.06398147 -0.08532232 0.07195648 -0.050650023 -0.10013822 -0.028526502 0.07718894 0.011137335 -0.020112552 0.040999398 0.025651652 0.09042285 -0.024932723 -0.044598326 -0.07191884
재밌 0.046991203 0.020837145 0.0019331013 0.04236865 -0.022537712 0.115660146 -0.15899721 0.12272217 -0.22159158 0.1833972 -0.099733874 -0.09730905 0.10907355 0.19930488 -0.015897306 -0.07354871
같 -0.026683787 -0.013138749 -0.03431581 -0.017309504 -0.00021215455 -0.0006224685 0.042784903 0.050313395 0.07334851 -0.15599509 -0.014501483 0.054881703 0.08522786 -0.04215309 0.061956976 -0.08983153
점 0.050404437 -0.16680941 0.039243963 0.019286416 -0.09286647 -0.041532483 -0.096072935 0.07699335 0.029038794 -0.085298076 0.005290354 -0.09576303 -0.17643216 -0.0018768803 0.04269703 -0.048096914
지만 0.06052299 0.26491827 -0.07411289 -0.13510777 0.14370173 0.036256168 0.14786889 -0.05151064 -0.014696334 0.058138672 -0.018921006 0.07512345 0.15333302 -0.06616582 -0.11763317 -0.038142394
진짜 0.030895859 0.110874824 -0.034705658 -0.046795163 -0.077980354 0.03811128 -0.023515472 0.00505597 -0.024334664 -0.022784004 0.0143344 0.009360759 -0.004847191 0.051865853 0.07262671 -0.03137888
했 0.011510763 -0.016612383 -0.0398118 -0.009930993 0.046254884 -0.088908866 -0.097253054 0.013728613 -0.019573923 0.04882771 0.085483655 0.028778492 0.06404848 -0.040792678 0.00037818414 0.020041179
기 0.095307164 -0.0507455 0.015478331 0.007983429 0.013505152 0.006809437 0.015949227 -0.087745644 0.041271918 0.013051933 0.013644925 0.043075133 -0.04332447 0.097562715 0.07226502 -0.016682746
에서 -0.027175307 0.06257271 -0.015943415 -0.04904116 0.077728264 0.008704417 0.11086342 -0.0037596491 -0.057251997 0.05044319 0.05332017 -0.045855794 -0.033731963 0.007125936 0.013432669 0.06309237
네 -0.0019591565 -0.1245084 -0.07456701 0.05203259 0.058308553 -0.0029392804 -0.0060821413 -0.002620567 -0.0053595263 -0.11100405 0.02333351 0.015280288 -0.123124816 0.013406392 -0.05610329 0.09049565
않 0.06733232 0.21682811 -0.033510227 -0.02312899 0.1109789 -0.11983792 0.21077138 0.24620016 0.101317644 0.11311081 0.03946758 0.07706231 0.21086715 0.09972297 -0.13682197 0.017993286
거 0.062477674 0.0136451265 0.0635303 0.022151366 -0.039787218 -0.05499377 0.06752335 0.07530375 0.032517884 0.00990613 -0.039782573 0.02988203 -0.02677537 0.05702613 -0.119989835 -0.014584261
았 0.1294925 -0.0015929294 0.0026690622 0.055672474 -0.018596886 -0.05600354 -0.0014187753 -0.004569724 -0.0231979 0.08541847 0.019048134 -0.0057441634 0.09446778 0.033358987 0.08772494 0.086251475
수 -0.09978386 0.03586289 -0.06349537 0.12773764 0.13300753 -0.0044048526 -0.0203194 -0.019824669 -0.035101477 0.08237375 -0.09159849 -0.07192871 0.07399768 -0.029939972 -0.018457869 0.03302119
되 0.044139422 -0.10635809 -0.061402485 0.033541415 0.032600157 0.19377527 0.023078607 -0.0015009537 -0.024795089 -0.022320418 -0.072266474 0.08949348 0.032067757 0.037799362 0.10112074 -0.012696727
면 -0.023809355 0.061152354 -0.024489703 -0.02706961 0.037494015 0.027376985 0.15947062 0.09447201 0.08901468 0.023346914 0.015120145 -0.06505329 -0.06420069 -0.032435812 -0.05170591 0.04475427
ㅋㅋ -0.028953202 -0.076223075 0.003390688 0.02304686 -0.036112987 0.06020598 0.033356886 -0.060003273 -0.0842172 0.029759953 -0.056375913 -0.024401296 -0.078323126 0.06028933 0.056487948 -0.014611813
말 -0.064361334 0.030920938 -0.0556726 0.064322606 0.040366065 0.0065968456 0.018078947 0.17525668 -0.11484375 0.014417944 0.08125907 -0.08779651 0.09995942 0.054735992 0.023239123 0.03692517
인 -0.027630273 -0.1521161 0.01345046 0.06758097 0.04951286 0.012346668 -0.010121113 0.101841144 0.07130188 -0.0032507083 0.0486904 -0.06714392 0.034457862 -0.055712994 -0.07685994 -0.012710289
연기 -0.086991034 -0.105971135 -0.052857935 0.030011198 0.037473105 0.13214058 -0.046964247 -0.00045333902 -0.032034997 -0.15610091 -0.017945725 -0.05651527 -0.029269865 -0.02393161 -0.018479012 0.0038370693
주 -0.15446725 0.018512653 0.03743159 -0.04923878 -0.01262228 0.04030966 -0.03086896 0.05864544 0.0019672995 0.04788824 -0.02043385 0.07480255 0.061462436 0.039433528 -0.02222687 -0.009668105
내 0.13289878 0.081832506 -0.011153457 0.03936013 0.028644385 0.024207857 0.07801931 0.008355321 -0.0014562624 -0.060056236 0.034579076 0.070411354 0.06267111 0.05149902 0.026957467 0.07811721
최고 -0.0040369807 0.17276104 -0.13298672 0.03166874 -0.04687042 -0.030703556 -0.11419786 -0.22627106 -0.06916832 0.105759844 0.013868345 -0.123475075 -0.12970105 0.11636818 0.15977728 -0.12287491
~ 0.0016403592 -0.08413523 0.032357056 0.049140114 -0.12497492 0.046245135 -0.031423375 -0.041774057 -0.0006998077 -0.10195334 -0.08509329 0.1577687 -0.109907575 -0.034245715 0.008494923 -0.020839479
평점 0.024159359 -0.10668069 -0.026798896 0.1434952 0.11784445 -0.03072584 -0.104287885 0.10004057 0.031832214 -0.060426645 0.14680395 0.06749624 0.08147525 0.051497076 0.10478353 0.08656483
이런 0.045113493 0.059229385 -0.09924969 0.00019383413 -0.005333728 0.0060988064 0.0063175657 0.04114289 0.063942105 -0.021367565 0.08679136 0.060619578 0.020236518 -0.023933638 -0.102550775 0.0019011588
던 -0.01753588 -0.037404593 -0.003486854 -0.02520771 -0.0034797743 0.045982763 -0.012921622 0.18112248 -0.11525902 -0.021173896 -0.003384104 0.08124258 -0.04754449 -0.048909247 0.057444137 -0.019078022
어요 -0.10053711 -0.2545256 0.079140455 -0.036525685 -0.12413301 -0.028124843 -0.003295057 0.007773746 -0.061918773 0.012915555 -0.06014807 -0.031364035 -0.034898292 0.044726472 0.1074851 0.048032638
할 -0.0016415587 0.0028943007 -0.029246368 0.030554585 0.114663094 0.025736906 0.017808229 0.04806715 0.021198466 0.0505654 0.02407206 0.05747157 0.18430953 0.09476131 -0.09313144 0.11499816
왜 -0.11592996 -0.14903224 0.000831781 -0.026307497 0.12440161 -0.0011851003 -0.05148466 -0.041190095 -0.007029156 -0.011283093 0.008955134 -0.10612943 -0.11513351 -0.0192019 0.06038888 -0.0017378347
겠 0.029524935 0.04403591 0.012336946 -0.043176856 0.10125009 -0.03783911 0.09306996 -0.050517563 0.13060187 -0.047785133 -0.1101617 0.18579255 -0.04293252 0.05917146 -0.003134964 0.16395627
해 -0.02194094 0.088970855 0.014476981 0.019046247 0.059060577 -0.0014220349 0.06939868 -0.0067156474 -0.022381973 0.019972537 -0.0011219499 -0.07521987 -0.0028692717 0.0319632 -0.10713589 -0.0031338884
1 0.006717387 -0.011990953 0.092898406 0.057225544 0.005220089 -0.20107284 0.018221522 0.045153063 0.12714449 0.0041007465 0.026486097 -0.040765703 0.095500104 -0.032401755 0.06151161 0.06491498
스토리 0.051050216 -0.0121990815 -0.04434443 -0.10668523 0.05318456 -0.12936 -0.06027156 0.03932363 -0.058667745 -0.032589924 0.057790026 0.009442558 0.07962092 0.04499322 -0.0060088565 0.12648939
습니다 0.01582861 -0.20867765 0.042475358 0.059991855 0.0034101384 0.058019362 -0.00095812377 -0.14763017 -0.033590306 -0.009235161 -0.08353377 -0.156911 -0.033338055 0.0904314 0.0196532 0.034090698
ㅋㅋㅋ -0.004710962 -0.10925318 0.03255996 0.10859462 -0.09834172 -0.026126465 -0.028231995 -0.03315334 0.009004846 0.010902517 -0.039041523 -0.09620802 0.05824982 -0.007841287 -0.033369716 0.06627107
... 0.072239585 0.019377032 -0.0059128962 0.02610111 -0.05481118 -0.01854033 0.019790731 0.015841011 0.016047886 -0.11085062 -0.07705894 0.007899383 0.03803982 0.008291423 -0.043576546 0.04339268
드라마 -0.07205627 -0.1319346 0.05326651 0.031815756 0.015218956 0.010534252 -0.007916627 0.07003466 0.020518593 -0.04657324 -0.010863605 0.047319118 0.030760262 0.08731618 -0.01941076 -0.06637765
아니 0.07537184 0.012478709 -0.01973824 -0.12557484 0.12688571 -0.09997047 0.19067423 0.025837764 0.07257196 0.059941184 0.05302686 0.1653644 0.19777955 -0.04542833 -0.1410347 0.13010783
생각 -0.06945714 0.11463317 -0.027599681 0.068684176 -0.011880597 -0.053137854 -0.0025464068 -0.03346309 -0.062023226 0.072261885 -0.04862706 -0.060033537 0.043681573 -0.06220035 -0.032988474 -0.14215165
더 -0.1202285 0.002599111 -0.055554375 -0.049279757 0.088470094 0.016810702 0.14171275 -0.017909301 0.07420558 0.0896876 0.054827727 -0.020755522 0.06067702 -0.025247592 0.090927556 -0.030158337
그 0.038543746 0.033160888 -0.06521685 0.008241957 0.044586364 -0.052027434 0.047821283 0.07329114 -0.08306284 0.1111704 -0.019108761 0.080560625 0.0661069 0.08388154 -0.018394044 -0.03503521
싶 0.03471192 0.0721257 0.09482294 0.042677347 0.23258181 -0.017520582 0.14951259 -0.116739005 -0.026692774 -0.079329066 -0.05146258 -0.009558338 0.1300111 -0.029090453 0.25145355 0.069743395
사람 -0.058140676 0.036424167 -0.02711029 0.004684227 0.13850044 -0.0104602305 -0.028758068 0.09615812 -0.014959213 0.026674528 0.027212588 0.13652119 -0.1061153 0.08799025 0.030312382 0.06094809
듯 0.10794636 0.072842985 -0.014780706 0.024146993 -0.091314346 -0.02875715 -0.0015957727 0.05178207 0.100536995 -0.014654603 -0.043790065 0.052240137 -0.028047387 0.04438635 -0.017348768 0.03513634
때 -0.074260056 -0.08337783 -0.00012829127 0.07219147 0.10006679 0.06849798 0.023033312 -0.018967105 -0.050129797 0.13230163 -0.059124958 0.08135353 0.049831938 0.03346578 -0.04822165 -0.05801363
감동 0.049226534 0.09170703 -0.011402373 0.025249476 -0.03907348 0.08091505 -0.118962824 0.020360526 -0.100418836 0.17312796 -0.065717734 0.15052988 -0.013691053 0.01978624 -0.021286981 -0.062838465
함 0.029538482 -0.01629451 -0.09001049 -0.047758266 0.019958673 0.020818662 0.02378895 0.027841294 0.0063027614 -0.056531455 0.006790721 0.052621324 0.068403825 0.006548751 0.095348716 -0.0154256215
배우 -0.06640137 0.0016045657 -0.043806028 -0.03348844 0.019665739 -0.00076395954 0.051616743 -0.08845162 -0.09065764 -0.025965769 0.06395983 0.073700875 0.055284783 -0.01584966 0.05906552 -0.02954848
본 0.058766246 0.044558994 -0.009875287 0.07748438 0.011926358 0.09158641 0.056123283 0.033982188 -0.0114282295 -0.007493957 -0.032660827 -0.033724286 -0.055866472 0.047319304 0.059351422 0.000787942
까지 -0.012970402 -0.04085296 -0.013361348 0.05338323 0.005432829 -0.107394755 -0.024267185 -0.018480692 0.040917728 0.06607689 0.11464813 0.07922447 0.014068144 0.09266143 0.13408113 0.010878353
뭐 -0.025385264 -0.005673827 0.1576415 0.038747285 0.023436876 -0.09577947 -0.005526132 -0.018230125 0.039609462 -0.0552522 0.10958377 -0.119040646 -0.034124576 -0.085878566 0.024643859 -0.04950008
보다 0.02732942 0.071100354 0.11754617 -0.030543234 -0.012584052 -0.0076187938 0.11444407 0.022276236 -0.10592915 0.07021616 0.028210396 0.08380193 0.048164226 -0.17550948 -0.19424312 0.06799192
알 -0.16230644 0.14239687 -0.03796887 0.022052046 0.12830353 -0.13145466 0.10606579 -0.028524363 0.16539587 0.04166998 0.027920231 -0.049901564 0.024763541 0.0050790464 -0.06036098 0.008979088
만들 -0.0867724 0.06327709 0.08178033 -0.13391809 -0.11255011 0.031626582 -0.020206638 0.13421409 -0.024146695 -0.06252915 0.045408934 -0.06633738 -0.12769881 -0.08128002 0.08812978 0.08963546
내용 0.05740046 0.08419076 0.010049037 -0.110483505 0.008873825 0.008498854 -0.059521444 0.013273858 -0.02177666 -0.040524732 0.051615555 -0.04758252 0.06950168 -0.10456429 -0.013419294 0.08331147
볼 -0.06304272 0.18723953 0.022355149 0.019624893 0.084663756 0.093434006 -0.07967676 -0.1053395 0.0073050535 0.042980567 -0.04646591 0.10577419 -0.04769947 -0.069344945 -0.09855881 -0.025122924
감독 -0.04039323 -0.011028201 0.116317414 0.027082937 -0.03171209 -0.040312197 -0.08043754 -0.03287271 0.16941234 -0.008141944 0.027961554 0.055434525 0.06702036 -0.056898292 -0.09046854 0.12689506
라 -0.065616645 0.14040019 0.05247675 0.018793784 0.02665567 -0.035744555 0.027711282 -0.015285584 -0.04552406 0.096663676 0.050263073 -0.07100023 0.049499627 0.0036475705 0.04382602 -0.008583267
그냥 0.00719722 0.08094362 0.013941684 -0.045200057 -0.079949245 -0.04948596 -0.18734829 -0.013784454 -0.0008270331 -0.07141523 0.07174142 -0.033243615 0.04645619 -0.14078742 -0.117124505 0.014539556
재미 0.06349722 0.07598078 -0.087133765 0.009419101 -0.084398665 0.055106107 -0.10474809 -0.08219503 -0.09819752 0.06411153 -0.049204834 0.16711956 0.032962404 -0.007504747 0.0038300008 0.067497045
시간 0.041721214 -0.0004745103 -0.005579285 0.022976456 -0.09382329 -0.1343885 0.01748816 -0.06834105 -0.07950263 0.016559286 0.024871064 0.0022937856 0.050540797 -0.0246725 -0.14483802 0.099966906
지루 0.089210294 -0.035776146 0.020927254 0.09079556 -0.004152382 -0.18238339 0.32043403 -0.20792505 0.20109564 0.07076834 0.14143166 -0.024813036 0.2705752 -0.12677367 -0.026880128 0.1109104
중 0.0070033944 -0.110711 -0.058829695 -0.041307066 0.04495171 0.037266657 0.036877055 -0.012119478 0.029198507 0.05581441 -0.0137869315 0.0030546114 0.031565264 0.09651024 0.021608043 -0.08258552
재미있 -0.05145203 0.14146371 -0.019660091 -0.052525133 -0.017483506 0.13962495 -0.09144149 -0.13007043 -0.060070384 0.12917215 -0.02903453 -0.13159002 -0.0116010755 0.039290052 0.085610084 -0.13736081
년 0.0135512985 0.048989516 -0.045760088 0.118355736 0.055396885 0.031709675 0.0031486736 -0.11266014 0.029248647 0.06039111 -0.017970689 -0.040212072 -0.009714214 0.055980653 0.1257425 -0.064644866
10 -0.05778306 0.18083362 -0.005880379 0.096942164 0.0633415 0.05269087 -0.06110226 0.012606522 -0.09547015 0.07354546 -0.095207624 0.045742247 0.007057472 0.08046666 0.07160038 -0.1278563
였 -0.061202094 0.012350635 -0.09308668 -0.0037649104 -0.05084686 0.034615614 0.01634734 -0.010376325 0.024559569 -0.051938538 -0.035545237 0.00078740175 -0.031499874 0.054296903 0.0049101445 0.01228253
잼 0.118342616 0.114402786 -0.0683971 -0.06454277 -0.09114243 0.14798963 -0.22510631 -0.10440608 0.037701335 0.075426176 -0.04963137 -0.01653514 -0.014537073 0.09142694 0.18981013 -0.008650892
사랑 -0.01778495 0.0871995 0.044454426 0.0411691 -0.025533112 0.0793968 -0.029209027 -0.045223597 -0.14312764 0.054454457 -0.02145064 -0.104728304 -0.12710549 -0.02760238 0.04324585 -0.13560961
못 -0.107769355 -0.029890634 0.0813167 -0.015057924 0.18815468 -0.080876715 0.11401769 -0.07211145 0.08444692 0.00051564194 0.1066662 -0.014645026 0.11623407 -0.036377423 0.03230856 0.06994467
냐 0.09597327 -0.03170598 0.03589289 -0.14315242 0.09928773 -0.11873049 0.029291142 -0.0417989 0.07164236 -0.07497828 -0.032232873 0.055892445 -0.016605774 -0.08734047 -0.050709307 0.09044802
재미없 0.047374338 0.07224969 0.116718814 -0.062264938 0.04293286 -0.20673037 0.11687587 -0.09401929 0.12612568 -0.093594834 0.12365532 -0.06827732 0.1490394 -0.08377493 -0.11444219 0.09771671
쓰레기 0.10156575 -0.07730166 0.092692584 -0.09444667 0.1161624 -0.2103963 0.023658438 -0.0634763 0.05276047 -0.17384303 0.14597723 -0.11292067 0.058946967 -0.043019652 -0.084089756 0.12661645
서 0.03171229 -0.02036106 -0.015281209 -0.01897156 -0.03211926 0.009441603 0.0874803 -0.020839175 0.052333333 0.020599071 0.01253816 -0.031270687 -0.075090386 -0.033247456 0.02891965 0.010349488
야 0.07041898 0.011226143 0.029111821 -0.050254505 0.08979158 -0.07659893 -0.05797898 0.041615706 -0.05290183 -0.052456312 0.044399407 0.11080928 -0.102459066 -0.03718282 0.0076599736 0.052236956
2 -0.017263597 0.03215211 0.0007910719 -0.07000809 0.013214517 -0.07394588 0.00014412333 0.0015959016 0.053100824 0.0009647609 0.017993994 -0.05550354 0.11918933 -0.041232176 -0.21292852 0.0017808024
라고 0.031685475 0.17096628 0.06980462 -0.08273114 0.048622407 -0.04637475 0.09033733 -0.02458025 0.059017807 -0.022137625 0.030216923 -0.027572902 0.07984211 -0.07191073 -0.21021965 0.07347813
니 0.093377195 -0.012799062 0.020542921 -0.013209851 0.0606028 0.07379887 -0.015935859 -0.06485813 -0.018834068 0.020651802 0.05116149 0.04358746 -0.0045126146 0.036920823 -0.06349542 -0.032557853
면서 0.06708711 0.025288243 -0.03586384 0.03323155 -0.0052725356 -0.017185915 -0.06309922 0.07349113 -0.033743456 0.14125478 0.012862856 -0.03920256 0.04935124 -0.03387819 -0.026036287 0.023737125
번 -0.11629533 0.16334529 0.06261939 0.06723516 0.057609893 -0.030298552 0.05337197 0.017808031 0.040048175 -0.03427395 -0.08811888 0.1307201 -0.0583575 -0.08376528 -0.10921734 -0.096963875
다시 -0.06605509 0.04548247 -0.010084998 0.0360929 -0.08465505 0.050577167 -0.07185859 0.092679024 -0.043825705 0.058673352 -0.08821671 0.07380622 0.025538772 -0.22933076 -0.10686435 0.02950157
나오 -0.037486285 -0.06397179 0.0063915364 -0.0971237 0.074932404 -0.050904512 -0.006445818 0.120775074 -0.04185348 0.056643013 0.039250508 -0.015149602 0.062032506 0.04902776 -0.044814795 0.069454856
작품 -0.024164118 0.012396587 0.04196841 -0.028005129 0.018255226 0.04938169 -0.04749282 -0.1188271 -0.031716134 0.10783801 -0.07188952 -0.078095205 0.00089881965 0.05020574 0.04898682 -0.10446591
이거 -0.026610216 -0.1283017 0.023717977 0.08466537 0.053012386 0.019106768 0.0137730865 0.03504304 -0.059527274 -0.057402965 -0.032836527 0.08381206 -0.03989139 -0.0642163 -0.03172425 -0.012123999
하나 -0.10672912 -0.0033052708 0.04207096 0.027971799 -0.12873782 0.05370001 0.0031937081 0.0074141417 0.11412008 0.06778575 0.01878212 -0.08221346 0.21589188 -0.080333926 0.018003507 -0.05355531
줄 0.013310354 0.17950921 0.0705197 -0.03525668 0.13381936 0.008319298 0.08368715 -0.02537977 -0.014977031 -0.044181634 0.03959653 0.16998722 0.14481878 -0.00089961756 0.13370053 -0.029083246
해서 -0.0025283794 0.035213213 -0.023721348 0.0497536 0.0038307582 0.06599161 -0.02096008 0.0145833595 0.14006327 0.0283181 0.05068708 0.0652066 -0.013852531 -0.090406366 0.054205332 0.036524165
개 0.17288667 -0.064806916 0.10183945 0.089901015 0.017625846 -0.10371686 -0.091633 -0.058421828 0.05659756 0.10110327 0.17485338 0.15396218 0.02524637 -0.09359837 -0.0657358 -0.019486653
정도 0.10677605 -0.03437102 0.011237665 -0.06587533 0.09116544 -0.060083464 0.09128573 -0.11827449 -0.016263071 0.09515982 0.13438618 -0.04897603 -0.02371161 0.06205749 0.0174956 0.019961832
남 -0.084479116 -0.049302753 0.03126338 -0.08705379 -0.14211462 0.10615471 0.0017524209 0.003367858 0.052166153 -0.057736177 -0.02794755 0.04619973 0.012944351 0.009193782 0.037159562 0.013556079
마지막 0.018151164 -0.078297004 -0.064354055 -0.03777362 0.09033551 -0.066946924 -0.01997546 0.037147045 0.00083233905 0.12863173 -0.12265514 -0.056943312 -0.11835424 -0.042911876 0.050418206 -0.14061113
끝 -0.07934385 -0.03215896 0.051588196 -0.049424708 0.3130295 -0.032034546 0.026670119 -0.11867077 0.029995212 0.023153707 -0.028987756 -0.009836692 0.045814756 -0.043680433 -0.018163027 -0.015128093
액션 0.09123616 0.08906144 -0.041580454 -0.05163235 0.08299457 0.0058583887 -0.014519794 0.0041409954 -0.02978126 0.06459037 0.027360823 -0.03479562 0.04320523 0.0710722 0.106113575 -0.030949166
이건 0.09271933 0.15183325 0.029103933 -0.16269287 -0.046349607 0.01950086 -0.037381407 -0.0021955594 -0.08800869 -0.07664289 0.0345636 -0.041352063 0.051855512 -0.13231187 0.17217451 0.16171385
임 -0.026167007 -0.09899563 0.004017343 0.10357415 -0.049110588 0.22420487 -0.007753661 0.013017084 -0.13013555 -0.114530325 -0.01993768 -0.061918873 -0.024951283 -0.031153873 0.033598553 -0.03433061
건 -0.014194173 0.050446566 0.08412647 -0.040842 0.0020027338 -0.050950848 0.08268678 -0.012860047 0.0885742 0.001974449 0.015581145 -0.0809332 -0.08537358 0.013184086 0.02701835 0.054674838
ㅋ -0.011856675 -0.05697936 -0.04703589 0.07641721 0.00044304656 -0.09534817 0.01523255 0.010058149 0.032095686 -0.14918385 -0.054301176 -0.07009743 -0.15633789 0.057231233 -0.08868823 -0.09326813
3 0.013812366 0.064068995 -0.03707642 -0.05926514 0.054949593 -0.081500545 -0.05271323 -0.05462594 0.046118494 0.032210223 0.009432496 -0.09229461 -0.0128581915 -0.05909211 -0.17146075 0.118580304
기대 -0.045980234 0.14736262 -0.097663045 -0.11584005 0.10241665 -0.005494284 -0.05486655 0.16330802 -0.07817444 -0.028735645 0.10984794 0.18540105 0.15808429 -0.1099239 0.014940129 0.12384444
입니다 -0.08000422 -0.07441659 0.21735375 0.10743831 -0.004375002 0.029521566 -0.07898779 -0.085872345 0.021191603 -0.042910714 0.10572744 -0.12583797 0.006296712 -0.026262723 0.09591424 -0.15964465
라는 0.014053511 0.13226809 0.09444737 0.034031797 0.07285914 -0.051388588 0.038049366 0.02385782 0.025338095 0.05414388 0.03253029 0.09184439 0.0031072758 0.003180067 -0.01050669 -0.11057964
분 0.035872635 -0.06385605 0.033516232 0.022517346 0.03582526 -0.10913708 0.13255505 -0.034842037 -0.030182866 -0.0031656362 0.0058470652 -0.02641043 0.096485324 -0.055106398 -0.061485395 0.11299466
완전 0.08241667 0.107568644 0.036041263 -0.06928768 -0.1146944 0.103857554 0.00985652 0.039194796 -0.026940232 0.04688815 0.052116342 0.06090341 -0.054717567 0.048570782 -0.07330353 0.119739614
다는 -0.045468915 0.014886914 0.007746043 0.022895567 0.27685735 0.040489364 0.0392684 0.04386766 0.03265607 0.045259815 0.037441608 0.113136806 0.10580025 0.033924233 0.07493097 0.12019861
참 0.042073287 -0.038457256 -0.008933843 -0.015383022 -0.06251015 -0.10879845 0.08796067 0.1012773 0.011474859 -0.15375361 0.037228692 0.006070171 0.058469057 0.006787675 -0.087139286 -0.0059879995
많 0.05020412 -0.20388226 -0.017406914 0.039951112 0.043800417 0.056932334 0.08644093 0.13247018 -0.10584997 0.07341186 -0.07813446 0.08589262 0.1712754 -0.07616644 -0.11751155 0.11391017
처음 -0.033588365 -0.05857892 0.1362568 -0.015654363 0.13662593 -0.08172658 -0.054186817 0.106707945 -0.06745827 -0.15559727 -0.05202257 -0.1234095 -0.019467397 0.027327964 0.08294835 -0.059883304
장면 0.04632803 -0.057077527 0.021228151 -0.006702713 0.04743973 -0.01804047 -0.053939037 -0.04190461 0.001557732 0.009408919 0.09757752 0.12572205 0.04322268 0.030082962 0.06272894 0.052958157
대 -0.054747883 0.10417644 -0.040521033 0.09556824 0.07941672 -0.02432668 -0.0052856198 -0.15773925 -0.02828318 0.1588449 0.0391596 0.06843997 -0.01740845 0.05781098 -0.049247447 -0.030354628
아깝 0.09872055 0.057025008 0.14748295 0.08355086 -0.09063594 -0.11440162 0.14466839 -0.12785047 0.10846085 -0.14005762 0.060262755 0.017280411 0.0053201076 -0.014532626 -0.20619448 -0.04665997
다가 0.01920991 0.03466662 -0.020773726 -0.07370998 -0.005472001 -0.08754516 -0.05779564 0.02926338 -0.027575921 -0.077749394 0.1331281 0.043287642 0.056652352 -0.08615684 -0.10953431 0.103233665
으면 -0.047503233 -0.017604697 -0.010488848 -0.00019469736 0.16263346 -0.077799775 0.061099004 0.09194958 0.054592483 -0.02376372 -0.009306079 0.09974786 0.15474525 0.09637679 0.08933762 0.017507631
지금 0.02011982 0.040148385 -0.01297269 0.02792839 0.0036002027 0.012076082 -0.012766874 0.061824694 -0.0854495 0.003321269 -0.040018983 0.16301365 0.07377497 0.020849325 -0.12440749 -0.119540565
모르 -0.11219685 -0.09733758 -0.07532811 0.098243 0.06276019 0.060700964 0.0685527 0.16474368 -0.074151106 0.05903435 0.06950681 -0.20282665 0.07727219 0.09729731 0.021267314 0.15338312
이렇게 0.03399582 0.0095319785 -0.033428386 -0.03304346 -0.0014669603 0.08554728 0.051929418 -0.038297553 -0.053747475 0.06123375 0.11463787 0.08771916 0.117790155 -0.0683066 0.016756173 -6.8876965e-05
' 0.07508634 0.025750713 0.035735823 0.08731782 0.008101786 -0.014800855 -0.0029251967 -0.06256855 0.01487754 0.05947469 -0.040525995 -0.054843467 -0.018880153 0.020614473 0.16703235 0.019903516
편 0.033302046 0.009008101 -0.0015746044 0.10579122 0.12913692 0.12277163 -0.028911127 -0.009553478 -0.05582059 -0.008790258 -0.015817778 -0.012730589 0.06955471 0.0623315 0.0564258 0.022873497
일 -0.0053607654 0.04310091 0.016173832 0.12004274 0.02386214 -0.08896073 0.17384754 -0.08269535 0.07245958 0.021453414 -0.07263157 0.14633541 0.118270524 0.013068837 -0.1358935 -0.036940794
성 0.07903744 0.083600245 0.038424004 0.07499261 0.0061227204 -0.03499986 -0.104781516 -0.09041649 -0.009163962 -0.044688325 -0.0138351945 0.013652881 -0.07095153 -0.027734855 0.002874653 0.0024553766
돈 -0.04707231 -0.10782732 0.079458535 -0.03908007 -0.029423453 -0.11712589 0.12070987 -0.04881425 0.060724054 -0.14135772 0.08276209 -0.26320678 -0.00059593865 -0.06026699 0.0072217127 0.09591707
이게 0.14835986 -0.088509195 0.18312858 -0.025715802 0.12178446 -0.063219026 0.06575539 0.11251642 0.042072244 0.042597983 -0.04986656 0.060695656 0.06907426 -0.04110867 0.033908423 0.015319872
느낌 0.12054782 0.03763965 0.014043065 -0.04986981 0.03826823 0.043606155 0.09171512 -0.057102136 -0.025698673 -0.043591913 -0.024197994 0.06050559 0.017624067 -0.0135052 0.0020096942 0.03247687
시 -0.024128178 0.10134659 -0.02419425 0.005235867 0.09913294 -0.14277948 -0.027379537 0.13095549 0.07978075 0.018344957 -0.054025453 0.07431925 0.020638172 0.032023106 0.025903966 0.03026354
이야기 0.033393808 0.025278054 -0.104460925 0.0761111 0.062047847 -0.007850475 0.06047489 0.0042242086 0.0017750462 0.0617985 -0.04148188 -0.071347676 0.062051427 0.09101903 -0.04840352 -0.05071356
최악 0.04970358 -0.1739907 0.20599215 -0.27435088 -0.19810066 -0.21022077 -0.10575968 -0.094878845 0.066425234 -0.24976113 0.20757067 -0.17807382 0.19453494 -0.11546608 0.008947172 0.22105545
된 -0.032302704 0.009439498 0.015395141 -0.010022911 -0.07321828 -0.060601294 0.01813105 -0.08756582 -0.013007971 -0.15025958 -0.10616742 0.03753223 -0.060081992 -0.04741016 0.06640405 -0.1921933
봐도 -0.027087267 -0.05933716 -0.16307044 -0.018660184 -0.008177223 0.18143104 -0.158585 -0.06632055 -0.0575199 0.009216966 -0.057619587 -0.06884926 -0.19322176 0.034569334 0.1528543 0.007176946
님 -0.098257594 0.09213447 0.0002778811 0.05556679 0.047668457 0.03772549 -0.040234573 -0.022180073 -0.059424993 0.027817074 0.02012897 0.016768891 -0.0011828238 -0.006424859 0.12595063 -0.09894864
어서 0.09598271 -0.04429246 -0.036452077 0.021264153 -0.003593103 -0.027824903 -0.01080838 -0.029401442 0.0087758945 -0.10123518 0.13634421 -0.0043641482 -0.00586042 -0.023301944 0.03199206 -0.00092388346
애 0.01653464 -0.023911249 0.08252023 0.044598963 0.049361274 0.03943554 0.045813948 -0.020509109 0.11080021 -0.053112473 0.06741311 -0.037820205 -0.03641398 0.05231895 -0.14455098 0.015570142
전 0.0891694 0.15152411 -0.012153769 -0.004829446 -0.076020315 -0.010336461 -0.009454218 0.0027083363 -0.0076105557 0.009762081 -0.027900191 -0.030787788 0.010644591 -0.054175038 0.14126095 -0.055737045
넘 0.102507815 -0.03390961 -0.08868312 -0.10459187 -0.08884069 0.08265016 -0.045902766 0.028526425 -0.027727328 0.11415652 -0.071160756 0.08258205 0.09990403 -0.13756733 0.02114683 0.053750563
ㅠㅠ -0.03829584 -0.029751051 -0.090994745 0.070126906 -0.11243137 0.039366998 0.011646294 -0.07162951 -0.06101956 0.018203046 0.010416725 -0.15642887 0.07192138 0.14662813 0.019549461 -0.038128328
다고 -0.075832 0.20982075 0.03685461 -0.10753106 0.48046845 0.042309575 0.19637215 0.046549313 0.0028450575 0.031956576 -0.15419933 0.16527356 0.064275034 0.056779046 -0.0091360435 0.07172938
인데 -0.09481869 0.10621502 0.028996123 -0.020138418 0.093522385 -0.093436085 0.083232746 0.0061844634 -0.07825715 -0.032617908 -0.060786057 -0.0055026463 0.109435044 0.048790526 -0.028324915 -0.0666538
그리고 -0.07824158 0.122288994 0.04820922 -0.0750947 0.10970893 0.050367996 -0.07916274 -0.09652262 -0.063294515 0.05937858 0.07392748 0.115012676 -0.0071560275 0.07246549 -0.032777283 -0.04109704
명작 0.02223317 0.08388029 -0.11993725 0.07906079 0.01673505 0.09186133 -0.079483524 -0.09493291 -0.10978322 0.117041446 -0.057138167 -0.08571607 -0.11769555 0.08722006 0.12905416 -0.16856338
여자 -0.11097282 -0.087206006 -0.010759993 -0.015151066 0.17428023 -0.12815423 -0.0027326855 0.097724766 0.084019125 -0.12832488 0.06221125 0.036966104 0.0638099 0.02880186 0.049159717 0.067494415
이해 -0.04336151 0.025970839 0.023697274 -0.053211294 -0.019936435 -0.06270085 -0.016905673 -0.03174077 0.05347105 0.08264267 -0.03923802 0.13687691 0.03194522 0.041594908 -0.07479718 0.009301902
^^ -0.143947 0.051687144 -0.011568588 -0.11039033 -0.023986729 0.17136033 0.060229123 -0.06358586 0.020290045 0.058624495 -0.15382935 -0.07754155 -0.14242564 -0.13707656 0.021202847 -0.086343564
난 0.082415625 0.05048611 -0.06794844 -0.01662334 -0.08828028 0.09996973 0.023331182 -0.04770869 -0.08747733 0.08977295 0.054917164 0.10265193 -0.017967798 -0.01810734 0.009661794 0.017737307
역시 0.0014834398 0.055753585 -0.076211914 0.016270407 0.08652542 0.08988143 0.027201908 0.14118987 -0.020329095 0.12943006 -0.11279039 0.14340395 -0.055377837 0.0032649613 0.04355276 0.018875754
또 -0.052437074 0.007887676 0.06534145 0.1310344 0.04286325 0.01964717 -0.05497817 -0.026746877 -0.0014411182 0.016265584 -0.02027205 0.17326027 -0.087714374 -0.0787614 -0.046150442 -0.037004683
걸 -0.007976573 -0.05392301 0.005782999 0.038581282 0.024289474 -0.023769546 -0.10875207 -0.07789966 0.06435388 -0.011162325 0.04455901 0.041109186 -0.07092857 -0.012391461 -0.037421953 0.012634972
한국 -0.046075277 0.03492523 0.0001532275 0.071665734 0.047137786 -0.057292156 0.085475616 -0.04910372 -0.06566541 -0.100718126 -0.10680136 0.09171131 0.019232163 0.081637904 -0.07778916 -0.08755293
이상 0.13681015 -0.10384381 -0.11365665 0.022114893 0.00015374777 -0.04595199 -0.0062529603 0.13640651 -0.06572293 -0.1274991 0.014209601 0.030369215 0.059509426 -0.012215459 0.043087248 0.051096383
부터 0.068505615 0.02111329 -0.029555762 -0.115600035 -0.01169517 -0.086925924 0.0840028 0.01503341 0.008851467 0.05684796 -0.08744522 0.13157165 0.15772612 -0.025487628 0.0084692575 0.12107233
는지 -0.006387588 0.004760536 0.019973174 -0.03566113 0.1761826 -0.02443259 0.0832321 -0.0012321523 0.095291756 -0.118860066 -0.102155074 0.038221635 0.033997227 -0.041932464 0.14072546 0.0018836572
많이 0.0055093346 -0.08279955 -0.055617373 0.013320488 -0.041296788 -0.05350363 -0.04817174 -0.016911253 -0.007913096 0.008103369 0.026378937 -0.036013484 0.13962233 0.09635768 -0.00838744 0.035474617
에게 0.0034080015 -0.20005232 -0.0036020228 -0.008671812 0.06290835 -0.07938855 0.007841841 0.08820872 -0.08542376 -0.09988521 -0.057657376 0.034455672 0.11000974 0.108076766 -0.00829482 -0.014717254
주인공 0.15424836 -0.09012844 0.067836516 0.0054410077 0.013187067 -0.05187595 -0.056383803 0.024235599 0.08693556 -0.030630141 0.12169046 0.049328484 -0.032915395 -0.072790496 -0.023874933 -0.04139463
별로 0.09510965 -0.034255985 0.10168015 -0.09473334 0.043739993 -0.14991662 0.16682382 -0.18268414 0.16215986 -0.087010995 0.117308766 -0.15678075 0.013727338 -0.13888456 -0.06071227 0.016863361
받 -0.08934634 0.14360557 0.05566649 0.0380899 0.13013111 -0.08776495 -0.058756858 -0.035974063 0.052442316 -0.028218254 0.09698046 -0.022436673 -0.04090116 -0.0049871085 0.09375326 -0.09144611
합니다 0.118297234 0.03363033 -0.026616553 0.0942656 -0.104648314 -0.022155156 -0.019431142 0.109835304 -0.016851006 0.03837508 -0.053359713 -0.072597355 0.07024313 -0.04730779 0.06941338 -0.012916285
두 -0.08610606 -0.010963795 -0.06784979 -0.007684608 0.023103107 -0.056470733 0.12008192 -0.048774563 0.008153939 0.08719661 0.14859895 -0.09103518 0.10263484 -0.015189631 0.07211499 -0.09431342
우리 -0.036874224 0.13435037 -0.05210806 0.07038012 0.03505427 0.024199765 0.01326525 -0.062860146 -0.034045223 0.12188372 -0.12999868 -0.06621381 0.016974315 0.1398321 0.08578718 -0.11535891
만든 0.16807392 0.02714256 -0.06803762 0.07962491 -0.09490169 0.08022277 0.02148563 0.040040344 -0.042114288 0.09212892 0.013586499 -0.012172214 0.014722544 -0.015087794 0.13418368 -0.08813269
살 -0.044734627 0.07140269 -0.057334736 -0.12102826 0.19139536 0.029974608 0.13642696 0.05196379 -0.03407673 -0.06074632 0.0043463744 -0.023877358 0.0059395907 0.08062567 -0.058978237 -0.14684407
!! 0.0544652 0.05925551 0.101498514 0.063363254 -0.13925275 -0.09790958 0.02625464 -0.008604101 -0.08091054 -0.020155579 0.06188988 0.09290864 0.07512512 -0.03390529 0.019897074 -0.027800204
길 -0.087311976 -0.24475726 0.05193393 0.1428547 -0.018407227 -0.02322665 0.10526897 0.09579388 0.005459361 -0.0825943 0.013764757 -0.051162798 -0.014919064 -0.01531523 -0.16065414 0.033503387
엔 0.08900792 0.021258226 0.035119217 0.014698381 0.1921691 -0.032748144 0.03009441 0.09038793 0.11156631 0.12501484 0.053048834 -0.019465089 0.017815972 0.015904345 0.013641286 0.023117248
괜찮 -0.0532672 0.14654243 0.011274781 -0.04465606 -0.039203472 0.0914229 -0.027513519 -0.017403372 -0.072256275 0.13468024 -0.19600704 0.0132371085 -0.09269915 0.085403726 0.015562071 -0.013165165
기억 0.03189097 -0.011417038 -0.029673442 0.0145501075 0.06469324 0.13427591 0.047670916 0.023433555 -0.117288984 0.00063338934 -0.096331276 0.070415534 -0.06494073 0.069743365 -0.06395069 -0.09233411
연출 -0.011399817 0.027793221 -0.012933413 -0.017667579 -0.08618274 0.033909272 0.01314671 0.06380926 0.0034730418 -0.1746142 0.036710683 0.052293777 0.040556528 -0.08168788 0.026310993 0.062274385
한다 -0.019355355 -0.0107155675 -0.01511621 -0.02438044 0.04624379 0.07530368 -0.042520422 -0.024951132 -0.045761615 0.115533814 0.03911124 0.043360204 0.050683677 0.070257515 -0.05176594 -0.04237936
때문 -0.11392856 0.032611445 0.16833273 -0.003766745 -0.032085143 -0.0017049196 -0.045205146 0.017905965 0.032515883 0.029244764 -0.048377834 0.13525897 -0.060781952 -0.07480765 -0.005787909 0.065107614
ㅎㅎ -0.14833358 0.15294516 0.05119791 0.029107906 0.051647097 -0.006180438 0.0118187275 -0.110296555 0.045953937 0.066687934 -0.051105365 -0.14452834 -0.1326003 -0.08426005 0.03244795 -0.12404205
이나 0.01224912 0.02443787 0.0056761485 -0.10418434 0.09721894 -0.09404495 0.06719443 -0.13923807 0.1258771 -0.030930812 -0.0040498716 0.030845556 0.04984679 -0.13698971 0.035259526 0.07308047
요 -0.023294887 0.022523956 0.14391294 0.10275953 -0.06911486 -0.052797563 -0.07215762 -0.1533113 0.10012498 0.06297674 -0.21744251 -0.12946245 -0.08727886 -0.041597348 -0.005493504 -0.004781021
저 0.019710204 0.023921534 -0.14608586 -0.07393573 -0.16776477 0.07153207 -0.100747 0.048018195 0.061588112 0.025926394 -0.0016798788 -0.034723006 -0.019025551 0.009918672 -0.030199178 0.02667471
재 0.010727865 0.110341705 -0.043515645 -0.028609179 0.016860867 0.052556526 -0.08872922 0.02392001 -0.026617069 0.11389584 0.16647895 0.022960924 -0.071130306 0.017869936 -0.13016303 -0.099139825
꼭 -0.015084457 0.11977069 0.066380784 -0.045549203 -0.07717663 0.1714308 -0.12351628 0.09119783 -0.033915333 0.13427821 0.08078247 0.076656155 0.08369769 -0.12735885 -0.06412976 -0.041849278
며 -0.081214055 0.05231353 -0.099698335 0.08735476 -0.029536549 0.03171298 -0.08771319 0.07667079 -0.0163967 0.066735454 0.010890794 -0.033628773 0.13495609 0.06310638 -0.034121376 -0.017630825
현실 0.016298544 0.023237085 -0.09190444 -0.0011932875 -0.05559273 0.071597196 0.03417235 -0.14028016 -0.050236773 0.16970128 -0.04643238 -0.03878587 -0.12148529 0.11386278 0.014322532 -0.16618596
랑 -0.14594992 0.06320342 -0.040563278 -0.070055455 0.15986533 0.054626647 0.056631085 0.00837275 0.025801146 -0.120470226 0.017720096 0.039139006 0.08593227 0.071243875 -0.09234324 0.07025244
긴 -0.12831889 0.19682243 0.039055634 -0.061832804 0.019146988 -0.14700541 0.16341498 0.036141884 0.016968474 -0.015692858 0.036968157 0.043818194 0.14127843 -0.09130871 -0.10179479 0.015957847
ㅡㅡ -0.014907734 -0.18189383 0.11766297 -0.10657187 0.06930308 9.053175e-05 -0.031077318 -0.07096762 0.06613331 -0.11424186 -0.030900065 0.009549431 -0.12495037 -0.0034952834 -0.010815613 0.14087175
무슨 0.09317308 0.07986647 0.11914496 -0.23145504 0.055856414 -0.061710108 0.15966848 -0.1483976 0.09478066 -0.20241396 0.10756275 0.03742149 -0.088599615 -0.048804037 0.03221301 0.16310538
내내 0.024673508 0.10307357 -0.051316384 -0.059295315 -0.0025418426 0.09225831 0.05728712 0.123245254 -0.05395253 0.073508434 0.07594405 0.1031913 0.09430877 -0.013467344 0.06691123 -0.06650483
결말 0.044245154 0.0139646735 0.016947063 0.12640473 0.068917245 -0.10936838 0.21255644 0.14191234 -0.021360515 -0.0032401904 0.038354132 0.06742033 0.011389486 0.075263895 -0.042014074 0.01497008
죽 -0.04576383 0.006009994 0.07749429 0.13388517 0.011380632 -0.006678804 0.019867387 0.09013125 0.098001234 -0.16220206 0.005078303 -0.087543204 -0.028858667 0.012560093 -0.11318914 0.04224473
세요 -0.021844065 -0.054991115 0.032065064 0.008150491 0.018033573 0.049514685 0.08189608 0.06091599 -0.03806482 0.08870758 0.02627648 -0.014462185 0.032821562 0.113384046 -0.032572843 -0.03591506
남자 0.034333423 0.048403658 0.020030228 0.019914344 0.15794148 0.03719703 -0.013540885 -0.04358074 0.05339808 0.069713056 -0.01924423 0.069585435 -0.034345794 -0.04674419 -0.12639445 -0.080371514
전개 -0.060542997 -0.039832983 -0.00615499 -0.05013342 -0.048359554 -0.17799644 0.08215725 -0.003964313 0.074873656 -0.0793921 0.032435644 0.07085528 0.0476312 0.036041643 -0.11750325 0.12387281
마음 0.12365612 0.18068607 -0.037749447 0.005392721 -0.033869214 0.03451868 -0.043970462 -0.10751293 -0.06345645 0.13799873 -0.024193967 0.021313652 -0.058028992 -0.04721374 0.083803505 -0.028517323
별 0.11328377 -0.02688264 0.05983788 0.065374516 -0.17093149 0.05105261 0.20852602 0.10237301 0.039557785 -0.044025857 0.055291556 0.015800957 0.09800126 -0.1253195 -0.12956965 -0.03064846
소재 -0.055543866 -0.0078169545 0.089390926 -0.009693819 0.23321688 -0.0818935 0.05191877 -0.25238377 0.038964793 -0.033164546 0.026397817 -0.03596292 0.16737656 -0.13504168 0.117429465 0.01131195
속 0.004489162 -0.16543634 -0.0029651732 -0.007738662 0.039317638 -0.08845403 -0.061398756 -0.03343708 0.0006196013 0.11150621 0.019839419 0.06342845 -0.06595449 -0.012600914 -0.04818023 0.02470638
공포 -0.025206922 0.00020019582 0.060835984 -0.053205136 0.038112074 -0.0060441 -0.029220974 0.04483109 -0.000791506 -0.017735692 -0.0027192724 0.0013634759 0.046919454 -0.0966078 0.01790295 0.047912136
다른 0.0045282077 0.029572595 0.017725043 0.13547881 0.19489111 -0.004261665 0.043558314 -0.001790204 -0.06398779 0.005011559 0.0109232245 -0.049217064 -0.06355448 -0.019547949 0.011917838 -0.11503294
아서 0.036365364 -0.13180669 -0.02582523 -0.059171617 0.061914492 0.0750374 0.009529102 0.086002745 0.072611324 0.025170768 0.0113775 -0.029657641 0.21055484 0.008285781 0.12145922 -0.07873634
씨 -0.010148757 -0.046759035 0.011875337 0.084071174 0.05708942 -0.08262585 -0.024958726 0.0045120316 0.041348554 0.01818989 -0.011734446 0.0673076 -0.025517933 -0.025443152 0.024832167 0.03223197
인생 -0.09790819 0.13622874 -0.038954984 0.12305885 0.15460166 -0.0017182506 0.063675106 -0.09403552 -0.05282768 0.12547685 -0.018100083 0.060058985 -0.103358984 -0.030411704 0.06500837 0.051345076
~~ -0.047695138 -0.1289788 -0.03667744 -0.010510359 -0.05184168 0.13811809 0.048164807 0.03462241 0.038242508 -0.13086121 -0.10280758 -0.0872177 -0.022402497 0.08679581 -0.020810561 -0.010558752
짜증 0.09451554 -0.08621546 0.16166055 -0.1658217 0.03966484 -0.04993818 -0.110007666 0.0014416955 0.06498764 -0.14650436 -0.010250042 -0.117237665 0.06465689 -0.18677662 -0.026496762 0.14820203
짱 0.0091400575 -0.0044032084 0.03323605 0.16390371 -0.0024018441 0.036024056 -0.13849781 -0.004589644 -0.0902829 0.1288383 -0.070404395 0.05732998 -0.012137497 0.076817974 -0.008650865 -0.11319254
뿐 0.068323 0.03131909 0.05263829 -0.077894434 0.013782571 -0.042677782 0.012196024 0.06854626 0.103868835 -0.027123794 0.08860843 0.009076023 -0.026644632 -0.06787469 0.0070576235 0.08897346
은데 0.04834 -0.038002018 0.012105041 -0.059259903 -0.08726039 -0.029112458 -0.08540198 -0.053365346 0.037706953 0.04834712 -0.013816235 0.113624945 -0.058829546 -0.0038699415 0.10822952 -0.03287815
아요 0.041387267 -0.08564117 -0.16821517 0.13968559 -0.019329596 0.13354027 0.01663899 -0.028259292 -0.039983176 0.0673973 0.07478809 -0.020538183 -0.07642833 0.07484482 0.0515535 -0.11077449
유치 0.09872515 0.00041035254 0.1294473 -0.11177978 0.054675065 -0.10252152 0.23495637 -0.13949344 0.03742773 -0.1158103 0.10713282 -0.05660781 -0.033967 -0.06401451 -0.10712815 0.13586684
필요 -0.12873876 0.06423607 -0.015274392 0.045487914 0.07248234 -0.03760961 -0.047947846 0.10781338 -0.12788342 -0.026360676 0.0057456885 -0.046115927 -0.0907797 0.066170104 0.04821435 -0.131925
가장 0.13640895 -0.004087382 -0.12532379 -0.13669255 -0.09730446 0.025427997 0.084535524 -0.029335111 -0.01844788 -0.019454677 0.050244372 -0.07821342 0.012089463 0.06773838 0.030064154 -0.073513985
음악 -0.18345255 0.04310618 -0.030592477 -0.052597012 0.032374535 -0.04131794 0.07885811 -0.028906582 -0.05307073 0.023670482 -0.08041546 -0.091321915 -0.071169995 -0.014219234 0.13699543 -0.046877585
) -0.13887322 0.11151988 -0.07581296 0.07956004 0.11324247 0.012265101 0.048454855 -0.017727034 0.0036510145 0.055698533 -0.079925984 -0.055184267 -0.0022591227 -0.046201963 0.09874324 -0.09752089
일본 -0.048824884 -0.037754584 -0.04732205 0.10136551 0.23020774 0.0657679 0.12823834 -0.039384235 0.046030212 -0.024145227 0.00040549066 -0.03784388 0.10116468 -0.045620214 -0.040731076 0.055658404
낮 -0.12956184 0.036303017 -0.043847855 0.06854947 0.04386748 0.019330585 -0.12372175 -0.13855729 0.064814344 -0.019020315 -0.12157252 -0.3574703 -0.028118536 -0.09931126 0.1137411 0.027974257
오 0.0361857 -0.0065971334 -0.040637605 -0.05352008 -0.06058501 0.011310043 0.05854056 0.101546675 0.044621285 0.026683543 0.052117527 0.014760102 0.05513241 0.11614308 0.029381411 -0.0070569944
;; 0.06556883 -0.000839922 0.039680813 -0.03796229 -0.019251084 0.028233632 0.036699634 -0.027564805 0.15360245 -0.015189759 -0.035412267 -0.053719345 0.11026287 0.058021504 0.057058807 0.0283726
아이 -0.11495578 -0.09083406 -0.035955716 0.014085932 0.037912898 0.014173535 -0.114061266 -0.020248974 0.041182302 0.10329623 0.13794087 -0.028146079 0.08329308 -0.029830664 -0.010401389 -0.048113402
반전 0.03557453 0.16495077 -0.054177612 0.11601597 0.024675082 0.02661722 0.03150707 -0.079850115 -0.058387402 0.08200146 -0.08388219 0.07119677 0.0046776407 0.05760961 0.061917737 -0.09736826
데 -0.044197585 0.10668237 -0.048236992 -0.0043592784 -0.03358362 0.05643187 0.052464414 0.042675544 0.0011429909 -0.07846157 0.07394426 0.045860603 0.059654195 0.0066334833 -0.055857074 -0.024046466
수준 0.024604835 -0.098406784 0.10981437 -0.08978496 0.18528537 0.00835485 -0.04530845 0.028584149 0.13145505 -0.11873407 0.07127002 -0.11692619 0.052122157 -0.048875887 0.15360476 0.046803597
다니 -0.08173703 -0.004708321 0.053309854 0.060316205 0.12553477 -0.0013677741 0.047390617 0.09496103 0.04465418 0.0059805578 -0.10427838 0.012058977 0.093522966 -0.024559956 -0.029229257 0.008544308
웃 -0.17013785 0.09361224 -0.0077895676 -0.00014173452 -0.09192259 0.0093412455 -0.013750008 0.10722897 0.05089088 -0.012881513 0.022179015 0.0324351 0.049646158 -0.028530102 -0.027649205 -0.052859854
매력 -0.061808087 0.12401643 -0.0973865 0.01052877 -0.15464382 -0.030881178 -0.06550095 0.025052281 -0.07642919 0.1326545 -0.043376736 0.105826065 0.0056806686 -0.012773276 -0.06604756 0.0039932323
맞 -0.011714482 -0.13257407 0.05222628 -0.080619484 0.12318961 0.04740047 -0.0677755 0.16381772 -0.08144012 -0.02235808 0.06301213 -0.14617728 0.0134125715 0.0061929724 0.103532 0.18518263
인지 0.08077653 0.06836973 0.100099765 0.012952307 0.029965773 -0.06530368 -0.016497117 0.011086207 0.12177911 -0.20357342 0.12212367 -0.09551635 -0.018840525 -0.040746137 -0.0047356496 -0.032983247
가슴 0.11240331 0.040362842 -0.016659422 0.1532765 0.096785426 0.06743589 -0.05401287 0.03471461 -0.098565064 0.07205296 0.01847912 0.05247469 -0.094343804 0.14401744 0.00230098 -0.11761766
없이 0.023329632 0.03019992 -0.06452929 -0.11472111 0.13994886 -0.10135937 0.21055175 0.014318493 0.0023831453 0.1039388 0.10683924 0.031842068 0.079309136 -0.024693428 -0.12894954 -0.04763505
원작 -0.15393123 -0.13544382 0.1051772 -0.002164781 0.15399256 -0.09021608 0.03612965 -0.053908285 0.08262697 -0.11192194 0.052772008 0.075060084 0.017412499 -0.059139352 -0.06683722 -0.05638375
ㄷ -0.00830715 -0.0020688607 -0.067518845 0.019423656 -0.0045358487 0.03449024 0.03205171 0.045899015 -0.027442468 0.05907926 -0.02799282 0.1126596 0.027525228 -0.08283837 -0.034700617 -0.0031490552
인간 0.07178369 0.16849825 -0.077172294 0.017747749 0.17809285 -0.015413661 0.08505774 0.063030794 -0.17960809 0.030693198 0.013878673 0.074464984 -0.057875134 0.01189903 -0.024444073 -0.110744536
굿 -0.06076249 0.1477221 -0.20832945 0.17899457 -0.06503858 -0.0032109306 -0.087758765 0.11350021 -0.056832023 0.11124499 -0.16450873 -0.04336493 -0.00881509 0.15501988 -0.020192578 -0.079950705
높 0.07489423 -0.095184 0.036678754 -0.06210667 -0.124444626 0.050996684 -0.02841114 0.021770991 -0.02682049 -0.100366876 0.20469572 0.08726561 -0.06609181 0.019872295 -0.18305191 0.19312046
ㅠ -0.12784843 -0.16957979 -0.044873387 0.049272195 0.053091988 0.040885627 0.0067050336 -0.123080775 -0.0074647036 0.030439138 -0.07931885 -0.023637675 -0.03855185 0.04695407 -0.003571014 -0.09259887
밋 -0.059211813 -0.015245729 0.073456906 -0.032851137 -0.047352456 0.073786415 -0.09089439 0.17349415 -0.028225325 0.08816212 -0.12368074 -0.02745476 0.06389149 -0.041027926 -0.19406424 0.0814865
( -0.014085915 -0.0120677 -0.026628416 0.046545196 0.075176835 -0.1050085 0.14053732 0.025364418 -0.033821754 -0.06408258 0.13845395 -0.0070331325 0.045965422 -0.04576205 0.20449384 0.06390551
급 0.018047364 0.027837323 -0.010727261 -0.06498633 -0.08338244 0.0037857494 0.034666944 0.007188618 0.085679516 -0.053688794 -0.07288218 -0.04832646 -0.0032596933 0.02628985 0.071666494 -0.1136961
만드 0.17544316 -0.09260799 -0.05343333 -0.018202083 -0.09534388 -0.03699022 0.069559276 0.09900975 -0.037273612 0.050642718 0.038483053 0.02777619 -0.13963014 -0.049049627 0.19566704 -0.013976991
눈물 0.1059708 0.14540266 -0.06210829 0.029330505 0.04539684 0.06434459 -0.102775134 -0.12251169 -0.0476431 0.15611291 -0.1079937 -0.10965062 -0.05866247 0.043665413 0.07998384 0.07849509
보여 -0.008824389 -0.02254178 0.008397986 -0.059472572 0.10122476 0.013767718 0.065086976 -0.054226074 0.1317714 0.14215288 -0.051523685 0.18561567 0.17273153 0.05223612 0.14809655 -0.0828394
준 -0.18144824 0.16326247 -0.01889658 -0.10742108 0.06773307 -0.009942579 0.0035110717 0.010252286 0.036395445 0.14924376 -0.019997451 0.004449771 0.09124962 -0.07338275 0.040851247 0.06346465
찍 0.061672114 0.03562851 0.14209913 -0.025122995 -0.11180871 0.044655662 -0.036983643 0.07375625 0.0495988 -0.09256534 0.17495367 -0.034427486 -0.025538463 -0.042868175 0.03539289 0.13117579
인가 0.062339704 -0.013147938 -0.03775696 -0.12643898 -0.017724298 0.041604005 -0.13464943 -0.05013436 0.05425433 -0.09833931 0.05935989 0.055027682 0.11503845 -0.04204988 -0.041956775 0.041006967
노 -0.023921536 -0.15855013 0.066224456 -0.13643318 0.034113586 -0.12662889 0.17418732 -0.19237755 0.24463715 -0.0029345062 0.082079805 -0.11809463 0.086420484 -0.023107996 -0.040604066 0.070864506
용 0.046182692 -0.106794335 -0.020691719 0.08382011 0.14012772 -0.057929385 -0.15206316 -0.040965326 0.11433428 -0.0884807 0.029961541 0.036809016 -0.087613106 -0.08783416 -0.13274476 -0.012595633
을까 0.032399822 0.060674217 -0.08120215 0.037654858 0.026328124 -0.07179004 0.06858867 0.0060867947 -0.023787364 -0.003776551 0.10453158 -0.07965988 0.15919977 0.042746454 0.10327744 -0.052684244
화 -0.011146436 -0.11189303 -0.07111054 0.0245816 -0.0003068252 0.0072874287 -0.07367697 0.0371734 0.07338505 -0.048665408 0.17507058 0.025765948 0.14470015 -0.024479892 0.037328158 0.092753746
코미디 0.009758797 0.025509724 -0.042991303 0.020290237 -0.07082191 0.07732894 -0.053063508 -0.04377931 0.09704145 -0.0639596 0.031412143 0.006001285 0.081098065 -0.05848867 -0.0027893707 -0.072713085
여 0.016197002 0.06484251 0.052016184 0.015097596 -0.070819825 0.043132998 -0.024447143 0.067994975 -0.11175433 -0.004734537 0.049132243 0.07250028 -0.04928995 -0.0076532713 0.12885252 -0.07020511
마 -0.009846751 -0.07430912 -0.0041469545 -0.06398438 0.05305952 0.095589966 0.018481493 -0.039437715 0.17988051 -0.052767526 0.0050382675 -0.04051702 0.028094403 -0.019521976 0.124695 0.060958963
쓰 -0.15460108 0.0032289105 0.013286017 -0.1424341 -0.08650059 -0.04906574 0.03404737 0.0010319764 0.00753558 0.0002112935 0.09355388 0.035453502 0.038066722 -0.19349176 -0.036785852 0.032538705
모든 0.04977729 0.016218495 -0.040936798 -0.088698424 -0.04753155 0.07897512 -0.082671694 -0.08926928 -0.06758648 0.094735555 -0.008907492 0.032920834 -0.029038837 0.17508654 0.032700818 0.053756416
신 -0.103599 0.0059065665 0.0071747284 0.026106302 0.07190555 0.08923588 -0.019809926 0.03661236 0.119052924 -0.009606089 -0.011661738 0.04775913 -0.091008276 -0.015299857 0.083214425 -0.027816694
5 -0.0846654 0.058682892 -0.009073775 0.02729453 -0.09474057 -0.09587265 -0.0419303 -0.039939526 0.1043539 0.07098109 -0.044657502 -0.13760804 -0.095332325 0.10796336 -0.0017373755 -0.04087514
아직 -0.10539521 0.118721016 -0.10738955 -0.068815105 0.1256476 0.13603844 -0.033871748 0.0786452 0.09428404 0.0016954081 0.16098192 0.15322927 -0.074305035 0.027455272 -0.10755615 -0.061348338
처럼 0.0060644066 0.055705152 -0.05309137 -0.033994377 0.041616075 0.019954022 0.029320467 0.068791024 0.010165456 0.07797681 0.07968785 0.039802864 -0.023252262 -0.09128209 -0.030503422 0.0020083026
눈 -0.14720874 -0.011214364 0.026195975 -0.14822353 -0.0005778873 -0.13252877 0.15026061 0.048908826 0.0011082669 -0.03242782 0.056918327 -0.018968195 0.024281846 -0.07716039 -0.024334436 -0.06678695
추천 -0.13514218 0.079982035 -0.09817299 0.07302225 0.0031986572 0.097663455 -0.14324266 -0.04512002 -0.034623574 0.11327427 -0.025914088 0.16690417 -0.040691867 0.21485591 0.09500021 -0.04335267
아닌 0.11013861 0.022258239 0.009660315 -0.09775787 0.04527258 -0.027017467 0.21850085 -0.12485321 0.12361476 -0.019528614 0.06384156 0.13627553 0.10712725 -0.0939506 -0.049002133 0.06673987
울 -0.029204406 0.18598029 0.021797335 0.13866651 -0.10486095 0.06595264 -0.09756107 -0.07108749 -0.13500766 0.07729339 -0.017242769 0.02671587 -0.041558053 -0.02767212 -0.17048073 -0.17201115
자체 0.0075791324 -0.009021169 -0.13527766 -0.09457772 -0.07602402 0.012869968 -0.040739283 -0.04934656 0.027178068 -0.042003162 0.027027162 -0.15196498 -0.039907254 0.016133163 0.07327459 0.0016355859
몰입 0.1502978 0.062118 -0.31418934 0.06025335 -0.111536704 0.1476548 0.023435593 0.12857756 -0.14681594 0.20432389 -0.090252735 -0.02576496 0.016754871 0.09089348 0.03307943 -0.22263062
4 0.0109920185 0.005588711 0.036381863 -0.11243114 0.06035147 0.039936297 0.030926388 0.0074531725 0.090944126 -0.022751432 -0.0006088892 -0.089609556 0.017514678 0.052052777 -0.050414365 0.08676901
대박 -0.15830317 0.022137607 -0.14276558 0.09953492 -0.036580753 0.039080705 -0.08857433 -0.07714395 -0.060754467 0.06318175 -0.15925115 -0.09562685 0.01547391 0.03761872 0.069137 -0.113945805
몇 -0.17080413 -0.15715244 -0.0969613 0.032297205 0.08641274 -0.012298279 0.009793985 0.041128848 -0.03473224 0.01843418 -0.053558603 -0.06856775 -0.06406828 0.12480008 0.036355622 -0.09335983
스럽 -0.14816725 -0.04576615 -0.049697325 0.045428876 -0.06997513 -0.007972193 -0.04452529 0.052022792 -0.06871473 0.11943188 0.09588081 0.051626254 0.05816135 0.015193198 -0.08588369 0.013875677
실망 0.10549018 -0.05693586 0.1869522 -0.029278982 -0.078279346 -0.067319654 0.20995632 -0.17343704 0.22150445 -0.17249131 0.062517844 -0.008294139 0.21423718 -0.20060663 -0.14088999 0.10887942
는다 -0.034823634 -0.19104274 -0.015275921 0.07187255 0.12534462 0.011361537 -0.09103102 0.048481096 0.114450395 0.062154815 -0.08064706 0.13980173 -0.07121799 0.11124667 -0.0434949 0.098928876
대한 0.042301457 0.11808323 0.030649915 -0.0016844425 -0.12146364 0.08191534 -0.10868062 0.11015516 -0.03166873 0.05079068 -0.047539975 0.014990629 -0.037162915 -0.07316117 -0.10556516 -0.05395747
죠 -0.01678962 0.013598464 0.025872719 0.03208847 0.014912067 0.07378421 0.055468585 -0.12597312 -0.12543653 0.04452383 -0.099295825 0.04166783 0.0308885 0.0451463 0.1082098 -0.015652752
란 -0.13945319 -0.034652278 -0.10744034 0.05171314 0.0052456255 -0.07339597 -0.039812762 0.056304768 0.011514324 0.043423176 0.033335656 -0.09523436 -0.017682232 0.04468947 0.008997212 0.014200051
그런 -0.16679563 0.041167047 0.012826798 -0.0498674 -0.020995116 -0.038535316 0.09405401 0.109195046 -0.06938464 -0.030596802 0.050410207 -0.08151979 -0.051179368 -0.08507197 0.048870157 -0.044802077
솔직히 -0.07641716 -0.026451537 0.015721617 -0.19019023 0.034115408 -0.026595693 -0.06571591 0.0486144 -0.0147262225 -0.121987276 -0.01879212 -0.0024780803 -0.018981582 -0.09691535 -0.12860247 -0.005190581
캐릭터 -0.14785573 0.071648814 -0.04588991 0.030101856 0.07984228 0.052995656 0.14346817 -0.002537404 -0.081490375 0.014231328 -0.1259295 0.087930396 0.110432506 -0.12084328 -0.04668242 0.15523179
ㅎ -0.11554007 -0.04777338 0.028500492 -0.0108753275 -0.07997993 -0.012414477 0.108434364 -0.1616187 -0.025514904 -0.046787012 -0.11860478 0.015631389 -0.024346538 0.05859531 0.017434571 -0.03485634
모두 0.10009294 0.1862298 -0.03718102 0.046159625 -0.104529046 0.061627213 -0.03586006 0.06013193 -0.009582352 0.15899818 0.020765249 0.02219177 0.06548822 -0.008494389 0.03871566 -0.047730453
아주 0.053925246 0.032370523 0.035550416 -0.018008666 0.020812977 0.002071879 -0.058858965 0.05606338 0.0245397 0.05076855 0.09669765 0.037740566 0.08247936 -0.05247786 -0.036562193 -0.03669665
- -0.20583789 -0.038382832 -0.10458405 0.076437674 0.07010109 -0.16353163 0.10510458 -0.02656255 0.12504724 -0.10019125 0.04946123 -0.055543244 0.12305017 0.13463391 -0.10166767 0.0063065793
가족 -0.05401525 -0.091584355 -0.03351662 0.04093177 -0.045078766 0.034416478 0.18057431 0.115899354 0.014016363 0.13824753 -0.002762456 0.034176756 0.047562506 0.10806701 -0.035300914 -0.08378616
여운 0.18887047 0.10398601 -0.11869251 0.28045687 0.021632317 0.07055257 -0.08203734 0.22178625 -0.25809696 0.15507564 -0.2686247 0.19305827 0.015916739 0.012938004 -0.20042111 -0.20366167
건지 0.053820554 0.10189062 0.10097561 -0.07895873 0.13047849 -0.14712879 -0.07828805 -0.015121878 0.02753757 -0.06348161 0.03353478 0.11851809 0.043495335 -0.07444549 -0.13545047 0.058352556
전혀 -0.13920525 -0.05493521 0.081630446 0.03205136 0.14809075 -0.06791404 0.31455308 0.05707392 0.097237274 -0.011231404 0.036411438 0.06570248 0.11970311 -0.017976528 0.17039166 -0.031779915
나라 0.15057924 0.05484983 -0.015732883 0.027308073 0.124125116 -0.0051067704 0.057817783 0.17763512 -0.00068207574 -0.01172176 -0.07070801 -0.04717945 0.1545504 -7.646787e-05 0.03655998 0.08308222
연기력 0.014396761 -0.045792855 -0.1346101 -0.050088655 -0.043646783 0.010318899 0.006996741 -0.025868407 -0.05411866 -0.0283721 0.048974 0.025976364 0.057621542 -0.11214425 0.035017155 0.066139966
후 -0.06399915 0.031807676 -0.04460223 0.043235164 0.07149552 -0.20620614 -0.0014056516 0.036616303 0.033879537 -0.03862204 0.08581832 0.051491164 0.019152835 0.0074294433 -0.09263589 0.02391691
다면 0.00044635526 0.0136112645 -0.032739405 0.027168944 0.18909939 -0.09125917 0.03877982 0.06646144 0.09445957 0.008579047 -0.020428544 0.06965203 0.0603916 0.03246358 -0.11961605 0.05570706
될 0.07554138 0.01573289 0.11494503 0.058655974 0.11973503 -0.136437 -0.055298537 0.14007261 -0.010444865 0.014348982 -0.064373575 0.038362633 0.12630789 -0.008026122 0.03683303 0.054698516
뭔가 -0.11344853 0.0024869628 -0.058159005 0.10450684 0.16335809 -0.04279437 0.06436697 0.04544886 0.055705324 0.017096382 -0.020887198 0.09224671 0.026183464 0.018772665 -0.16837215 -0.10255831
그래도 -0.04167219 -0.017713204 0.0026861208 -0.052585103 -0.00980813 0.023117576 -0.031927403 0.11052045 -0.0847794 0.012091261 -0.20700166 0.1393222 0.05186603 0.1317138 -0.069163784 0.06422673
; 0.047267143 0.10815415 -0.018372986 -0.076452866 0.08348603 0.1734307 -0.079652354 -0.045422208 0.06411487 -0.005351333 0.1475384 0.003617372 -0.0060094553 0.010202705 0.053939458 0.13851002
시리즈 -0.024491586 0.04191071 0.007458135 0.011594247 0.14363559 0.10190112 -0.014040005 -0.06254428 -0.12963791 0.05684874 -0.03770889 -0.08381762 0.040050156 0.0034164079 -0.039671957 0.051860858
근데 0.08543793 0.05822748 -0.13710688 0.014002689 -0.023595808 0.12379034 -0.014432476 -0.039573126 -0.021587411 -0.0108391205 -0.008183386 0.10485854 0.033940777 0.2157887 -0.021128528 0.020553041
작 -0.051498175 -0.094240196 0.0005827531 0.049701255 0.1344262 -0.08086341 0.010429202 0.09774467 0.03311398 0.047456063 0.052685987 -0.15379146 -0.090686955 0.032020558 0.18223023 0.082375474
표현 -0.08375013 0.1523223 -0.15091047 0.16584471 0.039190497 0.1365217 -0.07921828 0.070677176 -0.036124587 0.08892344 -0.1087302 0.014568408 0.02287125 -0.071657844 -0.09002814 0.02694483
모습 0.21163402 0.06876947 0.14527172 0.06865929 -0.05016766 0.059318636 0.0040109353 0.09276364 0.08365203 0.16649397 -0.011098249 0.045113638 0.017663226 0.07697252 0.05789287 -0.04937067
제 -0.17533474 -0.08795147 0.00094157085 -0.13298608 -0.081432454 -0.020040499 0.030116504 0.0364617 0.023011146 -0.088915616 0.007796474 -0.10678988 0.00873266 -0.11160096 -0.113058634 0.11045396
공감 0.012653015 0.2456527 -0.019473724 -0.014632745 0.016403573 -0.026327701 0.0912393 -0.07895001 -0.08610399 -0.018365102 0.020586804 0.11232376 -0.0026108043 0.025282446 0.1909711 -0.04456106
밖에 -0.12423653 0.05049592 0.017539738 0.058595885 -0.1822186 0.062054913 -0.103759706 -0.04431178 0.0044293753 -0.1509871 -0.04338691 -0.0545918 -0.020723399 -0.06340985 -0.07613333 -0.13320196
먹 -0.11184452 -0.0034793103 -0.09061932 0.08500658 0.112211615 -0.038237344 0.12008101 -0.057938725 0.05262121 -0.097684115 0.108913526 0.107554935 0.042155202 0.033866636 0.14588979 0.062530786
계속 0.03639813 0.043944627 -0.06201187 0.016958991 -0.1041229 0.04717546 -0.041244105 0.050077286 -0.02627786 0.1504749 -0.057763282 -0.07361575 0.07994419 0.10438204 0.14283812 0.064201005
이랑 0.10979377 0.041483723 0.022343304 -0.05500619 0.008113451 -0.036559623 0.09370298 -0.08299473 0.0058900234 -0.0032820958 0.08274482 0.029029828 0.11099591 -0.11493694 0.0037276493 -0.031559907
제목 0.013622777 -0.03153237 0.012229879 0.06984069 0.17680548 -0.11641837 0.04537223 0.0997492 0.0026322408 -0.04388088 -0.11200432 0.18723606 0.17651482 -0.008433417 0.108306736 -0.009220235
"" -0.0085253315 0.039973192 -0.00977012 -0.08754865 0.016522322 -0.054470133 -0.085589424 0.018380499 0.080045804 -0.0045050546 0.012099549 0.0046231183 0.09383471 -0.07223314 -0.097302 -0.03245405
7 -0.050976366 0.06988886 0.05969292 0.14952736 0.010922776 -0.022385683 -0.032243364 0.038552366 -0.12178426 -0.021775918 -0.06973064 -0.085779764 0.19440925 0.090985365 0.0723558 0.014403379
극장 -0.16594286 0.003074332 0.115821265 -0.00785986 0.11274717 -0.1549331 0.11329892 -0.040811878 0.07228224 -0.17846446 0.12131604 0.062354896 0.10917432 0.032675114 0.07826142 -0.08671873
비 0.037039313 -0.008329056 0.06662023 0.02705184 -0.020068845 -0.098012984 0.10524846 0.08565347 0.20177811 0.0127324555 -0.021893661 -0.08836628 -0.14362977 0.045589756 0.04842606 0.005703647
진 -0.09179672 0.18846005 -0.14838116 0.07389841 0.034672566 0.08640499 0.021987868 0.13586839 0.0056226053 0.12818243 -0.03414466 -0.046812095 0.10896264 -0.06362025 0.10649023 0.04025339
이걸 -0.023909207 -0.06966915 0.09940598 -0.1334284 0.14145468 -0.03865661 0.16805471 0.15703079 0.11169174 -0.12765628 0.0093489615 -0.07001585 0.012249489 -0.058811102 0.0058170403 0.07495116
바 0.031066656 -0.16990936 0.0909485 0.110923186 0.018663429 -0.05139244 -0.21008228 0.060223073 0.00073192484 -0.09673986 0.06930487 -0.15151283 -0.21273978 -0.042398423 0.052622054 0.13608064
그렇 -0.016669182 -0.1210258 -0.060522225 0.021112373 0.060497843 -0.1199861 0.07502246 -0.13887459 0.13876909 -0.13967325 -0.004473551 -0.059594285 -0.07935245 -0.23032023 -0.093657605 0.057003632
대사 0.0047352947 -0.03725796 -0.04563819 -0.0590744 0.05055375 -0.06870247 -0.023708573 -0.10151929 0.054504696 -0.09922657 -0.03401792 0.1682397 -0.054144226 0.013114468 -0.047242872 0.06122809
개봉 0.11766386 -0.15768108 0.14917617 0.045368712 0.02431653 -0.10682739 -0.1372531 -0.04119878 0.1064212 0.054318406 0.071791 -0.010167029 -0.028707406 -0.01950129 0.06874753 0.051190887
부분 -0.25844362 0.08556518 -0.02364109 -0.02984097 0.09027805 -0.07853075 0.24403913 0.0033910384 -0.0018939126 -0.04700999 0.024824727 -0.06155961 0.15527312 -0.027820488 -0.038039546 0.05971779
0 0.03921818 -0.010221217 0.036174305 0.04512203 0.0012197406 -0.14214107 0.18443522 -0.040753618 0.18787417 -0.081732176 0.030949397 -0.050544705 0.04930176 -0.13934548 -0.06519255 0.033020042
OO 0.17595308 -0.052465856 -0.013668153 0.052780487 0.045142025 0.017829552 0.023535311 -0.08574889 0.06529155 -0.034484707 0.14908722 -0.0052109333 0.031592477 -0.054801017 -0.09493678 -0.08855483
대단 -0.08346285 0.20143068 -0.0028478256 0.058509205 0.12031813 0.10179769 0.025271267 -0.028811596 0.008767358 -0.011886268 -0.063248314 -0.12888207 -0.055271517 0.016359936 0.084514454 -0.08006994
된다 -0.046602204 -0.1165979 -0.1678014 -0.02744996 0.116798885 0.0738478 -0.0891984 0.016704438 -0.08565322 0.05106032 -0.06399086 -0.07872045 -0.12062241 0.13682652 0.10221238 0.016720388
작가 -0.05636021 0.018380633 0.04168445 0.014050322 -0.06584472 -0.16621448 0.07186817 0.06237026 0.10031554 -0.13021655 0.09646796 -0.008736948 -0.006726073 -0.03877274 0.106972925 0.09213295
어디 -0.108637035 -0.09892835 -0.017360754 0.004079982 0.034390397 -0.022979606 -0.050838128 -0.037910607 -0.041261043 -0.014937635 0.014263909 -0.081850916 -0.10486785 -0.027164994 -0.1305368 -0.0011725645
기분 0.07972211 -0.0064271116 0.10126388 0.03613003 -0.066772155 -0.057833854 0.03302719 -0.0052220616 0.007427412 -0.040148515 -0.023625104 0.10106947 0.021022568 -0.059997156 0.005520708 0.06950681
아쉽 -0.02448769 0.08885486 -0.0683917 0.09820408 0.04087096 -0.06941829 -0.008797129 0.0631892 0.015649596 0.08324216 -0.055456717 0.08586661 0.08330295 -0.1493607 0.0069913426 -0.118269354
치 -0.04845768 0.062490262 -0.07543209 -0.040742632 -0.008470871 -0.10969577 0.024350386 0.022778438 0.019651443 -0.040645566 0.07271887 -0.08741545 0.09233821 -0.094747975 0.07109177 0.08616652
진심 0.052325618 -0.020896306 -0.036483303 0.004074147 -0.09862664 0.09298031 0.08500463 0.09757026 -0.092090935 0.08401962 -0.03994335 -0.060666233 0.05050576 0.0057660304 0.052303698 -0.120203145
해도 -0.12775439 0.13393594 -0.05117085 -0.100503996 0.10404754 0.022917887 0.068863995 -0.0067376276 0.019220853 0.07918738 0.0019224143 0.21458988 0.13564864 -0.051781468 0.048556883 0.04517359
보이 -0.017787118 0.10414105 0.05985869 -0.00061499217 -0.08528127 -0.043978803 -0.03303387 0.14637382 0.038694322 0.048967462 0.07649031 0.07221613 0.08754386 -0.030949675 -0.017917773 0.10770752
타임 0.067382626 -0.005727892 0.044182647 0.075427026 -0.12008747 0.017747581 -0.0006830513 0.010308854 -0.02786241 0.00730379 0.0301855 0.036931735 -0.00021204789 0.04879436 -0.06834424 -0.009403615
놓 -0.011222223 -0.15002568 -0.014939586 0.000551646 0.051378056 -0.07341656 -0.008558444 0.011832591 0.00223905 -0.08613984 -0.054751564 0.01068688 0.12883137 -0.020797161 0.04605649 0.060868114
/ 0.031228205 0.01030865 0.034844626 0.017514652 0.20433499 0.03797845 -0.051799744 0.036920816 0.063583426 -0.08489453 0.028710352 0.12719555 0.0019371762 -0.003796485 0.021128973 0.057427503
웃기 0.011723147 -0.059861884 0.017433925 -0.08196196 -0.009577408 0.013102306 -0.068089284 -0.010603843 -0.042955298 0.067307636 0.06669481 -0.11924334 -0.033364337 0.04760223 0.09529877 -0.0770261
봐야 -0.006368714 -0.034393333 -0.041822385 0.005574639 0.03449427 -0.011687 -0.077103354 0.08278447 0.0008771128 0.044449486 -0.06636259 -0.09191734 0.009119385 0.083352745 0.13141054 -0.1004761
이제 -0.10103262 0.005573201 -0.08282747 -0.106939375 -0.07854663 -0.012219161 0.11892882 0.06480802 -0.011048436 -0.13818564 0.079691336 0.032307386 0.11470181 0.047379605 0.0059380233 0.045191772
물 0.00798223 -0.010989555 0.017656976 -0.016600346 0.05500871 -0.027008953 0.020786557 -0.029270353 0.055981215 -0.08492907 0.06397476 -0.014910559 0.00781625 -0.091840066 0.11055809 0.010584248
막장 -0.014623268 -0.07441905 0.09225348 0.008269092 -0.0877823 -0.11089032 -0.002006338 0.02611635 0.099636935 -0.06691872 0.14263293 -0.07464954 0.011744784 -0.0408335 0.093053415 -0.020703197
삶 -0.028171044 0.11604114 -0.06853617 0.05482487 0.19139145 0.0171638 -0.086978495 0.08598836 -0.06500487 0.034242656 0.035744015 0.15246332 -0.0765829 0.059631016 0.017374525 -0.070958585
친구 -0.05709563 0.16531985 0.027296955 0.106436536 0.1352707 0.018785708 0.029693918 0.0039065653 -0.008031114 0.05923213 -0.055218797 0.18885776 0.050207436 -0.049631312 0.15149908 -0.07536281
잔잔 0.111384094 0.030553471 -0.07842525 -0.08879212 0.0821128 0.063401334 -0.010055737 0.052152835 0.0025521833 0.036276914 -0.04379167 0.08207383 -0.07926147 -0.04491398 -0.11983962 0.0104091605
조금 -0.0144304065 -0.027345955 0.14171708 0.11594699 0.23415683 -0.063953206 0.11102711 0.116099 0.11519866 0.024085661 -0.08756405 0.018596463 -0.011391821 -0.01871496 -0.1305976 -0.10895778
씬 0.010014487 -0.031242194 -0.041915637 -0.012817394 0.03025932 -0.0031765602 -0.08696146 0.004160079 0.04580315 0.10589583 -0.020102082 -0.025473213 -0.11291251 -0.027233735 0.021830196 0.058471918
딱 -0.03176096 0.096741244 -0.048435815 0.035410263 0.07415518 -0.052211795 0.004639245 -0.10207595 0.040877104 0.1363152 0.062384035 0.06747073 0.106120855 -0.095944345 -0.008966747 0.022011828
영상 -0.017529275 -0.024384612 0.040401097 0.08266666 -0.03165457 -0.10260506 -0.071216345 0.025705505 -0.03422351 -0.03560676 0.04041281 0.06967841 0.018376753 -0.10843811 0.119221166 -0.0613736
찾 0.07795754 0.05676905 0.024177192 -0.03766 0.115966044 -0.057506684 0.022646992 0.036585893 0.043151837 -0.048626956 0.061427042 -0.0013421909 0.059052635 -0.09979499 -0.030143738 0.012165868
억지 -0.05555706 0.098657854 0.11444408 -0.0105361 0.00035253118 -0.21790473 0.27184707 0.15846597 0.06278668 -0.14366713 0.09085319 -0.06585241 0.19487777 -0.09126426 0.075372435 0.10524333
중간 -0.044848416 -0.06682208 -0.0044195736 0.027849406 0.071993954 -0.07339868 0.2478642 -0.12440373 0.057966497 -0.03157191 -0.031005304 0.04542544 0.09265901 0.045353133 -0.020817958 -0.020418448
요즘 0.014961041 0.09426616 -0.21958923 -0.016077064 -0.016382178 0.08286464 -0.07315623 -0.047623068 -0.05022 0.03704903 -0.07330763 -0.082680345 -0.050126772 -0.033589248 0.0569873 0.011089853
같이 -0.048465636 -0.08384727 0.012504693 -0.11322476 -0.053193178 0.065908454 0.019737046 0.08916952 0.0053615314 0.033509642 0.0774453 0.085443236 0.12221011 0.18019442 0.07652797 0.0630655
구 0.042819012 -0.124212965 -0.00065237784 0.09595946 -0.117337786 0.0010200356 0.080052756 0.12130998 -0.00017207881 0.08288029 -0.0012151117 -0.043362375 0.026632652 0.027197888 -0.11619277 -0.0822618
" -0.082466245 0.014387953 0.07947242 -0.010432303 -0.16402866 0.012454262 0.048437364 -0.078353666 0.10963449 -0.16443352 -0.077866964 0.017120417 -0.051317357 -0.06017925 -0.09183529 -0.106533855
가지 -0.079297185 0.14001359 -0.0067607937 0.06274034 0.1532907 0.10323978 0.09011318 0.104380384 -0.006578001 -0.07395349 0.04468844 0.2566109 0.1576759 -0.029114436 -0.12668741 -0.016847495
스릴러 0.050592028 -0.16265798 -0.0706839 0.084457345 -0.22117318 -0.043982483 -0.0759588 0.07611858 0.011451091 -0.049553502 -0.060077142 0.00023298396 0.055252925 0.018757967 0.029352507 -0.026257116
8 -0.145371 -0.041916355 -0.18329662 0.04416533 0.07828686 0.008307002 0.011341924 0.18926714 0.03350279 -0.0014651497 -0.06034118 0.10122054 0.08986739 0.16598453 -0.10938487 -0.0679757
믿 0.010206997 0.07622712 -0.07565427 0.17040978 0.24966976 0.03666188 0.03316832 -0.07364969 -0.049876843 0.016439142 -0.022987569 0.07048546 -0.07208173 0.017726926 0.08207906 -0.06438994
싫 0.10385225 -0.058073193 -0.006311794 -0.10655813 -0.023947725 -0.05912768 0.02861791 0.039752357 0.09938395 -0.042530946 0.08038845 -0.021074235 -0.12250016 -0.046178754 -0.048354562 0.04137926
.... 0.049100302 0.012195499 0.0713664 -0.037800618 0.015198129 0.08613743 -0.003828051 0.090331875 0.02738368 -0.14150941 0.031718273 -0.018424304 0.05680731 -0.08065908 -0.0005362893 0.08183575
보고 -0.20593873 -0.09553677 -0.0032328775 0.04466091 0.13230816 -0.036433097 0.038077846 0.08758606 0.09540875 -0.08005324 -0.048001524 -0.03091081 0.048032235 -0.0030068583 0.02371151 -0.029769657
라도 -0.04300314 0.098310746 0.1138297 -0.091618985 0.09685726 0.009755718 0.020798413 0.13633269 -0.012691445 -0.021827629 -0.033317234 0.064903915 0.054266565 -0.11563174 -0.00012950166 0.08708063
나왔 0.01567498 -0.06345929 -0.09760292 -0.0111335255 -0.0024565123 -0.003979682 -0.0928361 -0.16701095 0.0666344 -0.10041338 0.11687039 0.05606715 0.06081794 0.039653268 -0.049762964 0.20752363
아까운 0.08527444 0.031787943 0.04531956 -0.19456224 0.09752631 -0.052127525 -0.17280306 0.115763426 -0.07538162 -0.12918766 0.063408665 -0.1371543 -0.17860548 -0.12957096 0.16925257 0.09321671
긴장감 0.05071267 0.18252997 -0.1100077 -0.04535872 -0.19788156 0.13241667 0.20477085 0.04983888 -0.052888904 0.036517706 -0.042982146 0.19908284 -0.0007171093 0.03089517 -0.08052561 -0.009003871
점수 0.009809469 -0.07591827 0.100054555 0.082077056 -0.011425426 -0.0042033847 0.1312931 -0.038396947 -0.05126668 -0.021585418 0.0009615133 -0.09496107 -0.03035154 0.025083724 0.11509571 0.021649057
개인 0.080076925 -0.081099056 -0.0384404 -0.13689736 0.011282828 0.050208934 0.18852833 0.0039714985 0.051982008 -0.100770436 0.08016433 0.10843585 0.07748241 -0.051964678 -0.02244168 0.11323456
제대로 -0.02400262 0.016686868 -0.11030932 0.06916703 -0.04696016 0.117619336 -0.030809306 0.028172612 0.050669074 -0.0074161747 -0.08941044 0.12184091 0.09876355 0.004827765 -0.09150133 -0.03224708
부족 0.07994004 -0.064355925 -0.058721725 0.064175084 0.0410009 -0.045658007 0.11948627 0.15832494 -0.059258234 -0.09386119 0.134007 -0.048972074 -0.0038713377 -0.04697348 0.1261801 0.024242168
이유 -0.00044999717 -0.0070598912 0.05484175 -0.01955043 0.10050732 -0.045887176 0.026832953 0.012427139 0.038227715 -0.039549142 0.118178315 0.06632923 0.013506688 -0.115380384 -0.10669105 0.06922825
노래 -0.10234986 -0.04944015 -0.023662452 0.095436916 0.018748384 0.0072295037 0.13688117 -0.02500252 0.013358699 0.0006126105 -0.075793855 -0.106043994 -0.004672034 0.055963993 0.18468778 0.083956264
만큼 -0.01803067 0.17647718 -0.021348802 -0.22291856 -0.05278629 0.098242715 -0.03752911 -0.076412976 0.03603316 0.10114966 -0.00950141 0.10489498 -0.11621279 0.037445687 -0.111426145 -0.0037465338
라면 0.12396939 -0.09711498 -0.036098816 -0.038965575 0.15507567 -0.029145166 0.00813833 -0.04223982 0.021552192 0.038158078 0.037844777 -0.048126344 0.03183991 -0.0026620326 0.08586842 0.007737008
시작 0.03851887 -0.09270155 -0.0014136655 0.011073111 0.0333455 -0.08184058 0.14974102 -0.015644804 0.049143765 -0.06996136 0.019013114 -0.00027083256 0.019959152 0.06674897 -0.07932549 -0.12362568
잇 0.030995307 0.09945749 0.027479718 0.054052245 0.13763443 0.014175517 -0.027637772 0.25573644 0.019605123 0.12026961 0.051383533 -0.029066235 0.13629045 -0.0064269244 0.06296278 0.20806152
구나 -0.04949337 0.015036378 0.019163737 -0.070535116 -0.060775857 0.06637673 -0.098175555 -0.07125794 0.029388558 -0.073996715 0.12838233 0.061950736 -0.057174996 0.06933588 0.11748879 0.059586048
특히 -0.11473607 -0.02302148 -0.014083429 0.07718919 0.11535612 0.12818587 -0.067641675 -0.11000517 -0.033479914 -0.05739007 -0.115522996 0.0075786985 -0.029555203 0.09467289 -0.048563257 -0.13365524
한테 -0.02708314 0.08142195 -0.043119837 0.06988829 -0.019761685 -0.07960254 0.08929764 0.0508842 -0.025587363 0.014185481 0.06260816 -0.06802915 0.11501401 -0.03336412 -0.032954276 0.018438926
날 -0.044466726 -0.050759144 -0.060473606 -0.002942664 0.07863435 0.038312677 0.114231154 -0.0010688648 0.0035644998 0.033235505 0.019825421 -0.09978678 -0.007890745 -0.10508026 0.013243378 -0.0005688728
려고 -0.027159652 0.12838921 0.061072964 0.00035630318 0.019058753 0.0077592554 0.14816667 -0.09537669 0.0684438 0.018780071 -0.026687622 0.09921405 0.04615253 -0.24348032 0.056516502 -0.0036478904
제일 -0.010326804 -0.026350547 -0.023472559 -0.08678541 -0.17032197 -0.05168528 0.13086392 0.04414939 0.03910151 -0.0046203486 0.046933316 0.08973497 -0.07531144 -0.069519654 -0.07745375 -0.035325695
아름다운 0.046879794 0.18326783 -0.18180774 0.097827494 -0.15104242 0.13395883 -0.020077318 0.07996374 -0.018003238 0.18421343 -0.16637374 0.09243192 -0.023643693 0.09690765 0.019168548 -0.059531476
시대 -0.050944697 0.16144845 0.02420658 -0.040543478 0.012708419 -0.052576575 0.12635358 -0.08466902 -0.013612931 0.10842177 -0.023071442 -0.06805005 -0.03239078 0.058650214 0.03731891 0.04397984
ㅜㅜ 0.032015428 -0.03858224 -0.014261833 0.011865732 0.034203935 -0.168179 -0.022948999 0.08200213 -0.13434893 -0.076959364 0.01647223 0.1315652 -0.13871329 -0.00021416905 -0.049286887 -0.14837879
어떻게 0.08085116 0.05848435 -0.034241226 0.034360252 0.009648129 -0.06382561 -0.024005901 0.038425826 0.12891948 -0.09500218 -0.03227977 0.061402284 -0.0036849093 -0.06720594 -0.0005500548 -0.0011383953
명 0.028606173 0.023096139 0.08861122 0.092221476 0.1102623 -0.006978681 -0.07363612 -0.07609175 0.03168227 0.09661893 0.083240025 -0.044574127 0.0824362 -0.061420042 0.20928136 -0.0011906842
당시 -0.041113537 0.020118909 -0.021020744 0.04059039 -0.002146145 -0.05536365 0.1356195 0.07679826 0.09352153 0.049807686 0.029901365 -0.07234711 0.042844925 0.016221605 -0.04956203 0.021427965
엔딩 -0.008673738 -0.1230901 -0.082468145 -0.051919263 0.09264082 0.09550221 0.042864576 0.0486927 0.009897017 -0.058244664 -0.17596333 -0.009521733 -0.028539041 0.04765241 0.08533037 -0.06320495
나름 -0.07445964 -0.18433857 0.11466528 0.08037394 0.17841597 -0.011829394 -0.10235705 -0.0405957 -0.120325044 -0.03932329 -0.10243954 -0.029389525 -0.08444281 -0.07127157 -0.069208294 -0.03608161
무섭 -0.090895854 0.08811469 0.032352656 -0.07288993 0.05225063 -0.05534633 -0.07961831 -0.12982386 -0.064593405 -0.091474004 0.016369054 -0.03668406 -0.023281967 -0.053070392 0.10322492 0.03929165
나온 -0.027664024 -0.010958118 -0.062669195 0.07298053 -0.10255524 -0.0621677 -0.013058913 0.06624684 -0.0011893227 -0.04739828 0.065350935 -0.09893277 -0.13444956 -0.089166 -0.060820073 -0.043000147
사 -0.122403465 0.15260108 -0.048706267 -0.023255363 0.089071155 0.05835212 -0.11826635 0.054252513 -0.0097233765 0.076910645 -0.08975682 -0.04543804 0.003878473 0.026619539 0.035194393 -0.085164666
오랜만 -0.088676065 -0.07763513 -0.1487867 -0.03621409 -0.063625306 0.116335705 0.046213295 0.1017188 -0.02902872 0.06863802 -0.10032223 0.18163723 0.0686546 -0.10434725 -0.10802572 0.1305193
니까 -0.042190272 0.1225533 0.09642102 0.05661302 -0.087235585 0.005742638 -0.16886763 -0.12688495 0.011135053 0.13207474 0.016255517 0.06250692 -0.09602143 -0.031581953 0.04548481 -0.01676359
해요 -0.10442017 0.012584239 -0.14699769 0.06550901 -0.033573113 -0.0026337712 -0.004711734 -0.035407316 -0.102642894 -0.11947458 0.045333255 -0.020376094 -0.04404989 -0.011876478 -0.086475536 -0.10318927
9 -0.014359201 0.19223359 -0.10525681 0.119761355 0.0036586362 -0.0044772057 0.037903484 0.02301575 -0.16684403 -0.03552745 0.012855854 0.14888133 -0.12721422 0.16125096 0.18947351 0.048741035
이것 0.05701997 0.05922182 0.08910157 -0.08328178 -0.09259317 -0.003100673 0.018627474 0.10626841 0.018409463 0.12612149 -0.003480743 0.020143628 -0.048824333 -0.105960414 -0.045267824 0.09406477
팬 -0.03053086 0.03823667 -0.044960886 0.060353335 -0.08641495 -0.011354482 0.06466231 0.0578853 -0.04851166 0.050227646 -0.07140268 0.11963858 0.06524356 0.13211218 0.039390814 0.03650879
차라리 0.008541787 -0.16610727 0.20905699 -0.02346154 0.035397425 -0.1895963 0.14808477 -0.1285509 0.21609388 -0.13717958 0.0824626 -0.15898432 0.05326698 0.0020229258 -0.15808001 0.11694296
봐 0.08850353 0.08627971 -0.08609329 0.06022279 -0.06991006 0.054146282 -0.028460508 -0.06589971 0.015704643 0.070813164 -0.005640119 -0.031551592 -0.02025922 0.015538845 0.050938733 -0.13907258
절대 -0.05556567 0.12637849 -0.015148278 0.0054849777 0.058015477 -0.026226258 0.054378327 0.09563572 -0.004395896 0.13563348 -0.08437448 0.14143176 0.08826543 -0.010779439 0.053429976 0.008842098
세상 0.11044471 0.06294026 0.042552736 0.04667328 -0.0005831027 0.030080726 0.086179174 -0.09255559 -0.02721088 0.06587783 -0.14906658 0.087288044 0.008880795 0.053043067 -0.20491315 -0.048356112
세 0.052462135 0.09475555 0.014554626 0.045593165 0.10307819 0.027005494 0.12535504 0.007199501 0.033334985 0.035222266 -0.138375 0.016421255 0.13513105 0.013291459 -0.17725363 -0.1042047
못하 0.017584508 -0.0942828 0.002035485 0.039033566 0.14901851 -0.1087051 0.22340207 0.024676451 0.044208474 -0.021796469 0.057483323 -0.102410644 0.15978305 -0.046870638 -0.043600086 0.101859696
하지만 0.16362476 0.14699197 -0.0739343 0.03428432 -0.07735885 -0.032958936 0.15111794 -0.06838096 0.013411869 0.14611961 -0.05730515 -0.006190187 -0.007624109 0.1522283 -0.0026510544 -0.12364239
던데 -0.045865837 -0.21478066 -0.044135768 0.122599244 -0.065045245 -0.09625191 0.011104594 0.15507807 -0.12948118 -0.074167304 -0.06980611 0.067786135 -0.09140436 0.024105681 0.081311725 -0.14933215
욕 0.17396036 -0.041988086 0.12080485 -0.06319716 0.14762029 -0.113350466 0.14252415 -0.11758188 0.09467112 -0.108590215 -0.14228058 0.018549683 -0.048610907 0.011329956 0.084125526 0.11441329
봄 0.04869435 -0.14143145 -0.08059442 0.15874326 -0.0770152 0.06832946 -0.110715665 -0.1407346 -0.065715306 -0.06000384 -0.050218135 0.030703278 -0.19450995 0.14694072 0.09063157 -0.0024827553
감 -0.011469887 0.081919394 -0.009016541 -0.007445228 -0.004159925 -0.051309157 -0.033494625 -0.07966585 -0.0076283654 0.0412343 0.012584207 0.042468138 0.00084507815 -0.059450787 -0.14253545 -0.033756483
훌륭 -0.06677874 0.13529189 -0.0238872 0.05915733 -0.020466104 0.12562868 -0.13941245 0.06029802 -0.111950494 0.17125474 -0.12755628 0.17095116 -0.1410879 0.11422118 -0.02119129 -0.1085608
너무나 0.021286296 -0.0077923564 -0.058625415 -0.05296471 -0.098652184 0.09833361 -0.15206689 0.05643351 -0.04282266 0.003357395 0.0376292 0.10044171 0.26600444 0.018140245 0.038693197 -0.009393427
강추 -0.095399536 0.1505981 0.041254792 0.12962535 0.041743122 0.093916155 -0.051533297 0.026326641 -0.0491666 0.11498993 -0.044737287 -0.19478767 -0.15264879 0.059186716 -0.0676693 0.098382324
해야 0.004719246 0.04662576 0.06844128 -0.0614326 0.12205392 0.033229586 -0.027142404 0.09711113 -0.08714594 -0.008368515 0.007773112 0.16197748 0.09160867 0.03449897 -0.067898475 -0.06997574
됨 -0.07186264 0.106223226 -0.077481255 0.054710552 -0.14294906 -0.05988958 -0.054603744 -0.15763207 -0.1456041 -0.025796955 -0.0062400904 -0.034572028 -0.10437704 -0.011801077 0.242172 -0.034475274
ㅡ -0.029750623 0.045069233 0.057212982 -0.08655764 -0.019135997 -0.02439803 0.24929707 -0.0915004 0.16038147 0.003974192 0.07206045 -0.088639714 -0.06171629 -0.06778874 -0.17581552 0.07043351
따뜻 -0.0468388 0.036781877 0.07727758 0.04492199 -0.13857234 0.13619517 -0.107124455 0.08341193 -0.13141546 0.13498701 -0.051975597 0.04621358 -0.041209087 -0.014390942 -0.25793684 -0.080633774
빼 0.012538608 0.060038317 -0.033529222 -0.21229132 -0.006610371 0.06487163 0.07461369 0.11056422 -0.020636836 -0.07863782 0.1733592 0.12509836 0.10591625 -0.08464347 -0.04495544 0.14488757
느끼 -0.21987045 0.14397572 -0.08336037 -0.07170069 0.05826977 -0.034059692 0.09049485 0.12836376 0.054345116 -0.006687861 -0.14921492 0.058209796 -0.013919122 0.16488531 0.060935248 0.14323545
드 -0.06721131 -0.06382854 -0.023894962 -0.04819531 0.12387025 -0.016419802 -0.025310678 0.048487753 -0.01929328 0.02471632 0.07131342 0.00038820226 0.022802984 -0.070436984 0.09993493 0.07557081
도대체 -0.113280565 -0.13627854 0.106642276 0.0325318 0.027939025 -0.07504542 -0.03674931 -0.11246183 0.014091814 -0.0777666 0.0056499178 -0.056740854 0.053565603 -0.12252005 -0.11136356 -0.083155975
어야 -0.12797144 0.00979992 -0.014334762 -0.07441691 0.19155876 -0.08872196 0.095875785 -0.036533803 0.18698652 -0.090515785 0.13835745 0.06699354 0.01217971 -0.025476439 0.14968011 0.019290514
글 0.05004746 0.039444286 -0.0134116905 0.12917785 0.015024972 -0.12673227 0.05973302 -0.05138203 -0.008432069 0.062337853 -0.043532774 0.11100258 0.10028487 0.041152198 0.15292914 0.06696968
마다 0.0033144704 0.1436497 0.09932241 -0.003421541 -0.08003903 0.2215578 0.02849643 -0.065035775 -0.10204524 0.13492768 -0.076125674 0.11371491 0.09407814 0.05698138 0.049982663 0.05653996
답답 0.029390411 -0.0876879 0.06366629 -0.03943391 0.17272958 -0.12204638 0.18155666 -0.024238346 0.10606657 -0.071981505 0.14751571 -0.08004311 0.015008965 -0.12617095 -0.09859092 0.07108135
준다 -0.038246155 -0.22580348 0.11810089 0.06763119 -0.11773264 -0.029000001 -0.017276855 0.07747397 -0.039559245 -0.18048078 -0.08888743 -0.07535872 -0.1799175 -0.04397617 0.011291586 -0.07802008
전쟁 0.006579033 -0.04227299 0.16663796 0.032093856 0.098414026 0.10584018 -0.052190453 0.040331718 -0.09080821 -0.058803655 -0.105225444 -0.13130848 -0.044921882 0.043392945 0.0866322 -0.020601617
놈 -0.20132183 -0.04535407 0.10624561 0.043324664 0.2386547 -0.009973162 0.07116676 -0.017255507 0.01193848 -0.0036018097 0.06901328 -0.014132254 -0.10587436 0.054477528 0.04430913 -0.05068874
설정 0.027665367 -0.0622918 0.016314646 -0.093073696 0.10436977 -0.02537737 0.07852734 -0.16423896 0.07199914 -0.012058589 -0.039558053 -0.006533658 0.010805473 -0.11849151 -0.017586058 0.12857336
무엇 -0.07009802 0.052035473 -0.08284038 0.15141569 0.084730975 -0.105487496 -0.019780032 0.07309876 -0.07217583 0.103157006 -0.11761509 0.09515461 0.07503729 -0.021689711 -0.11693315 -0.09052704
수작 -0.11594036 0.1899015 -0.03484474 -0.004022033 -0.14351572 0.22429079 -0.086795874 -0.25712475 -0.2583735 0.108259305 -0.19137025 -0.05373272 -0.14291093 0.09339066 0.14802714 -0.19711742
그저 0.03174173 -0.007977089 0.030382302 0.08557938 -0.021655535 -0.09330007 0.07826077 0.0643427 0.111244455 -0.04720881 0.034739904 0.04004919 0.16564734 -0.117486484 -0.123623215 0.026867013
감정 -0.03257649 0.18186523 -0.13359454 -0.081516474 0.059115484 0.009902095 0.051507514 -0.010631494 -0.041508324 -0.008099654 -0.040925447 0.032757085 -0.09965729 -0.07212008 0.08710912 -0.030785155
흥미 0.050161567 0.08179406 -0.06798091 0.08852082 0.025461482 0.0063737417 -0.051228642 0.13742076 -0.03697643 -0.013035859 0.023123272 0.13849498 0.053761054 -0.0038647468 0.10203748 0.00148074
미국 0.041152123 0.09080499 0.044793658 0.06581807 0.20651028 -0.024256019 0.08798712 -0.25707462 -0.005918295 0.08717471 -0.021225 -0.14597346 0.11277998 0.0750813 -0.029054148 -0.011622316
만화 -0.033630103 -0.08343971 0.012721794 0.02815939 0.09900783 -0.05228466 -0.009325654 -0.13970506 0.12617183 -0.114391655 0.0636954 0.032078147 0.1722885 0.06654428 0.15178888 -0.036209576
행복 -0.0034747126 0.0803401 -0.057260457 0.11644538 0.022152577 0.11580401 -0.1368177 -0.01350977 -0.06787817 0.10747585 0.051535416 0.08583454 -0.16660136 0.09545919 -0.12480405 -0.1079399
신선 -0.07063704 -0.016638098 -0.0730892 0.04256371 0.058779337 0.083398946 -0.04710093 -0.016173739 -0.110193335 0.115759045 -0.119946875 0.12464096 -0.10087784 0.18155023 -0.068305135 -0.13934244
뻔 0.12634185 0.06432286 -0.004165094 -0.056111235 0.17395309 -0.09216191 0.15605551 -0.117789276 0.08198769 -0.0076550627 0.10039416 -0.049778342 0.12708664 0.02180811 -0.042749617 0.08335765
형 -0.07483078 0.066775195 -0.06265074 -0.048482746 -0.07709571 -0.015470992 -0.04037981 -0.024037085 -0.04424614 -0.047098428 -0.0030093319 0.018011393 -0.03876247 0.15644571 0.056840293 -0.13079078
앞 -0.058145344 -0.07082218 -0.06914128 -0.060388576 0.083798684 0.04264936 0.11112867 -0.04717552 0.02477775 -0.10026498 -0.05220055 -0.08366708 0.1656448 0.13072313 -0.107915476 0.020037526
어도 -0.057194628 0.008338099 0.103379875 -0.032586787 0.038121022 -0.006139953 0.030843312 0.044111732 0.08377189 0.09618143 0.04147274 0.121526495 0.13154136 -0.023566572 -0.12870601 0.20261131
허접 0.060450915 -0.033996865 0.17525981 -0.1284031 -0.06899432 -0.14989199 0.0194172 -0.08394107 0.19432175 -0.17375343 0.12205464 -0.1033909 0.21793216 -0.21936154 -0.0117583405 0.2107246
군 0.05334625 0.09756403 0.0022645425 -0.2431395 0.10282064 0.00018002812 -0.14381434 -0.08275953 0.010918451 0.06563256 -0.035130426 0.14624612 0.093921594 -0.06883986 -0.051407874 0.11786258
시절 -0.098786354 -0.012080165 -0.10491021 0.028685525 0.054420624 0.08288147 0.03614465 0.10442431 -0.09075326 0.034566324 0.04792725 0.027474653 -0.03210519 -0.03466317 -0.13706103 -0.08278689
관객 -0.09663486 -0.021153651 0.13582745 -0.052056536 0.20795359 -0.063055456 -0.08777861 -0.1200987 0.13592647 -0.103609726 0.060661566 0.07898526 0.017963167 -0.12224876 0.055857334 0.08678526
배경 -0.04294579 0.044777647 -0.112504944 -0.030259233 -0.0048672273 0.046940643 -0.06516226 -0.1965521 0.018520001 -0.04044464 -0.009312565 -0.09259142 -0.10516171 -0.053980555 0.08413125 -0.022027424
6 -0.1789712 -0.099036805 0.028886553 0.051391754 -0.03285475 0.042663097 0.0032679918 -0.065486714 -0.02187458 0.13285184 -0.10428631 0.037565436 -0.09170652 -0.026932744 -0.044957053 -0.12732093
의미 -0.009597312 0.13653912 -0.037068468 0.066255175 0.0017338869 0.031446442 0.011226875 0.13555649 -0.06273192 0.012128374 0.010682259 0.035660814 0.03021547 0.071175516 0.07886846 0.074345894
초반 -0.10066728 0.010952403 0.100945845 0.14579752 0.16032761 -0.16623789 0.07672923 0.08661327 0.07901287 -0.07671874 0.049781155 -0.052789897 -0.056785256 -0.10064305 0.03449253 0.05130835
사실 -0.029537287 0.13186157 -0.13827826 0.06666513 0.1623363 0.021286057 -0.02419699 0.015977325 -0.10956096 -0.0285051 0.015936341 -0.09058757 -0.040814362 0.067654535 0.02031534 -0.07710333
답 -0.08540471 0.05052649 -0.072933614 0.008814958 -0.005161749 -0.021882454 -0.08859503 -0.30871212 0.14993201 -0.064874046 0.0646473 -0.010460831 0.07954436 0.021115787 0.11584242 0.08604561
웃음 0.06501459 -0.0030481492 0.020303816 -0.036591835 0.0014760974 0.12587877 0.030158613 0.1238938 -0.006469922 0.03736659 0.097879075 -0.06346911 -0.07733153 0.10311846 -0.0075416695 -0.030582555
엄청 0.18832028 0.04845671 -0.007107369 -0.024697566 -0.011011947 0.048679203 0.023027746 0.021570826 -0.058094736 0.030609509 0.106918626 -0.0060916953 0.07139818 -0.07944402 -0.0048784832 -0.03734222
라니 0.06950389 -0.082859986 -0.036358688 0.013608028 0.056104593 -0.11730771 0.06760825 0.08753937 -0.09910103 -0.13675703 -0.00015032163 0.04537468 0.018039368 -0.057258364 -0.031254426 -0.030019958
더라 0.07351141 -0.118021235 0.15808645 0.09473993 -0.017493848 -0.029918736 -0.080367915 0.13716143 -0.03247168 -0.08463987 -0.066608086 0.12480802 -0.16703339 0.112414055 -0.046936303 0.026236018
자신 0.014596776 -0.044436082 0.008209583 0.11870655 0.28356332 -0.15662165 0.1078218 -0.10371828 -0.007256394 -0.06355298 0.06470953 0.024373936 0.009711369 0.104787685 0.008145163 -0.060741503
질 -0.058051117 0.0321135 0.1921855 0.06137773 0.059680823 -0.22085018 0.26726323 0.013992417 0.032702893 -0.1845621 0.113321446 0.07110994 -0.005844556 -0.028159421 0.07248543 0.037225336
추억 -0.048754502 -0.084913835 -0.009606436 0.09422588 0.03570346 0.13777591 -0.0254023 -0.024033077 -0.1917836 0.083469294 -0.1240892 0.10053238 -0.058090046 0.044103753 -0.016010497 -0.20211463
캐스팅 0.022479683 -0.09619838 0.122050345 -0.0056423387 0.07601753 0.02423693 0.20257841 -0.06452536 0.056983046 0.064117156 0.035545923 -0.03960849 0.050612114 -0.07806528 0.1456534 -0.00094581477
머 0.0055407733 -0.041135285 -0.106690325 -0.077510774 0.11497496 -0.1374767 0.09325051 -0.10167332 0.04997719 -0.10615369 0.14125402 -0.012467876 -0.041153777 -0.020149026 0.12996875 -0.016897433
첨 -0.077992514 -0.026385544 0.18546169 0.15134598 0.27267185 -0.069545634 0.011194523 -0.088220276 0.016761817 -0.017834213 0.08530835 0.01856602 0.016251493 -0.048647087 -0.15318756 0.038848426
멋있 -0.0018841424 0.14145112 0.014329012 0.03382332 -0.042828605 0.15862761 -0.029799065 -0.034183804 -0.09791948 0.18518361 -0.056483265 -0.023924269 -0.115303285 0.11523233 0.037490867 0.024571666
류 0.025345355 -0.11195787 0.028529 -0.04196265 0.021486536 -0.0065623303 0.2420392 0.10082827 0.039480984 -0.09210507 -0.045025524 0.04917422 -0.029113282 -0.028494429 0.13409075 0.14882958
시나리오 0.11464314 -0.07770192 0.13721994 -0.034221455 -0.004212496 0.02764472 -0.16571824 -0.02263841 -0.07575824 -0.10349961 0.12069062 0.07674516 -0.15800336 -0.001060479 0.26748368 0.0965778
어색 0.11825832 -0.11891363 0.1559459 -0.06958905 -0.07373244 -0.10415519 0.04764677 -0.03462699 0.09733855 -0.065680206 0.22691984 -0.05895535 0.087756634 -0.12478194 0.11672849 0.15287444
슬프 0.090232484 0.0085094245 -0.13596794 -0.12195842 0.03629553 0.109631956 0.015903872 -0.10993829 -0.11839849 -0.015902944 0.0050694495 0.11899269 0.013234682 0.05278897 0.055788174 -0.06301898
OOO -0.038296502 -0.13477904 0.09208901 -0.015042052 -0.05039885 -0.11307191 0.16566344 -0.032517213 0.12725723 -0.113141164 0.03321004 -0.23878218 -0.006871805 0.030736884 -0.02207341 0.0049079154
정신 -0.004133491 -0.0049069175 0.10323299 -0.05160348 -0.11021492 -0.10062532 -0.055169355 -0.062443092 0.0805865 -0.0250117 -0.07124873 -0.050209194 -0.040693194 -0.058392435 -0.17389391 0.098070666
분위기 0.02291402 -0.022230435 -0.043931957 -0.02094605 0.06964958 0.07455748 -0.042511035 -0.07413399 0.009973702 0.07760854 -0.1402024 0.12382189 0.0025220702 0.056803696 0.1388598 -0.009721243
소름 -0.214345 -0.09684761 -0.07373573 -0.01632368 0.0023434516 0.15291771 -0.041026663 0.04046389 -0.06285432 0.03812544 -0.1272253 0.06282653 -0.09380399 0.037934072 -0.16352616 -0.07932527
멋진 -0.11089627 0.051054288 -0.021180296 0.1242871 0.024703156 0.2713781 -0.094640404 0.09454551 -0.18499818 0.12049747 -0.059172608 -0.09783469 -0.006593316 0.019966273 -0.15724641 -0.14837949
힘들 0.11075422 -0.010219201 0.0370427 0.029920833 0.110100284 -0.12325575 0.06033964 -0.10457717 0.12697653 -0.11695208 0.05148721 0.01379838 -0.011006106 0.043818653 -0.029748023 0.06840289
오늘 -0.14002223 -0.00969202 0.07704053 0.09741442 -0.040704586 -0.06135677 -0.059341803 0.0689439 -0.041730184 0.006888007 -0.05941398 -0.022910161 0.088771276 0.01764117 0.13749771 0.11599297
어이없 0.056619566 -0.06497974 0.029866755 -0.14007987 0.0038800095 -0.17008984 0.31879517 -0.052762084 0.080368444 -0.08586835 0.19344209 -0.090432025 0.15602268 -0.090227306 -0.21170369 0.06626005
봐서 -0.020273518 -0.020313503 0.06506983 0.016075585 0.05523427 -0.0018874368 -0.10471297 0.04037139 -0.11376577 -0.044604413 -0.087219566 -0.07629354 0.15291724 -0.06341706 0.038731266 0.02821356
구성 0.112959415 0.040672574 -0.1359121 -0.08098529 -0.120167024 0.048086878 -0.0057028006 -0.18972431 -0.08215466 0.121821836 -0.07413622 0.058390457 -0.048678778 -0.022041172 -0.1388875 0.03756189
잡 -0.037460133 -0.29420412 0.059254866 -0.07856294 0.1476656 -0.001972474 0.14622563 0.04594008 -0.014472328 -0.101908356 -0.012075947 -0.0049990756 0.014642608 0.059237685 -0.020081563 0.029923467
엄마 -0.017271735 0.06532459 -0.045432612 -0.13121201 0.1401807 -0.013233715 0.07447958 0.13963223 -0.018241055 0.023892526 -0.06336542 0.008722547 -0.16518438 0.010636914 -0.07286708 0.0515751
함께 -0.036261138 -0.039798412 -0.07023564 0.08131028 -0.05071256 0.046366077 0.027744558 0.06568163 -0.021597488 0.07033866 -0.15877861 -0.1329159 -0.04546938 0.18458225 0.0036832222 -0.09948911
문제 0.055736154 0.023080556 0.067110494 -0.14085484 -0.1313334 -0.11811621 0.067043476 -0.0076152426 0.11731937 -0.084843956 -0.015148899 0.06277523 0.040118992 -0.21700886 -0.15215719 0.05158439
위해 0.044311408 -0.014523645 -0.0007935033 0.105890915 -0.082365565 0.031577434 -0.092344396 -0.20997074 0.053254843 -0.0626471 -0.02532989 0.18785885 -0.017173477 -0.0452557 -7.90696e-05 0.039198652
졸작 0.07222285 -0.108402 0.16974707 -0.0721604 0.061517905 -0.14473449 0.092875406 -0.23012796 0.21146935 -0.21460071 0.120725244 -0.09529977 -0.0034984718 -0.1864563 0.027948122 0.078795284
잊 -0.18386081 0.048979808 0.05195199 0.21599323 -0.097002916 -0.026030172 0.015538105 0.042668182 -0.0054823877 0.025562402 -0.026233561 -0.25556257 -0.11444698 -0.01014588 -0.1680473 0.015683059
등 -0.038079917 -0.034053355 -0.04158637 -0.024060894 0.08058548 0.122846134 -0.044925485 0.03580442 -0.032739934 -0.0054642074 -0.14819367 -0.061854877 0.039997242 0.102833614 0.07131773 -0.18605636
집 0.029481454 0.02575216 -0.07843939 -0.09403398 -0.09731865 -0.041464403 0.08422032 -0.03498883 0.011458366 -0.054777455 -0.009676987 -0.119842604 0.13923185 0.1035488 0.2182427 0.026253698
유쾌 -0.1409305 0.05435743 -0.13350506 -0.06966232 -0.12448329 0.06051956 -0.118003614 0.13003924 -0.046929415 0.24521066 -0.1374771 0.014582895 -0.026805848 0.08133624 0.013338583 -0.16099826
스러운 -0.0013054251 -0.12304431 0.08341744 0.09004083 -0.017596452 0.025813483 -0.14167285 -0.014077846 -0.06298215 0.11164733 -0.03002444 0.06131421 -0.101254776 0.07860855 -0.050432086 -0.07289961
뻔한 -0.02588841 0.013894336 0.22336273 0.13567284 0.026543917 -0.18908486 0.13333432 0.021061603 0.049649708 -0.09918491 0.10775427 -0.024926873 0.114931606 -0.118357055 -0.008099016 0.043947086
나요 -0.097645886 -0.057417564 0.036887486 0.07387914 0.0829116 -0.00070196635 -0.03610372 -0.03797852 0.07294622 -0.05996798 -0.1733345 0.04700033 -0.060400896 0.11185094 0.11285054 -0.013403473
킬링 -0.12416489 0.088535726 -0.010342496 0.022801874 -0.03806103 0.017175762 0.024651123 -0.05701018 -0.045005307 -0.10588021 0.05499417 0.1118828 0.03370114 0.09977637 -0.06669901 -0.09810388
결국 -0.078900225 -0.0664937 0.020388419 -0.050886005 -0.13272484 -0.060841456 -0.084189974 0.04098966 0.10839209 -0.0136585105 -0.1017786 0.060896866 0.09243064 -0.057576817 -0.16976348 0.07493545
낫 -0.037574366 0.020972563 -0.18866818 0.051081136 -0.042976473 0.0938478 -0.049281705 -0.021241017 -0.039566282 -0.00943644 -0.026278237 0.016215347 0.24208784 0.07719734 0.07272787 -0.14312977
뭘 -0.024157325 -0.14564614 -0.09611768 0.045378562 -0.015448701 -0.11566563 -0.036174607 -0.10464393 0.15716386 0.080192104 0.060151473 -0.18996215 -0.10919726 -0.0066235685 0.000818435 -0.074872665
간 -0.067577764 0.06931893 0.050999783 0.0072805784 0.030573757 -0.01671322 0.042512555 -0.16497241 -0.068680055 0.013276878 0.015718728 0.13243164 0.04650373 -0.042740185 0.069765106 0.0073276516
소리 0.057811067 0.004624402 -0.0043579848 -0.0350982 0.11401361 -0.045362357 0.1253429 0.0051641394 0.030293737 -0.012486188 0.14123106 0.036635865 0.15148646 0.029116977 0.1379926 0.16787565
미 0.117027886 0.083099574 0.054947294 -0.035525903 -0.09885846 -0.03332633 0.063188024 0.036741525 0.08024694 0.096209995 0.13757065 0.18438031 -0.07983728 -0.029692015 -0.102408804 0.0982763
한데 -0.08903246 0.19743232 -0.093802966 -0.007974091 0.07772483 0.06690716 -0.04911387 0.16142353 -0.035832986 -0.015745977 -0.0225652 0.14240353 0.102336235 -0.13567603 -0.08537413 0.13503525
20 -0.050467838 -0.10148704 0.028599668 0.0433909 -0.064886324 0.13742377 -0.056162544 0.01799759 -0.10330965 -0.07175125 -0.01876516 0.03044874 -0.029415611 0.07500614 0.09246884 -0.1161578
역사 -0.019349072 -0.09623195 -0.030940115 0.012625896 0.05622647 -0.041026518 0.12765121 0.04301129 -0.089013174 -0.059864666 0.029619418 0.051708803 0.023086641 -0.008958842 -0.07154417 -0.047926627
