9996 16
. 0.012396088 0.10205668 -0.036674377 0.0009481102 -0.11561267 -0.0026608054 -0.06636368 0.031849436 -0.06681797 -0.05948104 -0.056797832 0.021734944 -0.010581002 0.006453453 0.0005468844 0.08394406
영화 -0.02007516 0.11938027 -0.058388878 0.041240662 -0.117161356 -0.02380309 -0.123581275 0.04185683 -0.14790139 -0.021568514 0.0637335 0.004130401 -0.0439576 -0.05092922 0.027130088 0.04955685
다 -0.034524065 0.088383205 -0.08105386 0.006850867 -0.05418539 -0.01825131 -0.015631668 0.036214724 -0.12861335 -0.04306293 0.017429141 -0.01907872 -0.021283409 -0.05680419 0.026664041 0.04057048
고 0.008233938 0.04113669 -0.04571975 0.039331008 -0.02555057 0.009045119 -0.03205478 -0.034087416 -0.04141555 -0.02515983 0.025505772 0.010757875 -0.010214938 -0.07541038 0.009543165 0.046098214
하 0.04341054 0.10354378 -0.0041462975 0.060312964 0.017750127 -0.04309479 -0.0088184 -0.022158494 0.01642989 -0.016480643 -0.031844307 0.042699154 0.03904722 0.0055405353 0.027265444 0.036205024
을 0.006551279 0.039682318 0.04155423 -0.0132467095 -0.05467121 -0.010865016 0.0135402065 0.012479442 -0.0042011114 0.011500286 0.0082865665 -0.067845 0.04590896 0.012636829 -0.026324168 0.015400287
보 -0.011878942 0.009199402 -0.044861373 -0.024309224 -0.065209046 0.039078157 -0.00015613197 0.041532665 -0.013537622 -0.010052725 -0.03202746 -0.07356028 -0.020912854 -0.057642367 -0.03637804 0.041100226
.. 0.030649103 0.021933496 -0.025732018 0.029083649 -0.007919446 -0.020685459 0.027746048 0.004471249 -0.049561854 -0.0032956891 -0.012596316 0.0053017866 0.021249287 0.0125592435 0.07149062 0.032684885
게 -0.02252513 0.0016875844 -0.040399667 -0.05232062 0.023222301 -0.038844723 -0.027979083 -0.056161482 -0.044354588 0.02834472 -0.005652755 0.016656676 0.0018215037 -0.05895504 -0.005816047 0.025544712
, 0.029656608 -0.0025276358 0.0014894549 0.0030299712 0.0023468614 0.038287446 -0.0082155 -0.0011675329 -0.047832265 -0.022428038 0.03642885 0.015304235 -0.014205763 -0.05117231 0.035354517 0.03970799
! -0.086732894 0.080913916 0.011863811 0.03610922 -0.050721444 0.027202893 -0.16058919 -0.04928084 -0.11491975 -0.002047622 -0.029194131 0.16249897 -0.07095459 -0.03811475 0.03637431 -0.038056314
지 -0.044459425 -0.062191967 0.072246775 0.029535687 0.10480414 -0.03433252 -0.011187849 -0.010048878 0.1643229 0.053081784 -0.07125068 -0.026531143 0.01809969 0.0440491 0.040719405 0.0274311
있 -0.004590557 0.010990919 -0.002217807 -0.0019854587 0.019601086 0.010626421 -0.07124202 -0.039323848 0.031672183 0.022479134 0.066315286 0.031298146 -0.02370215 -0.10320549 -0.028835082 0.036203753
없 0.016039984 -0.17917502 0.09704694 0.023385938 -0.008988831 -0.07271173 0.097809784 0.13763842 0.045044184 -0.09172001 -0.15517002 -0.13460559 0.028336339 0.24545293 0.09364832 -0.07563587
? 0.011255857 0.0060145454 0.061346292 0.007830848 -0.1105524 -0.031380646 0.115889534 0.03014556 0.061815947 0.04333611 -0.0711326 -0.15100487 -0.005424639 0.11211655 0.046216376 0.004471127
좋 -0.016697744 0.044223327 -0.071775235 -0.06219497 0.07635753 0.10271506 0.026715191 -0.09095696 0.03413447 0.110778436 0.09484949 0.29042816 -0.026022667 -0.15193258 -0.08009609 0.20187481
나 0.051149428 0.043750037 0.0024854932 -0.040769663 0.018166134 -0.02241452 -0.009518365 0.01523438 0.032458585 0.013578111 -0.0949869 -0.05727316 -0.007922671 -0.016434416 0.035441715 0.021859935
었 0.01185699 0.04587602 -0.07297516 -0.024699816 -0.020221695 -0.004175986 0.028511913 -0.067528985 -0.09960183 0.014969993 -0.0221971 -0.002633783 -0.04099608 0.031910803 -0.04788508 0.0443355
만 0.015405741 0.095495306 0.066822685 0.025555536 -0.08703559 0.022077214 0.0703498 0.04267791 -0.09710101 -0.099594355 0.024720488 -0.0991376 0.034724206 0.0318925 0.07106243 -0.039150517
는데 0.011852797 -0.08014314 -0.039094094 0.016881125 0.06625317 0.022250129 0.015728712 0.04522714 0.15221338 0.03614066 0.013096092 -0.19323973 -0.0660954 -0.017431393 0.010605991 0.11078182
너무 0.03528749 -0.1334609 -0.1322731 0.052441694 0.1802422 -0.05864822 -0.1645971 0.09781839 -0.08999163 0.019117327 -0.015756648 0.20744282 -0.017613396 -0.039640237 -0.068850994 0.082121044
봤 0.057042092 -0.012520585 -0.0077929753 -0.05061028 0.034691907 0.05230176 -0.036168292 0.017862014 -0.029791292 0.028859641 0.054450504 0.132069 -0.002243666 -0.041984715 -0.071279556 0.019649921
적 0.009219401 0.06168528 -0.03537189 0.048771203 -0.051033437 -0.03035449 0.0069852914 -0.051176004 -0.035446364 0.061683975 0.05987688 -0.117261976 0.00011380254 0.009166708 -0.04279211 -0.0022311045
안 0.011496922 0.05284443 0.10523763 0.046665028 -0.038904075 0.06932649 0.19236475 0.08073077 -0.108938985 -0.19318141 -0.023796948 -0.31982547 0.11362894 0.11512188 0.0715604 -0.15673189
로 0.047913585 0.033303827 -0.028043985 0.043380972 -0.06896595 -0.031945117 -0.021147149 0.059247524 -0.045306846 -0.032541487 -0.00624535 -0.050535813 -0.016118446 0.03522996 -0.001861173 0.027437225
정말 0.043626834 -0.052151624 -0.11180691 -0.022494093 0.118730344 -0.021302324 -0.0642425 -0.047147516 -0.0450533 0.060461156 0.0267367 -0.0050155763 0.014070644 -0.07118497 -0.041796334 0.05713002
음 -0.01992341 0.13736567 -0.023865193 0.025295721 -0.17687002 0.033989105 -0.009099416 0.060222264 -0.23030691 0.007452434 0.019163061 0.092688374 0.028745908 -0.016937438 0.020775855 0.025624141
것 0.0051483633 -0.0044819326 0.01137379 -0.055681434 -0.013078846 0.051075142 0.036537513 -0.020753644 0.0031452556 0.050411817 -0.016518842 0.024162037 0.022167234 -0.036352545 -0.012419638 -0.011380487
아 0.0382854 0.012166852 -0.0077834167 0.0073791654 0.024462746 0.008247826 -0.033088263 -0.019302964 0.034093566 0.012035945 0.0049779643 -0.07415887 0.011784539 -0.011970321 -0.008334786 0.00469276
네요 -0.03987581 0.013341239 -0.060153455 0.017391048 -0.06742251 0.048609998 -0.012066994 -0.007058561 -0.1546626 0.034990806 0.001567117 0.13274889 -0.015973315 -0.018360337 -0.003917762 -0.028842572
어 0.004721149 0.047171075 -0.023029892 -0.028263055 -0.0069822595 0.024334861 0.035983436 0.022577597 -0.061554868 0.047380168 0.04262909 -0.0550994 0.008381836 0.018392911 -0.020471478 0.06253543
재밌 -0.14995633 0.17701349 -0.14127667 -0.108801216 0.005956252 0.12944902 -0.22093375 -0.14010455 -0.015818048 0.15677206 0.06983923 0.12809364 -0.16229495 -0.14606051 -0.10878724 0.16289802
같 0.041298877 -0.025859604 0.0008229581 0.05121662 0.04590667 0.009019023 0.004675365 0.03130676 -0.020770472 0.014617731 0.011532229 0.05424514 -0.007886032 0.019976286 -0.0045992304 0.03285623
점 -0.023771904 0.18078938 -0.024965236 0.091756426 -0.18970647 0.02699659 -0.09469224 0.05077826 -0.2729128 -0.051445868 -0.0014908222 -0.108174145 -0.05199623 -0.02123074 0.07277887 0.003613888
지만 0.015459335 -0.12369258 0.08228429 -0.042198177 0.22300023 -0.006695193 0.06843443 0.019265449 0.3194517 0.08150482 -0.14716634 -0.17430031 0.04440785 0.0059169545 0.10342894 0.05042524
진짜 -0.034551002 -0.038097825 -0.12474795 -0.05084222 0.13967186 -0.041565876 -0.048672944 0.021546552 -0.020376641 0.061669577 0.009245205 -0.02006862 -0.005210696 -0.07841347 -0.06647318 0.092385314
했 0.015617083 0.06443221 0.013805818 -0.01909769 0.0020713042 -0.035977732 -0.07446997 0.0018427608 -0.041170783 0.026324872 0.030022813 0.053218104 0.006075756 -0.026232818 -0.0039554657 0.028590148
기 -0.020356406 0.05568507 -0.02021316 0.020471273 -0.06296371 -0.0038470605 -0.028373541 0.011842758 -0.1265148 -0.04602607 -0.04148276 -0.003033719 -0.023307534 0.038094815 -0.0246608 -0.005220765
에서 -0.011126136 -0.06360745 -0.02741097 0.0030815923 0.104722574 0.00278679 0.023753991 -0.019314367 0.04102317 0.052276757 0.00034075466 -0.02247179 0.04710143 0.045316353 -0.03014702 0.045636278
네 -0.0033613478 0.09887529 0.040310215 -0.00778551 -0.085398994 0.04803421 0.054861125 0.023148175 -0.021765273 -0.054286875 -0.061841212 -0.0737656 -0.0069224187 -0.0001391158 -0.012729599 0.034327086
않 -0.066864476 -0.11273122 0.07561407 -0.0059217447 0.0857005 -0.03972648 0.107385375 0.05931549 0.19540456 0.032565873 -0.09134619 -0.3608221 0.039521515 0.045755308 0.15967242 -0.016665421
거 0.036659215 -0.01380499 -0.025969457 -0.042091984 -0.0737578 2.8160197e-05 0.06823167 -0.02718825 0.031113744 -0.09971618 -0.06369393 0.088056445 0.022061216 0.033292335 -0.0057240715 0.0020378043
았 0.020719286 -0.0514537 -0.02469554 -0.01918804 -0.027082378 -0.049647726 0.039425615 -0.026099237 -0.031326156 0.019183297 -0.06179211 -0.061178833 -0.037020914 -0.015003035 0.008052396 0.031788386
수 -0.05929049 0.09112733 0.049247913 -0.006340631 -0.053723484 0.08545877 -0.048370942 -0.058818035 -0.056311972 -0.026346598 0.032677617 -0.01321317 -0.052363846 0.0035674714 0.019023351 -0.020573102
되 0.0261354 -0.029596614 -0.04845039 -0.084768265 0.019534983 0.0045530014 0.055837814 -0.006725342 -0.057936657 0.02295966 0.0058792997 0.100103654 -0.034295097 -0.04214002 -0.016932057 0.08651687
면 -0.05163307 -0.019852448 0.02908979 -0.015005259 -0.014346218 -0.016102672 0.02396846 0.0016930022 -0.020742094 0.013782844 0.047101434 -0.23218516 0.0144676 0.026988283 0.045105126 -0.025342407
ㅋㅋ -0.03458103 -0.017367112 -0.047470767 0.0070481827 0.023540603 0.046203647 -0.03677192 0.022159511 -0.069681264 -0.028899414 0.012469946 0.07582973 -0.025575241 -0.026811235 -0.031229183 0.003395976
말 -0.023661543 0.010850729 0.019265944 0.03396247 -0.007565831 -0.021635437 0.006840767 0.027364433 0.024804953 -0.030465437 0.013855706 -0.1572335 -0.0044844053 0.032400925 0.0039912565 0.010021774
인 0.05219944 0.013420108 -0.065365106 0.015834203 -0.0021964042 -0.034404013 -0.041782696 0.013394485 -0.054131515 -0.013501708 0.021958223 0.15313008 -0.023763552 -0.040498678 0.042820536 0.05517052
연기 -0.07148209 0.023567313 -0.05193633 -0.013393508 0.027161758 0.0052523343 -0.13374554 -0.04825349 -0.0901433 0.0706172 0.019198062 0.23018153 -0.03899389 -0.0059168637 -0.033510957 -0.0035628267
주 0.010148268 -0.02224285 -0.0120742535 0.00097078213 0.025833797 0.0051697767 -0.07318832 -0.03208735 -0.030955588 0.022773296 0.03569171 0.20064597 -0.026867028 0.04136932 0.018961899 0.029225701
내 0.03428133 -0.01574522 0.033387575 -0.021518106 0.08849342 -0.017889611 -0.034487717 -2.8590031e-05 -0.009447947 0.045725733 -0.06591779 -0.016020222 -0.005869856 0.053012725 0.010301362 0.050814252
최고 -0.19411975 0.22671358 -0.19800948 -0.23529403 0.4326777 0.16661277 -0.32325566 -0.16079636 0.008527775 0.24569948 0.15806608 0.06046535 -0.15551119 -0.32988492 -0.2606919 0.2649525
~ -0.05392046 0.06841381 -0.019448465 -0.035007052 -0.034954086 0.006944404 0.056211878 -0.047395505 -0.07535448 0.008522434 0.037940715 0.10631931 -0.051376566 -0.016072333 0.041560505 0.025552008
평점 0.0005435226 0.021135624 0.0053008064 0.016913088 0.017945759 0.022821402 -0.11505579 -0.010416702 0.055130087 0.030679354 0.033324257 0.046989243 -0.021324925 0.029006738 0.017559724 0.025257444
이런 0.02231328 -0.04634257 0.014555596 0.014982365 0.036034975 0.019651078 0.014336006 -0.020550516 0.0112233665 0.011201181 -0.027361505 0.042025138 0.03415535 -0.0018401039 -0.014784557 -0.0022318973
던 0.027969448 -0.051136475 -0.044960823 -0.028111523 -0.050514176 -0.026341623 -0.034621786 -0.0013586684 0.0186773 0.025312647 0.037740365 -0.042228717 -0.047487203 -0.03131562 -0.057856906 0.0036250427
어요 -0.095580205 0.122951604 -0.08944282 0.018707326 -0.22982033 0.052922774 -0.060640227 -0.027699199 -0.19487102 -0.061344646 -0.0014900051 0.2012604 0.02274584 -0.042202923 -0.0047631646 0.03551847
할 0.00688681 0.036431268 0.021005984 0.0091984365 0.047331978 0.03701787 0.037251804 -0.04762336 0.012530219 0.070044525 0.00996402 0.013433128 0.013672354 -0.0033292416 0.027238464 -0.0140094785
왜 -0.008649615 0.12314667 -0.010619884 0.05158404 -0.04627292 0.05494304 0.030934453 -0.018554926 -0.14487448 -0.028498927 0.033496536 -0.09438821 0.05250455 0.09673259 0.0065632733 -0.01994222
겠 0.010174279 -0.060742512 0.02225508 0.043077048 -0.08393516 -0.09286482 0.067669444 0.039644938 0.02735839 -0.016064927 -0.08551001 -0.009740366 -0.003185731 0.06567596 0.020138308 -0.045620155
해 0.035150573 0.062259674 0.00066595414 -0.010125482 0.0050778636 0.037886973 -0.05468984 0.031494875 -0.020938236 0.023366528 0.036840014 -0.0090400055 0.029826809 -0.056916855 -1.9939078e-05 0.003959
1 0.05286054 -0.02817342 0.10753889 0.0978199 -0.06826437 -0.104500994 0.124292366 0.07976771 -0.010269238 -0.12710859 -0.05972429 -0.22483519 0.06182671 0.14146672 0.07582199 -0.13424261
스토리 0.028775346 0.036602795 -0.010823488 0.016043123 -0.06643909 -0.024839237 -0.02692454 0.049476463 -0.07123754 -0.005374281 -0.071429804 -0.105224736 -0.016503884 0.063427046 0.06512863 -0.0063313376
습니다 -0.041795492 0.05686218 -0.011228117 0.006641684 -0.05886998 0.036144607 -0.06963092 -0.05291844 -0.18688458 -0.00060039223 0.06654359 0.11574811 -0.01375228 -0.05327583 -0.03611421 0.017438771
ㅋㅋㅋ -0.005901991 -0.05574903 0.018174907 0.0512243 -0.018766219 0.017705843 -0.05825913 -0.012953491 -0.04276581 0.01953696 0.029647809 0.0033394496 -0.03330148 -0.023873866 -0.002335012 -0.05391596
... -0.017287724 0.025587358 0.030981116 0.037917957 -0.0079356665 -0.0138245355 0.045384455 -0.013432814 -0.011155421 0.029848292 -0.028971255 -0.025522398 0.014321067 0.017325176 0.01751754 -0.033063356
드라마 -0.052131377 0.14781195 -0.06558596 0.029957179 -0.12020044 0.07869417 -0.03882409 -0.036543828 -0.16980685 -0.023639731 0.06899011 0.201696 -0.011414641 0.015680509 0.040971246 0.05529691
아니 0.032850273 -0.14907572 0.09365874 0.0006744688 -0.049399205 -0.061904825 0.11349689 0.07758887 0.12809803 -0.025673782 -0.14873673 -0.31322616 0.063231066 0.1396071 0.100250214 -0.046088852
생각 -0.038063746 0.09269184 -0.0040779416 -0.034365725 -0.010320343 0.027939076 0.03768953 -0.07815203 -0.13398711 0.016595319 0.060399834 -0.013354376 -0.012139471 -0.010766686 -0.025986036 0.11016489
더 0.009630713 0.052116353 0.021103106 0.038157266 -0.029539952 0.0019960005 0.02821467 0.008349108 -0.11251352 -0.045484163 0.025113406 -0.15099114 -0.020905582 0.047787357 0.032447647 -0.04842471
그 -0.014166715 0.016959796 -0.06363124 -0.03500567 0.023577768 0.048828732 -0.030898051 -0.015655836 -0.06799919 0.059667893 0.011751515 -0.0909903 -0.08405035 -0.086868554 -0.004659797 0.07924579
싶 -0.0011070848 0.06595099 -0.041272826 0.005392045 -0.07925801 -0.0040149232 0.09642331 -0.014227103 -0.068205416 0.03251149 -0.02626221 0.19492787 0.008764013 -0.014639419 0.044727188 0.0698057
사람 -0.049559716 0.02089881 0.0647816 -0.018228423 0.009518499 0.019632177 0.013095674 -0.008348336 0.084658585 0.041819654 0.011866076 -0.18395638 -0.048300657 0.045539547 0.005432666 0.009129143
듯 -0.005783821 0.030341376 0.018433422 -0.020554874 0.019494819 0.010034149 0.06228209 0.042876415 0.04942917 -0.013430837 -0.024760772 -0.048237637 -0.017464884 0.025240233 -0.04280454 -0.020221343
때 -0.01681472 0.016938932 0.0355761 -0.027348742 -0.019942896 0.010757021 -0.057621855 -0.031933308 -0.03981828 0.015668146 -0.00707715 -0.033898417 -0.04449442 -0.018048655 -0.03304781 0.03176059
감동 -0.12105063 0.07645824 -0.13498957 -0.13422966 0.10194511 0.062622264 -0.35463086 -0.025466412 0.0780471 0.15871595 0.14808515 0.23610272 -0.09233009 -0.20928489 -0.15045515 0.1360166
함 0.042358257 0.09632232 -0.053460997 -0.030591827 -0.097388685 -0.024501225 -0.026672043 0.01566551 -0.012272137 -0.013482383 0.015554421 -0.013590164 -0.011515572 -0.0049292366 0.027593106 0.02034158
배우 0.043519065 -0.08326854 -0.002633494 -0.04027255 0.096582904 -0.021830881 -0.06448144 0.04561803 0.06254605 -0.0233922 0.06832798 0.10107556 0.020307261 0.052715585 -0.02826854 -0.009001362
본 -0.0047473977 0.022575611 -0.03537015 -0.08119784 0.058061488 -0.009109106 -0.05531541 -0.015536419 -0.042487778 0.008590712 0.04849051 0.087180614 -0.06850136 -0.023233386 -0.07475345 -0.012774377
까지 -0.035624277 -0.021618927 0.043984357 0.057695396 0.05476253 0.013174586 -0.049001627 -0.03480071 0.08740716 0.0047574476 -0.0062176785 0.19521041 -0.0119933635 -0.041473515 0.0101116095 0.029118847
뭐 -0.010699945 0.01192107 0.10134585 0.097850904 -0.041665908 -0.010152117 0.0037133384 0.05823458 -0.030425174 -0.044244766 -0.06894375 0.007485237 0.027669711 0.05897734 0.12779754 -0.07669688
보다 -0.030627435 -0.09185616 0.009760601 -0.030961275 0.043375455 -0.042838946 -0.050305374 0.02817634 0.08727432 0.10244814 0.017461935 -0.11789442 -0.028964328 0.0144057255 -0.011444244 0.04744294
알 0.041464757 -0.019056141 0.011440123 0.07653891 0.075128034 0.002176291 0.05853699 0.046553858 0.020347994 0.0017235762 -0.026722314 -0.10200859 -0.0031223516 0.046801727 0.054543547 0.0132634435
만들 0.0014204419 -0.055289168 -0.007055942 0.021010999 -0.028199807 -0.06728676 -0.04938904 -0.014642676 -0.0019449017 0.03578301 0.0010522865 0.20086716 0.0014333829 -0.05764519 0.013708567 0.057150625
내용 0.09466787 -0.09128073 -0.073601544 -0.020251207 -0.0011964738 -0.07219242 0.06433727 0.04073875 -0.037777632 0.024244675 -0.053722803 0.053267505 0.07062065 0.010754202 0.06690697 -0.01019937
볼 -0.018752439 0.053846873 -0.07239256 -0.066157825 -0.026041854 0.06145891 -0.021851208 -0.051794246 0.08317225 0.09926319 0.022645794 0.043177452 -0.038238045 -0.12552187 -0.055555854 0.05549465
감독 0.050617974 -0.017812012 0.036858123 0.013231216 -0.08054957 -0.03138285 0.027004372 0.06132276 -0.027164947 -0.08869179 -0.06985351 0.10434908 0.09168947 0.09061095 0.049852025 -0.024893232
라 -0.0249615 0.072909825 0.013535948 0.037923288 -0.036474876 -0.0023836028 -0.010831512 0.058269244 0.03830602 0.0096852435 0.005829775 -0.10264171 0.00980598 -0.07058313 -0.028772915 0.061215024
그냥 0.025052587 -0.10124121 -0.021259343 0.00437758 -0.033091124 -0.054456573 0.02328504 0.057861034 -0.0437226 -0.010931918 -0.08822712 0.036746494 0.044129252 -0.007292243 -0.011934022 0.037418146
재미 -0.064597666 -0.0627887 -0.13429324 0.0013139591 0.17300212 -0.07729094 -0.15070346 -0.019777698 -0.09367602 0.06726848 -0.036565512 0.22210258 -0.035734013 -0.04631147 -0.02000483 0.06469308
시간 0.017779043 -0.018214352 0.054374423 0.08695694 -0.037961595 -0.0019962557 0.13896972 0.0461253 -0.12429239 -0.0892056 -0.029162066 -0.16251168 0.07479417 0.07489884 0.114457846 -0.038473845
지루 0.20874204 -0.06235575 0.2520608 0.26102006 -0.12820184 -0.12527029 0.1997616 0.26715127 -0.14277923 -0.22294916 -0.16450499 -0.2338814 0.19141337 0.24469794 0.20913081 -0.35405707
중 -0.052823838 0.010999604 -0.050691795 -0.08155704 0.0125841955 -0.0084268 0.001941572 -0.024134152 0.014374466 0.05397982 0.088968165 0.06845743 -0.038891442 -0.013047434 -0.06598393 0.083322786
재미있 -0.082707375 0.10351611 -0.18993138 -0.11813438 0.09443421 0.05337217 -0.2863126 -0.11539473 0.035132237 0.18305328 0.13389671 0.17348063 -0.07215589 -0.24382642 -0.15084973 0.14965113
년 -0.032741196 0.06890591 -0.041295357 0.0008933816 -0.0064659086 0.017209187 0.09943235 -0.01667916 -0.050933983 -0.014275529 0.008318935 0.031499516 -0.066117324 -0.032812573 -0.06410791 0.016908845
10 -0.107116334 0.015986038 -0.07083692 -0.29045445 0.18778323 0.11931144 -0.022484014 -0.20259449 0.49607882 0.2818586 0.16283156 0.04205498 -0.14824727 -0.174498 -0.21856537 0.12891062
였 -0.0070907553 0.0640461 -0.058332007 0.0048995414 -0.07228251 0.046146102 -0.054628618 -0.08395941 -0.041337457 0.041057307 -0.00029116403 0.02900604 -0.047635183 -0.014863996 -0.0032846506 -0.0009944235
잼 -0.081562914 0.10549749 -0.1609963 -0.020337626 -0.064002134 0.027990941 -0.167913 -0.014496473 -0.18999971 0.14384115 0.07420924 0.17589368 -0.057730313 -0.13453466 -0.058069512 0.20017554
사랑 -0.023205332 0.1361819 -0.024757475 -0.06173516 0.04962579 0.12962857 -0.109253004 -0.059365675 0.14434314 0.09515089 0.10476906 -0.046817612 -0.039818775 -0.057695873 -0.087109186 0.11886739
못 0.08778058 -0.032363787 0.13464195 0.079607695 -0.046309087 -0.057223074 -0.0053000986 0.10316507 0.013980438 -0.09500914 -0.040891316 -0.14656717 0.054069787 0.113143 0.10671786 -0.13344039
냐 0.019455537 -0.15554851 0.11863928 0.035740197 -0.037865013 -0.03142787 0.055390667 0.036187064 0.020622926 0.03056024 -0.058627505 -0.14193831 0.009431545 0.064475834 -0.02761985 -0.024724197
재미없 0.25067496 -0.034089234 0.2671439 0.2275257 -0.23253736 -0.18472365 0.22989707 0.28195435 -0.12539046 -0.39831698 -0.12998867 0.13991399 0.25124794 0.3368312 0.35793987 -0.44486865
쓰레기 0.21649076 -0.17164285 0.2780504 0.2599637 -0.12297771 -0.23055801 0.23462766 0.19550449 -0.09986423 -0.24510442 -0.20413634 -0.06338132 0.20689476 0.270953 0.26227126 -0.358091
서 -0.011678976 0.020763554 -0.049137466 0.0069234604 -0.020074673 0.012795446 0.012766536 -0.015023093 0.02056038 -0.017822111 -0.05569712 0.0076785623 0.034717485 -0.006923677 0.016346103 -0.011186029
야 0.052627537 0.08316853 0.018376771 -0.032603227 0.050502926 -0.045586366 0.02593196 0.04033885 -0.012576946 0.01654723 0.042435426 -0.06225754 -0.0035487178 0.06017854 -0.057358325 0.0238477
2 0.029866103 -0.046476595 0.07970097 0.01641325 -0.02237564 -0.02305218 0.029516794 0.022432031 -0.090827465 -0.024168892 -0.036462788 -0.32092994 -0.006900881 -0.0072024106 0.026534604 -0.03316283
라고 0.030756742 -0.015654773 0.0907539 0.10069788 0.0080459425 -0.057765227 0.06792485 0.04165957 0.006163866 0.012408793 -0.017553337 -0.009882022 0.027153745 -0.021048084 0.027239518 -0.005704755
니 -0.022715067 0.035827965 0.010400163 0.030789465 0.095355384 -0.017488746 0.1050957 0.009180118 -0.03125111 -0.014235439 -0.0057656174 -0.07588712 0.02043972 0.07334209 0.030972268 0.011080835
면서 -0.04888541 -0.0078415675 0.010629466 -0.027361812 0.022110905 0.017219376 -0.05711371 0.019498955 0.05119211 0.06629227 5.189015e-05 0.13377285 -0.060191862 -0.0066850143 -0.045329634 0.045819066
번 -0.02007477 0.033793405 -0.061026815 -0.05482616 -0.004029762 0.0037713964 -0.038282167 -0.014180945 0.02045486 0.020680362 0.062381666 -0.05504756 -0.082720965 -0.058733504 0.009931321 0.001384043
다시 -0.030861814 0.06230751 -0.08686683 -0.06094106 0.08084089 0.026872732 -0.24854496 -0.074925385 -0.06280574 0.10610783 0.09893994 -0.054702796 -0.12835062 -0.10810946 -0.026632229 0.12132876
나오 0.02475867 -0.023268491 -0.0052610696 -0.0230389 0.064986184 0.0062382356 -0.0077115754 0.03697193 -0.013625147 0.023228196 -0.051475983 0.15901376 -0.03423206 0.032722924 0.02363978 0.051755965
작품 0.031629868 0.0428619 -0.0011871256 -0.023224847 0.05590707 0.04435716 -0.074457936 -0.0077476455 -0.030797422 0.044838853 0.10957545 0.008641686 -0.09626153 -0.04935395 -0.0067675794 -0.0056301295
이거 -0.0071459366 0.060613383 -0.06498996 -0.038469665 -0.029170835 0.0102264825 -0.04110802 -0.043329425 -0.08218477 -0.006786349 0.05452965 0.13007689 -0.04687521 -0.030351542 -0.013708614 0.013504775
하나 0.020466931 0.032268833 0.046798673 -0.007973618 -0.04847749 -0.0017041728 -0.03820421 0.0012490817 -0.032171454 -0.061265495 -0.050219633 -0.06250049 0.04762123 -0.0118761035 0.051201206 0.037076488
줄 0.048696656 -0.01592381 -0.0057151495 0.06462329 -0.00014623418 -0.039295178 0.100356475 0.030013695 0.11273997 0.070880614 0.028106045 -0.079734854 0.037105702 -0.006785294 0.0467748 0.013285431
해서 0.04427371 -0.07097499 -0.005018055 -0.042000704 -0.033705223 0.0033635767 -0.09086843 0.05504973 0.04280066 0.045689162 -0.02736729 0.029565105 -0.02009392 -0.07170208 -0.005680759 -0.013900643
개 -0.0024481534 -0.015894119 0.05467468 -0.033851687 0.042789064 0.043891978 -0.09298322 0.0076863915 -0.066504106 -0.013312047 0.009466471 -0.048104357 0.04233052 -0.024476241 -0.035684325 0.011567147
정도 0.0078658555 0.043599863 0.023319785 0.018497707 0.07882515 0.036800936 0.14603709 -0.016068703 0.018503062 -0.050104074 -0.08412902 -0.18324915 0.082136825 0.0901555 0.06697004 0.00417455
남 0.03930556 0.05899507 -0.047935795 0.019311646 -0.05090277 -0.017722493 -0.010907108 0.042661145 -0.15715082 0.03082316 -0.040071126 0.13478278 0.03616074 -0.030165346 -0.0043414854 0.050098397
마지막 -0.09096521 0.08871576 -0.030170063 -0.04447403 0.018805409 0.0906844 0.07420092 -0.089247674 -0.061625253 0.005895501 0.012518795 -0.060088176 -0.028574973 0.0408771 -0.010426247 0.024860503
끝 -0.034884997 -0.006162191 0.07050997 0.03181539 -0.039866477 -0.05832312 0.09058795 -0.004244951 -0.042850934 -0.056499824 0.012170432 0.025826285 0.018826516 0.035066918 0.04206341 -0.03326901
액션 -0.00923313 0.053370886 -0.030713627 -0.012087041 -0.008836182 0.009505106 -0.15165296 -0.035593968 0.08603986 0.02752803 0.059459258 -0.07906738 -0.0064951857 -0.047300164 -0.057030357 0.06938697
이건 0.1189385 -0.15767 -0.077250004 -0.021237878 0.08851127 -0.16100387 -0.04006487 0.0940281 0.035448063 0.131444 -0.10901278 -0.18293504 0.02482336 -0.038452115 0.013966596 0.06890549
임 -0.07519747 0.08550463 0.031944957 0.035907827 -0.07604938 0.03433223 0.024535183 -0.007656334 -0.07602738 0.030284368 -0.053731017 0.061596785 -0.020180462 0.02494035 -0.01721647 -0.0300924
건 -0.019356327 -0.021221725 0.06490707 0.05801805 -0.091389835 0.006361998 0.052968565 0.043501906 0.055881742 -0.010931108 -0.0040161624 -0.072108455 0.0742442 0.009125216 0.10299701 -0.058731444
ㅋ -0.06428149 0.041889917 0.024509767 0.0048803412 -0.083066836 0.05978293 0.04299629 -0.015342312 0.003673811 -0.023728626 0.042559266 0.040571723 -0.011161795 -0.013162066 -0.01685543 0.021668704
3 0.056462627 0.047852103 0.008864792 0.08235731 0.032237004 -0.07783383 -0.053789366 0.026177207 -0.007620611 0.015292385 -0.044141702 -0.13069995 0.025068624 0.04442144 0.052038673 -0.063314535
기대 0.092349656 -0.05410499 -0.041046593 0.021020425 0.08955436 -0.009308427 -0.09519284 0.0055471 0.17371826 0.037936114 0.048054107 0.1809533 -0.03384766 -0.02964904 -0.05820628 0.020403957
입니다 -0.047027305 0.0064988025 -0.089060985 -0.027934182 -0.067178614 -0.05009298 -0.13126515 0.00033554898 -0.15318786 0.10257164 0.00800585 0.1529202 -0.051318474 -0.037659388 -0.016996462 0.018675555
라는 -0.032016523 0.006492191 -0.017322507 -0.05629465 -0.008993354 0.035830755 0.05596953 0.004555994 -0.14627613 -0.019225523 -0.0020249803 -0.024967462 0.042098235 -0.00639779 0.020646336 -0.018284503
분 0.0021204571 -0.13275503 0.053222302 0.031762194 0.020415293 -0.08921664 -0.0029618917 0.051262487 0.094256595 -0.005895209 -0.10822859 -0.022351384 0.05893212 0.054034922 0.08569692 -0.059536196
완전 0.015061304 -0.028343499 -0.098733984 0.0143286735 0.18933615 -0.109639585 -0.28471735 0.047377564 -0.07111574 0.047273222 -0.030509856 0.077655554 -0.078203045 -0.11561151 -0.06019154 0.11316149
다는 0.018094981 0.013009591 0.038903385 -0.031236134 -0.0057686353 -0.045081075 0.023079634 -0.024607485 0.08172999 -0.04614279 -0.040869296 -0.0162995 -0.0014852973 0.046192586 0.0005792711 -0.049875136
참 0.059774827 -0.017351283 0.04157569 -0.012967515 0.037567563 -0.040294982 0.043239214 0.046421275 -0.031900983 0.027503554 -0.024041723 0.08329774 0.0059968876 0.010558177 -0.030261638 0.037888996
많 -0.081737585 0.04583707 -0.059027188 -0.028567785 0.055791944 0.032142986 -0.031546555 -0.03593564 -0.083045214 0.07696906 -0.0025264027 -0.20052229 -0.06094692 0.0039624237 0.03844208 0.064565815
처음 0.060252763 0.097172625 -0.01660724 0.040330153 -0.13732773 -0.004806651 0.03530192 -0.00091600284 -0.16264445 0.0068368507 -0.008961697 -0.06172587 0.027874356 0.029132398 -0.0025554067 0.024267886
장면 0.019877767 -0.040691156 -0.02394269 -0.037181545 0.029442523 0.040687114 0.058803815 0.044190403 0.047969025 0.02282011 -0.008196551 0.014225428 -0.002252917 0.025803141 -0.022592785 0.050590683
대 0.0038266447 -0.018231496 0.050173573 0.014068418 -0.018656569 0.016971644 0.091871716 -0.014161939 0.111811146 -0.08640779 0.03770634 -0.09801495 -0.0023837257 0.032019198 0.005802576 -0.031611897
아깝 0.099078566 0.17678733 0.06748039 0.10568055 -0.2804051 0.044991728 0.2500313 0.06996846 -0.16201425 -0.28717524 -0.028279519 -0.11721394 0.12312828 0.30120602 0.19415727 -0.31989658
다가 0.056012973 -0.14213029 -0.023712384 0.03095154 0.027494434 -0.123028696 -0.019896286 0.0897587 0.06634355 0.002268941 -0.05166348 -0.09083526 0.06683535 0.003976264 0.0062362556 0.01726912
으면 -0.056269553 -0.052031066 0.059507087 -0.04942213 -0.017348606 0.016712118 0.016895417 -0.0047180387 0.017508049 -0.035438806 -0.0097762495 -0.040546604 0.029418152 0.050635334 0.030909399 -0.008150654
지금 -0.081295006 0.010949859 -0.062710255 -0.05281294 0.015667852 0.07220293 -0.03296331 -0.0108906645 -0.009539058 0.04970785 0.04359177 -0.16677532 -0.04602695 -0.01843779 -0.055605177 0.08127638
모르 0.008247404 -0.09145716 -0.011739808 -0.05396005 0.19182813 0.00018555316 -0.13265295 0.013736784 0.05813077 0.042117193 0.013967703 -0.09185279 -0.0154190445 -0.055766232 -0.013779925 0.06738494
이렇게 0.067127645 -0.07512292 0.0025980934 0.041294508 0.111837454 0.0037069651 -0.070280574 -0.048002496 0.035141464 -0.0060991137 0.052953985 0.11915132 0.036237445 0.0051200967 -0.020458238 0.09046199
' -0.061094854 0.0043490683 -0.029838096 -0.008223132 -0.037166327 -0.0731069 0.020375438 0.0038487855 -0.023035232 0.07942937 -0.011647477 -0.1167073 -0.04884073 -0.01182684 0.010069344 -0.0147761265
편 -0.06869428 0.079074144 -0.038973425 -0.06774596 -0.068540044 0.07269754 -0.045148097 -0.08924893 0.02405029 0.034734078 0.012867293 0.045376744 0.0050181365 -0.0037280247 -0.01126396 -0.028986612
일 0.046838257 -0.010674246 0.0064378656 -0.009604346 0.05392773 -0.04201954 0.006395 0.028095676 0.008065908 0.04073948 -0.034858152 -0.119266585 -0.00073857146 -0.024539499 0.0041733813 0.08132903
성 -0.018812694 0.008064175 -0.0516356 -0.030137144 0.031283986 0.01613937 -0.006233072 0.026032064 -0.04517103 -0.067961015 -0.030665165 0.04670187 -0.013422035 0.05713156 0.031940702 0.029452704
돈 0.12803434 -0.09766461 0.14168511 0.069044486 -0.18785481 -0.13298352 0.21583906 0.11197694 -0.013498109 -0.2653941 -0.14036429 0.036362477 0.11822994 0.20831761 0.20013733 -0.20898165
이게 -0.05056268 0.03441202 0.029846476 -0.043484922 -0.10585015 -0.016682988 0.026055431 0.02814212 0.01059294 -0.035317022 0.010213873 0.009295501 0.06130895 -0.0017541164 0.023250313 -0.045279827
느낌 0.12782872 0.07201926 0.051225156 0.06292039 -0.07257622 -0.041285414 -0.08366532 0.015145184 -0.034083825 -0.054665383 0.008571381 0.04424933 -0.015233545 -0.017421678 0.0688901 0.043811098
시 -0.041601215 0.06296799 0.00703112 -0.048681352 -0.086893 0.07850993 0.1317061 -0.022341343 -0.026495442 -0.03698254 -0.019006735 -0.06435 -0.04736353 0.0035724698 0.049878363 -0.028285326
이야기 -0.010566953 0.06425167 -0.071713194 -0.015639527 0.009690678 -0.008168885 -0.11234488 0.00948258 -0.0072224303 -0.028225714 0.046869986 0.01575432 -0.04809053 0.012648536 -0.046389595 -0.00092583476
최악 0.3003768 -0.52854985 0.24186666 0.37389353 -0.3496118 -0.30481824 0.31851402 0.4682783 -0.22363214 -0.40751922 -0.26256612 0.48837698 0.2707187 0.459529 0.26433492 -0.52712667
된 -0.05440038 0.009045935 -0.059439912 0.058726646 -0.07071456 0.034875773 -0.024961786 0.049606957 -0.0008719987 0.09660297 -0.05056344 0.084030695 -0.02412103 -0.06474885 -0.034799337 -0.012197858
봐도 -0.054538656 0.095784046 -0.17135876 -0.0011684211 -0.10004572 0.042053822 -0.06049195 -0.08210495 -0.22502555 0.027965391 0.02412785 0.14950843 -0.08603234 -0.014482085 -0.035068315 0.08911031
님 -0.027860017 0.08908471 -0.051698156 -0.038310975 -0.016641758 0.070792235 -0.0039363424 -0.029988851 -0.052792132 0.016849678 0.015133675 0.14396155 -0.07475778 -0.079960674 0.004532821 0.025177715
어서 0.038074214 0.0007205073 -0.041723847 -0.028366126 -0.05308976 0.013839323 -0.09752512 0.008927054 -0.17397822 0.014437902 -0.022282869 0.0055818586 0.03105722 -0.04391795 -0.00881837 0.035182383
애 0.03585784 0.04194935 -0.023565313 0.0636571 -0.030637909 -0.035171315 -0.073835365 0.019011678 -0.06866479 -0.06962552 0.03392315 0.081189334 -0.036159035 0.061606634 0.008461242 -0.04792744
전 -0.019858096 -0.06039198 -0.04268995 -0.0115001695 0.003917417 -0.013912653 -0.13048829 0.023607854 -0.064577475 0.03122016 0.009005313 0.07532168 0.011526433 -0.04581323 -0.0019661048 0.085371196
넘 -0.03083141 -0.055295296 -0.056016732 0.0625321 0.13783635 -0.04614217 -0.25139344 -0.02685965 -0.07402155 0.12220199 -0.029010814 0.15445061 -0.055460446 -0.09693997 -0.053297613 0.07030638
ㅠㅠ -0.100356646 0.11371204 -0.004231193 -0.0014410714 -0.12359852 0.029239481 -0.06034179 -0.041554302 -0.09390831 0.08180327 0.009070228 0.10724213 -0.07295076 -0.049422227 -0.03462353 0.0781822
다고 0.04110825 -0.091487296 0.097033456 0.09265739 -0.00022860504 -0.054479823 0.059486818 0.0017886063 0.2458423 0.039152764 -0.09689297 -0.17590979 0.08397496 -0.016205283 0.08871939 -0.031337317
인데 -0.031816665 0.040106706 0.040650204 0.023965891 0.021329002 0.0011939788 0.04776415 0.0065269014 -0.045243934 -0.00025448643 -0.021336501 -0.1711696 0.022344537 0.06686809 0.01726642 -0.031569432
그리고 -0.025574395 0.0614581 -0.059031386 -0.0738542 0.08675932 0.03896202 -0.11459545 -0.061176304 -0.014724278 0.069931924 0.079464935 0.18106695 -0.01528037 -0.08763747 -0.07792585 0.058457248
명작 -0.1479072 0.22556809 -0.13348465 -0.1502437 0.17732652 0.15046978 -0.24495542 -0.108215585 0.14808439 0.072424114 0.10826844 0.13524115 -0.1616145 -0.17333339 -0.11689189 0.19488484
여자 0.08622741 -0.03792903 0.12080646 0.059475053 -0.07618169 0.011410688 0.12098796 -0.021980869 0.11842099 -0.09659879 -0.019597525 0.01430286 0.009997024 0.025749916 0.03243224 -0.024827056
이해 0.009129393 0.03522151 0.08820487 0.008493146 0.00533467 0.0058844914 -0.15473346 0.020712292 0.12757875 -0.012112717 0.034099218 -0.03190083 -0.034038074 0.05689334 -0.035466142 -0.010984216
^^ -0.028149167 -0.05616755 -0.053330656 -0.09078002 0.2538781 0.0253763 0.000888734 -0.051032994 0.0538413 0.10019212 0.033709012 0.021985684 -0.046603173 -0.052519426 -0.073294766 0.08639443
난 -0.015348342 -0.0038107953 -0.062828 -0.07877987 0.14738838 -0.020168511 -0.16490515 -0.0016173603 0.002296389 0.12493507 0.053222533 -0.23025858 -0.04084813 -0.09926024 -0.058786385 0.14790936
역시 -0.04790794 0.03522756 -0.10060637 -0.05154708 -0.06460755 0.067883335 -0.09562789 -0.05136842 -0.0926429 0.061951704 -0.019349732 0.13980348 -0.08058137 -0.12456613 -0.041975986 0.022749314
또 -0.070056036 0.08499791 -0.050139632 -0.050668303 -0.006180534 0.08996206 0.106482744 -0.012117967 -0.10411439 0.021276917 0.049448676 0.13566831 -0.09823149 0.0107333595 -0.058442112 0.009785096
걸 0.04603083 -0.018426264 0.042630997 -0.003812158 0.016650746 -0.011535135 0.07014926 -0.017518766 0.037610225 0.017593544 0.00014644163 -0.051155753 -0.004362556 0.014745695 0.037737474 -0.06580225
한국 -0.019469831 0.09678424 0.0129871825 -0.010515285 0.00060759345 0.056177303 0.07559344 -0.0072168997 0.025366316 -0.011964199 -0.010699483 -0.01697603 -0.030515788 0.04013411 0.02219146 -0.0012934462
이상 -0.024630956 0.0058505875 -0.05131676 -0.053980894 0.010739269 0.0047303895 0.04299953 0.049247712 -0.13543884 -0.09807735 0.030808773 -0.10759312 0.0432537 0.02998711 -0.016840674 -0.028459808
부터 0.03225187 -0.015722014 0.04187533 0.047041416 0.0035789416 -0.06633355 -0.049586702 -0.00990936 -0.006035449 -0.0040419754 -0.01947358 -0.031821597 -0.015908502 0.029531153 0.028683165 0.037629846
는지 -0.0055102794 -0.07111089 0.07981592 -0.0031100456 -0.0017922604 0.052170705 0.06952495 -0.03684609 -0.028905317 -0.09886299 -0.058914147 0.04219628 0.07411892 0.085686356 0.08242187 -0.0069612083
많이 -0.00031016668 0.068019 0.012597215 -0.00075823395 -0.00014437069 -0.042732716 -0.00019790829 0.02996532 0.0017543418 0.0037808511 0.029615842 -0.038715363 0.0081552 0.0014944907 0.0011035721 0.032340325
에게 -0.01967618 -0.03160895 0.0039202054 -0.075952575 0.020323472 -0.0065443167 -0.024904922 -0.044772387 -0.052292075 -0.008662503 0.05724799 0.15218739 -0.031797152 -0.03525245 0.01160224 0.06359343
주인공 0.08202607 -0.06695223 -0.025641667 0.040622212 -0.026083972 -0.0014763266 -0.10799363 -0.0060753357 -0.049067717 -0.0060707745 0.036709722 0.07650009 0.03317471 0.032566518 0.046523746 0.010490738
별로 0.2265672 -0.015006641 0.20094053 0.23725194 -0.20047154 -0.09892038 0.19798793 0.27334172 -0.18338923 -0.2726973 -0.10123921 -0.18654744 0.19931118 0.18403961 0.23160063 -0.3236577
받 0.0010975914 0.046641946 -0.018709226 -0.01549071 -0.017969416 0.044866957 0.082538076 -0.040584393 -0.045790326 -0.0086481115 0.057276983 -0.059859373 -0.018293867 0.0050435513 0.0053650206 -0.03885527
합니다 -0.020995663 0.046320125 0.011424489 -0.024948802 -0.0496346 0.050072204 0.03250106 -0.055565342 -0.08765141 0.049932797 0.07531972 0.053255215 -0.055776693 -0.10018539 -0.072147764 0.08882218
두 0.027592778 -0.0069716694 -0.04694528 -0.03381951 -0.024697846 0.0072911796 0.08018606 -0.026801405 -0.0807697 -0.004067982 0.028005825 0.020278824 -0.010530612 -0.021496193 -0.069848016 -0.0079655545
우리 0.0113827 0.065139025 -0.10742138 -0.075856216 0.10773945 0.022328343 -0.068957984 -0.06672041 -0.0456997 0.050148755 0.13265616 -0.020765884 -0.10800963 -0.06211312 -0.046128213 -0.0024932195
만든 0.011687559 0.091364436 -0.00584349 0.00748567 -0.031080106 0.041475486 -0.04450426 -0.024789233 -0.07320319 -0.025432784 -0.056405954 0.124543354 0.04083613 -0.0555267 -0.01710064 0.038408525
살 -0.0042903456 0.059682146 0.017552169 -0.022245664 -0.03818145 0.07999819 0.12496757 -0.020855898 0.17247422 0.0092206765 0.08139023 0.011353114 0.01609548 0.049212426 0.021020766 0.01985586
!! 0.01766238 -0.0009353981 -0.021109268 0.017444177 -0.07477143 -0.033277176 0.026733506 0.03879723 0.00035583685 -0.03005666 -0.02720408 0.07500703 -0.03951074 -0.0021179665 0.028516924 -0.053965416
길 -0.08490392 0.025955286 0.039328337 0.008275815 -0.047599785 0.08391368 0.060364824 -0.021082794 -0.0742044 -0.04628662 -0.008216528 -0.030521382 -0.0111926915 0.014867114 0.0038299824 0.006838822
엔 -0.03904081 0.031389933 0.073129795 0.06541749 -0.055189233 0.033876803 -0.010135206 0.046293497 0.057865065 -0.0856215 0.02831683 -0.13393648 0.06555985 -0.013799594 0.07353362 -0.09019961
괜찮 -0.14884356 0.118528925 -0.023025146 -0.03711432 0.050569817 0.124965176 -0.119925 -0.10015022 0.10077123 0.12571394 0.06756375 -0.021257684 -0.092446536 -0.11656413 -0.09390746 0.17928196
기억 -0.08445232 0.032741606 -0.10477358 -0.044693526 0.026652897 0.0054251244 -0.19902433 -0.07477099 -0.064757094 0.08000345 0.06833626 0.21160816 -0.11090851 -0.15120329 -0.06915156 0.09479621
연출 0.00455391 -0.04405129 -0.007973011 -0.010684919 -0.009093629 -0.03351854 0.016431985 -0.0036073069 -0.08410069 -0.012727395 0.023389997 0.029370371 0.014517461 0.0638908 -0.02483966 -0.011629013
한다 0.02302248 0.012015976 -0.041230727 -0.0833687 0.11334666 0.018746702 0.013566079 -0.040533993 0.068824306 0.00037258098 0.020481309 -0.07159664 0.011714284 0.037288405 0.03716862 0.040219657
때문 0.0021940311 -0.023358997 -0.05653565 -0.048590127 0.0027364583 -0.017137634 -0.08550501 0.009209206 0.054166526 0.09620637 -0.027375165 0.14019142 0.017003566 -0.07742968 -0.00038063197 0.013830995
ㅎㅎ -0.09382979 0.048749447 -0.006142425 -0.0716004 -0.018615438 0.059733123 -0.10694729 -0.027566737 0.013072938 0.037118148 0.06560745 0.13307765 -0.08728916 -0.030459706 0.046261877 0.026399788
이나 0.08966652 0.060509812 0.1257798 0.031547904 -0.14141956 -0.012689796 0.0946677 0.06794449 -0.10532939 -0.11274808 -0.046119098 -0.06263168 0.09828858 0.09162637 0.08300287 -0.020895185
요 -0.09032139 0.029723678 -0.032532442 0.031011466 -0.06837286 0.050611902 -0.040238265 -0.00909339 -0.04349762 0.014950681 0.03247247 0.066119224 -0.061475523 -0.0032546185 -0.023600968 0.041906703
저 -0.023688363 0.0075517013 -0.054414827 -0.031723112 0.03678472 -0.07178367 -0.06943998 0.062011328 -1.5286816e-05 0.021993397 0.0025297448 -0.21245022 -0.058321662 -0.043844167 -0.030680848 0.09531692
재 -0.091935776 0.059076864 -0.07128856 -0.058311943 -0.048256304 0.0034559343 -0.25724953 -0.052034874 -0.15295404 0.10807487 0.0409778 0.08252042 -0.06927926 -0.11468388 -0.0846327 0.102370866
꼭 -0.1081043 0.10149152 -0.1853978 -0.15322539 0.020879578 0.06127146 -0.01774235 -0.056797102 -0.008871349 0.05584638 0.13416429 -0.08171134 -0.07161742 -0.123710625 -0.06214222 0.052701317
며 0.022320574 0.0038873819 -0.07323953 -0.05748824 0.02193841 0.014183462 -0.052371167 -0.037088364 -0.060412437 0.045923203 0.027390478 0.049173262 -0.044668853 -0.051434044 -0.004966888 0.03299272
현실 -0.08442327 0.06270603 -0.060645923 -0.07079628 0.049939018 0.05363404 -0.0843069 -0.040006272 -0.035506576 0.06729191 0.07258322 -0.091569886 -0.053611975 -0.030504074 -0.019413251 0.0874155
랑 -0.021893702 -0.020628503 -0.05025893 0.048410445 -0.050598186 -0.008470705 -0.0830324 0.070305265 0.06147912 -0.015564233 0.010401882 -0.02190208 0.03816985 0.05041459 -0.0070361504 -0.040489845
긴 0.017779041 -0.12555383 0.08695476 0.0035529726 0.04477345 -0.042103954 0.08482679 0.047647543 0.19509056 0.009004755 -0.058694374 -0.27301502 0.056381475 0.04176829 0.1364371 -0.057988625
ㅡㅡ 0.06800328 0.06395283 0.091467686 0.032940254 -0.14713123 -0.041729372 0.12517709 0.11878048 -0.05758383 -0.096364826 -0.051518373 -0.06968794 0.032731026 0.11297576 0.08305969 -0.1602597
무슨 0.069920525 -0.05301121 0.045034707 0.08235727 -0.10749165 -0.09465577 0.048889633 0.16646071 -0.08733958 -0.18257579 -0.07510654 0.008896651 0.113701805 0.10186572 0.17601141 -0.113838196
내내 -0.018409647 0.05833795 -0.03274259 0.0015951417 -0.027551912 -0.009528879 0.029536515 -0.016961329 -0.11534585 0.028350849 -0.044189088 0.00891099 -0.0121843 0.014346673 -0.00014774913 0.013505535
결말 0.008344278 0.057530023 -0.012665937 -0.025437603 0.0013673948 0.051034316 0.108093105 -0.021613987 -0.1336003 -0.09237155 0.027457109 0.0064150556 0.035331655 0.046706337 0.03796355 0.027833661
죽 0.0012632854 0.07090499 -0.021365149 0.0013035976 -0.09353585 0.03745167 0.07330906 0.01015227 -0.06477397 -0.0041730357 -0.019181982 0.020799821 -0.03209532 0.049053818 0.027552541 -0.005066958
세요 0.06926933 -0.019489875 0.025338264 0.012812569 0.018324135 0.013619954 -0.024354225 -0.015377453 -0.0049398053 -0.026841264 0.02448013 -0.03806522 0.007824529 -0.014094878 -0.017478058 0.050707288
남자 -0.07054169 0.05997143 0.0059794947 0.013473559 0.0021778625 -0.007901284 -0.029394636 0.0139281945 -0.03133453 0.0699143 0.0025020102 -0.03425079 -0.04439615 -0.059807163 0.027385145 0.01112842
전개 -0.013345638 -0.03451884 -0.002349693 0.061331723 -0.05135164 -0.052967526 -0.033704642 0.016758814 0.020728048 -0.0576352 -0.08262053 0.022712676 -0.005456755 0.07063512 0.08438305 -0.022444125
마음 -0.052283153 0.16339648 -0.031341158 -0.099840894 0.11921492 0.067656346 0.022956746 -0.084517114 -0.06500238 0.071983665 0.06236159 -0.1744228 -0.09858229 -0.06786871 -0.09553219 0.12605506
별 0.12335522 -0.03623292 0.116973594 0.11627382 0.08051695 -0.10319998 0.0145976255 0.034261808 -0.13922495 -0.10705336 -0.01743099 -0.15277691 0.06754444 0.0857554 0.08799248 0.012140059
소재 0.11184778 -0.08126623 -0.019893894 0.06753901 0.0057342174 -0.04796807 0.036657993 0.06705907 0.13028526 0.011024043 -0.041451976 -0.109572746 0.053085927 0.03660762 0.042226233 -0.06732046
속 -0.060108792 -0.014857627 -0.018141802 -0.021569518 -0.032306824 -0.027987698 -0.048393294 0.05564352 -0.15990731 0.03579565 -0.02487357 -0.018515067 0.0038818682 -0.0066945297 0.009492089 0.0800125
공포 0.02117223 -0.0730254 0.034032535 0.04686966 -0.011792538 -0.009864743 0.11085341 -0.006637057 -0.009436724 0.007291411 -0.032525323 0.10440235 0.060020484 0.08601483 -0.013596075 0.022452848
다른 -0.11169966 0.23746358 0.066181466 0.01839595 -0.11862755 0.1237727 0.11570007 -0.05578546 -0.14723195 -0.05188971 0.0013171892 -0.039256096 -0.001772648 0.06863763 0.014194289 -0.027795054
아서 0.036628515 -0.033421874 -0.05144571 0.03759474 -0.049339604 -0.06099163 0.06016787 0.07744405 -0.060800694 0.04495513 0.02732493 -0.07896468 -0.035001177 -0.010590702 0.066818334 -0.0017563594
씨 0.0017851299 0.09698497 0.04054701 0.019138752 -0.0020528513 0.084913984 0.03541904 -0.00037338905 -0.064896666 -0.09533978 -0.011595964 0.07467848 0.036468785 -0.012748508 -0.019436436 -0.06761652
인생 0.010476948 0.023055842 -0.027538061 -0.081800014 0.14365795 0.040518127 -0.14563486 -0.075359896 0.12571628 0.059962764 0.08731101 -0.24887438 -0.0612406 -0.10445065 -0.10330661 0.094115056
~~ -0.039971747 0.08636501 -0.0058263517 -0.023857422 -0.074128 -0.007351812 -0.0608071 -0.06467865 -0.12996905 -0.023299955 0.07472734 0.1263049 -0.08155332 -0.041023005 0.043218073 0.06342592
짜증 0.17654982 -0.21249014 0.09677367 0.13000412 -0.13762091 -0.115946375 0.099028155 0.16828352 -0.032869585 -0.26960605 -0.11394412 0.055106677 0.13274197 0.20477535 0.20615865 -0.24198395
짱 -0.17325613 0.106288284 -0.20184307 -0.0745864 -0.15888405 0.06783533 -0.10007388 -0.08819023 0.055731397 0.15139538 0.038750835 0.2797532 -0.12298212 -0.16398373 -0.048001762 0.05501325
뿐 0.04526172 -0.1123916 0.007945584 0.07272897 -0.08043374 -0.08112848 0.020387659 0.08584982 0.08160252 -0.036201417 -0.09256385 -0.12648661 0.0407841 0.063710146 0.010939667 -0.1022178
은데 -0.0015119882 0.0077653285 -0.024607975 -0.050652444 0.0872161 0.013925035 -0.011670464 -0.036239877 0.12104383 0.0040453584 -0.0037450937 -0.07319871 0.0049092276 -0.05221394 -0.042939432 0.050032504
아요 -0.06870242 0.09041645 0.0061549987 -0.053500604 0.025489742 0.0047283084 -0.06120214 -0.08001926 -0.089674465 0.02353165 0.08218208 0.031425796 -0.029395351 -0.030821994 -0.07210941 0.055753656
유치 0.1638714 -0.032740265 0.16748655 0.137853 -0.1382112 -0.1489478 0.17027155 0.17650385 -0.15760125 -0.1677246 -0.181323 -0.20237322 0.16893266 0.17839588 0.11064737 -0.20980753
필요 -0.10527842 0.27142766 0.057667647 -0.18142916 -0.04292016 0.14138526 0.09058879 -0.19343808 0.14297189 -0.044443637 0.120495826 -0.20725203 -0.10572793 0.04240583 -0.07165789 -0.0316345
가장 0.016461564 -0.03795376 0.0054582763 -0.020997658 0.08568858 -0.012299641 -0.09746777 0.024403455 -0.23284966 0.05729091 -0.038691446 0.0024553686 -0.007249407 0.0059755617 -0.004163107 0.023860227
음악 0.01619582 0.056710236 -0.042760372 -0.042479713 0.018951936 0.09492709 -0.041366853 -0.023393035 0.021604728 -0.03239577 0.064068824 -0.21308526 -0.073335506 -0.01994073 -0.010658807 0.05835171
) 0.036517836 -0.010156216 -0.050866377 -0.02485205 0.053121362 0.021258615 0.03204623 0.029900825 0.07095967 0.0324308 0.026919998 -0.0012018232 -0.0018782965 -0.0061870445 0.022336386 0.0030431387
일본 -0.03182387 -0.082889214 0.063928396 0.060182676 0.0027233711 -0.004255904 0.0783844 -0.008629899 0.034928676 0.056309238 -0.027630892 -0.033026036 0.067054555 0.011037862 0.026163364 -0.01040693
낮 -0.17666924 0.15149908 -0.09086287 -0.11481574 -0.0075769294 0.1169289 0.028969659 -0.20829327 -0.16129482 0.04611604 0.054169383 -0.028288757 -0.06505931 -0.1670121 -0.09736949 0.17640176
오 -0.0521827 0.048677403 0.012566181 -0.0154661555 -0.017101744 -0.020456566 -0.06846769 0.008180537 -0.10674998 -0.0016940705 -0.045418352 0.13895172 -0.052039947 -0.036646698 0.011125301 0.052377306
;; 0.031620555 0.022796212 0.00050324283 -0.015281084 -0.14714447 0.005619762 0.15645365 -0.01626174 0.003592328 -0.06680778 -0.048785675 -0.015344602 0.043697204 0.021776443 0.044054426 -0.088609084
아이 -0.03842342 0.00879272 -0.019364187 -0.04637658 0.008324255 0.042917415 -0.02795134 -0.038750138 -0.07000535 0.05564391 -0.020421244 0.15015784 0.025485856 -0.01913904 -0.025121903 0.035610512
반전 0.014760539 -0.042031433 -0.07477791 0.009301862 0.08897522 0.022306962 -0.0007747856 0.01117355 0.08898638 0.039542116 0.02963776 -0.10501935 0.021736907 -0.011304811 -0.054878905 0.06612227
데 0.028618358 0.032799296 -0.0017111507 0.02235897 0.06141113 0.046016432 -0.033080935 0.05136148 0.016465716 -0.021709131 -0.029904764 0.053362306 -0.023934 0.029016543 0.049286313 0.035772633
수준 0.14710346 -0.021717647 0.05002525 0.120691426 -0.21313956 -0.061619967 0.08469571 0.10348884 -0.042076506 -0.21796323 -0.035991423 -0.08483425 0.10769451 0.16521324 0.15253891 -0.24058108
다니 0.02426259 0.07351464 -0.024334382 0.015783938 0.04646462 0.039505005 -0.014112814 -0.047292717 0.024799317 -0.008819 0.024494972 -0.16289741 0.030537577 0.015296969 0.021849167 -0.058873773
웃 -0.044191737 0.01566618 -0.02519084 -0.066151455 0.021825112 0.07159726 -0.09262972 -0.06156832 -0.021837903 0.03309341 0.08554681 0.011775743 -0.06908133 -0.05779216 -0.004727063 0.03987984
매력 -0.053376008 0.055273227 -0.0418226 -0.12251009 0.15678863 0.02809453 -0.060714185 -0.12410219 0.13737917 0.17899343 0.042287886 0.110466495 -0.113305934 -0.15486592 -0.07337782 0.15107423
맞 0.08154303 -0.10136409 0.00350898 0.046163555 -0.06282922 -0.0404709 0.016433805 0.05386247 0.08398453 0.040203907 -0.032406308 0.085001186 0.03759048 -0.017641624 -0.00512353 -0.0034677736
인지 -0.016509019 0.074008845 0.041877072 0.02599459 -0.049597565 0.029502714 0.03994945 0.01816265 -0.071523525 -0.004382735 -0.0619177 -0.006270091 0.041560315 0.059262052 0.027110014 -0.0032308388
가슴 -0.07215703 0.14639695 -0.14407048 -0.05411265 0.02181833 0.1259184 -0.10885082 -0.07012895 -0.16212976 0.10610011 0.118416466 0.23788935 -0.07049689 -0.12959158 -0.11276296 0.08472317
없이 0.054433532 -0.18183109 0.039703235 0.018197844 0.07704196 -0.073008865 -0.024388127 0.04773544 0.038571995 0.05401879 -0.10686187 -0.3092266 0.054569453 0.022087637 -0.031461656 -0.008965546
원작 0.035637878 -9.643816e-05 0.082756795 0.08304356 -0.09356673 -0.08166802 0.08229312 -0.0038257325 0.019578854 -0.027906444 -0.05961788 -0.04190197 0.06807887 0.12141773 0.045539305 -0.106442876
ㄷ -0.049645904 0.0760245 -0.011424332 0.01678719 0.05077879 0.026557662 -0.028325312 -0.026700867 -0.013961043 -0.021818632 0.031801626 -0.012558504 0.0009347086 0.0011740846 -0.047887515 0.052250694
인간 -0.044379503 0.108018704 -0.0024412994 -0.07416721 0.09194197 0.030874 -0.063370734 -0.060964607 0.07307358 0.017321058 0.065000996 -0.28324544 -0.02587598 -0.055166695 -0.046499178 0.035540745
굿 -0.15270336 0.1677847 -0.20889758 -0.121925786 0.019536665 0.056736905 -0.17683817 -0.19287314 -0.054137006 0.15751132 0.071446635 0.14804505 -0.13836545 -0.18334538 -0.12121689 0.2123806
높 0.001171305 -0.2282913 0.037338484 0.03044542 0.065609895 -0.108093515 0.022660492 0.05739877 0.010775125 -0.019887473 -0.14365232 -0.05299105 0.0343745 0.07765368 0.096641794 -0.013965983
ㅠ -0.03567138 0.03826277 -0.092617884 -0.047457997 0.012999891 0.027897146 -0.022899264 -0.0027793618 -0.053604774 0.008181994 0.043779466 0.035839614 -0.010141231 -0.06835372 -0.007576682 0.017397093
밋 -0.04106563 0.08905255 -0.08647943 -0.022382243 0.09020134 0.09238612 -0.035214104 -0.05706126 0.050597325 0.060048506 0.038841043 -0.15024763 -0.059715766 -0.02022232 -0.00011355296 0.030044118
( -0.013754577 -0.032111693 0.022666661 0.02402937 -0.036224954 0.0028401017 -0.004135453 -0.0033928307 -0.12473039 0.013416321 -0.02959168 0.1548516 0.017844893 -0.045499787 -0.013764375 0.030070486
급 0.038173705 0.0052804914 -0.09653864 0.042853203 0.07046657 -0.05615713 -0.14179677 0.0332014 -0.04307383 0.026898518 0.020269364 -0.05554125 -0.048780795 0.009289523 -0.047708813 0.068268016
만드 0.061619118 -0.0951122 -0.04514281 0.029216975 0.098757185 -0.041380834 -0.067579195 0.042799663 -0.03157912 0.029273735 -0.011336499 0.10708476 0.022882702 -0.04351761 0.016042814 0.059350487
눈물 -0.13063273 0.21244532 -0.15044375 -0.13750048 0.057029255 0.13106225 -0.098176695 -0.07579721 0.06541348 0.0858766 0.121574685 0.04873501 -0.18175717 -0.13021648 -0.10565554 0.11085802
보여 0.05127976 -0.002581602 0.002150595 -0.018972086 -0.014726609 0.030652128 -0.015988905 0.032081615 0.0011703989 -0.022711625 0.021908559 -0.084542885 -0.015358874 -0.046504658 -0.049646467 -0.03989752
준 0.039479405 -0.044337533 0.082791716 0.022603098 0.037463434 -0.015835715 -0.17156994 -0.013829918 0.10620876 0.08460316 -0.014725327 0.00962793 -0.032851845 -0.04985328 0.018049233 -0.0035305065
찍 0.030339744 -0.03294683 0.0012485719 0.058234077 -0.045346253 -0.088034205 -0.03296891 0.066389844 -0.0067288317 -0.06830577 -0.07792583 0.20368394 0.08754169 0.03284726 -0.014000049 -0.048447896
인가 0.021892564 -0.03073759 0.04586026 -0.03571794 0.031044459 0.008671527 -0.015198652 -0.0017037308 0.016746053 -0.034141097 0.014602136 -0.073921144 0.026874572 0.04219447 -0.02749042 0.039217114
노 0.12987627 -0.23612921 0.25704995 0.24697062 -0.24592331 -0.278599 0.20517243 0.23458117 -0.06350964 -0.36874261 -0.148454 0.2460645 0.19704112 0.33476874 0.40172046 -0.521739
용 0.024609668 0.011796358 0.025156314 0.040779337 0.0018752917 -0.04344481 -0.07435423 0.01305089 0.024216268 0.04088697 0.008580001 0.10501205 0.064899035 0.042441092 0.021823779 -0.031509608
을까 -0.020956539 0.0059090597 0.04339736 -0.029945819 0.08582729 -0.029116603 -0.052113675 0.0319147 0.021816771 -0.05154362 -0.018027034 -0.02966058 -0.02278905 0.04626592 0.026824532 0.025283111
화 0.05290807 -0.04960116 0.04103342 -0.02034178 0.046118658 0.023513056 0.030228898 0.05865119 0.0039032935 0.0051855394 -0.05833578 0.014098936 -0.0011465019 0.07139459 -0.0043989583 -0.0051489687
코미디 0.052254345 -0.03281574 0.023130309 0.0062569156 -0.015103852 0.01577875 -0.04102733 -0.030482305 -0.03377459 0.044229764 -0.0069811353 0.0029682245 -0.027292982 -0.028482031 0.031894125 0.06135721
여 -0.029021274 -0.000960497 0.011782296 0.02083194 0.024739003 -0.007988116 -0.058396008 0.014426809 -0.044381857 0.032403946 0.013041104 -0.0027835686 -0.036914155 0.023248445 -0.011178079 0.007896919
마 -0.03028629 -0.047373254 0.03324558 0.051608432 -0.06717057 -0.078964174 0.006154504 0.052602276 -0.06430496 0.005201599 -0.046736557 -0.15402266 0.025515413 0.035494577 0.029926285 -0.045695662
쓰 0.01057771 -0.05490233 0.083614565 0.013604327 -0.09744447 0.032716952 0.10221654 0.04525813 0.007776136 -0.03722653 -0.06832717 0.0693571 0.028026551 0.060010474 0.08643057 -0.028324513
모든 0.0066040987 0.024580713 -0.058061264 0.003963566 -0.0074322685 0.036743097 -0.10909634 -0.058555905 -0.09885428 0.15885994 0.05571968 0.26116395 -0.07777044 -0.1126712 0.014721463 0.04914231
신 -0.02568415 0.06595193 0.011954037 -0.0092825955 -0.020253886 0.058492966 -0.10909745 -0.07695956 0.026403466 0.029921738 0.08258393 0.19421251 -0.042678427 -0.005860904 -0.05630852 0.02948167
5 -0.09414642 0.025188455 -0.027027497 -0.02080069 0.05749953 -0.008002573 -0.17409053 0.016347012 -0.002722321 -0.032941375 0.067896724 0.22781122 -0.014208832 0.017601326 -0.026645023 0.057208665
아직 -0.1260375 0.0076452703 -0.12467221 -0.089938186 0.017986856 0.07827515 -0.12340087 -0.081631735 0.13018961 -0.0024392477 0.024008572 0.07245148 -0.060540944 -0.04970804 -0.025567526 0.011783839
처럼 -0.062618695 0.042099465 0.0017377976 -0.0093307365 -0.0006890778 0.034361683 -0.008753929 0.0029732506 0.013765971 0.03846639 0.020339372 -0.02872586 0.042531367 0.0228914 -0.024214298 0.0055301706
눈 0.017981559 0.04655594 0.058722872 0.057924867 -0.09553992 0.030466316 0.13147995 0.013617832 -0.0015913462 -0.13131088 -0.05445083 -0.19933209 0.0911767 0.13406885 0.11624638 -0.105900176
추천 -0.026809184 0.11413114 -0.08400638 -0.08478568 0.020209346 0.08235031 -0.1498342 -0.0059254644 -0.0122703 0.02061656 0.050524246 0.1306104 -0.08886519 -0.07997744 -0.041193806 0.10329322
아닌 0.077233754 -0.101410255 0.06903958 0.0147401085 -0.016443426 -0.11624831 0.05712905 0.07061079 0.032677397 -0.00077411655 -0.07341791 -0.2048924 0.07834665 0.004398109 0.06802452 -0.04090796
울 -0.1311947 0.15743236 -0.10850983 -0.0820041 0.013419899 0.12671196 -0.18122849 -0.08680979 -0.15775134 0.16866651 0.101463884 0.06495208 -0.07257969 -0.15998453 -0.11253255 0.14414553
자체 0.011105134 -0.040056694 0.051034957 -0.031158002 0.030601628 -0.044903014 -0.14385004 0.030964436 -0.10952583 0.029095756 -0.00435003 0.07318574 0.0035789295 -0.043938555 0.017201139 0.017149806
몰입 -0.03513043 -0.034921378 -0.13200244 -0.09845157 0.1599454 -0.05450296 -0.20445384 -0.025402091 -0.10067734 0.1797214 -0.00035487933 0.010517681 -0.0625856 -0.18732859 -0.11693053 0.1272728
4 0.06292947 -0.00578835 -0.00059709727 0.02110668 -0.03418321 -0.06293523 -0.016501527 0.008465953 0.025671935 0.04045974 -0.06529148 -0.15959391 0.019517371 0.015813207 0.034481253 -0.06384234
대박 -0.117143884 0.05875557 -0.086769424 -0.06761404 0.22114806 0.12741867 -0.05354255 -0.090011865 0.11253393 0.18334016 0.09345569 -0.009300487 -0.12852658 -0.17299008 -0.15935652 0.10965013
몇 -0.12497053 0.06701535 -0.113659956 -0.040188555 0.027485408 0.048095606 -0.08930296 -0.04825126 -0.018562425 0.11604942 0.060090803 0.28979567 -0.13251108 -0.04749953 -0.020870185 0.021693785
스럽 -0.00043115078 0.006910381 0.007463463 0.054039545 -0.050202765 -0.0054437076 -0.06427197 -0.02455912 -0.07829658 -0.04123124 -4.365331e-05 -0.03610501 0.026152672 -0.06241023 -0.02318146 -0.031555243
실망 0.11963636 0.0013902001 0.19105683 0.14873868 -0.33805847 -0.08231166 0.32966995 0.23051012 -0.16359928 -0.40460297 -0.16147375 -0.0990346 0.15112649 0.39626634 0.22597106 -0.3802756
는다 -0.037925158 0.16478944 -0.00038041238 -0.040437214 -0.14957534 0.0032620847 0.08780302 -0.056882836 -0.27768856 0.012927576 -0.042979848 0.0012691771 -0.041004173 -0.07652892 0.01354375 0.14392906
대한 -0.039990515 0.0938767 -0.08971024 -0.036091298 -0.016908849 0.0772432 0.015335816 -0.08397324 -0.06553171 0.009087372 -0.0022747382 0.097091 -0.02827834 -0.08507495 -0.014562902 0.031391475
죠 -0.05043306 0.09150622 0.011388271 -0.024977975 0.046018034 0.029571366 0.030482415 -0.07535932 0.051850896 0.026334 0.0643396 -0.061361898 0.017175699 -0.01807801 -0.032752164 0.0478466
란 -0.06939366 0.045183286 -0.014168104 -0.0501332 -0.056313414 0.04380136 -0.04678623 -0.05243295 -0.113184385 0.0007521404 -0.02557732 -0.038095973 0.0031841672 -0.04455491 0.015378974 -0.004885687
그런 0.010671044 0.0014890981 -0.008221388 -0.031485047 -0.060998447 -0.05589807 0.052814778 0.035692494 -0.008220193 0.027788095 0.060247786 -0.16600828 0.014715052 0.016938992 0.045150697 -0.016554425
솔직히 -0.03379167 0.032611113 0.10862164 0.06099422 -0.023533449 -0.034712162 0.07953962 0.02589764 -0.058085725 -0.09442364 -0.086698465 -0.1469452 0.015344658 0.06951265 0.051377457 -0.022510769
캐릭터 0.025195511 -0.049468584 -0.024642497 -0.046705537 -0.049400307 0.010373958 -0.018235195 0.018218737 -0.028925898 0.029564906 0.046215158 0.17411073 -0.065913506 0.0046510263 -0.049549263 -0.0023532994
ㅎ -0.09547472 -0.025666514 -0.03185042 -0.05116426 -0.04681854 -0.016812732 -0.15727149 -0.1025191 -0.19858818 0.048637014 0.040697057 0.19063468 -0.10674896 -0.123281956 -0.012868261 0.10317982
모두 -0.023122365 -0.05124758 -0.13725458 -0.050674766 0.16062568 -0.006729159 -0.21158785 -0.07200534 0.1093338 0.11599613 0.08508533 -0.113383316 -0.05131323 -0.13835604 -0.051851496 0.10530501
아주 0.016616182 -0.045540307 -0.108083166 -0.006078848 0.057287987 -0.029620709 -0.17999808 0.021521542 0.0471732 0.042119797 0.0059837773 -0.08446878 0.009952876 0.0042097094 -0.0005371606 0.011010583
- 0.035244014 -0.039615348 0.027275994 -0.032100327 -0.060437378 0.013212319 -0.0005793576 -0.008726431 0.009990636 -0.0045664166 0.022869363 0.045575242 0.012046427 -0.03778672 -0.019626006 0.025543513
가족 0.007236234 0.057923146 -0.08880814 -0.09165364 0.03684651 0.06043252 -0.1592111 -0.07010713 0.11193194 -0.03149954 0.035273626 0.049889944 -0.0722183 0.0045583537 -0.030431546 -0.044431284
여운 -0.26070374 0.28551406 -0.32711425 -0.279796 0.28786296 0.31211722 -0.26697752 -0.18475409 0.061651275 0.2183616 0.3140995 0.03173533 -0.339242 -0.22850367 -0.27900332 0.23040122
건지 0.052929975 0.03057838 0.09089128 0.014169577 -0.016708083 -0.023359869 0.121014826 0.016238803 -0.039434865 -0.08383743 0.013698097 -0.0789064 0.108246565 0.086718164 0.08810404 -0.042544
전혀 -0.013418371 -0.0706679 0.020402262 0.031677686 -0.12614347 -0.032396052 0.106991656 0.08540392 0.15018918 -0.035712942 -0.031452194 0.09630135 0.038994864 0.113928616 0.09440545 -0.18129812
나라 0.08912004 -0.029151168 0.04543152 0.01833543 -0.045844704 0.0290725 0.024331667 0.015424122 -0.10667318 0.03010232 0.011065022 -0.042467225 0.075517476 -0.007948465 -0.020764632 0.057048805
연기력 0.023294264 0.014347837 -0.0054741763 0.012915897 0.04491337 0.0109448675 0.008574689 0.015255986 -0.08892452 0.04415312 -0.035586577 0.023043148 -0.036035866 -0.025543036 -0.03963832 0.05266137
후 0.00169493 -0.0065828487 0.040177524 -0.0049962257 -0.0029075253 -0.029467722 0.025161915 0.034494102 -0.06661176 0.014483478 0.015669458 -0.15566903 0.024043448 0.040498488 0.022190075 0.009466851
다면 0.06811404 0.029187959 0.11053687 0.059197344 0.021810796 0.027899336 0.013013026 0.0013839016 0.042122792 -0.04767051 0.04462507 -0.124055624 -0.0047564646 0.06125134 -0.0010452667 -0.07949571
될 0.046182666 -0.06921733 -0.012114986 0.03448467 -0.024726281 -0.022774221 -0.08890534 0.004762223 -0.001884083 0.077604584 0.05099494 -0.041541252 -0.01943639 -0.02497803 0.03554821 0.018573545
뭔가 -0.04614791 0.028980477 -0.060617555 -0.063249566 0.002274296 0.051796954 -0.05725104 -0.02755905 0.04106539 0.050655182 -0.049555857 0.15441458 -0.0022740085 -0.010942347 0.020349234 0.041841347
그래도 -0.02523132 -0.03229825 -0.059237294 -0.034569766 -0.058647435 0.024765585 -0.07912457 0.009742442 0.23245047 -0.0102138985 0.054047465 0.06842424 -0.065521084 0.009394419 0.039807033 -0.023944257
; 0.036574695 -0.202245 0.005327011 -0.04424139 0.032873925 -0.05040262 0.040525798 0.091972455 0.06656873 -0.021126973 -0.08400006 -0.15997252 0.020086987 0.036961272 -0.0299158 -0.00544077
시리즈 -0.021209346 -0.04545194 -0.08230527 -0.045371067 0.04783372 0.004131251 -0.116097696 -0.06293517 0.011889826 0.07024684 0.046438895 0.0887225 -0.052042257 -0.09040554 -0.0104172025 0.03783968
근데 -0.024262145 0.073068835 -0.1456243 -0.07665404 -0.0064639584 0.032268666 -0.05396254 -0.097854264 -0.016753722 0.09405297 0.070750184 -0.021951826 -0.035621632 -0.08747455 -0.003036594 0.08799506
작 0.034858022 0.23965666 -0.004177938 -0.011835765 -0.0204056 0.010187797 0.015233048 -0.048619643 -0.063167006 -0.08645636 0.0029110103 -0.22296934 -0.011535189 0.010565678 -0.014991212 -0.025151093
표현 -0.1077889 0.090373665 -0.12314437 -0.10033341 0.13101532 0.05533202 -0.13005017 -0.10865851 0.15303008 0.12464807 0.09893248 -0.008960483 -0.11267539 -0.14443257 -0.098616205 0.09550788
모습 -0.06988444 -0.064618625 -0.08617455 -0.0145565355 0.051529244 0.029294444 -0.114665076 -0.015382568 -0.10041486 0.1056807 -0.03203333 0.23627742 -0.08688207 -0.1086104 -0.071513414 0.15803723
제 0.039552707 -0.041949116 0.0034373025 0.03688394 0.025820151 -0.07036932 -0.026697692 0.018230107 0.046798576 0.015648358 -0.024831349 -0.23384888 0.017358376 -0.009182223 -0.023238624 -0.026269909
공감 -0.058778644 -0.04735931 -0.12025427 -0.00987555 0.11329677 -0.028015638 -0.11791943 -0.016360493 0.031106653 0.08108903 0.03125144 0.25099164 -0.09672577 -0.08977486 -0.006126506 0.05513622
밖에 -0.12661794 0.12266891 -0.11029641 -0.032801878 0.02363484 0.084680334 -0.095440105 -0.078628235 -0.01761032 0.12529638 0.04981744 0.15636335 -0.04413502 -0.11695734 -0.0896745 0.08416489
먹 0.036283173 -0.051078923 0.04684231 0.095064245 -0.019801434 -0.031091513 -0.01862669 0.051812135 0.085286476 -0.016755782 -0.03965433 -0.10443086 0.026783273 0.059296414 0.091422215 -0.10055703
계속 -0.09045384 -0.0012055263 -0.10061873 0.0049156374 -0.019096645 0.045848902 -0.052581906 -0.1029902 -0.08743651 0.11266033 -0.021317948 0.35745323 -0.017036485 -0.14222008 -0.010100859 0.07607488
이랑 -0.012207191 -0.039438363 0.038432218 0.011067874 0.030815965 0.016090998 0.030105354 -0.03618174 -0.13884667 -0.05204605 -0.040652517 -0.13534197 0.063274935 0.027726697 0.023835165 -0.026201528
제목 -0.082055405 0.027150331 0.06415634 -0.0003557423 -0.06567469 -0.03634299 -0.15098098 -0.0022019257 -0.102208585 -0.03977077 -0.013572945 0.048420977 0.022463692 -0.03728184 0.009464962 0.016568003
"" 0.019112226 0.0031873013 -0.017498907 -0.019449323 0.017864283 0.06014577 0.06467306 0.02050492 0.12017458 0.012479119 0.01712961 0.0017980309 0.024409322 -0.012032111 0.021859178 -0.05347744
7 -0.028681057 0.06766058 0.013086256 -0.013569912 0.020047242 0.0647905 -0.07478307 0.006046616 0.14155883 0.029987115 0.07124791 -0.15766324 -0.040296577 -0.042237964 -0.044222876 -0.05774951
극장 0.045889247 -0.05762788 0.038117345 -0.004313887 -0.0031926834 -0.04629841 0.12086694 0.04216487 -0.0012886842 -0.069313444 -0.018140703 -0.031018455 0.048669524 0.023813259 0.08629082 -0.028336583
비 0.04605445 0.038620915 0.075339444 0.07257674 -0.055074763 -0.060897492 0.029988611 0.049613286 -0.05615449 0.006817533 0.004133647 -0.053440522 -0.016678631 0.054911334 0.044252906 -0.026202
진 0.049847703 0.0101926355 -0.007437109 -0.052096877 0.036069557 -0.0034997992 0.036818337 -0.052354265 0.07434829 0.1420618 -0.0024737837 -0.025296887 -0.009811148 -0.046820898 0.031751543 0.08210247
이걸 0.1537615 -0.0013811394 0.06610536 0.07614913 -0.109458335 -0.08440211 0.09590975 0.114089206 -0.07629841 -0.13916811 -0.09514534 -0.06588479 0.113928095 0.08587853 0.057906922 -0.10943723
바 -0.022607585 0.041166496 0.07398246 0.10578759 -0.12747395 0.0006785349 0.1983386 -0.0061571347 -0.057188563 -0.1729056 -0.01616019 0.25172144 0.034185946 0.054746043 0.10586531 -0.078030184
그렇 -0.013632766 0.048601866 0.095257975 0.10340799 -0.09543517 -0.07276098 0.14372978 0.10898805 -0.13795741 -0.11155323 -0.051743224 -0.14757419 0.093149886 0.18478028 0.10018464 -0.12691034
대사 -0.0026985048 0.059127036 0.0022884281 0.069647655 -0.07688191 -0.013073459 0.0046895114 -0.029777048 -0.16186422 -0.018641558 -0.07191823 0.16036241 -0.017095596 0.081234366 0.026183626 -0.03896859
개봉 0.055846687 -0.00010424791 0.071329005 0.039431173 -0.049321547 -0.008490215 0.112070896 -0.0374827 -0.16817006 -0.11785004 -0.035247743 -0.063252866 0.07692564 0.01639812 -0.023529356 0.0142988935
부분 -0.045315456 -0.049496237 -0.053288832 0.012350323 -0.020770565 -0.00010857827 0.10750568 -0.0049621584 0.11884715 0.03242891 -0.045068193 -0.030928725 0.039100572 0.02479273 0.02749567 -0.0994703
0 -0.049845718 -0.1217884 0.033750795 0.14548554 -0.07092069 -0.080045216 0.038842235 0.115982324 -0.1322308 -0.08728639 -0.15101169 0.5262205 0.12884171 0.0972593 0.09105353 -0.06730098
OO 0.015777035 -0.18290353 0.046938725 0.033459987 0.07622203 -0.0815541 0.016954748 0.07049189 0.021436432 -0.06870315 -0.030871272 -0.15264145 0.08239943 0.03679198 0.09837743 -0.07114756
대단 -0.06449353 0.04893138 -0.009117362 -0.07137288 0.01709028 0.019119257 -0.110567905 -0.089726 0.045994878 0.05070794 0.097209446 -0.026451487 -0.026519878 -0.094642 -0.040565986 0.07351832
된다 -0.09155752 0.23522955 -0.06637728 -0.12028318 -0.0044942987 0.05730157 -0.0002945964 -0.12137323 -0.22323 0.03698801 0.027019108 -0.09867804 -0.06311137 -0.10566066 -0.06562299 0.097075716
작가 -0.02193607 -0.13111517 0.074771404 0.04747361 0.054240204 -0.10137642 -0.00554171 0.025632605 -0.08409032 0.045439646 -0.06668422 0.13422838 0.07482474 0.04388336 0.047970783 0.029299544
어디 0.032647964 0.05818804 -0.012857051 0.018878246 0.041074496 -0.045263447 0.052556645 -0.039501633 0.021702135 -0.051400095 -0.013015121 -0.027816564 0.02477834 -0.0074775154 0.03645182 0.0181379
기분 0.019741705 0.030127898 0.016024403 0.037250303 -0.08929187 -0.05543301 0.0027867188 0.04456859 -0.16893864 -0.020084586 0.005870904 0.06974321 0.01793993 -0.011157738 0.044253662 0.09593117
아쉽 -0.032934766 0.14087188 -0.0074648405 -0.101851515 0.107314 0.11262353 0.16765676 -0.018598245 0.0830875 -0.06175384 -0.018870205 -0.15185092 0.008428312 0.09343835 0.012134522 -0.021875111
치 0.022816425 -0.0023054783 0.007756052 -0.015384795 -0.057505812 -0.03183744 0.03486615 0.03977563 -0.05861575 -0.08814941 -0.049970135 -0.10077121 0.039865304 0.028306736 0.056715284 -0.066289596
진심 0.004687925 -0.08760512 0.008037582 0.023209266 0.0955867 -0.07157948 -0.20484065 -0.017438458 -0.017721847 -0.022827923 -0.03587805 -0.0056602447 -0.05176901 -0.06630164 0.0046202485 0.01739688
해도 0.046458293 -0.17658159 0.045735884 0.042373434 -0.014023439 -0.09009725 -0.051876675 0.011867787 0.17277864 0.10479021 -0.003505728 0.018533824 -0.023640888 0.041407056 0.0055218404 0.010080965
보이 -0.03498424 0.06879828 0.055527464 0.0083209425 -0.05416205 0.045496993 0.03598968 -0.01935623 -0.031377986 0.04860606 -0.056935735 0.11933817 0.014580464 -0.001785377 0.027978454 0.044259936
타임 -0.046850957 0.004522262 0.04989411 -0.029594589 0.01079181 0.0121086575 0.005529994 0.00030006765 -0.20868386 -0.034797758 -0.09100664 -0.11505786 0.033910923 0.04286461 0.037031535 0.05769956
놓 0.019167928 -0.054270934 0.039407108 0.060193952 0.012435435 -0.07639118 -0.042786047 -0.0031506445 -0.011605737 -0.04006624 0.02149799 -0.23092082 0.062837824 0.057644352 -0.001836871 -0.019363295
/ -0.032933157 0.06712891 0.0023852342 -0.02630498 -0.050805744 0.027044166 0.18330124 0.02478607 -0.02075195 -0.03848982 0.03202667 -0.013154416 0.015222861 0.027219018 0.006174171 -0.010384198
웃기 -0.017648717 0.0224527 -0.093403354 0.010811324 -0.0067297798 -0.0421123 -0.0157699 -0.05740226 -0.1103009 0.08150498 -0.028581802 0.22557095 -0.04377208 -0.0989209 -0.03644976 0.048942033
봐야 0.025744688 0.05677748 -0.025102807 -0.07962213 0.008249792 0.04768069 -0.008166591 -0.06156973 -0.0024627857 0.0139912125 0.037819847 0.031977024 -0.06787837 -0.069011495 -0.049134765 0.04287315
이제 0.072406 0.045147732 0.048150703 0.07040386 -0.001087649 -0.003736731 0.059247028 0.06971864 0.096008636 -0.064397484 0.036856182 0.14503923 -0.0115607325 0.08864841 0.047292355 -0.07248501
물 0.04058621 -0.04602276 0.06788707 -0.025872981 0.01174041 -0.034672543 0.08648967 -0.022131933 -0.09334124 -0.050131314 -0.08760391 -0.1104068 0.044917744 -0.025604572 0.06812312 -0.017349077
막장 0.095416486 -0.04258662 0.1543128 0.055120204 -0.0691294 -0.11061116 0.15491894 0.14328702 -0.08534194 -0.110436514 -0.14753014 -0.12347521 0.1349988 0.15553504 0.07788671 -0.1336779
삶 -0.055395667 0.06084081 -0.1732989 -0.12703307 0.16261664 0.14925267 0.07275103 -0.09621227 0.22702043 0.11009004 0.18245555 -0.12314704 -0.0961226 -0.028795475 -0.13194543 0.062033158
친구 -0.020414144 -0.008061037 -0.06294878 0.015007663 -0.058816038 0.051877495 -0.084103934 -0.043394767 0.13163486 0.028753838 0.014426674 0.035474118 -0.019254176 0.04131009 0.049233258 0.04337461
잔잔 -0.08568596 0.098147795 -0.05594306 -0.088705674 0.050999675 0.029634684 0.017484028 -0.07506704 -0.06387983 -0.0033731763 0.052609228 -0.16974753 0.0066675385 -0.072138324 -0.06141278 0.045271322
조금 -0.087040044 0.11318544 0.048410162 -0.043207318 -0.029708603 0.054217488 0.06464821 -0.05557019 -0.007867337 -0.044603113 0.07142794 -0.059985403 -0.025269758 0.0017179819 -0.030033514 -0.026459055
씬 0.007921599 -0.028966764 -0.091511816 -0.067012124 0.007956659 0.023761427 -0.041449454 -0.03714963 -0.080775015 0.10237505 -0.012748603 0.21419413 -0.08175137 -0.042450666 -0.03500361 0.07361647
딱 0.04372124 -0.09256148 -0.007815026 -0.01105711 -0.0085765 -0.08408169 -0.12167419 0.024203856 -0.002842171 0.015528878 0.011440355 0.06331858 0.071169205 0.0067962473 0.06388766 -0.012061532
영상 -0.03889255 -0.112545244 -0.018155243 0.0027740188 0.0018132381 0.010700219 0.031264614 -0.076651156 -0.08553351 0.04496771 -0.04830758 0.30725136 0.01866757 -0.0003954028 -0.0053684684 0.033407617
찾 0.022185065 -0.018751854 0.0138727585 0.021787083 0.02429406 0.0045224973 0.06310291 0.00035391698 -0.047589693 -0.023662072 -0.0051903273 0.049434185 -0.033432446 0.033730138 -0.017600812 0.030996744
억지 0.2572486 -0.03136361 0.19155867 0.17099182 -0.08720076 -0.089123756 0.1784631 0.11589917 -0.084550574 -0.21288905 -0.16007534 -0.06216636 0.19503249 0.18572396 0.12896085 -0.16727197
중간 0.022027189 -0.048583362 0.11237923 0.06397372 -0.020115694 -0.07599524 0.027065214 0.0826272 -0.10109009 -0.013644266 -0.054641135 -0.1837021 0.085715264 0.01367115 0.030290354 -0.03187214
요즘 -0.06061936 0.12598495 0.0020305607 -0.08633402 0.052113105 0.1376058 -0.022401875 -0.1316743 -0.12153407 0.051993743 0.11698647 -0.1935194 -0.05651076 -0.069605276 -0.059017297 0.110871956
같이 0.014618228 -0.020451767 -0.066513784 -0.013861056 0.0045750206 -0.06560461 -0.055388574 -0.015285341 0.003762621 0.06237884 -0.06641786 -0.0006639645 -0.023538474 -0.053017356 0.039826486 0.04084689
구 -0.01929139 0.13828394 -0.08331639 -0.02447618 -0.13130505 0.051407807 0.048121005 -0.052220937 -0.16340533 -0.017754983 0.01694573 0.15053056 -0.047233853 -0.008315752 -0.037166175 0.024682049
" -0.043963846 0.016298153 -0.059028767 -0.02216746 -0.11382623 0.024735423 -0.13454281 0.023349442 0.06586593 -0.008250789 0.008496543 0.10058287 -0.03684469 -0.009111918 0.022185974 -0.041500557
가지 -0.014114036 -0.018803535 -0.06499109 -0.045674495 -0.014824397 -0.03331988 -0.07541871 0.026052287 0.07622504 0.031022184 0.009740662 0.19101673 -0.011669958 -0.043347724 -0.012938961 0.021705551
스릴러 0.049793467 -0.018338757 -0.02491304 -0.030706016 0.085795484 -0.019365046 -0.13254647 0.00572331 -0.07295263 0.0073663103 0.0057161045 0.051403273 0.0057618767 -0.033665877 -0.05119116 0.055804282
8 -0.08526636 0.07708242 -0.08741926 -0.09515067 0.07980196 0.095934145 -0.1822018 -0.05729563 0.1528749 0.12651202 0.113515265 -0.12501107 -0.13330837 -0.13019855 -0.09408566 0.09713026
믿 -0.014093588 0.06785931 -0.052259862 -0.060611848 0.00042598762 0.008044675 0.0016297619 -0.08816642 -0.01721041 0.039303012 0.012762761 0.19983228 -0.037737835 -0.031863347 -0.07546011 0.07808453
싫 0.15154059 -0.07058931 0.13557969 0.14816575 -0.08051448 -0.12241962 0.030061234 0.12254584 0.0091666775 -0.13592342 -0.08323661 -0.31722564 0.12504806 0.09811733 0.121453084 -0.20646176
.... 0.025261318 -0.009817985 0.015427563 0.056870334 -0.076992825 -0.042501748 0.066415064 0.037303653 -0.049417168 -0.051992472 0.010826937 -0.0060453257 -0.011192558 0.067254074 0.11628585 -0.05662185
보고 0.035370868 0.007902216 -0.0857744 -0.068159 -0.0077266414 0.026743887 -0.036019832 0.026440008 0.06834163 0.01778595 0.009406938 0.14711328 -0.003118742 0.018481331 -0.015531127 -0.009907633
라도 0.061487507 -0.068992466 -0.008004203 -0.027982272 0.029694874 -0.05952652 -0.052306887 0.095575236 0.03484382 -0.009573816 -0.03508082 -0.030079212 -0.021826513 0.06265484 0.001319479 -0.0012236346
나왔 0.00057858793 0.0159704 0.09114004 -0.034618586 0.048291046 -0.04362065 0.027038304 0.030618036 -0.15961835 -0.041987475 0.009953867 0.021102028 -0.01645056 0.023253148 -0.029243076 0.040337417
아까운 0.06463296 -0.031819794 0.13136044 0.06800951 -0.064584166 -0.0782165 0.08072882 0.0322791 -0.28035596 -0.04734654 -0.07536364 -0.093377165 0.100304574 0.051474556 -0.04088119 0.064437166
긴장감 -0.009296216 -0.06490825 -0.17444943 -0.09182976 0.19470751 -0.0425578 -0.28937167 -0.025989259 0.02517563 0.21117397 0.10600118 0.12899594 -0.07005263 -0.2382891 -0.1727575 0.13559291
점수 -0.023592291 -0.06329484 0.05904917 -0.025744947 0.13007537 -0.03642185 -0.08946116 -0.02038836 -0.03299178 -0.0005690491 -0.05767811 0.037516303 0.012769869 -0.052860133 0.011918409 -0.019667659
개인 -0.0012033795 -0.116398655 0.046204396 -0.013843418 0.07279658 -0.087671 -0.07696071 -0.015538882 -0.09277625 0.058258582 0.028392272 0.078826495 0.018817345 -0.07032956 -0.047527697 0.033188775
제대로 -0.026154049 0.07859352 -0.06654046 -0.005502224 0.0699337 0.020595687 -0.014459811 0.0033750166 0.1329663 0.04478566 0.10445843 0.08028766 -0.018112075 0.024085628 -0.006565799 0.051550396
부족 0.17128088 0.13353293 0.050098818 0.02668021 -0.12096197 0.06408877 0.2283718 0.07533704 -0.107365906 -0.2187265 -0.027228098 -0.27902114 0.11461272 0.24251828 0.1396613 -0.1773339
이유 -0.040849663 -0.041965805 0.067646004 0.008036533 0.053730093 0.010846717 -0.07012531 -0.025897702 -0.109301396 0.059358425 0.0066248486 0.019207882 -0.00056750845 -0.006603926 -0.0114781065 0.059309103
노래 0.011736305 0.0028628563 0.018305397 -0.046288043 0.062410943 -0.026468268 -0.0075709554 -0.04326579 -0.093605995 0.036250103 -0.015984466 0.12136623 -0.045250006 -0.05242693 0.015723176 0.026099222
만큼 -0.05286995 -0.039973162 -0.12908271 -0.046543874 0.068881445 0.001054205 -0.06671978 -0.044035558 0.047656134 0.009641572 0.017821485 -0.09264031 -0.0319587 -0.07747156 -0.06709529 0.015820233
라면 -0.0411553 0.024959117 0.07678022 0.008696461 -0.054232422 0.05149405 0.03672272 0.025440557 0.0024760913 0.02671517 0.01999373 0.1227299 0.04672323 -0.043072574 -0.0529622 0.067350656
시작 -0.021068573 0.010307526 -0.020710692 -0.025768694 0.023016518 -0.002887012 0.017401516 -0.10312014 -0.12718773 -0.030082043 0.08247551 0.17525426 0.01889562 -0.024269931 0.005884792 -0.06671556
잇 -0.007895547 0.098967195 -0.01443184 0.047817696 -0.09259463 0.042925403 -0.050737977 0.014290255 -0.00709087 0.013811792 -0.027240396 0.14157376 -0.0012665894 -0.009596054 -0.032614797 -0.011592973
구나 0.076887116 -0.06401433 -0.032390755 0.0053525725 0.018367149 -0.027778354 -0.095008336 0.032376826 -0.04111263 0.040345367 -0.012046451 -0.035298463 0.010859433 -0.041482925 0.023500068 -0.036054004
특히 -0.082395494 0.06817549 -0.1258653 -0.09113952 0.015270207 -0.005229775 -0.010206604 -0.07759467 -0.34228644 0.12495025 0.04679946 0.11655838 -0.05213352 -0.13900988 -0.05952832 0.13161884
한테 -0.0037950326 -0.004479959 0.0014981829 -0.018647611 0.041547846 -0.020322574 0.051563293 0.0026297409 0.07034254 -0.033640765 -0.0052020275 -0.039797787 0.013943961 -0.027028482 0.038260844 0.023572834
날 0.02149533 0.12418329 -0.07716544 -0.050674118 0.09221546 0.0236242 -0.01644731 -0.081985004 -0.08862401 -0.0107575 0.07500333 -0.06984979 -0.07241285 -0.045541827 -0.017220063 0.033037227
려고 0.06904554 -0.10568529 0.08496232 0.05540256 -0.02919636 -0.09841392 -0.033376984 0.07095987 0.048892196 -0.024236156 -0.023072733 -0.045419715 0.0155688515 0.0673245 0.024350896 0.0025300554
제일 0.049962975 -0.06733553 -0.01876912 0.022650132 0.09586134 -0.017020274 -0.09054245 0.056098305 0.036197156 0.06972271 0.03586006 -0.055405006 0.0026488213 -0.050389502 -0.02569657 0.026026955
아름다운 -0.10316155 0.14056194 -0.14529452 -0.14826353 0.16144912 0.093427815 -0.21239059 -0.17061242 0.23540351 0.10345753 0.19609168 0.13755119 -0.12355941 -0.12025886 -0.14575839 0.18753707
시대 -0.03022611 -0.039633937 0.0033505815 -0.0016127323 0.008413565 0.03149573 -0.0030794207 0.024521679 -0.021102002 0.030763783 -0.021357516 -0.13052058 0.015573274 -0.03150626 0.0026958429 0.034643013
ㅜㅜ -0.083514586 0.18695013 -0.04818336 0.033095732 -0.14318468 0.052452262 0.106634155 -0.0072555374 -0.119153686 -0.0100431675 0.054201275 0.11510811 -0.027130457 0.04232186 0.060759068 0.0033110052
어떻게 0.03867815 0.038014725 0.017392196 -0.00031306868 -0.09929597 -0.016760299 0.09726867 -0.008254227 0.10324273 -0.11388358 -0.0031163336 -0.10830142 0.011805911 0.08012276 0.03138601 -0.067971736
명 0.02885051 -0.113909915 0.017151106 0.056885313 0.014699693 -0.11766607 -0.06796327 0.05653165 0.039969563 0.013341464 -0.07940091 -0.1888414 0.018201144 0.04450272 0.05840993 -0.068162456
당시 -0.008769675 0.030104397 0.0010905459 -0.003981788 -0.061327834 -0.0057644136 0.013775743 0.04022691 -0.13545741 -0.04362463 -0.0046442505 -0.089003995 -0.010297349 0.039714966 0.03873934 0.036463182
엔딩 0.02881385 0.062088672 -0.05818676 -0.06801811 -0.078208365 0.076918274 0.08477474 0.01080456 0.0033001937 -0.018252281 -0.011318057 -0.060006525 0.023934457 0.029139522 0.006817956 -0.01147754
나름 -0.07102156 0.023657301 -0.063871294 0.023274878 -0.0065119467 -0.0078023393 -0.0994538 -0.048208036 0.11563924 0.05195048 0.008137267 0.108984284 -0.008713345 -0.0143457195 -0.029945752 0.034279577
무섭 -0.07959968 0.029932134 -0.07613711 -0.009015416 -0.025120303 -0.007511924 0.016014319 -0.018802632 -0.17389373 0.058581233 -0.054960754 0.29202074 -0.019812487 0.014927314 -0.02123455 0.098303795
나온 -0.040754396 0.095295586 0.02375469 0.058587562 0.021901133 0.030312905 0.07772487 -0.007414348 -0.3018979 -0.03583917 0.008249127 -0.013178727 -0.004995644 -0.04268489 0.0045331772 0.044143338
사 -0.009762907 0.095443465 0.0063498206 -0.020259276 -0.0025182343 0.03953453 0.035538897 -0.07463567 0.037178222 0.063767605 -0.0045406166 -0.0036203747 -0.025096662 -0.045630623 -0.022274192 0.07003955
오랜만 -0.072361425 0.038083307 -0.1223062 -0.11731556 0.125798 -0.013296597 -0.27732897 -0.029500544 -0.13325447 0.12873735 0.059243977 0.03752677 -0.09415574 -0.11712252 -0.13954152 0.13569339
니까 -0.01896117 -0.04620487 0.0029903161 -0.063656785 0.19630091 0.001008587 -0.050684433 -0.07943117 0.1482347 0.056185257 0.07784302 -0.1259667 0.002348819 -0.0492512 -0.093171075 0.055203684
해요 -0.1078624 0.1627317 -0.016505543 0.014252646 -0.091261484 0.030647414 0.011403667 -0.113006786 -0.16811243 0.056752034 0.01633107 0.139263 -0.07768128 -0.04776993 -0.06624545 0.04152721
9 -0.0993912 0.032581262 -0.17423074 -0.12888677 0.2560722 0.123978496 -0.27070266 -0.12475219 0.32790944 0.26514015 0.14623973 0.116499856 -0.16428208 -0.19587944 -0.16012013 0.07477903
이것 0.05102748 -0.052732475 -0.016638597 0.01484352 -0.028034 0.008223231 0.027506795 0.02409028 0.021487758 0.023633812 -0.05872746 0.13446818 0.013117546 -0.008012674 0.028377213 0.008317243
팬 0.04409085 -0.0628715 0.011089212 0.019987097 0.0532377 -0.029145684 -0.13992421 -0.037738275 0.027227947 0.055194236 0.03603186 0.1339474 -0.07203507 -0.08253936 -0.058907416 0.06337423
차라리 0.17389196 0.0017363654 0.28005388 0.2467659 -0.2650368 -0.10625444 0.2691472 0.18153696 -0.27894557 -0.39968744 -0.18391319 0.10435643 0.2279403 0.31752613 0.21426599 -0.26107535
봐 -0.0013792136 0.0002932843 -0.058891322 -0.016860234 -0.16405806 -0.020217914 0.14650236 -0.043485355 0.0034821504 -0.07354342 -0.014596812 0.081195906 0.016435465 0.019483438 0.08248631 -0.05196156
절대 -0.040766787 0.06348216 0.03034153 -0.018938849 -0.051909886 0.012650014 0.13645865 0.02454934 -0.11549673 -0.06529878 0.014290385 0.02538723 0.04590178 0.07186731 0.012815128 -0.057489704
세상 -0.0754463 -0.044719487 -0.104582004 -0.041080363 -0.0073424205 -0.010392293 -0.04637197 -0.0029995614 -0.19421329 0.06476156 0.02740938 0.16828774 -0.036727816 -0.04706253 -0.06899855 0.022242075
세 0.00034776385 0.026574353 0.08770922 0.004027697 0.030566428 0.040292416 0.0031515402 -0.024491215 -0.023036644 0.058103833 0.03078043 -0.056240525 0.049045198 0.00843518 0.01285701 0.06989288
못하 0.0462998 0.09733662 0.10467588 0.0747392 -0.104829594 0.01917087 0.23140322 0.059260484 -0.03856288 -0.1673287 -0.0032134922 -0.18456696 0.025431361 0.1891637 0.11129263 -0.1276602
하지만 0.06508475 0.05125862 0.022742767 -0.029548014 0.04986594 0.044945903 -0.09334546 -0.013982088 0.08927808 -0.041244637 0.037004843 -0.26777855 -0.049770672 -0.05235256 -0.059085842 -0.058142647
던데 -0.08846522 0.22689208 -0.009949251 -0.001669958 -0.14671466 0.023718916 -0.019564344 -0.058180884 -0.31679806 -0.029951066 0.05651611 0.090142176 -0.0049776565 -0.08106378 -0.026469503 0.040270638
욕 0.09650879 -0.060591403 0.092416905 0.14471935 -0.15576327 -0.13017549 0.21766475 0.1882915 -0.0037316098 -0.27694818 -0.13863255 -0.09980308 0.15699607 0.18314901 0.17452009 -0.25256625
봄 0.07178428 0.06616072 -0.021915777 0.0071613397 0.066869915 -0.044404395 -0.2171476 0.04551632 -0.1546049 0.10305226 -0.023767872 0.08431764 -0.033971082 -0.12824959 0.01661912 0.114135966
감 0.024680316 -0.06383161 0.015497914 -0.0118579175 0.06609976 -0.0038953533 -0.03477241 -0.027298257 -0.059497066 -0.02299063 0.010269745 0.036192346 0.036819804 -0.06309019 0.040457577 0.07827798
훌륭 -0.054034222 0.068471774 -0.088504724 -0.15333909 0.20273536 0.07022878 -0.10129851 -0.19875437 0.15992366 0.21123953 0.14620875 0.19703586 -0.11236759 -0.19696145 -0.15996148 0.11941906
너무나 -0.03699347 -0.09405435 -0.10379729 -0.050899167 0.13074905 -0.093796715 -0.2523788 -0.0075121582 -0.11504387 0.26841795 0.00790046 0.14154527 -0.02028021 -0.09357608 -0.09581932 0.058422968
강추 -0.124399774 0.20379561 -0.08585617 -0.15554033 0.28530666 0.117170855 -0.18729062 -0.11984505 -0.01748291 0.12296332 0.14176926 0.014296468 -0.15624358 -0.19632469 -0.24823895 0.19361462
해야 0.057319034 -0.038740154 -0.034623224 -0.009965952 0.07204123 0.05055146 -0.032027155 -0.057840947 0.015921025 0.051050264 0.019654712 -0.05710938 -0.04077144 -0.030560242 -0.046963155 -0.00084500876
됨 -0.100611284 0.061988868 0.013813699 -0.011046751 0.07777634 0.053652693 -0.008984668 -0.13969937 -0.14457941 0.058101133 -0.057535067 0.1323544 -0.021095013 -0.0760768 -0.023412656 0.15858072
ㅡ 0.056828953 0.0034968061 0.042539995 0.068836905 -0.015127208 0.004408989 -0.00848475 0.09075471 -0.03860271 0.0002703235 -0.052916497 0.11735651 0.049362365 0.04395132 0.071667016 -0.051340852
따뜻 -0.1772469 0.09340318 -0.11839977 -0.08177555 0.14299722 0.10265118 -0.19463542 -0.1717646 0.030356752 0.11408784 0.18196559 0.12801246 -0.07012745 -0.16923033 -0.08587376 0.1283835
빼 0.08387427 -0.1681612 -0.006056215 0.021829171 0.070880555 -0.06645561 -0.11520995 0.029774271 0.17529973 0.100617595 -0.060485363 0.118866764 0.04266102 -0.0776598 0.058569208 -0.013201035
느끼 -0.0025781475 0.04826451 -0.0370893 -0.0712723 0.08885503 0.051387303 -0.009478421 -0.088953026 -0.07811955 0.047389273 0.02792342 -0.08559915 -0.027208336 0.014646317 -0.016226554 0.010049268
드 0.00926463 0.015898513 0.048553035 -0.012745064 -0.06846214 -0.004995779 0.06519163 0.02755756 -0.18240385 0.06028961 -0.057812106 0.3785648 -0.009481788 0.03500214 0.07153269 -0.003341561
도대체 0.1228473 -0.14076644 0.093869135 0.12189771 -0.10009973 -0.121055834 0.008358024 0.16559613 0.101250954 -0.15275063 -0.05293682 0.07485188 0.03819677 0.11184374 0.11515929 -0.20608366
어야 0.09253177 0.036558855 0.022830404 0.07757164 -0.10504619 -0.077185124 0.13581851 0.004714387 -0.030702123 -0.09167869 -0.075198606 0.15729266 0.09082442 0.035836414 0.044049893 -0.07661206
글 0.0005138339 -0.038405504 0.103285946 0.0421654 0.037235178 -0.016907873 0.043482423 0.056316495 -0.029467775 -0.054890245 -0.08164107 -0.16735439 0.024482768 0.024115741 -0.003512686 0.027242852
마다 -0.018658776 -0.030650258 -0.042682458 0.0077290055 0.06883599 0.022662826 -0.017238034 0.012292129 -0.049445752 0.09203226 0.04837713 0.16326153 -0.058498725 0.015719077 -0.0063372166 0.018909732
답답 0.13003245 -0.050062444 0.09617256 0.1386449 -0.057542328 -0.05105352 0.08641532 0.1373831 -0.11118569 -0.09163261 -0.10839316 -0.1368246 0.111608595 0.11379592 0.07485187 -0.1052545
준다 -0.08837224 0.21259868 -0.027105628 -0.02341919 -0.3332562 0.00672538 0.031340178 -0.03616951 -0.2820412 -0.013662041 -0.035699748 0.11335008 -0.0063391663 0.013014554 0.05519043 0.06004913
전쟁 0.012165088 0.096399404 0.043845724 -0.051431004 0.1022559 0.0027217977 -0.010452888 -0.024217056 -0.062081937 0.047278177 0.037627976 -0.1254024 0.0030046564 0.015631307 0.02965505 0.009163348
놈 -0.01575068 0.0039687026 -0.0041156965 0.029405652 0.045595106 -0.005390787 0.02931869 0.059311952 0.17507961 0.06259809 -0.046449948 -0.13467088 0.035857644 0.0006438468 0.03310608 -0.06489753
설정 0.06934274 -0.07852973 0.0010217318 0.016964348 -0.09097889 -0.033066746 0.040090457 0.10430504 0.031221485 0.057433125 -0.0037090667 0.17263779 -0.016167723 0.04511174 -0.0033433929 0.004157176
무엇 -0.114239 0.07471615 -0.07775701 -0.050233677 -0.07026845 0.018935446 0.06639122 -0.07510655 -0.1585284 0.0629374 0.054718032 0.12980707 -0.039088547 -0.047748044 -0.030880647 0.07219864
수작 -0.26758036 0.33689648 -0.22253041 -0.20707814 0.03396551 0.25812805 -0.21193734 -0.2543121 0.12432645 0.15415145 0.28871697 0.12169866 -0.28782904 -0.27140313 -0.2649939 0.22891301
그저 0.06766503 0.057574958 0.096684046 0.07329112 0.089522034 -0.07551368 0.01856573 0.0057186624 -0.24249955 -0.0801073 -0.030386275 -0.294701 0.051666424 0.016851993 -0.025254682 0.002383183
감정 -0.00917048 0.023425013 -0.06460892 -0.047326487 0.1588211 0.051520225 -0.11130453 -0.011352151 -0.035631683 0.08202866 0.056134347 0.045244835 -0.08580169 -0.07247386 -0.050727405 0.095146134
흥미 0.11237172 -0.04197779 -0.04418089 0.0038805401 0.10012772 -0.018689273 -0.108615056 0.0053325105 0.112826474 0.010182064 0.03124886 0.13999753 0.025750909 -0.06883615 -0.044012327 0.06044132
미국 -0.014305504 -0.05658891 -0.056030687 0.029838063 0.026969096 -0.04260834 -0.12847304 -0.03369282 0.06523656 0.060104672 -0.01870984 -0.24987195 -0.08457818 -0.040402256 0.041357987 -0.0052938913
만화 0.04527843 0.029117234 0.05552382 0.0027328697 -0.04745267 -0.0089610005 -0.06482147 5.0191244e-05 0.047266603 -0.10187419 0.041948054 0.16161875 0.03945921 -0.004131558 -0.0075772107 -0.06816897
행복 -0.08253682 0.07778498 -0.12418725 -0.13216583 0.28237522 0.095956214 -0.23347703 -0.16396827 0.12550327 0.22744665 0.16726293 -0.009275698 -0.18115251 -0.23446119 -0.14972493 0.19669992
신선 -0.16676655 -0.025396364 -0.107519045 -0.09239228 -0.017658759 0.018340345 -0.01599776 -0.10716741 -0.06170856 0.24285772 0.051845662 0.34791607 -0.06648918 -0.17230153 -0.14016591 0.13616197
뻔 0.00984036 -0.0021184122 0.06849858 0.012011555 0.0009829397 -0.021647772 0.09237813 0.08602958 0.027115008 -0.09448028 -0.060838543 -0.23742789 0.030181397 0.11319899 0.0067427363 -0.1600018
형 0.010677724 0.0025512625 -0.015399152 0.006191489 0.13037868 -0.03982613 -0.29605564 -0.034370735 0.053074 0.038898457 0.007961131 0.062410448 0.002641322 -0.048827425 -0.011580625 0.035865407
앞 0.021157729 -0.030204276 -0.056048922 -0.09354743 0.08042378 0.072980106 -0.04226727 -0.01722596 0.071950376 0.06054807 0.015467116 0.033048112 -0.024623722 -0.037607167 -0.017652506 -0.03135734
어도 0.041132208 -0.06682896 0.05202134 -0.022929037 0.02463945 -0.032171737 -0.019337181 -0.008628727 0.050585892 0.045289233 0.025183313 0.14124784 -0.018924063 0.021332493 0.05005617 -0.02099606
허접 0.1432913 -0.11719083 0.16871868 0.14922506 -0.18020324 -0.14744264 0.18883274 0.092581 -0.26535073 -0.19715029 -0.17046617 0.083493486 0.15455619 0.18358213 0.106021926 -0.119927704
군 0.04726975 -0.089879975 0.0035470496 0.049410947 -0.059463445 -0.026134327 -0.0053640436 0.07042621 0.06955142 -0.07525533 -0.044631932 -0.16139562 0.007565029 0.031432576 0.10738425 -0.18038122
시절 -0.05295407 0.053171076 -0.06048911 -0.03173317 0.06449954 -0.006149884 -0.032105677 -0.06894775 -0.105355136 0.060275044 0.07307119 0.014656127 -0.06725208 -0.048320353 -0.009504581 0.061044917
관객 0.051682808 -0.10784308 0.16389285 0.06506295 -0.07354758 -0.12861253 0.206326 0.04579661 -0.09743049 -0.12524638 -0.10722393 -0.033401027 0.16104542 0.12968308 0.12853071 -0.0029960573
배경 0.008981113 0.0116682835 0.014570824 -0.0040805927 0.07708521 0.0061766766 -0.05025592 -0.01779407 -0.031631757 -0.001196702 -0.053513754 -0.07694313 0.017989257 0.021436734 -0.038569734 0.041466925
6 -0.019257098 -0.024513936 -0.037294436 0.0026851827 0.036580388 0.051212557 -0.080648795 0.034660477 0.12978147 0.06364737 0.07534143 -0.17284551 -0.06392135 -0.030565767 0.0154238995 -0.011827111
의미 0.046132382 -0.04687942 -0.04790913 -0.035365794 0.029803945 -0.0027841264 0.031154882 -0.037018068 -0.02429117 0.10015268 0.004204617 -0.011667946 0.019435938 -0.10437875 -0.07373029 0.052355565
초반 0.06837439 0.07791102 0.14620574 0.033443097 -0.027872354 -0.02280587 0.098614566 0.033789877 -0.015319592 -0.16211648 0.0015370145 -0.117378026 0.14918551 0.14109069 0.12297414 -0.07315359
사실 0.0023399075 0.067570195 0.01508397 -0.013893354 0.09046272 0.048581533 -0.12099042 -0.0571874 0.152414 0.034342233 0.009074603 -0.097300105 0.0199723 -0.08631114 -0.05987766 -0.017952036
답 0.016946256 -0.013528653 0.0009922346 0.017543973 0.020285226 -0.024432776 -0.07316006 -0.009499859 -0.043785196 0.021091942 0.00013822567 -0.046701092 -0.033790655 -0.0434928 -0.077511065 0.05154243
웃음 0.11020828 -0.041697834 -0.043515947 -0.03503044 0.04831323 0.009155042 -0.040726133 -0.010712627 0.04528731 0.015958825 -0.036613174 -0.13241191 0.010555182 0.0039842776 -0.05894349 0.037643693
엄청 -0.073841006 0.00029845157 -0.07444094 -0.03210624 -0.035203695 -0.01694517 0.063014075 -0.06310572 -0.31013533 0.02948624 -0.052257225 0.14798355 -0.044554327 -0.09448984 -0.03284863 0.087800086
라니 0.07428595 0.09600907 0.041607235 -0.01624751 0.1386007 -0.02635546 -0.114489175 0.013411531 0.02521572 0.054257933 0.087818794 -0.3328861 -0.061717793 -0.02102711 -0.11864855 0.027753532
더라 0.0031219255 0.19681391 0.011418616 -0.09783733 -0.04270951 0.058710225 0.049425706 -0.056885224 -0.06223623 -0.066035055 0.084793545 -0.1526241 -0.06599155 0.008567155 -0.11514559 0.110049084
자신 -0.007324543 -0.025104297 0.08799372 0.05795052 0.02499096 0.06012265 0.012816285 0.023567885 -0.083048314 0.004439317 0.022355383 0.049995795 0.051207025 0.0027814659 0.005076862 0.028951682
질 0.12424517 0.017437598 0.06891466 0.09149956 -0.09517333 -0.045071796 0.108663596 0.060261723 0.004649098 -0.13375048 -0.024684101 -0.1805732 0.04639995 0.07230802 0.1291106 -0.18206246
추억 -0.1095029 0.027928025 -0.05384197 -0.05243667 -0.037615556 0.119750835 -0.055859536 -0.106578894 0.041624967 0.058558527 0.05090769 0.21946767 -0.10265804 -0.123799756 -0.0035712786 0.100348495
캐스팅 0.009499798 -0.10431485 0.029437704 0.0979437 -0.061648916 -0.048601832 0.053245734 0.09026094 -0.029191358 0.0071518747 -0.08070671 -0.011373564 0.020798432 0.036313273 0.034944084 -0.07967241
머 0.011205535 -0.027320614 0.04868309 0.02645297 0.008550123 0.0015330291 0.095460184 -0.02568258 -0.087673634 -0.037992492 -0.045254584 -0.04226218 0.047843534 0.0909745 0.020930545 -0.027572067
첨 0.008977238 0.05003109 0.03787015 0.05473817 -0.01884626 -0.05129685 0.024225699 -0.008015154 -0.027603636 -0.00015297666 -0.05655322 -0.13372953 -0.0011901783 0.05384218 0.019274434 -0.032225773
멋있 -0.12526864 0.14323457 -0.13974644 -0.15072566 0.13578844 0.13578013 -0.009227742 -0.14197639 0.068910815 0.18324658 0.12662894 0.094701044 -0.10507749 -0.091128886 -0.11900728 0.11167063
류 0.04962774 0.10036731 0.032439977 0.06297104 -0.0802855 -0.01646314 0.1427276 0.012764737 -0.08171045 -0.09447346 -0.030844336 -0.016758054 0.013114428 0.09965177 0.08911366 -0.056491327
시나리오 0.035824336 -0.1251995 -0.015435639 0.09187545 -0.032735623 -0.061746188 -0.043037534 0.061679266 -0.008890546 -0.011363465 -0.12223382 -0.010673099 0.06724414 0.046187043 0.09979513 -0.06303854
어색 0.112521484 -0.04967519 0.10376892 0.15907837 -0.18185063 -0.04318651 0.21525717 0.09365971 -0.035923723 -0.2159577 -0.13494529 -0.029532067 0.14834327 0.21903637 0.15555468 -0.15372078
슬프 0.0010921624 0.13691148 -0.059217628 -0.102532804 0.36477253 0.15773946 -0.033484153 -0.07432895 0.080024414 -0.008938327 0.11417569 -0.31400576 -0.02212138 -0.052880738 -0.112279534 0.091009885
OOO 0.1601974 -0.01588884 0.10686501 0.11131324 -0.13424323 -0.05476248 0.059107646 0.24076866 -0.1194396 -0.14706664 -0.07894771 -0.25349572 0.1293484 0.23590231 0.15759063 -0.27946347
정신 0.05844966 -0.10258441 -0.010135772 0.031303067 -0.08616077 -0.09699916 0.089726426 0.09003135 -0.032746796 -0.019337116 -0.024868779 0.088834725 0.03966724 -0.015285156 0.056694254 0.01362435
분위기 -0.11073282 -0.006849481 -0.041870676 -0.0039682435 -0.05059441 0.070624016 0.05301926 -0.008384228 0.012617403 0.07171654 -0.022374332 0.1682855 -0.041154265 -0.08452487 -0.008139335 0.029329633
소름 -0.15551767 0.08639535 -0.16844533 -0.15360883 0.06738028 0.1347018 -0.27909204 -0.1 0.1486689 0.16632502 0.14389096 0.10989383 -0.14839637 -0.1319194 -0.08136086 0.077841364
멋진 -0.09334902 0.09507341 -0.12643155 -0.10119922 0.13669309 0.10818793 -0.17512856 -0.054057 -0.027850872 0.13606113 0.1017655 0.004626714 -0.12982763 -0.147399 -0.110298656 0.13738953
힘들 -0.006201865 0.07515391 0.07522543 -0.0022353074 0.015098589 -0.009371711 0.055929683 0.027112197 -0.14054808 -0.12007714 0.012032631 -0.20923598 0.10278579 0.08714548 0.053366717 -0.092811115
오늘 -0.001698971 0.06539865 0.07458135 0.028666928 0.0014103618 0.06557197 0.07078127 0.028883157 -0.06773037 -0.08496143 -0.056537766 -0.07691906 0.013498262 0.07582057 -0.025230061 -0.024082523
어이없 0.092955865 -0.34731942 0.053957358 0.20345697 -0.20967034 -0.25322977 0.128204 0.37220058 0.004362585 -0.2185782 -0.22286086 0.15355444 0.19998664 0.30728066 0.35961697 -0.30523914
봐서 0.012796758 -0.015374684 0.041657172 -0.026019333 0.14949562 -0.05177946 0.008463958 -0.03214533 0.10965549 0.029154588 -0.026086004 -0.07863454 -0.006648275 -0.027393145 -0.024331156 0.041748896
구성 -0.03467212 0.04349973 -0.07596515 -0.08980109 0.022974705 0.07073655 -0.038029596 -0.0067998664 0.0033167219 0.05128173 0.039040424 0.024934221 -0.018010877 -0.07788386 -0.05085107 -0.016633412
잡 -0.028589597 0.18047088 0.0024046132 0.024583185 0.0073510264 0.06261465 0.114882514 0.0026374862 -0.027105093 -0.10219628 0.052101117 -0.2060887 -0.02211706 0.018092206 0.029571356 -0.03078242
엄마 -0.027842307 0.02951521 0.0042790454 -0.13363045 0.05192806 0.099036805 -0.040046338 -0.070113 0.020564497 0.067186415 0.07380659 0.1024858 -0.040076043 -0.11221508 -0.08447889 0.107320525
함께 -0.08789556 0.024215352 -0.016911626 -0.07491047 0.12933253 0.060026195 -0.20525786 -0.0491704 -0.077533394 0.14325425 0.036097895 0.07122604 -0.04984905 -0.17586464 -0.06870763 0.13299435
문제 0.04886021 -0.1721263 0.0014039034 0.06279601 -0.11347664 -0.06422303 0.08109163 0.081033446 0.13209377 -0.06459268 -0.032624748 -0.05098796 0.087465286 0.065354556 0.1454213 -0.110935114
위해 -0.0022311462 -0.0676414 -0.035073396 -0.0030791513 -0.06387952 -0.09645046 -0.123314045 0.07116196 0.0762949 0.06389276 -0.058914147 -0.038046025 -0.014039061 0.021324908 -0.020950409 -0.05565148
졸작 0.23623283 -0.21008262 0.2802863 0.18253408 -0.21472345 -0.14764708 0.37396544 0.28021052 -0.122371845 -0.39042723 -0.2911597 -0.21104422 0.28351626 0.38651603 0.16377367 -0.33324727
잊 -0.17241372 0.1600172 -0.090499856 -0.12622042 -0.038917102 0.23776358 0.21607041 -0.2002372 0.04629469 0.025909165 0.07390388 -0.06472887 -0.064103484 -0.0748268 -0.041798476 0.117135115
등 -0.009819308 0.019213168 -0.027432285 -0.060692288 0.06476761 0.052920975 -0.14375229 -0.0451911 0.13331394 0.10771502 0.060448352 0.13761996 -0.10404166 -0.0845248 -0.0821224 0.05820165
집 -0.013287981 0.048145674 0.05248751 0.038856283 0.05366631 0.07069654 -0.0042326045 0.016374202 -0.09842178 -0.043177262 0.034280475 0.029702455 0.03711818 -0.0021820338 -0.04265508 0.0076318635
유쾌 -0.06549332 0.1013425 -0.10486837 -0.20289342 0.33278754 0.073671 -0.23911925 -0.10427864 0.23267268 0.05215296 0.17494398 -0.19485146 -0.11016932 -0.18375897 -0.16678892 0.16197656
스러운 -0.04835324 0.071961395 -0.025795719 -0.05379587 -0.009829942 -0.005281505 -0.08096199 -0.0045651956 -0.28997958 0.06633174 -0.023701979 0.15312842 0.011405854 -0.0890518 -0.01807827 0.17982374
뻔한 0.06744731 0.045823466 0.22156185 0.0751671 -0.017323473 0.00860203 0.16541976 0.031748734 -0.30486816 -0.13684754 -0.014446304 -0.21409094 0.11399393 0.11094183 0.040366482 -0.015407545
나요 0.0065619294 0.15031292 0.009229535 -0.03761347 -0.10009921 0.08488028 0.06460346 -0.04042168 -0.011142936 -0.012563511 0.016268764 0.015278292 -0.048594292 0.036609817 -0.00014202534 -0.003722185
킬링 -0.029130267 -0.010626442 -0.071400695 -0.0064408225 -0.031860135 0.04065669 -0.07276895 -0.03333093 -0.08758428 0.06976155 -0.014839845 0.090618424 -0.043164957 -0.010191193 -0.011611446 0.060236573
결국 0.02743018 0.011726225 -0.018633472 0.02405188 0.01446193 0.0039970996 0.014432134 0.0065096626 -0.10201934 -0.019490056 -0.030921513 0.14956467 -0.018157942 -0.0024775479 0.015607618 0.040554907
낫 0.019167615 -0.08352142 -0.02405021 -0.0142914485 0.11061585 -0.07594768 -0.22499739 -0.003243059 0.069448546 0.056494266 -0.026575008 -0.01487356 -0.034967043 -0.11062081 -0.0952718 0.10312545
뭘 0.041689638 0.0063720117 0.04193911 0.036158044 -0.19515066 -0.062276322 0.14159968 0.09044428 0.07449334 -0.19476083 -0.011852298 0.06424744 0.099101186 0.1209764 0.07688121 -0.13156152
간 -0.005294002 -0.06947869 -0.017790051 -0.057027064 0.07258013 0.0025607846 -0.051035278 -0.022828821 0.025528954 0.12938708 0.014480709 -0.13138042 -0.0071247295 -0.021830771 0.003717227 -0.010191666
소리 -0.03928681 0.02900467 0.03511315 0.064476326 0.062394086 -0.01721242 -0.003025532 -0.0049950946 -0.010342988 0.0462797 0.04305142 -0.022537144 0.031407446 0.037043516 0.01558941 0.029970326
