9996 16
. -0.06655317 0.010365261 0.0182163 -0.048138127 -0.040545467 -0.013794932 -0.044579774 -0.042861238 -0.038883053 0.06216371 0.012819024 0.0577603 -0.07924114 -0.014638488 0.011818682 0.025973713
영화 -0.045143686 -0.015290405 -0.06723189 -0.06727563 -0.037792612 -0.056076027 0.011287695 -0.079506084 0.021055195 0.05313453 -0.13057214 0.01277436 -0.041360702 0.033023674 -0.053357918 0.032894842
다 -0.11378958 0.00094186666 -0.0077135162 -0.027673954 -0.035364427 -0.0019709994 -0.05152922 -0.06862805 0.064855516 -0.016051516 -0.01944955 0.026523892 -0.08741735 -0.024479909 -0.0044750636 -0.018234845
고 -0.06931853 0.0076156664 0.008279779 -0.06270992 0.028387897 -0.044296093 -0.027901912 -0.0033495422 0.040617526 0.004666984 -0.14906675 0.06448013 -0.017378232 -0.017755553 -0.0056063402 -0.02805893
하 -0.065459736 0.0118380245 0.028617064 0.0032726154 0.04481601 -0.05538587 0.009612557 -0.01282979 -0.009830799 0.018422846 -0.015262883 0.0279853 -0.03666027 0.00045232195 0.07809234 0.0028477153
을 -0.019969067 0.006701697 -0.01054344 -0.03603712 0.06210842 -0.009349713 0.023291536 -0.07403873 0.007144692 -5.189309e-05 0.05244957 -0.07044423 -0.028345827 -0.045155026 -0.021104485 -0.056533206
보 0.021877946 0.024725502 0.013812574 -0.05061846 0.027135216 0.017873697 0.005398108 0.014745161 0.036576863 0.021512607 -0.010589423 0.0125847375 0.011222276 0.03678451 -0.010313159 -0.0230028
.. -0.052203838 0.010994615 0.033302177 -0.04430756 -0.016591754 -0.04511136 -0.05438653 0.0099303005 0.036003206 0.024888258 -0.058422044 0.0398947 -0.0414833 -0.012362491 0.061033964 -0.06880376
게 -0.038006164 0.08101839 -0.045025032 -0.07434922 -0.05629824 -0.10461877 -0.061057992 -0.090844125 0.020305065 -0.036594294 -0.11747268 0.0035280965 0.05984731 0.046106204 -0.015485855 -0.026195126
, -0.047609065 -0.027099764 -0.025817176 -0.0036658247 0.0011506397 0.0026611285 -0.034598477 -0.04777811 0.009876735 -0.011106148 -0.1009878 0.016429981 0.02328801 -0.002680115 -0.021487594 0.004053514
! -0.025754387 0.056793705 -0.08758084 0.006551316 -0.029579202 -0.0053116917 -0.0056614587 -0.15338047 0.06310045 0.04790871 -0.08556942 0.0616334 -0.12847197 0.05295193 -0.030785618 0.09197959
지 0.032030046 -0.014737258 -0.056585517 0.058248 0.051911082 0.15166935 0.035368282 -0.04582167 -0.0052433456 -0.029927887 0.11470287 -0.086871244 -0.00045143877 0.00977514 -0.0007084224 -0.07074524
있 -0.039206486 0.05483927 -0.0648493 -0.024168352 0.011309606 0.06281206 -0.007894283 -0.051004406 0.0036169146 -0.05877482 -0.015133358 0.013631265 0.10146403 0.07267655 -0.07578675 0.0009241242
없 0.14163418 -0.124814235 0.16787349 0.0957249 0.11976401 -0.014605572 -0.07373554 0.044898454 -0.12032287 0.122418135 0.11451991 -0.06424402 -0.17291167 -0.11930872 0.14135574 -0.065764494
? 0.06718765 0.0074199606 0.06971913 0.02310147 0.023263609 -0.044674613 -0.022868214 0.030138742 -0.07948412 0.038573876 0.014267794 -0.035275627 -0.081843175 -0.08980148 -0.0019115953 0.0102144405
좋 -0.109369665 0.15955369 -0.026793098 -0.1393005 -0.11796875 0.02564893 0.008456476 -0.03135199 0.091200225 -0.11976849 -0.44812456 0.096767254 0.1468538 0.069618545 -0.10520556 0.085784085
나 0.014351285 0.0089234905 0.008409344 0.040882405 0.020881832 -0.0020761627 -0.019616494 0.07307389 -0.026418053 0.012676542 0.026425371 -0.003698391 0.04112135 0.037129093 0.032013882 -0.020939387
었 -0.05444214 -0.0045320876 -0.03457296 -0.044681 -0.058879763 -0.015898312 -0.02991409 -0.044603482 0.027492283 -0.022481425 -0.034313492 0.051609263 0.04906453 0.0011103866 -0.024804037 0.0137521215
만 0.06550069 -0.087929666 -0.11000426 0.057481397 0.07938026 -0.10211675 0.032980833 -0.08466752 -0.030912878 0.04264995 0.0492924 -0.09377306 -0.05007665 -0.05161413 0.009899908 0.082734406
는데 0.05242156 -0.000864809 0.13350296 0.00839818 -0.026976446 0.11472633 0.0018146851 0.09571697 0.01186571 0.059889402 0.1445189 0.024804669 0.023914581 0.041705962 -0.013595903 -0.041652124
너무 -0.01815573 -0.039453752 0.24036177 -0.021299683 -0.09091275 -0.059721485 0.085891515 -0.0645977 0.0999365 0.0982182 -0.44980112 0.14375596 -0.09799494 0.05596736 0.10948391 -0.18347274
봤 -0.0025754354 0.045112807 -0.050236195 -0.010068582 -0.040997118 -0.029639248 0.028955579 -0.06186197 0.06273878 -0.04361318 -0.20895825 0.04341978 0.04150329 0.0338144 0.01954481 0.037090734
적 0.0010225425 -0.02787837 0.0071572335 -0.010595529 -0.04697034 0.0023528652 -0.04935298 -0.01966328 0.043745898 0.0037226933 -0.07201087 -0.008546917 -0.012663002 0.0332155 -0.04434698 -0.0067702085
안 0.11177204 -0.13652822 -0.041064467 0.10979047 0.1048803 -0.09551276 -0.1647263 -0.053008784 -0.089323506 0.032020275 0.2759772 -0.20160052 -0.11802121 -0.12589386 0.016815491 0.06400999
로 -0.04599893 0.0176176 0.07592797 0.009750019 0.0011073836 -0.10229384 0.00081518583 0.0077490886 -0.021168364 0.019581862 0.013817259 0.010102635 -0.027810462 0.0006493114 0.05627158 -0.053074706
정말 -0.037481412 0.020762024 0.088848755 -0.06359492 -0.05633243 -0.015057417 -0.022984652 -0.028590018 0.061341975 -0.024704713 -0.20019367 0.09453544 0.060820248 0.05979674 -0.07303574 -0.06951376
음 -0.08341803 -0.02865636 -0.030721985 -0.05636671 -0.054790054 -0.11690858 0.022849891 -0.06291355 0.049166434 0.07304314 -0.21999364 0.03998682 -0.15441687 -0.04263962 -0.079975836 -0.0021279133
것 -0.035749566 0.03147656 -0.019959925 -0.009508448 -0.052100644 -0.0029314407 -0.030638745 0.016335018 0.012438331 -0.035889562 -0.021936642 -0.058707304 -0.025485955 -0.014417731 -0.016769728 -0.01939703
아 0.050511785 -0.014790774 0.00012590084 0.003188884 -0.0049715084 -0.010552308 -0.0068996106 -0.030373102 0.043602977 -0.014947049 0.027468098 -0.00402927 -0.01597768 0.0074605127 -0.009480507 0.00094145257
네요 -0.102007456 0.044902876 -0.058314256 -0.055732287 -0.060157996 -0.06297372 -0.03230838 -0.15502658 0.07656535 -0.0097075505 -0.22427827 -0.020422637 -0.10440662 0.016546749 -0.07337876 0.0151488455
어 -0.009997797 0.0096017355 -0.034022897 -0.02976647 -0.033887453 -0.08577845 0.009126246 0.022477487 0.058577184 -0.02851287 -0.061806824 0.017903224 -0.03934682 0.007190486 0.047975402 -0.052326497
재밌 -0.13923699 0.14399157 -0.14914908 -0.15934707 -0.09507561 0.055953465 0.10023096 0.11582068 0.15552673 -0.13395898 -0.22577678 0.117162354 0.27116594 0.090071924 -0.21333401 0.11208491
같 -0.04250105 0.0028113537 0.013749703 0.003082991 0.02357901 -0.0054641515 0.014262685 -0.07261735 0.03421427 -0.003656323 -0.0254378 0.010121121 0.021139394 -0.02084846 0.07487187 -0.0023089116
점 -0.03505333 -0.07243563 -0.05249475 -0.013755278 -0.04432442 -0.19826029 0.055453047 -0.09790321 -0.05622079 0.1014376 -0.065960586 -0.020907797 -0.12629117 -0.08382268 -0.0121340705 0.14685874
지만 0.074876465 0.0007836006 0.116914995 0.10262895 -0.013380549 0.27944055 0.064143024 0.079085365 -0.03517207 -0.1672438 0.34079918 0.053551216 0.01850585 0.05586022 0.010338105 -0.10580325
진짜 0.0036810345 -0.018811768 0.09587968 -0.04554062 -0.062796794 0.01770652 0.03873905 -0.0036733022 0.07744048 0.007580196 -0.16269363 0.07763865 0.0141128255 0.10849187 0.02876416 -0.075967774
했 0.01961155 0.004461885 0.0061844913 -0.011772756 -0.02673974 -0.022142742 -0.013317964 -0.0714545 0.022564841 0.032904852 -0.07045401 -0.053563748 0.024842924 -0.02889253 -0.013487827 -0.0019859816
기 0.003903203 -0.022999361 0.010793485 0.014499863 -0.07560421 -0.14525472 0.06282981 -0.04518078 -0.06076789 0.039656032 -0.01300757 -0.08793344 -0.090843 -0.047573164 -0.015584957 0.105101146
에서 -0.03196988 0.041106615 -0.0131409075 -0.016157312 0.048285536 -0.004329213 -0.0028002579 0.026863832 0.017615635 -0.047885515 -0.045043007 -0.0033332875 0.01454174 0.051811993 -0.015010362 -0.034478355
네 -0.09221018 -0.053625762 0.05093934 -0.040585812 0.030615212 -0.044239324 -0.024997206 -0.00644935 0.020148883 0.044584256 -0.007403681 -0.029065892 -0.035266653 -0.047275983 0.02701211 0.04262062
않 0.110395685 -0.037401665 0.10321414 0.0871959 0.04972681 0.1546082 -0.07526746 0.14154597 -0.0746541 -0.018144522 0.34472764 -0.10134321 0.011884746 -0.05026832 0.080725044 -0.113059424
거 0.002044752 0.025400491 -0.054317467 0.034812104 -0.015891327 0.06051432 -0.03639556 -0.01109113 -0.030444173 -0.010996921 -0.0845444 -0.0140652815 -0.055089515 -0.08708612 -0.033004034 0.01898734
았 -0.023872506 0.0138605675 0.055175822 -0.030794172 -0.03376237 0.0022902065 0.0014319074 -0.058993377 -0.03156228 -0.011865572 -0.045669463 -0.04723148 -0.024257032 0.025713196 -0.06041704 -0.030813526
수 -0.04957111 0.0535858 -0.16398366 -0.08525199 0.017650867 -0.0652556 -0.0024338493 -0.055455808 -0.05380997 0.00070861506 0.080345996 -0.06425723 0.06498014 -0.0035208592 -0.09337967 0.15737295
되 -0.09116652 0.04537403 -0.03447177 -0.062072866 -0.039124418 -0.0133410925 0.03513083 -0.008877033 -0.0035916693 -0.038907584 -0.13962816 -0.03514394 -0.053524602 0.042632446 0.020311093 -0.0085654855
면 -0.0035355617 0.0190956 -0.029583808 -2.0041567e-05 0.055216487 -0.05364242 -0.039555002 0.009192522 -0.05289978 -0.043891996 0.14009416 -0.07469943 0.0043229465 -0.07496897 -0.038021028 -0.04777247
ㅋㅋ -0.009287371 0.03870429 -0.102945305 -0.01221709 0.008881666 -0.027574014 0.027492259 -0.029893886 0.027214795 -0.001802002 -0.055444665 0.00021486735 -0.07306414 -0.028976446 -0.017819818 0.06331673
말 0.010679176 -0.060158312 0.04833506 0.083950326 -0.0376565 0.014210036 -0.008448849 0.07196582 0.00038073212 -0.0030752847 0.105446264 -0.023037437 -0.0948667 0.04047261 0.04316984 -0.016465453
인 -0.053798977 0.07597276 0.03378993 -0.0527652 -0.050759777 -0.05648857 -0.03176763 -0.014932984 0.016532434 0.017453566 -0.15086567 0.062103 0.008250322 -0.0005961927 0.01923006 -0.0061912304
연기 -0.0716342 0.03343018 -0.006051169 -0.08780797 -0.014746456 -0.014198843 0.06329958 -0.04452059 0.10173134 0.027848091 -0.30458626 0.11899403 -0.030145917 0.026587479 -0.075237386 0.04477277
주 0.0154072745 0.07807587 -0.083693765 -0.03429051 -0.003082594 -0.018334327 0.03342925 -0.040284373 0.014931769 -0.05179169 -0.17338094 -0.018975008 0.03616457 -0.021767711 0.004972427 -0.029220182
내 -0.026045788 -0.012201658 0.106939286 0.05205074 -0.03854349 -0.016819203 0.033114098 -0.013383615 0.021718431 -0.008361476 -0.03352591 0.0065769814 -0.03386561 0.04489191 0.038570378 -0.036900006
최고 -0.19385652 0.18145517 -0.094572335 -0.19257253 -0.16622452 0.1783273 0.1773913 0.14991367 0.19910423 -0.25112256 -0.051788785 0.22716413 0.29292363 0.3414132 -0.23615463 0.09679209
~ -0.04269784 0.06278791 0.0009481941 -0.083075814 -0.028665207 -0.018776523 -0.016379679 -0.027518842 0.03435959 -0.021627346 -0.09573465 0.10488265 -0.10286606 -0.050899703 -0.008747927 -0.021104695
평점 0.047079112 0.10626098 -0.039523203 -0.0046272827 0.0005403644 0.060727354 0.004910508 -0.01990215 -0.039763752 -0.037833292 0.007251062 -0.022943376 0.08717935 0.08892915 0.023959763 0.09869848
이런 -0.007940621 0.01085246 0.0662326 -0.01533998 -0.0053321123 -0.05863908 0.043777406 0.011627057 0.05825202 0.014078137 -0.12064142 0.049311582 0.024529714 -0.049490955 0.077700116 -0.08973258
던 0.003966131 0.046447854 0.009938925 0.025043726 0.05266008 0.01539791 -0.0022568647 -0.03327024 0.023687685 -0.020973433 -0.07475445 0.03609344 0.050326668 0.024547936 -0.017038764 -0.020370435
어요 -0.09887862 0.005012679 -0.09055826 -0.08999933 -0.03751133 -0.11805058 0.04938679 -0.09053485 0.073499784 0.055953205 -0.294685 0.03179941 -0.19478978 -0.06392374 -0.06022255 0.08672928
할 -0.019193502 -0.026305335 -0.023075642 -0.0031567002 -0.018302022 0.001231794 0.07839686 0.015484758 -0.0012810514 -0.030241 0.05556148 -0.011600091 -0.03736676 -0.04077142 0.02165781 0.045724332
왜 0.010944171 -0.095613584 -0.050394103 -0.06697855 0.032458957 -0.1660843 -0.07786939 -9.833806e-05 -0.005936932 -0.015004078 0.10857309 -0.04376979 -0.068022445 -0.12512477 0.024645971 0.13079236
겠 0.007174961 0.032871943 0.047242217 0.0023771413 -0.005351176 -0.044552263 -0.017930688 -0.041005697 -0.07525566 0.047767058 -0.04991248 -0.029849261 0.008363713 -0.058226 0.08059788 -0.07001982
해 -0.059752423 0.021529172 -0.0348969 -0.047632378 -0.0040868837 -0.020787343 -0.032149766 -0.044551343 0.019542009 -0.078770585 -0.06452629 -0.009304191 0.038132314 0.016208591 0.00735137 0.038964003
1 0.15890802 -0.12946701 0.06606259 0.16113262 0.17737705 -0.00450668 -0.049824152 -0.023146262 -0.14423192 0.0497845 0.117361136 -0.1947511 -0.042918235 -0.049556352 0.105936304 -0.037033442
스토리 -0.0141833965 -0.0067565823 0.07946225 0.018667964 0.043226246 -0.07836917 0.023449866 -0.03868972 -0.009734766 0.02142505 -0.0023995722 -0.0028287172 -0.07991563 -0.0049990234 0.09496803 -0.03125631
습니다 -0.11198428 -0.012300154 -0.031519916 -0.092887215 -0.04282525 -0.08992616 0.032000594 -0.12168586 0.074758045 -0.03942229 -0.25984758 0.07100276 -0.027242642 0.07269695 0.006363753 0.014579355
ㅋㅋㅋ 0.0021475316 -0.008483092 -0.05617383 0.017465638 -0.030923545 0.03973624 -0.02259915 -0.012061217 -0.016313426 0.004729126 -0.020775124 -0.05419345 -0.032928247 0.04382234 -0.023219908 -0.008478112
... -0.059569243 -0.00698042 0.012800097 0.05111638 -0.00010879002 0.009953602 -0.011184019 -0.030659527 0.03279722 0.0027450079 -0.03750676 0.00012849452 -0.045990355 0.0009710371 0.033576522 -0.07520113
드라마 -0.0707623 -0.04379965 -0.1761431 -0.11638966 -0.099861436 -0.079421185 -0.0214688 -0.0755642 0.019699408 -0.0022132522 -0.22981451 0.05488272 -0.07861712 -0.05551068 -0.07497396 0.169713
아니 0.09238476 -0.07906141 0.07124687 0.09973782 0.026118986 0.1476231 -0.04590823 -0.003776191 -0.118366085 -0.0077873147 0.30936125 -0.101201795 0.032730047 -0.016893161 0.06732364 -0.13441493
생각 -0.07111603 -0.01575511 -0.032301024 -0.062754944 -0.028643338 -0.09986485 -0.013118933 0.006636729 0.0383572 -0.019291488 0.08034041 0.070310526 -0.00020100441 0.034367558 -0.047755145 0.06663582
더 0.0012769941 -0.010867855 -0.048540585 0.037892062 0.041780878 -0.14140771 -0.08113282 -0.027043488 -0.05414405 -0.050113697 0.15081006 -0.066642515 0.02007653 -0.020188997 -0.023270326 0.05212366
그 -0.08176111 0.00034771475 -0.026012173 -0.016285012 -0.052761547 -0.039387587 -0.022324763 0.021328293 0.03677205 -0.03641579 -0.01948335 0.02577501 0.0158716 -0.008105295 -0.01908527 -0.034914747
싶 -0.08979894 0.051951047 -0.069329776 -0.09468773 0.021047378 -0.04362592 -0.06715819 -0.04994293 -0.008118975 0.049651884 -0.21680132 0.042894218 -0.01943868 -0.075535774 -0.04391508 0.037674975
사람 0.013340891 -0.026247516 -0.10659906 0.0011718821 0.0641064 0.050680876 0.040805053 0.012509974 -0.073352344 -0.08464915 0.18849653 -0.07026052 0.094804585 -0.071602955 -0.077663586 0.069387235
듯 -0.05150988 0.030763764 0.056463923 0.032568943 0.054236986 -0.018538136 -0.0028789737 0.051399134 -0.011240419 0.061066296 -0.005778449 0.027963243 -0.033078276 -0.012001208 0.018390182 -0.02166053
때 -0.024896812 0.01550539 0.003313476 -0.025611112 -0.044749644 -0.026146559 0.04750258 -0.023465298 0.025479406 0.012785077 -0.0019395957 0.040601447 0.021652183 0.02518734 -0.038103946 0.06075868
감동 -0.08154818 0.13810371 -0.0137847485 -0.08696894 -0.09301744 0.16821763 0.15179971 0.071532205 0.10610607 -0.16189079 -0.2928404 0.15634389 0.12677146 0.20705387 -0.09395954 0.053024966
함 0.06761962 -0.026245045 0.0073017506 -0.030807879 -0.03775961 0.014187415 -0.01881671 -0.00829211 0.019094342 0.09406489 -0.11330591 0.036759567 -0.10125986 0.003469114 -0.00475591 0.06333233
배우 0.020215744 0.07281392 0.021527275 -0.012434817 0.03086071 0.0042274874 -0.060604654 -0.010101861 0.020187687 -0.03943876 -0.10043952 0.059469678 0.02293154 0.044743635 0.0151491575 -0.016762443
본 -0.02873579 0.029593555 0.01390583 -0.014492544 0.02900223 0.0074108616 -0.014655833 0.02365422 0.022429649 -0.030399019 -0.11759579 0.035097755 0.031146191 0.01117239 -0.016222028 0.079041794
까지 -0.02254289 0.050812155 -0.009164997 -0.07141424 -0.008905056 0.10524052 0.003718991 -0.025741186 -0.0070646526 -0.00010676423 -0.17824127 -0.034343358 0.038848426 0.013994406 -0.04474016 -0.049393285
뭐 0.07705931 -0.063425384 0.021251965 0.029373301 0.10166192 -0.04139508 -0.056735195 -0.069808856 -0.12762368 0.034286432 0.039585393 -0.109954506 -0.066192865 -0.10495453 0.0031698619 0.00441149
보다 0.051070474 0.00025568085 0.12738071 0.055917487 0.034637164 0.018851181 0.04777006 0.016408155 0.04886034 -0.047402717 -0.03104671 0.06048494 -0.033128433 0.051624317 -0.022474775 -0.05434883
알 0.017281674 -0.0017533711 0.050250027 0.06635237 0.063247785 -0.06889097 0.030954039 -0.0032884795 -0.018061226 0.08647474 0.03229729 -0.014807509 0.005167291 0.051359154 0.05100128 -0.013271514
만들 -0.023450136 0.09620101 0.038748547 -0.07371483 -0.04690658 -0.037354484 0.059877682 -0.074206665 -0.05953988 0.07000859 -0.21908477 0.025706878 -0.006254885 -0.047706097 0.04479155 -0.059568364
내용 -0.009656191 -0.0011711814 0.117757685 0.034512237 0.0127137005 -0.03361946 0.0009400976 -0.06916286 0.011847083 0.06888957 -0.24120688 0.048087984 -0.09473489 -0.043010496 0.11874306 -0.1375395
볼 -0.06601999 0.16266267 -0.087870754 -0.1288331 0.0046807462 0.005954776 0.078705445 0.028873838 0.08355789 -0.0835801 0.000278191 -0.01352088 0.106497824 0.015869312 -0.031478576 0.057662867
감독 0.009308796 -0.02655097 0.04478602 -0.026305262 0.067144945 -0.0418392 -0.08217748 -0.024531703 -0.054748554 0.10090921 -0.19991642 -0.003406035 -0.05154839 -0.05516554 0.078356996 -0.08355913
라 -0.005124548 0.02048155 0.053601958 -0.01962633 0.035581596 0.012880827 0.018156782 -0.021745251 0.023502804 -0.044669688 0.05440764 -0.029058587 0.041904066 0.00086512236 0.00868842 0.015074076
그냥 0.047917627 -0.057086185 0.114733316 0.02872199 -0.018686082 -0.0148014845 0.022696564 -0.03974631 -0.025522763 0.04773814 -0.17962046 0.03169468 -0.1026329 -0.012342951 0.06345264 -0.120454066
재미 -0.022026189 -0.011891289 0.086689994 -0.06197752 -0.060435314 -0.0055430424 0.06148492 -0.013986677 0.08392427 0.009479038 -0.35249814 0.097593516 -0.077579886 0.14492293 0.020499531 -0.08748068
시간 -0.031230189 -0.07178451 0.070795 0.03365282 0.08774936 -0.16277705 -0.020545138 -0.013050598 0.0039144787 0.08455676 -0.006782722 -0.0067461836 -0.118311934 -0.025519606 0.10741978 -0.02432817
지루 0.34429258 -0.44961384 0.28099635 0.23863359 0.25148952 -0.22875884 -0.27865088 -0.044444844 -0.097399116 0.0625651 0.182254 -0.22924954 -0.24764715 -0.09515826 0.14269371 -0.15665983
중 -0.092394866 0.07570887 0.025036197 -0.0375685 -0.057135828 -0.018718287 -0.031571724 -0.037214402 0.0982751 -0.009782306 -0.16943252 0.06461986 0.021150423 0.05224307 -0.005558655 -0.0262411
재미있 -0.16346349 0.13357283 0.025831606 -0.11877874 -0.08676168 0.12781376 0.07734996 0.05936764 0.12499868 -0.098679386 -0.30794558 0.20729002 0.19533722 0.2004581 -0.08281358 0.07072737
년 -0.12317116 -0.008568777 -0.09592224 -0.03944126 -0.052207433 -0.009405217 0.039768755 -0.015426317 0.0088288635 0.001035981 -0.053309996 0.030957237 0.009606452 0.025520297 -0.023217201 0.047300484
10 -0.059865307 0.31198752 -0.10542956 -0.11723752 -0.088279486 0.29358733 0.0389109 0.099595845 0.06070015 -0.2095374 -0.07857867 0.09126513 0.3722684 0.19274628 -0.19358896 0.12213045
였 -0.06003685 0.0037548481 -0.082033776 -0.10017563 -0.0368978 -0.015824541 0.04083992 -0.015200563 0.009926712 -0.08811354 -0.057196062 -0.0060926015 0.048843253 0.0371485 -0.016340444 0.08874981
잼 -0.15441379 0.041858252 0.012730648 -0.15133683 -0.2621069 -0.07325265 0.11656479 -0.13510787 0.11334258 -0.053708628 -0.44593453 0.19181946 0.013493568 0.12584428 -0.032206543 -0.010284037
사랑 -0.084467486 0.099460736 -0.096810274 -0.072321385 -0.12123157 0.11327253 0.03340477 0.0070990673 0.083087295 -0.030712109 -0.054999862 0.012997036 0.12349446 0.088913545 -0.09711676 0.10880877
못 0.19201848 -0.07200668 0.051364634 0.17387415 0.13499747 0.024317041 -0.0498216 0.012071607 -0.14752811 0.06255468 0.15316996 -0.18597795 -0.054154333 -0.038948264 0.05250731 -0.010976807
냐 0.10328111 -0.07693617 0.06288182 0.0628805 0.03232016 0.009193141 0.009283184 -0.06330623 -0.044852033 0.004942688 0.07123043 -0.07379884 -0.10723871 -0.04000274 0.012927295 -0.05802743
재미없 0.4886823 -0.33050665 0.18304534 0.2633167 0.3523626 -0.11300508 -0.33445746 -0.13442458 -0.23773986 0.24926136 0.0012484724 -0.30257022 -0.31635228 -0.3523724 0.2735062 -0.093468815
쓰레기 0.34008723 -0.3393636 0.22963156 0.22431152 0.24112098 -0.19164264 -0.3111991 -0.16185062 -0.15872368 0.24415943 -0.017183278 -0.18606561 -0.22145762 -0.25630695 0.14985524 -0.08971775
서 0.018023225 -0.012154805 -0.007007895 -0.019085292 0.026053699 0.034273434 0.038362246 -0.03699799 -0.0055418983 0.009925016 -0.020676346 0.047885016 -0.07826651 -0.030759322 -0.033437647 0.038448542
야 -0.10327652 -0.035536356 0.010121272 0.021606768 -0.038098156 -0.0182419 -0.0121680135 -0.03905403 -0.012988357 0.0018359607 0.07523775 0.015533582 -0.048178684 0.011596381 -0.0028436012 0.0011612611
2 0.024289146 -0.024048321 0.15267088 0.0281668 0.030197207 -0.14489563 -0.09789152 0.057224467 -0.036196698 0.084259085 0.15490827 -0.04227596 0.00959207 -0.021697693 0.06164216 -0.04400803
라고 0.027840264 -0.009660265 0.04754135 0.065557934 0.06445464 -0.0017629237 -0.01588974 -0.011334549 -0.004160697 0.06812114 -0.016064027 -0.09015051 0.024963696 0.059938964 0.060313474 -0.09373491
니 0.012731899 -0.030993914 0.04062844 -0.05904758 -0.002383503 -0.00963696 0.003104235 0.008050385 0.0007407003 0.053068258 0.032368276 -0.06582135 -0.040714625 -0.08520705 -0.02692215 -0.0783928
면서 -0.035944264 0.059741803 -0.03141614 -0.016601712 -0.08858924 0.041727625 0.023461327 0.0024139981 0.027983649 -0.00626204 -0.09474518 0.024103986 0.02579608 0.05130249 -0.034059256 0.043972716
번 -0.0830607 0.020537978 0.0057940083 -0.051979184 0.024138374 0.0645295 -0.01835781 0.036065776 -0.02392147 -0.025084082 -0.032799672 0.010512118 0.06415041 -0.009635353 -0.05312947 -0.006811948
다시 -0.10682681 0.0804789 0.02009693 -0.105958335 -0.018609094 0.041537173 0.0030083042 0.062081266 0.08098806 -0.08685273 0.108991854 0.0074069235 0.1782082 0.16458087 -0.0507096 0.06626026
나오 0.0074955835 0.009380822 -0.021472786 0.0019366409 -0.01257725 0.016915563 0.03370651 -0.02347754 -0.047432087 0.006339821 -0.084210865 0.0077061346 -0.030885693 0.0026233257 -0.033361036 0.022356194
작품 -0.05250383 0.041951094 0.0032969846 -0.018566407 0.014917795 -0.026819184 0.021118237 0.005788801 0.0685087 -0.008588007 -0.012764677 0.083204046 0.015520116 0.13075031 -0.023206647 0.025061416
이거 -0.054692496 0.051541302 -0.10014677 -0.057765163 -0.01928077 -0.020378979 0.05145475 -0.05875934 0.039524093 0.025266249 -0.062062476 0.05825836 0.0063272207 -0.04921359 0.026414461 -0.0034609432
하나 -0.003177308 -0.030319102 0.023619834 -0.008591642 0.051054746 0.0039532823 -0.014070297 -0.0066374377 -0.05013002 0.018386835 -0.016533148 -0.026230108 -0.091392785 -0.04799458 -0.009657738 0.02529602
줄 0.049089745 -0.007909475 -0.017986633 0.02590751 0.020949662 0.045196064 -0.0066909627 0.059202965 -0.07129222 -0.011014789 0.03825789 0.010186792 0.044628795 -0.012688195 0.07635596 0.04195542
해서 -0.05923898 0.04857786 -0.044059582 0.03373561 0.0006958961 0.047103725 0.010254505 0.03896578 -0.0431806 0.022753108 -0.0936807 0.0346802 0.04913645 -0.007891944 -0.008449653 -0.06250807
개 0.030374838 -0.067164026 0.008442328 -0.056404788 -0.078800075 -0.08647697 0.035446752 -0.047396835 0.028928123 0.05370904 -0.021530623 0.030975945 -0.06962161 -0.0029240772 0.024960818 -0.030186282
정도 -0.026938679 -0.022243112 0.057107374 -0.008380769 0.044802684 -0.09912004 -0.05280435 -0.0060738386 -0.03224856 0.06943638 0.16950265 -0.06738801 -0.04690711 -0.038227413 0.023868613 0.025239306
남 -0.042992152 0.04409992 -0.0023845502 -0.07250784 -0.036873937 -0.12263884 -0.02280335 -0.124372125 0.027500289 0.013582904 -0.21894903 0.058201037 -0.07892411 0.06233131 0.032324765 -0.031681012
마지막 -0.06295045 -0.010245746 -0.13327049 -0.040682122 0.010249358 0.0037272668 0.012568473 -0.04474287 0.056888226 -0.009853498 0.029625531 -0.01765612 0.020969266 -0.0742061 -0.09677207 0.10777913
끝 -6.609186e-05 -0.043940026 -0.053718973 -0.032085266 -0.0005118253 -0.05367478 0.0013913568 -0.045691393 -0.0758129 0.032611955 -0.051582538 0.0046521155 -0.06608351 -0.050592456 0.01755952 0.018754497
액션 -0.045727003 0.042830586 -0.05791113 -0.03070428 -0.0009927239 0.0518594 0.027267195 0.025894074 0.017715134 -0.036420956 0.022296034 0.069343925 0.055995516 0.032300852 -0.061093792 0.007902445
이건 0.07722083 0.003803419 0.38387546 0.11885299 0.004388457 0.004983639 0.08801447 -0.0234946 0.02415307 0.0699132 -0.12624277 0.085523605 0.009909826 0.11730675 0.10886988 -0.30910742
임 -0.081428334 -0.026555687 -0.09220132 -0.06830938 -0.03610187 -0.06764209 0.008524183 -0.006755065 0.0700581 0.06763353 -0.10374215 -0.02723546 -0.069450535 -0.1173871 0.021138944 0.026195377
건 0.040907927 0.01447277 -0.03136522 0.010351416 0.08385844 0.087327205 -0.030598238 0.0015198679 -0.059021726 0.05549229 0.04246414 -0.105371974 0.00013953564 -0.10244974 0.011366752 -0.064301476
ㅋ -0.02806751 -0.05952655 -0.13014278 -0.037930906 -0.014851529 0.036123186 0.05478114 -0.06363956 0.05050478 0.02525826 -0.06994564 0.033459134 -0.062640354 -0.060360476 -0.000627582 0.078989804
3 0.079198346 -0.035475224 0.05837887 0.10791748 0.041279025 -0.04827226 -0.028238354 0.043250367 0.029754672 0.08909598 0.00637444 -0.0045265243 -0.101993166 -0.07739916 0.06792099 -0.11670792
기대 0.014273545 0.040823285 0.052777253 0.019346109 0.030213742 0.2207742 0.013534132 0.07224078 -0.03827937 -0.105461225 -0.18932137 0.07554873 0.11148967 0.06122794 0.011157198 -0.007483102
입니다 -0.05304228 0.050270513 -0.0076042926 -0.07336998 -0.07256282 -0.0070141973 0.004159226 -0.09963536 0.02388322 0.0027789318 -0.22416326 0.044380594 -0.04201272 0.074259765 -0.08332043 0.04353948
라는 0.013941121 -0.051240362 -0.00694904 -0.047539767 -0.019155018 -0.039073147 0.048506606 -0.10208944 -0.034337003 -0.031452995 -0.047157448 -0.039583072 -0.01260236 -0.02047526 -0.01505103 0.04518801
분 0.099484585 -0.0019827022 -0.017811498 0.11772162 0.09188817 0.13833088 -0.04420742 -0.04119598 -0.034959342 -0.021857558 0.01817663 -0.10770224 0.053042818 -0.032879524 0.035710998 -0.05948456
완전 -0.08471795 -0.044615224 0.20139872 -0.017121209 -0.059333224 -0.113108054 0.10893833 -0.10054664 0.10957522 0.023159632 -0.47483268 0.12000995 -0.098830275 0.10817758 0.026790084 -0.2141793
다는 0.030206602 -0.035513535 -0.07356919 0.015969321 0.025815912 0.08048479 0.0006214211 0.042811766 -0.04645519 -0.02124878 0.0095179435 -0.088279456 0.02874962 -0.027539458 -0.000450074 0.026592284
참 -0.07328847 0.02206976 -0.011968754 0.007147044 0.012315363 -0.06583201 -0.064222544 -0.026045017 0.031935524 0.036443483 -0.1314662 -0.028486792 -0.0135329375 -0.041988187 0.005015361 -0.065135494
많 -0.10324694 -0.035483614 -0.0031467127 -0.037342586 -0.05222477 -0.10538801 0.0089704115 0.046999387 0.050696813 -0.02880262 0.12001373 0.028231628 -0.042688496 -0.022944044 -0.01979785 0.0277443
처음 -0.040801704 0.01592282 -0.011519995 0.027642032 0.054194234 -0.14142184 -0.07333548 -0.061163366 -0.036522556 0.02677629 0.05328001 -0.03865043 -0.09947767 -0.017389838 -0.004699422 0.05737305
장면 -0.073223576 0.038496595 0.003233081 -0.020960841 -0.06007003 0.03793277 -0.01967607 0.012625178 -0.0025058952 0.038732987 -0.10525823 0.03981455 -0.037996117 0.0308175 0.04556875 -0.03134206
대 0.07989928 -0.042104296 -0.018365568 0.0642774 0.0054033087 0.1127919 0.077056155 0.07664526 -0.046872027 -0.024863787 0.08129872 -0.015215372 -0.036817584 -0.03348086 -0.010224499 0.08301246
아깝 0.13236399 -0.19585446 0.0062405835 0.025977056 0.15328299 -0.087248474 -0.06463726 0.004001723 -0.15464827 0.21523301 -0.023698347 -0.058928736 -0.31901655 -0.3236281 0.1699298 0.13741322
다가 -0.011051269 -0.002661789 0.18851268 0.0763435 0.0036606537 0.05306579 -0.031051813 -0.082963936 -0.05977561 0.018753367 -0.1168749 -0.019427044 -0.005778556 0.061792675 0.08829706 -0.17479442
으면 -0.02269633 -0.023905108 -0.047802534 0.0011998857 0.032417785 -0.0022607972 -0.07205808 -0.031222878 -0.062125474 -0.049727798 0.0051175524 -0.09075771 0.019347329 -0.06297218 -0.03618712 -0.004934469
지금 -0.09982603 0.09549542 -0.02155507 -0.01131376 -0.022865029 0.033301435 0.017866712 0.012971978 0.08823606 -0.111436665 0.04001173 0.0895921 0.094304256 0.07057323 -0.07078551 -0.025787236
모르 0.014022501 0.022356613 0.12854454 0.01414513 -0.027025428 0.05393204 0.029986741 0.0012101136 0.015855758 -0.036717374 0.10333808 0.024691409 0.027924774 0.11675828 -0.020084733 -0.12989482
이렇게 -0.027150199 0.12698318 0.09394227 -0.07030597 -0.056165464 0.023364326 0.037853293 0.029200679 0.05776605 0.010204957 -0.2032142 0.07612117 0.0040609543 0.09086962 -0.012588729 -0.12879865
' -0.007631513 -0.0021328407 0.0010415411 0.0065029496 0.02971603 0.01077526 -0.021155171 -0.04723525 -0.01399907 -0.043556597 -0.02494844 -0.0077482373 0.03181237 0.055142783 -0.035331365 -0.016363481
편 -0.038284052 0.057458285 -0.20129922 -0.016511763 -0.046475932 0.033125956 0.061716847 0.0017522492 -0.008776985 -0.043503143 -0.014487257 -0.009253094 -0.033404566 -0.006466448 -0.061496653 0.098261535
일 0.025037969 -0.03225652 0.044145245 0.010915623 -0.0031155823 -0.019198868 0.04984177 0.0004968068 0.0050657056 0.010996481 0.041205347 -0.059745368 0.019054992 -0.011014426 0.058135312 -0.04444952
성 0.016211426 -0.0150167495 -0.034593195 0.034716494 -0.048604693 -0.03248639 0.006327887 0.04234942 -0.056855734 0.019914217 -0.059278764 0.09507994 -0.041065272 0.014470833 0.02543087 0.031040909
돈 0.18368907 -0.09649266 0.028532835 0.16189325 0.15792932 -0.021717995 -0.13306603 -0.10186818 -0.1511491 0.18014784 -0.11254481 -0.17885245 -0.12592016 -0.18361937 0.17876112 -0.10549631
이게 0.019693317 0.050152674 -0.11383301 -0.0032717914 0.033477165 0.066870116 -0.014129662 -0.02333912 -0.103626154 -0.022669628 -0.01436459 -0.101036586 0.015442603 -0.02032893 -0.035193663 -0.030041784
느낌 0.038811076 -0.0010890537 0.03403332 -0.007968114 -0.030446466 -0.09693932 0.006136248 -0.081829906 -0.003494536 0.039630007 -0.13909394 0.05217426 -0.10696161 0.008336976 0.09265485 -0.0022352017
시 -0.034805976 -0.046960555 -0.12142093 0.028251147 -0.038005166 0.0116957165 -0.04600455 0.004240192 0.00669263 0.014312615 0.022632396 0.02145956 -0.043720897 -0.07707534 -0.009733939 0.06365875
이야기 -0.06829264 0.028022926 0.004151586 -0.06351689 0.017205317 -0.0070252437 0.0030685705 -0.025388548 0.030987684 0.01812904 -0.10183588 0.054231502 -0.009451724 0.06552267 0.009758064 0.041513223
최악 0.47157988 -0.19734426 0.28253385 0.36124498 0.44827583 -0.21973641 -0.34581816 -0.33509296 -0.36372378 0.430713 -0.39518595 -0.35710114 -0.3634405 -0.36116344 0.5476063 -0.38103592
된 -0.024949364 0.025910234 -0.0626792 -0.02064114 -0.042132992 0.05847783 0.047780212 -0.034704875 -0.015450333 -0.020084644 -0.16444498 0.022729002 -0.0027977515 0.021867255 -0.031164214 0.11160717
봐도 -0.1476467 -0.026035655 -0.09545465 -0.17666823 -0.12864982 -0.12153743 0.021982273 -0.07682073 0.10690043 0.039980903 -0.2422396 0.10069806 -0.06030482 -0.044316594 -0.07800842 0.071881525
님 -0.0030751673 -0.005018118 -0.14010225 -0.045086287 -0.051037204 0.06696381 -0.019715318 0.018643072 0.011597635 -0.03922567 -0.09945871 -0.017982231 0.038752463 0.02682466 -0.10110961 0.16604881
어서 -0.03025501 -0.09979451 -0.055314552 -0.064727776 0.0009503876 -0.14960301 -0.053726718 -0.0773036 0.028386492 0.055403132 -0.027219534 0.0045901705 -0.10692805 -0.006021779 0.041613556 0.039801937
애 0.050113972 0.017318511 -0.053188384 0.043151163 -0.0063241087 0.04455445 -0.020107245 -0.055791236 -0.0880068 0.0105837835 -0.08275874 -0.038748495 0.025086602 -0.004498179 -0.022632971 0.07408269
전 -0.0044829696 0.041816477 -0.04138582 0.013842916 0.003148998 -0.014653309 -0.0310344 -0.110532805 0.03376393 -0.06022806 -0.10963246 0.008982192 0.08182577 0.076996 -0.043682538 -0.045189183
넘 0.0014250459 0.06913268 0.12065617 -0.02420742 -0.110356584 0.0018520075 0.08941375 -0.07364057 0.03957905 -0.08379251 -0.22914287 0.0727341 -0.028799113 0.08931957 0.0072693564 -0.14640395
ㅠㅠ -0.073725335 0.014236424 -0.047467504 -0.10607286 -0.06696053 -0.008456403 0.01188297 -0.032171987 0.0831138 -0.02889332 -0.16807899 0.023176884 -0.05255535 0.03781885 -0.053235065 0.06048999
다고 0.14299859 -0.026545253 -0.0001590631 0.08838145 0.044505842 0.1606229 0.0560939 0.025247024 -0.053276267 -0.037106685 0.18942793 -0.11908067 0.05066788 0.07670694 0.039044373 -0.030487463
인데 -0.0014638274 -0.048528243 0.04007019 0.054741766 -0.020543158 -0.024055162 -0.022980524 -0.059162408 -0.017873691 -0.03687423 0.10534675 -0.036367763 0.0394027 0.018432673 0.04336407 0.023190927
그리고 -0.0706669 0.04177903 -0.082058236 -0.09117665 -0.07596396 0.0043609818 0.09535615 -0.03660906 0.07400775 -0.04511101 -0.10640277 0.025907245 -0.011236751 0.035276487 -0.028607419 0.073263824
명작 -0.16600055 0.2486686 -0.18226565 -0.123574704 -0.101598635 0.20230573 0.21907604 0.03701087 0.12264132 -0.16805628 -0.15868598 0.13505119 0.20652486 0.14678521 -0.13990049 0.2242541
여자 0.032307964 0.0134010445 0.011185428 0.07844652 0.09836046 0.12658451 -0.02728161 0.024333179 -0.039151125 -0.03233521 -0.052093375 -0.03742907 0.010298768 -0.047749918 -0.0034106711 -0.02308446
이해 0.10682891 -0.020158177 -0.08992041 0.110622846 0.04663659 0.11545907 -0.034179956 -0.02056274 -0.038841903 -0.030178783 0.08862195 -0.07935982 0.024673363 0.0017867234 -0.046159465 0.06697008
^^ -0.051061753 0.0693441 -0.04061777 0.02033949 -0.01929923 0.07513712 -0.00979427 -0.010777733 0.11484082 -0.14973418 -0.0013884675 0.0014696136 0.019808471 0.15223129 -0.07383736 0.02672302
난 -0.03420653 -0.013907302 0.17111467 -0.03192248 -0.12368459 0.02432648 0.027876204 -0.01607622 0.11129004 -0.074937165 -0.033110704 0.14889333 0.06712729 0.0850433 -0.021369318 -0.06702257
역시 -0.07202962 0.039773773 -0.04342873 -0.05207889 -0.06319446 0.018281244 0.018155253 0.022715483 0.04293743 -0.05299898 -0.17364804 0.057673078 0.06160117 0.08705526 -0.0979734 0.095065564
또 -0.051464897 0.020642847 -0.08619862 -0.09731498 -0.08857223 0.002312576 0.06244012 -0.037967358 0.010020783 0.01835262 -0.094887614 0.073463514 -0.014074924 -0.042805586 -0.044027396 0.11222676
걸 0.025660744 0.03871698 0.024705915 0.03409012 -0.015695931 0.024718406 0.015228724 0.0057858876 -0.040939815 -0.02525081 -0.014240632 0.039038345 0.012589625 -0.043331947 0.026325487 -0.0085639665
한국 -0.020975295 0.009324337 -0.09652267 -0.018301489 0.021560345 0.057032164 -0.03169504 0.0862018 -0.020527821 0.005181829 0.05396405 -0.032414816 -0.013397653 -0.05113247 -0.03145508 0.124679156
이상 -0.034913424 -0.070940554 0.0036412508 0.015817825 0.00495215 -0.026092533 0.025032923 -0.03123062 -0.014910183 0.06287978 0.008339785 0.0008339797 -0.042744804 -0.0139612015 0.0072805528 0.045629546
부터 -0.053312518 0.002096151 0.07768904 0.0612938 0.037875887 -0.028694203 0.04061826 -0.06044243 -0.0132966405 0.0042047463 -0.081935555 -0.03883774 0.03429491 0.04892513 0.046490226 -0.0027433282
는지 0.07866409 -0.04057536 0.009536088 0.060081944 0.056280702 -0.11419327 -0.028308569 -0.07685965 -0.07610378 0.059549935 -0.027072778 -0.03241453 -0.02410681 -0.06501781 -0.021509662 0.043608077
많이 -0.00010486205 -0.01226776 0.016055696 -0.00029325287 0.0022152744 0.045267403 -0.050665163 0.005903383 0.018029261 -0.0008053026 -0.10738655 -0.0062526255 -0.03577992 -0.010997418 0.070166364 0.0027732363
에게 -0.08335717 0.058669705 -0.053559847 -0.051710576 -0.09521938 0.01705956 0.060960934 -0.056151845 0.005598343 -0.07891853 -0.14421923 0.00092777656 0.041572805 0.020523615 -0.09329532 -0.02208477
주인공 0.028396666 -0.02555255 0.042430814 -0.015018236 0.056431923 -0.024864584 -0.053202998 -0.04943427 -0.03646309 0.07021322 -0.12380752 0.01793733 0.03626202 -0.03086134 0.049313907 -0.044762988
별로 0.17339379 -0.27500573 0.16157272 0.19401991 0.30236638 -0.27333853 -0.29650566 -0.1265647 -0.13516513 0.21621312 0.030569676 -0.21259089 -0.2238718 -0.17326365 0.12208425 -0.049528673
받 -0.03188984 0.004549921 -0.046178874 0.010975443 0.012871169 0.02468376 -0.005513 0.0017015769 0.038854536 0.034748957 -0.0060687773 -0.064876124 0.046419322 -0.00528916 0.0066952175 0.059405427
합니다 -0.08352272 0.08463045 -0.046936415 -0.015582196 -0.03434857 -0.013170829 0.012828468 -0.054871727 0.05879586 0.0030838302 -0.04110443 -0.016326835 0.087654814 0.008721371 -0.0202609 0.0813593
두 -0.043875076 0.023427749 -0.044708136 -0.025424473 0.008414586 -0.002765729 0.046506427 -0.06627204 -0.03572333 0.044406205 -0.004745678 -0.01513498 -0.0020736982 0.0027463615 -0.08406811 0.030816257
우리 -0.09357875 0.0606443 0.020222254 -0.07354019 -0.070413634 0.011532044 -0.0035883514 0.03425597 0.073547885 -0.10150056 0.009459999 0.041193943 0.03434304 0.10111974 -0.07906552 -0.020344235
만든 -0.033477686 0.030122109 -0.065711215 -0.039293308 -0.060395285 -0.058347467 0.07081436 -0.048857387 0.015175244 0.05015206 -0.10914138 0.0029438531 -0.029487193 0.016669828 -0.06790976 -0.018637598
살 -0.024217963 0.04516918 -0.14207868 0.02432711 -0.028905058 0.10598042 0.028693773 0.040212255 -0.004596787 0.03081026 0.036297094 0.04442141 0.009115369 -0.0019374227 0.02227101 0.14170456
!! 0.004058204 0.05709757 -0.029844366 0.05316845 0.04188778 0.07382876 -0.049437862 -0.05551245 -0.017572155 -0.047239553 0.010405545 0.0050393976 -0.031095618 0.0053315237 0.035806473 0.0018368942
길 -0.012236477 -0.080970034 -0.060721464 0.004170804 -0.045225345 -0.0019185808 0.05181544 -0.016023703 -0.0069455705 0.0707738 -0.038774166 -0.05799274 -0.042820692 -0.066528454 -0.05141866 0.10169181
엔 0.008931276 0.046797708 -0.08921349 0.040163502 0.09657117 -0.021358324 -0.035285965 0.040924508 -0.08101211 -0.0023512773 0.1023409 -0.15920575 0.07290698 -0.046693742 0.0064059687 0.12471255
괜찮 -0.13271229 0.09358126 -0.11867886 -0.14575376 -0.04671658 0.08917975 0.124520816 0.13232921 0.095228635 -0.07290195 -0.053908557 0.10647373 0.1520888 0.05683749 -0.08826099 0.1513313
기억 -0.15030295 0.10832571 -0.101701975 -0.07680503 -0.061503198 -0.028188134 0.045920316 -0.080305636 0.05802099 -0.07757335 -0.2413213 0.11597052 0.08290191 0.12962337 -0.022973234 0.029697107
연출 -0.11209606 0.050322697 0.119628415 -0.05094042 -0.04673367 -0.042065773 -0.08202088 -0.08677857 0.018317198 0.08268263 -0.104807734 0.08586877 -0.009756931 -0.0106557235 -0.014779124 -0.093813755
한다 -0.035202306 0.025144963 0.011877313 -0.04514093 0.016472584 -0.01994686 -0.016479135 0.046683777 0.05153502 -0.0048653376 0.051394463 0.035270523 -0.021313125 -0.0019869914 -0.019597398 0.0029359907
때문 0.041632786 0.08294709 -0.056642186 0.006981665 -0.04235142 0.10300339 0.06240948 -0.04727532 -0.015517815 -0.0076474664 -0.09469439 -0.003665993 0.049711626 0.009582669 -0.008115775 0.01363472
ㅎㅎ -0.0038930906 0.040348433 -0.10592637 -0.07375685 -0.017834025 0.07296696 0.0758059 -0.022520004 0.056057505 0.01718031 -0.09512577 0.07536625 -0.091212854 0.016824115 -0.03634409 0.116477504
이나 0.013384027 -0.11449592 0.032673586 0.00556831 0.08783224 -0.11590375 -0.08240319 -0.06548758 -0.08875156 0.043751705 -0.04018114 -0.033174407 -0.06022744 -0.08365379 0.033082705 0.02827573
요 -0.014297536 0.060737688 -0.046507757 -0.06804119 -0.028767657 -0.0077967974 0.059096977 -0.020067364 0.043208588 0.092362925 -0.16684543 -0.00046469754 -0.069726236 0.04191262 -0.070745245 0.11576332
저 -0.051326986 -0.034791533 0.06116152 -0.009402788 0.00035037156 0.0050083185 0.029412769 0.00832154 0.055398744 -0.04181929 0.093567975 0.025157785 -0.0252855 -0.007929262 -0.052356675 -0.09647985
재 -0.1239906 0.04842422 -0.07995566 -0.051713936 -0.12248581 0.038569875 0.03778744 -0.023435462 0.04005813 -0.08656116 -0.09163371 0.040952127 0.11295236 0.10720765 -0.079468325 0.053131144
꼭 -0.122081935 0.11391231 -0.12747258 -0.04133853 -0.08694745 0.112749495 0.033390637 0.16250706 0.0658899 -0.07833307 0.049651444 0.16329569 0.08235831 0.12809268 -0.114536814 0.111563265
며 -0.066271275 0.0011459256 -0.05804633 0.012154911 -0.03936375 -0.033473015 0.04013165 0.042831354 0.047751512 -0.010758988 -0.09977559 0.05108857 -0.015671737 0.013252003 -0.056222726 0.06527761
현실 -0.034452327 -0.03623736 -0.076055504 -0.060672678 -0.07016526 -0.0012004793 0.027802987 0.034171212 0.037229348 -0.008644105 0.07950418 0.070524715 0.03643047 0.022664234 -0.073655434 0.1028933
랑 0.015624547 -0.016862309 -0.028148137 0.0048290407 0.020554634 0.09207561 -0.018074468 0.05321393 -0.040995203 0.035660475 -0.046335462 0.014937263 0.02766819 0.024976905 0.054537512 0.010118183
긴 0.12894191 -0.051842965 0.035093196 0.106995985 0.1387289 0.14225335 -0.083630316 -0.004180735 -0.055157073 -0.09393031 0.27738276 -0.12904859 0.012924807 0.0151394475 0.0070882384 -0.12290882
ㅡㅡ 0.037905708 -0.10043087 0.038345225 0.014981927 0.040454775 -0.08132193 -0.13842036 -0.024863552 -0.09980617 0.098194696 -0.028084453 -0.03619676 -0.17360535 -0.13111192 0.023642244 -0.018173069
무슨 0.13668206 -0.12255937 0.080927745 0.07988705 0.14304261 -0.049932603 -0.07911655 -0.06935559 -0.11535123 0.101493984 -0.108862005 -0.09435007 -0.16876642 -0.08894628 0.16281581 -0.10029519
내내 -0.056842946 -0.03873385 -0.03196875 -0.016881349 -0.0809037 -0.09829793 0.06305276 -0.047450647 0.0506899 0.009133852 -0.15922254 0.05081979 -0.08566896 -0.047756728 0.0057389187 -0.012091833
결말 0.028710028 -0.057761967 -0.021151302 0.044209715 0.0025931909 -0.07063495 0.07092956 -0.074185014 0.024452243 -0.011371121 0.090707414 0.009780122 -0.11867211 -0.0006643572 0.0045762993 0.12329361
죽 -0.07949014 0.030582778 -0.050857283 -0.0095716715 0.020939155 -0.054675557 0.02217743 0.017571274 -0.0023604308 0.06433601 -0.050901074 -0.005228547 -0.060288295 -0.07100952 0.018629761 0.0067693335
세요 0.005403498 -0.020493412 -0.019636199 -0.0065603647 0.02545165 0.003476616 -0.0632059 -0.037065066 0.012480794 0.04765906 -0.0045903544 -0.054877724 -0.010594042 0.008063482 0.014912252 0.06956962
남자 0.0137005625 -0.024311349 -0.06346873 -0.044211052 -0.049737655 -0.034934007 0.021080768 0.043469496 -0.039766252 0.017951746 -0.0413727 0.0008447309 0.023268396 -0.06048398 -0.03649073 0.044858027
전개 -0.0030515108 -0.100014925 -0.018451735 0.03280209 0.058154415 -0.024382869 0.032396227 -0.020275615 -0.077663645 0.07038598 -0.123171136 -0.017089734 -0.083519556 -0.057631966 0.0035447492 -0.022947505
마음 -0.16115342 0.042220056 0.034398254 -0.20197241 -0.11712369 -0.09865293 0.0023953596 0.05575409 0.11236275 -0.026821034 0.09969978 0.09085526 0.023682589 0.05651066 -0.09945274 0.02475108
별 0.050342552 -0.15647222 0.17043495 0.05427648 -0.015350034 -0.14930421 0.0012036036 0.018257799 0.03342826 0.09858505 0.0106299985 0.025993334 -0.09342564 0.002769568 0.08960454 -0.0849413
소재 0.012749149 0.037037417 0.069069564 0.086872675 0.16145806 0.0410659 -0.02941125 0.034636762 -0.057136048 0.014223873 0.04755703 -0.074826576 0.088887736 -0.066729754 0.057322856 -0.07432425
속 0.008545306 -0.047253594 -0.05146993 -0.0753161 0.01083423 -0.06333127 0.03335073 -0.069557965 -0.0042372807 0.005765847 -0.0427569 0.00600136 -0.034997817 -0.018207164 -0.048632775 0.0067057703
공포 0.009072694 0.0081070475 0.090578526 -0.006523904 -0.018533703 -0.009958033 0.017053625 -0.10208015 0.006759285 0.06810853 -0.14324306 -0.013800941 -0.037057325 -0.0048635365 0.063567735 -0.081189424
다른 0.0010071634 -0.14357752 -0.19710305 -0.046720475 0.024441766 -0.053447753 0.004641699 0.041656394 -0.038484138 0.024472423 0.0996179 -0.055862974 -0.08563467 -0.12986474 -0.045322057 0.20110595
아서 -0.06155698 -0.015511898 -0.0072235595 -0.049184404 -0.0049318494 -0.03601505 0.01674498 -0.03144472 0.02586307 0.07963154 -0.0791465 0.038793035 -0.10110257 -0.15328248 0.08796097 0.00021043238
씨 -0.05600664 -0.05637079 -0.07713806 -0.021441277 0.0022065071 -0.07707702 -0.050739117 0.020186407 -0.020963447 0.01756545 -0.09930265 0.00060207036 -0.09284363 -0.06671101 -0.0428444 0.051442556
인생 -0.07725925 0.08795968 -0.06651966 -0.03071265 0.016422277 0.16438025 -0.021812797 0.13925707 0.06887686 -0.15542844 0.2705964 -0.014708209 0.21953997 0.18476647 -0.075068295 0.07156969
~~ -0.08792532 0.038635213 -0.012650372 -0.12820603 -0.032602116 -0.103874974 0.030016746 -0.07817009 0.08366663 0.046401553 -0.18563847 0.107290044 -0.098136544 0.034811914 -0.030350955 0.0568463
짜증 0.28674483 -0.088663936 0.06322006 0.193689 0.29263213 0.003613803 -0.12457192 -0.09097924 -0.1647677 0.15621096 -0.124677666 -0.17509474 -0.13772172 -0.18157071 0.23218232 -0.09727928
짱 -0.07811637 0.119495496 -0.1992449 -0.12686977 -0.10141712 0.19975416 0.19534734 0.08450537 0.13720775 -0.07958589 -0.36412418 0.16535209 0.030913891 0.06456741 -0.034300733 0.1487907
뿐 0.075479046 -0.010822258 0.08128038 0.08799829 0.08883672 0.038978305 0.008190182 0.01994036 -0.12398303 0.07821466 0.12838247 -0.044267565 -0.028861426 -0.05867919 0.05562179 -0.12370523
은데 -0.015757125 -0.016791485 0.034826778 0.031188758 -0.04447406 0.11822801 -0.0008140044 0.07289636 -0.0060296254 -0.059136577 0.102811664 0.011871193 0.02592989 -0.043288957 -0.05568752 0.0497632
아요 -0.09434837 -0.0072352947 -0.08809997 -0.06633137 -0.10196722 0.0021927194 -0.030176267 -0.04489175 0.03645352 -0.009539453 -0.003030489 -0.006878141 -0.02665337 0.012051958 -0.06485338 0.07208329
유치 0.12733494 -0.1534436 0.25360894 0.19666064 0.08924518 -0.15907711 -0.07830894 -0.09818536 -0.10948347 0.070610344 -0.0152180195 -0.102858044 -0.13384509 -0.115652926 0.16426884 -0.20339768
필요 -0.11101116 0.11431761 -0.30941364 -0.08620337 0.04857749 0.14404581 -0.0073514655 0.10392159 0.05156976 -0.15431784 0.35724607 -0.07947439 0.20849718 -0.113961674 -0.15866427 0.23994954
가장 -0.047740154 -0.023923516 0.056542885 -0.02349251 -0.09252153 -0.20390968 0.032168742 -0.06578756 0.012731536 -0.0038965556 -0.17995496 0.02834286 -0.092053935 0.04678857 0.04416137 -0.077433415
음악 0.004080026 0.047322 -0.036764782 -0.057873238 0.0027679286 -0.022810007 -0.0491607 0.14414366 0.031925723 -0.05643138 0.22980161 0.020653334 0.090755396 0.08997901 -0.054476384 0.08642551
) 0.012451893 -0.020832451 -0.047574475 0.0122667225 -0.01891439 0.06632676 0.007836325 -0.05907173 -0.03120233 -0.079274535 0.019605514 -0.033269648 0.013957114 0.03499439 -0.060397647 -0.021007009
일본 0.058246557 0.017790115 0.028303998 0.004187305 0.034899857 0.0365988 -0.09184887 -0.031922556 -0.054010145 0.033080455 0.017887546 -0.063523345 -0.023073526 -0.01835982 -0.022996802 0.029683335
낮 -0.15196477 -0.01396018 -0.072994985 -0.1844569 -0.21120675 0.011384588 0.11365513 -0.083781086 0.12527345 -0.22367068 0.14752562 0.13724725 0.067380086 0.08446102 -0.13782392 0.13239664
오 -0.056785785 0.02235841 -0.057933528 0.011429413 -0.02303369 -0.037251618 -0.0007859347 -0.040303472 0.031022096 0.018553535 -0.05512576 0.039274093 -0.007819376 0.0041673137 0.014307786 -0.014027578
;; 0.0010289772 -0.069034435 0.010159133 0.008980871 0.048777033 0.04355093 0.007744087 0.021969492 -0.044818148 0.020691808 0.05800397 -0.08902192 -0.12650642 -0.22026154 0.050676126 -0.052402698
아이 -0.0012734341 0.0029941641 -0.12794892 -0.026008526 -0.04157263 0.0030721885 -0.0258977 0.018952983 -0.02393073 -0.03688004 -0.068956 -0.0048311935 -0.03957882 0.018146954 -0.0062244986 0.08696101
반전 0.0064563383 0.033947505 0.13091274 -0.05957222 0.009583377 0.025310598 0.022926973 0.05923012 0.06892229 -0.032525677 -0.010189512 0.10500988 0.07914567 0.050929215 0.01795812 -0.04939934
데 0.030930512 0.02271193 0.016780574 -0.030000484 0.050551064 -0.023016782 0.071223035 0.054633074 -0.015008141 0.060969856 -0.07040074 0.06832389 -0.10931252 -0.087073565 0.04911026 0.04529452
수준 0.13479969 -0.07090461 -0.002778207 0.07698361 0.19071719 -0.027530642 -0.06596943 -0.08894918 -0.16453442 0.10256986 0.0434498 -0.19711012 -0.14995429 -0.20015438 0.0974402 0.03319656
다니 -0.016758189 -0.00480349 -0.027662465 -0.023199787 0.07872662 -0.054938838 0.026963595 0.029760262 0.042657763 -0.012250441 0.20986572 -0.05653427 0.06490729 -0.014889855 -0.00424003 0.046993278
웃 -0.016399702 0.051440276 0.016303098 -0.060883842 -0.04938921 -0.0061046607 0.014971904 -0.006628304 0.0932255 -0.026395174 0.027911592 0.0584374 -0.013921802 -0.028908156 -0.06670271 0.054643963
매력 -0.05291178 0.09451461 0.0011352494 -0.036633313 -0.09893628 0.1313727 0.09519735 0.06740273 0.06081939 -0.11313594 -0.23081858 0.19470806 0.04304568 0.18046755 -0.090361215 -0.012317933
맞 0.0020006844 0.06551752 0.063061945 -0.01946354 0.060878605 0.06573527 -0.013190382 0.0068596983 -0.088359945 0.09226711 -0.08289568 -0.007656431 -0.035639253 -0.039297096 0.024259223 0.0019063931
인지 -0.04425098 -0.014011967 -0.0165635 -0.0030718336 0.059574123 -0.12443969 -0.028678918 0.005026841 -0.050006762 0.11090339 -0.03313298 -0.04184782 -0.07854563 -0.062799 0.05773346 -0.018569676
가슴 -0.21181189 0.13468744 -0.07985576 -0.16032031 -0.072886616 0.030282626 0.11064363 0.008256806 0.09296327 -0.08162344 -0.16566414 0.10973355 0.04110322 0.04449438 -0.12677753 0.041818477
없이 0.037953716 0.0014768268 0.20315574 0.09658007 0.08157574 0.0051672803 -0.09350504 0.00271405 -0.0062328065 -0.053476036 0.060633093 0.032194667 0.086924165 0.016573176 0.03361039 -0.19305848
원작 0.08749307 -0.04867778 -0.12987056 0.0010591424 0.0906545 0.013558919 -0.015622048 -0.07522259 -0.1252744 0.051606286 -0.0013151246 -0.15326993 0.0047633164 -0.10253382 0.015222039 0.005963472
ㄷ -0.027229352 0.02604397 -0.04292838 -0.03320281 -0.0039956225 -0.028771143 -0.030180197 0.006354827 0.06256626 -0.013668233 0.0409947 -0.019785922 -0.07014555 0.01170226 -0.050446562 0.054440603
인간 -0.013378379 -0.03339956 -0.02746333 -0.041595202 0.011723235 0.027910257 -0.03577598 0.14516829 0.02803317 -0.09289452 0.22751671 -0.0039605764 0.05590097 0.033698224 -0.02957537 0.059644282
굿 -0.10355044 0.096579425 -0.14928295 -0.105518475 -0.15612428 0.109210014 0.1198631 0.07953917 0.1685688 -0.18957214 -0.07200749 0.12262673 0.18415354 0.18537678 -0.2187577 0.14887847
높 0.13823733 -0.045097753 0.10121114 0.08875715 0.05539995 -0.009748674 -0.12254927 0.0023805394 -0.08886603 0.038068768 -0.053593658 -0.08851807 -0.026345598 -0.08212333 0.05499258 -0.17487933
ㅠ -0.0456573 -0.011023351 -0.044786133 -0.048393738 -0.05452755 0.051854663 -0.0075554294 0.013148001 0.037288353 0.00567525 0.005883539 0.036303572 -0.062737346 0.061972182 -0.080920786 0.10656575
밋 -0.029629773 0.068352975 -0.11678302 -0.0659574 -0.007983172 -0.03958372 -0.002094726 0.12230468 0.12033826 -0.10060322 0.16759342 -0.024536189 0.044372696 -0.07005388 -0.10459473 0.0612476
( -6.1726634e-05 -0.01929901 -0.020392941 -0.010692085 -0.063040726 -0.042738184 -0.0005617124 -0.03142958 -0.012544901 0.030288173 -0.052163504 0.029714284 -0.048321206 -0.029258123 0.04002171 0.031346705
급 -0.05699671 0.0228201 0.02868267 -0.020680945 -0.02796159 -0.11760975 0.041635044 -0.007009217 0.036744162 -0.017615661 -0.029335817 0.028808063 -0.021576129 -0.032274008 0.07058306 -0.02854225
만드 -0.009941314 0.0226736 0.05396154 0.0028229095 -0.062901646 -0.024108842 0.039841592 -0.02566057 -0.0009035642 0.0063219424 -0.15516682 -0.011465798 0.0021111174 0.08985497 -0.00939572 -0.09217778
눈물 -0.13369201 0.1855212 -0.20167293 -0.088490605 -0.15629765 0.22750159 0.114446156 0.085959904 0.12821971 -0.06610633 0.0009971661 0.1243442 0.15114367 0.0935526 -0.12721437 0.1899656
보여 -0.01298856 0.045100003 -0.002630548 -0.03318123 9.2169204e-05 -0.029000891 0.019853251 0.009656047 -0.021252254 -0.008474702 -0.04428229 -0.019275751 0.058324747 0.08238373 0.038182266 -0.046700016
준 0.07239997 0.029359939 -0.0075210608 0.08805746 0.007954659 0.08093921 0.024749523 0.02168934 -0.040432148 0.019703219 -0.03081384 -0.06961758 0.037136395 0.11491957 0.055064477 0.023121873
찍 0.0009283145 0.02330727 -0.03417897 -0.011693285 0.052510064 0.0057094027 -0.0020952024 -0.032646775 -0.06553694 0.0771282 -0.1260234 -0.040955346 -0.09374433 -0.046117775 0.09107972 -0.09912277
인가 -0.00094512757 -0.039128236 0.04408097 0.048633665 0.05593147 -0.088460445 -0.007201568 0.040891804 -0.014165827 0.0816173 0.007786381 -0.06734574 -0.035482675 -0.075646535 -0.017574536 0.045292832
노 0.44787484 -0.23045632 0.07242228 0.30468196 0.36239448 -0.032043096 -0.20991985 -0.11873917 -0.21727976 0.23927274 -0.052734386 -0.27696067 -0.21786141 -0.27310026 0.22614618 -0.16999468
용 0.10366877 -0.035199795 -0.0038809874 0.106039904 -0.010883487 0.040357206 0.05670419 -0.0209435 -0.032925986 0.0150842685 -0.1637787 0.028971959 0.008339735 0.055984467 0.035334263 -0.017936986
을까 0.010298785 -0.010955825 0.04507806 0.026185032 0.09918594 -0.022627559 0.0021765248 0.08720519 -0.035476603 0.05815623 -0.06427757 0.046687797 0.059754852 0.06530056 0.033846434 0.031704955
화 0.0019966487 0.02282387 0.021743761 0.034362137 0.082450755 0.014471864 -0.01300589 -0.024445875 0.0009469371 0.06625146 -0.14419167 -0.034727823 0.025720205 -0.047536988 0.01370744 -0.10293404
코미디 -0.018527977 0.0010372961 0.050522316 0.026798014 -0.04787198 -0.010020091 0.04889674 -0.04534865 -0.011493515 0.079613246 -0.10045449 -0.022064976 0.019771384 0.012045844 0.003502836 -0.049627278
여 -0.060285687 -0.013888575 0.025916586 -0.008409811 -0.09254777 -0.07086555 -0.026123729 -0.043973576 0.044403754 0.015925843 -0.086670816 0.08866468 -0.082161486 0.03577979 0.012844988 0.009383422
마 0.03701468 -0.009072205 0.056782663 0.05125124 0.010299816 -0.082157075 -0.011875297 -0.031375222 -0.066731334 0.028119592 0.11217723 -0.06088979 -0.04904771 -0.057850186 6.994186e-05 -0.047089893
쓰 0.056172244 -0.05183388 0.073778115 0.062144518 -0.021126363 0.062742844 -0.041807026 -0.032717355 -0.08314859 0.028977677 -0.005108763 -0.066383466 -0.022141574 -0.06013591 0.048989005 -0.012208108
모든 -0.058536947 0.080006585 -0.078453675 -0.026399836 -0.04476831 -0.05110432 0.118850544 -0.042892985 0.03732028 -0.09832595 -0.09187217 0.035513353 -0.026453145 0.0040616356 -0.052450724 0.011030552
신 -0.04493738 0.072301246 -0.091909684 -0.04212966 -0.037505176 0.11353701 0.064175695 -0.03543123 0.0055306684 -0.016825736 -0.05226194 -0.02312718 0.07512986 -0.025727034 -0.06765469 0.08762343
5 0.022955472 0.01184299 -0.06340428 -0.042734038 -0.0048395894 0.10741004 0.03916633 -0.0074958797 0.007841147 -0.010664313 -0.13800594 -0.006683015 0.062527806 0.07026113 -0.08050778 0.086194254
아직 -0.002501321 0.054044195 -0.080582194 0.0002012633 -0.008211208 0.22554016 0.04485507 0.14309707 0.08256553 -0.10231132 -0.045656886 0.099823266 0.044889364 -0.0032605503 -0.011979623 0.11679826
처럼 -0.034250118 -0.02671344 -0.06240356 0.022100719 -0.032212906 0.01815297 0.015361962 -0.021567877 0.011011984 -0.04932578 -0.018504448 0.036032345 0.010562012 0.025032308 0.025793146 0.020895606
눈 0.071076386 -0.10234636 -0.008123834 0.09101623 0.07820104 0.008044289 -0.05231808 -0.019591417 -0.07891891 0.05625033 0.07430464 -0.09964798 -0.079771236 -0.09548466 0.017643308 0.08114785
추천 -0.09075862 0.06140369 -0.08903716 -0.122677855 -0.07957749 -0.0371629 0.09468029 0.012786369 0.11393345 -0.0065420917 -0.20590585 0.06471514 0.022468088 0.09184934 -0.07580612 0.07113384
아닌 0.12301815 0.009763061 0.18427858 0.15115178 0.08224754 0.09376457 -0.03760592 -0.04520054 -0.064708546 0.012642267 0.14022695 -0.081963845 -0.061560202 -0.0024512599 0.07484576 -0.20933095
울 -0.10340898 0.048081897 -0.14005111 -0.14352551 -0.16388601 -0.03917591 0.14210704 -0.046143204 0.105124384 -0.05269517 -0.0505093 0.11561406 -0.009075924 0.022134108 -0.09257781 0.20747387
자체 0.039376725 0.013062036 0.027702814 0.05279303 -0.0037924142 -0.112938076 0.01262574 -0.03415131 -0.0050906027 0.033938173 -0.21652816 0.018960346 -0.020656291 0.04337228 0.03466045 -0.028902277
몰입 -0.016877988 -0.024720382 0.1362248 -0.076218456 -0.13779798 0.00033456617 0.11292475 -0.058167376 0.113260835 -0.07254108 -0.2532226 0.123920895 0.030678531 0.14015827 0.02953356 -0.111267656
4 0.037078906 -0.008833537 0.041024175 0.110270634 0.033613913 0.018134885 -0.08470148 -0.014232078 -0.05754841 0.033901993 0.07473823 -0.020416716 -0.053628962 -0.04226804 0.014475239 -0.062878296
대박 -0.110482275 0.13959911 -0.024259988 -0.12096532 -0.12082446 0.08577264 0.102805816 0.16552322 0.13245855 -0.12936614 0.037980806 0.080756254 0.20683128 0.21640441 -0.10053294 0.07493171
몇 -0.085652396 0.14251912 -0.13993756 -0.113329224 0.016475784 0.09258688 0.037794605 0.06412396 0.06580669 0.012407981 -0.20471546 0.068442084 0.048533663 0.0010408203 -0.06914687 -0.0023368779
스럽 -0.04597116 -0.033967603 0.007844842 0.023771735 -0.027104719 -0.029682003 0.028949896 -0.077972844 0.0067064925 -0.0028490108 0.00010317024 0.03928893 -0.046778504 0.04708051 0.02799246 0.020768013
실망 0.34946617 -0.31411716 0.15724587 0.2080582 0.2706306 -0.1269948 -0.3294486 -0.068703234 -0.1916474 0.17571642 0.03394872 -0.29554302 -0.24885169 -0.33959943 0.23836252 -0.077074476
는다 -0.17000446 -0.052139733 0.03676927 -0.10239222 -0.1161398 -0.18065989 -0.011200075 -0.19588836 0.06284436 0.103176914 -0.17975104 0.0088443365 -0.10443505 -0.018463159 0.04220664 0.054527923
대한 -0.05356476 0.09746722 -0.15574504 -0.09252526 -0.09318295 0.010525925 0.13443469 0.0025527638 0.050180465 0.020192223 -0.119650565 0.07152821 -0.014938159 -0.03985029 -0.02884181 0.07851595
죠 -0.060506016 0.07934256 0.0051183985 -0.0763596 -0.030753132 0.067283586 -0.005763835 0.056746744 0.05075576 0.0107503645 0.029698005 0.0035521786 0.04298945 -0.03271692 -0.04417031 -0.03455097
란 -0.021386843 -0.047922574 -0.030611875 -0.0016631156 -0.09384423 -0.057909448 -0.00417448 0.011697374 0.053241692 -0.026530694 0.026876861 0.03451455 -0.040900167 0.03270101 -0.006154313 -0.0066025583
그런 0.011588866 -0.017763186 -0.08090497 0.0463179 0.015199088 -0.039436053 0.043937374 0.017851051 -0.015788162 0.03892428 0.0030752139 -0.057491284 -0.035405066 -0.02689259 0.031005828 -0.020933593
솔직히 0.05820861 -0.042460255 0.054124 0.07151451 0.019109141 -0.13345993 -0.063787155 -0.03993697 -0.025480768 0.07099796 0.046234515 -0.014981007 -0.030649872 -0.0015871655 0.016380379 0.008496488
캐릭터 -0.054230172 0.029379992 -0.01336874 -0.078811824 -0.030786796 -0.024162607 0.018412769 0.015119312 -0.0046469597 0.05285359 -0.27750582 0.080465265 -0.06793599 -0.026407499 0.017463276 -0.06605283
ㅎ -0.05183037 0.014615973 -0.118311055 -0.050481804 -0.07582279 -0.022517875 0.1131 -0.12788698 0.027502947 -0.02388845 -0.27827892 0.0314632 -0.18936937 -0.004084237 -0.071678236 0.096924484
모두 -0.07931938 0.06259424 0.05043312 -0.090445265 -0.055371877 0.106957555 0.067031085 0.066639215 0.08154587 -0.103134826 -0.11372553 0.09749124 0.12705092 0.14531027 -0.05533813 -0.015430931
아주 0.035897687 -0.015946887 -0.0415176 -0.0006117956 -0.05286177 0.1277876 0.034338944 -0.015271915 0.025639145 -0.0038159513 -0.0030662094 0.026138816 0.07875711 0.0031696605 -0.0696588 0.04105588
- -0.015209079 0.046012294 -0.027812196 0.047590423 0.04068532 0.055620544 -0.019814942 -0.090553805 -0.042631138 -0.012949473 0.048322044 -0.052713476 0.031763606 0.010764082 -0.056254234 0.040898856
가족 -0.033344187 0.06675326 -0.065997496 -0.06349427 -0.044181783 0.15715133 -0.012008265 0.076329045 0.018775282 -0.093103714 -0.12957843 0.07042168 0.014536517 -0.015184778 -0.036155492 -0.036261335
여운 -0.2129825 0.3514111 -0.25341773 -0.2276842 -0.2297652 0.23390621 0.22284852 0.2496839 0.25248596 -0.10658129 -0.045018595 0.18561126 0.16377063 0.14151107 -0.18687749 0.23485246
건지 0.013776193 -0.116634674 0.10892652 -0.002852908 -0.0061705094 -0.09809204 -0.056461323 -0.035613738 -0.109302714 0.11506697 0.0049648886 -0.06065483 -0.036627617 -0.068163395 0.061227057 0.0043892562
전혀 0.13433316 0.028944263 -0.117284335 0.048155755 0.15999654 0.18560268 -0.074880354 0.024595715 -0.20216525 0.052452654 0.06336511 -0.12587538 -0.014922952 -0.29464105 0.03810357 -0.0044901166
나라 -0.015774757 -0.020565692 0.005406359 -0.009412693 0.010738697 -0.009531342 -0.071248695 -0.00484973 0.02416971 -0.021822786 0.044234127 -0.11406502 -0.016874032 -0.064991005 0.007912827 0.0051492243
연기력 -0.11570299 -0.025829522 0.0351942 -0.03618949 -0.04515311 -0.075442486 0.0036657571 -0.00418451 0.021438858 0.0014595889 -0.12499861 0.121907994 -0.066991955 -0.0524083 -0.014640822 -0.03279819
후 0.07638366 -0.0936187 0.0467629 0.07016317 0.12622985 -0.03785117 -0.08965186 -0.03383823 -0.009432262 0.006349013 0.14518483 -0.096281044 0.016933097 -0.0661076 0.087347835 -0.090956196
다면 0.015980061 -0.047598228 -0.011202005 0.035175655 0.104504064 0.0060106525 -0.07302901 -0.0038401624 -0.015902434 0.037602536 0.13334891 -0.13176204 0.035276458 -0.01475684 -0.015004556 0.011548664
될 -0.02642614 0.056295916 0.022115663 0.0551521 0.08682816 -0.07739875 -0.054038472 -0.0029262658 -0.017314322 0.011242743 -0.018353948 -0.007223442 0.01286406 -0.015916921 0.00025265652 0.006800783
뭔가 -0.06503609 0.008714801 -0.083142206 -0.07215334 0.031547595 0.087033294 -0.008417823 0.033024095 -0.028374644 -0.05940984 -0.07244919 0.12683736 -0.058952417 -0.03673873 -0.049176767 0.047766466
그래도 0.008482729 0.13069025 -0.09614283 0.0027596813 0.016602848 0.29140583 0.024162723 0.083683096 -0.0040226644 0.0018065878 -0.10856896 0.05118007 0.015625343 -0.031738978 -0.03696588 0.04550238
; 0.13764924 -0.020898927 0.07747209 0.115655996 0.13603868 0.053774606 -0.011221863 -0.0015385676 -0.037670933 -0.03653987 0.098407604 -0.07988077 0.046361674 0.036294676 -0.0045531644 -0.065768994
시리즈 -0.10567178 0.02496092 0.08110846 -0.053969074 -0.06696945 -0.03011554 0.0752689 0.009058161 0.05287681 -0.080929324 -0.048919365 0.041512545 -0.020233445 0.0445723 -0.009372342 -0.079535075
근데 -0.014093002 0.12247141 -0.009459758 -0.08881062 -0.09596911 0.008514765 0.028546225 0.035491623 0.10865974 -0.042381287 -0.038633216 0.09041014 -0.021352926 0.061056614 -0.020030297 -0.04494357
작 0.03463093 -0.036632873 -0.09668654 -0.033644576 0.10043267 -0.1281775 -0.10387458 0.06025945 0.01948104 0.055783715 0.11674954 -0.084567584 -0.055702124 -0.06393939 -0.058367543 0.16414808
표현 -0.02997544 0.16687521 -0.042335883 -0.07364369 -0.0498405 0.14469638 0.066667825 0.14199288 0.070640646 -0.06700141 0.044162948 0.10255168 0.13834539 0.116170295 -0.109853804 0.08372093
모습 -0.072459534 0.055627212 0.028724387 -0.091498 -0.07070657 -0.010421052 0.06289307 -0.08750059 0.06898447 -0.118673466 -0.17370678 0.07037297 0.056999423 0.08091398 -0.09275418 0.035562083
제 0.03240024 -0.043490082 0.11134431 0.11390611 0.062136307 -0.001801742 -0.050033152 0.010082596 0.016393661 -0.006140462 0.119392976 -0.07026236 0.07913886 0.1018205 -0.03948101 -0.12284425
공감 0.02838408 0.12968457 -0.030582884 -0.053504124 -0.03386335 0.10715868 0.050280415 -0.028614055 -0.036637668 0.01896182 -0.31973946 0.06802648 0.03638442 0.039040018 -0.04286594 0.0076123807
밖에 -0.11923947 0.08641812 -0.10902559 -0.06399537 -0.08893012 0.025538465 0.12768222 0.039283678 0.07551339 -0.011929265 0.029557407 0.05484695 0.04427436 0.046803072 -0.053221337 0.12837869
먹 0.08913288 -0.010742235 0.038208306 0.10180115 0.07437059 -0.0045308145 0.010117058 0.04489788 -0.029583182 0.076071665 0.08745052 -0.0610124 0.010262884 -0.05501871 0.031636477 -0.024930028
계속 -0.08064119 0.070562944 -0.009389512 -0.10492068 -0.08024765 -0.004821236 0.07999901 -0.02081934 0.094854236 -0.012612663 -0.33435372 0.13522331 -0.08089507 0.020761188 0.025446674 -0.002458739
이랑 0.03723254 -0.0911942 0.07243569 0.018419111 0.004772042 -0.14063075 -0.0918025 -0.012191459 -0.027964681 0.050832942 0.032561854 -0.07027794 -0.00412619 0.011642925 0.007645706 -0.06788014
제목 0.028050749 -0.13473113 -0.08195456 0.003968366 0.037442893 -0.04121646 -0.07022377 -0.01660817 -0.015194635 0.018208409 0.05571006 -0.062378578 -0.005603828 -0.112415105 -0.0075452053 0.015940636
"" -0.005588891 0.07928997 0.01656621 0.018745998 -0.041450474 0.056576166 0.011107091 0.049832717 -0.044309173 -0.03422632 0.009415444 -0.011105166 0.01011222 0.015593641 0.031808805 0.057516012
7 0.012004055 0.077658 -0.062161572 0.027593412 0.013793629 0.06980932 -0.044824805 0.060680736 0.050513588 -0.054955527 0.17942168 -0.005916712 0.09974585 0.08729877 -0.03654322 0.007728597
극장 0.033814482 -0.01780547 0.0830361 0.07955606 0.10089454 0.021017287 -0.16366838 -0.049086273 -0.0695721 -0.015344472 0.0032866404 -0.090064146 -0.030730428 -0.08492192 0.046098392 -0.008117325
비 0.054378927 -0.056452584 -0.010737587 0.060383484 -0.016557569 -0.03217554 -0.067745395 -0.06898524 -0.03144213 -0.037386462 -0.04992091 -0.08245623 -0.0046708463 -0.006491777 -0.026419055 0.02708822
진 -0.0064395764 0.09356751 0.032958776 -0.07865083 -0.017387107 0.04454085 0.09806883 0.019816943 -0.020054048 -0.026347948 -0.05288568 -0.0011707776 0.14953634 0.0833503 -0.031271257 -0.08370555
이걸 0.049719896 -0.08733642 0.048351247 0.044051774 0.18762666 -0.07171018 -0.17096469 -0.056516226 -0.057758387 0.08707 0.02485012 -0.033250354 -0.11202119 -0.059023947 0.08182287 -0.03375214
바 0.006245883 -0.026254104 -0.08680603 -0.0012960291 0.13554974 -0.042593006 -0.06353288 -0.1226045 -0.12359497 0.11642371 -0.123156965 -0.10162789 -0.13351487 -0.19923767 0.07425945 -0.019925851
그렇 0.024799008 -0.10766118 0.06471134 0.057578806 0.08892387 -0.15339558 -0.16501014 -0.063144065 -0.13199377 0.12745771 0.073495775 -0.098366596 -0.06057653 -0.15555432 0.093539506 -0.049637664
대사 -0.046341155 -0.11592616 -0.06570837 -0.061324168 -0.023365399 -0.11543779 -0.008755145 -0.061362278 -0.011161775 0.06910705 -0.07973722 0.017499221 -0.1325108 -0.06781854 0.041348267 0.034940135
개봉 0.031887263 -0.08714484 0.13366936 -0.012698662 0.011540517 -0.08115478 -0.058502987 0.033730567 -0.062408898 0.04690984 -0.04712465 0.04595632 -0.11481446 -0.051795572 0.010462189 -0.04298401
부분 0.04308769 -0.010734965 -0.12273833 0.005365706 0.0020783595 0.060607646 -0.026170274 -0.015674848 -0.00011793614 0.0120359305 0.03834932 -0.011159837 0.04381983 -0.022585183 0.002604607 0.014978049
0 0.026953416 -0.048469074 -0.08250833 0.024259925 -0.013036897 0.07645364 0.0362912 -0.15969345 -0.14814915 0.13658187 -0.5125115 -0.06991281 -0.13828517 -0.1143871 0.10383097 -0.02935247
OO 0.13905266 -0.052454673 0.059654847 0.1296021 0.068512775 -0.0052756574 -0.039739843 -0.010644707 -0.06681012 0.016787063 0.14473891 -0.07100157 -0.0390412 -0.038343187 0.05121757 -0.11719941
대단 0.0010033716 0.026866594 -0.093044534 0.001559842 0.00820349 0.13340478 -0.020480415 0.05029048 0.07899683 -0.10477063 0.08610138 0.09795794 0.085423484 0.05172672 -0.06837923 0.061586916
된다 -0.18779412 -0.0069619096 0.030613279 -0.15920156 -0.18991354 -0.22544666 0.06471105 -0.038301405 0.15857573 -0.0120878285 0.010510661 0.08082496 0.024115222 0.09270021 -0.095440015 0.06156184
작가 0.06985996 -0.022772763 0.14073625 0.102227494 0.013104831 -0.05826582 -0.075769186 -0.10280998 -0.07016422 -0.0067336624 -0.03060887 0.0067309663 -0.029753491 -0.018873695 0.02096707 -0.14384697
어디 -0.022865472 -0.007973443 -0.057325747 0.011255714 -0.028751904 0.0051021725 -0.006990944 -0.04249962 -0.040575597 -0.02609298 0.06467049 0.005495904 0.0047567785 0.016238634 -0.032635957 -0.0032014325
기분 -0.11637114 -0.036610056 -0.02553032 -0.10896571 -0.06929922 -0.14352241 0.015387372 -0.16210802 0.03103852 0.13500616 -0.25572127 0.01793056 -0.11786802 -0.08616971 0.082818 0.0072920057
아쉽 -0.028049525 0.009223961 -0.07158675 0.035774264 0.05581336 0.08498924 -0.011478276 0.13727513 0.03781427 -0.07809044 0.37787127 -0.10144633 -0.010141569 -0.13855346 0.006566942 0.11020902
치 0.046501342 -0.030000284 -0.003841552 0.021532884 0.03277666 -0.030098986 0.019338656 0.0052814856 -0.07250604 0.120347776 -0.021834567 -0.0070252107 -0.053919513 -0.10095283 0.096065335 -0.08283027
진심 -0.020777874 -0.019551039 0.043963604 0.058603488 -0.007096367 0.009872794 -0.01621754 0.020243434 0.0075161313 -0.03181113 -0.051488355 -0.034891874 -0.023809899 0.02929973 -0.0035401243 -0.01963243
해도 0.087482795 0.09311182 0.1262019 0.14537211 0.04830761 0.19047649 0.031106252 -0.018052114 -0.028062861 -0.007567784 -0.0963601 -0.020392897 0.05694935 0.06167206 0.056299463 -0.15744644
보이 -0.02057046 -0.00065964117 0.008445849 -0.011133065 -0.0046297284 0.017260807 0.05265082 -0.04367248 0.003038928 0.0549879 -0.07088055 0.014552133 -0.02042123 -0.05094789 0.028615411 0.06310694
타임 0.0233803 -0.06982151 0.02543978 -0.039060056 -0.069737025 -0.20584218 -0.036499083 -0.10279602 -0.046469737 -0.023220371 0.042623777 0.0026174784 -0.0020071673 -0.005824158 0.021000685 -0.045039658
놓 0.06444624 -0.08101188 0.069741726 0.13230523 0.044599954 -0.04287063 -0.09062653 -0.039095305 0.015042889 0.036479734 0.15707676 -0.08977009 -0.014882355 0.05861183 0.0119631775 -0.022406159
/ -0.045378346 -0.05803428 -0.044864066 0.028224593 -0.034881797 -0.0298993 0.021982396 -0.019704709 -0.04467462 -0.025724325 -0.051081073 0.035294358 -0.044625804 0.013888958 0.013009 0.02939351
웃기 -0.06394004 0.048409674 -0.046205685 -0.0012574728 -0.061534178 0.041899815 0.070455335 -0.09774463 -0.005534394 -0.013618819 -0.25395456 0.05945277 0.11973817 0.028491415 -0.058848485 0.008096845
봐야 -0.048384182 0.041464962 -0.064813964 -0.075436324 0.0116302725 0.11712502 -0.0131482575 -0.021251615 0.054168206 -0.12916741 -0.021336839 -0.013087849 0.11989001 0.037936907 -0.12692769 0.03500273
이제 0.026406977 0.055063367 0.0067460197 0.006979214 0.02264303 0.06696758 -0.021972304 0.0104559455 -0.025014529 0.0930791 -0.12606695 0.002275054 -0.058209322 -0.115641184 0.03789637 -0.018960208
물 -0.027028212 -0.038684748 0.12636235 0.056544565 0.0034140209 -0.13381968 -0.091910906 -0.011255078 0.017155286 0.03493561 0.028842783 0.037370715 -0.024459355 0.013207157 0.048967768 -0.082657844
막장 0.16393457 -0.15112047 0.06442273 0.15344518 0.16937394 -0.11677905 -0.16750981 -0.12994449 -0.10627593 0.10825936 0.07400142 -0.17158552 -0.08820025 -0.15972926 0.08872788 -0.058698937
삶 -0.090286754 0.1666418 -0.027559647 -0.1032417 -0.09517322 0.1168279 0.09891008 0.18073964 0.09528919 -0.17203178 0.0643633 0.110270455 0.19728488 0.12800786 -0.10525467 0.039349426
친구 0.025809916 0.07951763 -0.094018996 -0.015559453 -0.0040909816 0.07100597 -0.006026454 0.062069032 -0.0014024695 -0.01854948 -0.045795105 -0.0028285133 0.008581439 -0.039236378 -0.029462902 0.055107947
잔잔 -0.06900438 -0.05357509 -0.08381149 -0.09022997 0.020237813 0.06255121 -0.010109871 0.04234207 0.031065779 -0.049098384 0.07991004 0.004586175 0.0096552055 -0.069302216 -0.069284126 0.08900639
조금 0.0411394 -0.0025699637 -0.10634939 0.0022771847 0.07322333 0.035694905 -0.076919645 -0.038830888 -0.03740459 -0.08912312 0.22014739 -0.13605285 0.046241067 -0.09394071 -0.04219371 0.1584706
씬 -0.0621417 0.074273475 0.030199945 -0.008887497 -0.05083818 0.04067955 0.06242638 -0.02143506 0.022187598 -0.028124347 -0.124932475 0.05358838 0.043695208 0.049425077 -0.025317663 0.019919924
딱 0.051378418 0.07316862 0.019110486 0.062063757 0.009599411 0.09998508 0.032061648 -0.07216675 -0.10851856 -0.04321492 -0.109587714 -0.00459266 0.054244213 0.03444918 0.054204185 -0.13036938
영상 -0.054615375 0.054419667 -0.032100897 -0.06848473 -0.02668438 -0.04381474 0.045346815 -0.16615483 0.0067369384 0.00901487 -0.2728817 -0.019221561 -0.06778686 -0.021971097 -0.01906349 -0.06869379
찾 0.018708387 -0.017863544 0.019713758 0.032284874 0.013203686 -0.04325351 -0.0007929779 0.04704609 -0.0028585526 0.010847913 0.049527742 0.048381936 -0.024008093 0.04456101 0.008518552 0.081803046
억지 0.17977284 -0.18311521 0.19146664 0.22779146 0.23334703 -0.17605086 -0.24384566 -0.09860371 -0.09050054 0.062598385 0.005095085 -0.14430732 -0.118431516 -0.084853426 0.091393545 -0.1893839
중간 0.12177087 -0.123640105 0.14780895 0.048201337 0.059389133 -0.15888725 -0.102016054 -0.03593661 -0.057287555 -0.019565154 0.05320514 -0.062181264 -0.012897603 -0.012345666 0.036699563 -0.06721846
요즘 -0.13405195 0.029266533 -0.1071796 -0.08687273 -0.07407829 -0.011966681 -0.038146567 0.09376276 0.103072494 -0.11165129 0.16013943 0.03930156 0.12696072 0.06348862 -0.09670325 0.09527434
같이 -0.010248424 0.005219204 0.03805539 -0.06262769 -0.03970066 -0.00037481665 0.032119934 -0.039916277 0.021651627 -0.024204561 -0.06528416 0.059217922 -0.052837476 -0.0033138685 0.001198281 0.010354962
구 -0.095640704 -0.05279968 -0.1709921 -0.12972729 -0.15552378 -0.10026433 0.099807955 -0.08803071 0.08663415 0.0012319527 -0.14099099 0.08584217 -0.111179635 -0.078089066 -0.0126844095 0.075891405
" -0.023601245 0.009381384 -0.08198523 -0.095481284 -0.067599475 0.082050346 0.05247226 0.022296838 0.009034437 0.06644872 -0.16421975 0.06711626 -0.11852461 -0.04535376 0.0017733916 0.025371198
가지 -0.0628159 0.051290333 -0.1506802 -0.026268153 -0.03602307 0.077105604 0.020632789 -0.07750171 -0.055924516 0.044316158 -0.1934412 -0.029396705 -0.0142332 0.016539263 -0.039523274 0.056410447
스릴러 -0.022001011 0.014463569 0.049213056 0.018579405 -0.0927553 -0.0622187 0.08389371 -0.053380806 0.054438956 0.023250675 -0.15343453 0.081398234 -0.07286711 0.042761758 0.01790431 -0.06293391
8 -0.0012660001 0.10866274 -0.109527 -0.060896143 -0.033386577 0.10128794 0.08230966 0.09091885 0.023182979 -0.13264483 0.27269453 -0.05332652 0.2604235 0.14650145 -0.12654659 0.08372425
믿 -0.058821734 0.064286396 -0.14187594 -0.040925305 -0.04550365 0.062165264 0.009671015 -0.019273967 -0.021683889 -0.036423367 -0.10114875 0.036656566 0.085087396 0.026435742 -0.033468865 0.07236833
싫 0.29465836 -0.19481991 0.11051649 0.19787537 0.17052093 0.0086898105 -0.15533118 -0.0015853808 -0.12703717 0.1254144 0.20405757 -0.17451727 -0.041522864 -0.09010663 0.13893926 -0.06578233
.... -0.047528826 -0.00022385361 0.06659972 0.025676033 -0.028362285 -0.07397112 -0.028973235 -0.059610315 -0.017401826 0.10899441 -0.13363436 0.06545745 -0.08775984 -0.044397015 0.094045535 -0.06050276
보고 0.025514359 0.0024705068 -0.14441667 -0.020669248 0.027142538 0.07639135 -0.044362828 -0.0018946189 -0.02890899 -0.045494694 -0.030710256 -0.031352468 0.04018786 -0.049380783 -0.014093486 0.049081437
라도 -0.026239652 0.03797315 0.102686904 0.015134818 0.06226883 -0.043388534 -0.04247218 0.016740927 -0.024579363 0.049366184 -0.06862573 0.007093733 -0.07641848 -0.011473653 0.028375516 -0.11237452
나왔 -0.0670505 -0.004778607 0.0064299996 -0.062854126 -0.019154007 -0.17696181 -0.053751994 -0.05923602 -0.0036188557 0.02497024 -0.024195746 -0.028889278 -0.03809784 0.041678015 0.0253815 -0.06693752
아까운 -0.04992358 -0.07778009 0.14072861 -0.07073816 -0.026564792 -0.39335626 -0.13629629 -0.14720981 0.02735254 0.09440193 -0.1591058 -0.069573164 -0.08253532 0.080115005 -0.022011196 -0.13303493
긴장감 -0.091500975 0.11755293 0.25939643 -0.032079507 -0.17024076 0.064502515 0.17923132 -0.059963655 0.06068301 -0.094899744 -0.2840927 0.19720979 0.078236066 0.1977963 -0.038217112 -0.21923634
점수 0.006504761 0.014702257 0.047366504 -0.022356562 -0.042828407 -0.03193722 -0.039545093 -0.04687041 -0.044587404 -0.03248884 -0.006019378 -0.005325323 0.06391193 0.043699306 0.00024440428 -0.025918022
개인 -0.05186151 -0.04489884 0.04501323 -0.051112063 -0.0047485614 -0.093612395 -0.03267877 -0.14922982 0.03024112 -0.020438557 -0.06579078 0.021065542 0.022071451 -0.013164625 -0.0708564 -0.04248068
제대로 -0.007087432 0.11973976 0.017279452 0.011874716 -0.063766696 0.1043531 0.06551756 0.075055726 0.04745189 -0.04909767 -0.06585898 0.060465846 0.04721882 0.019028168 -0.01008401 -0.0192977
부족 0.084815055 -0.10663638 0.07263344 0.04536211 0.11987876 -0.15006721 -0.14497098 0.0079168435 -0.029718023 0.119912475 0.05144578 -0.056604065 -0.07875743 -0.14724627 0.07667276 0.058169656
이유 0.004309818 -0.025423052 -0.012355366 0.026531447 -0.034753386 -0.11678391 -0.011402282 -0.099161774 -0.03102708 0.02195167 -0.07878152 -0.030497137 -0.080022834 -0.10960558 -0.023970654 0.094936796
노래 0.051846843 -0.017213354 -0.06736934 0.00860209 -0.028411644 -0.032434538 -0.03324227 0.0028058712 0.00513357 -0.0006138162 -0.053166702 -0.04962949 -0.026559658 0.04378822 -0.061635382 0.03310059
만큼 -0.054013688 0.05457787 0.08854582 0.023104284 -0.050081797 0.0485973 0.111097544 0.07382572 0.03823305 -0.079761855 0.024700336 0.014349437 0.08705806 0.15906173 -0.09169166 -0.04349609
라면 -0.03115706 0.032659538 -0.01616075 -0.051128678 0.0037469883 -0.04147922 -0.043236673 -0.003696847 -0.023314934 -0.027827451 0.0089684 -0.035349615 -0.003366138 -0.025489897 -0.00041673053 0.0077605518
시작 -0.016969193 -0.022879438 -0.079227135 0.011059668 -0.023961982 -0.019474283 -0.03142151 -0.03401345 -0.06548793 0.04691758 -0.08428485 0.031921193 -0.06445957 0.018471567 -0.03455121 0.10489178
잇 -0.01716849 -0.018956462 -0.11137669 -0.011910884 -0.03444321 0.032126576 0.05996209 -0.044717144 0.034545437 0.07320114 -0.06626331 -0.039475225 -0.029756134 -0.014556841 -0.015041667 0.19878444
구나 -0.011221966 -0.056183778 0.04671709 0.046443433 -0.014606058 0.034550965 -0.015173029 -0.051675748 -0.04497493 -0.031528376 -0.09009864 0.048004195 -0.026409008 0.039484154 -0.023257961 -0.024683513
특히 -0.13858138 0.029881991 -0.059097216 -0.12336135 -0.076452374 -0.09991769 0.047269333 -0.087215506 0.11551444 -0.028853275 -0.1581355 0.07310243 0.0011198039 0.0059013264 -0.08358183 0.006002981
한테 -0.035358638 0.0040805656 -0.03863393 -0.050704822 0.038119964 0.025574604 -0.01928494 0.062360704 -0.014043103 0.004033521 -0.03214216 -0.012452705 0.04167683 -0.050985098 0.06886905 -0.040308323
날 0.02549208 -0.03739268 -0.06721869 -0.010130279 0.00452906 -0.09388555 -0.043711253 0.07631661 0.04514909 0.008050534 0.09662233 -0.0034787965 0.0624728 0.023003094 -0.048673432 0.020755587
려고 0.087665476 0.0061994563 0.07075432 0.14905751 0.07521866 0.07146105 -0.016123485 -0.014095656 -0.09929415 0.049864985 -0.005036668 -0.045128748 0.039102957 0.06355345 0.13215198 -0.12655628
제일 -0.004751138 0.056292225 0.103776 0.049207915 -0.061817884 -0.02990044 0.050612044 0.031019831 -0.0066047413 -0.052723452 -0.14148208 0.069084406 0.06993519 0.14397253 0.02976471 -0.06562164
아름다운 -0.15938772 0.24351883 -0.08432393 -0.11057822 -0.14701904 0.17903605 0.16036327 -0.020887503 0.13486637 -0.14959402 -0.24287678 0.18239638 0.14492884 0.18121986 -0.102532946 0.036957312
시대 -0.010326981 0.050157193 0.051242005 0.016646558 -0.0116725 0.032081116 -0.035521794 -0.074832544 0.00022102077 0.070003234 0.0006277964 -0.018399946 0.031221826 -0.0011669367 -0.037204444 -0.023570843
ㅜㅜ -0.08544078 0.0060778125 -0.04006353 -0.066877134 -0.035183843 -0.051315572 0.0152808 -0.098138705 -0.0110202655 0.09534459 -0.17256208 0.010588287 -0.19247928 -0.10847105 0.04214556 0.15402317
어떻게 0.0052054115 0.028541707 -0.15970692 0.09588724 0.14331403 0.054927535 -0.072657235 0.10326207 -0.068654366 0.021112459 0.13145417 -0.078594245 0.013906083 -0.08326346 -0.039613154 0.08997253
명 0.12374268 -0.06684166 0.035972156 0.09359996 0.10396628 0.020728631 -0.01070702 0.054041956 -0.053697735 0.016906416 -0.0036904095 -0.02721373 -0.04699991 -0.0045282003 0.044187635 -0.07739956
당시 0.013682113 -0.07093836 -0.0045295022 -0.024174575 0.0004246508 -0.06568131 -0.10675274 -0.057059977 -0.045325987 0.060841672 0.023319792 -0.0907846 -0.01126281 -0.07198955 -0.052027076 -0.024661325
엔딩 -0.042149782 0.021944134 -0.08437433 -0.05484692 -0.00020204273 -0.06344155 -0.026645001 0.05605625 -0.026834663 0.05061344 0.034817915 -0.055475295 -0.012626648 -0.092112474 0.036936402 0.10354505
나름 -0.057520285 0.04487564 -0.048183016 -0.043636285 -0.07338009 0.02165374 0.01666865 -0.036758903 0.016060421 0.009887313 -0.09111356 0.010066607 0.007260445 -0.014891553 0.01886636 0.055388533
무섭 -0.084425636 -0.0005616485 -0.010166235 -0.08430623 -0.1044701 -0.013243851 0.06513231 -0.06901733 -0.002656173 -0.036839116 -0.21448037 -0.03968425 0.015230217 0.050828595 -0.05470747 -0.031437293
나온 -0.08031558 -0.09228312 -0.04010181 -0.03961645 -0.03317318 -0.25381637 -0.0010049401 -0.061871406 0.011649225 0.03933087 0.0079059405 0.02807657 -0.060475297 -0.023005059 0.026195459 0.05097871
사 -0.015732171 0.08276546 -0.0746553 -0.029850792 -0.107148744 0.06556799 0.13430819 -0.035390407 0.015643304 -0.051975574 -0.103979945 0.091324225 0.07936684 0.064603604 -0.05544734 0.0557962
오랜만 -0.12009656 0.026878092 0.06758485 -0.07022145 -0.1282966 -0.11457487 0.05599615 -0.014342435 0.1625048 -0.050128702 -0.07661227 0.09016132 0.0304176 0.20477316 -0.08000896 -0.016739009
니까 -0.0008908149 0.027801825 -0.0489603 0.053827688 0.000606711 0.16133954 -0.0023911942 0.023033716 0.0030128376 -0.09420319 0.17011124 -0.0067924983 0.15732771 0.1649375 -0.071588494 0.040705618
해요 -0.15068702 -0.05663233 -0.08700833 -0.11121854 -0.07668738 -0.13095112 0.04363571 -0.086116664 0.069901675 -0.019931223 -0.12508142 0.04602821 -0.058708217 -0.035445865 -0.05620458 0.1793168
9 -0.09383406 0.2101995 -0.0707365 -0.04574008 -0.11280476 0.27808604 0.102483265 0.09750376 0.08526962 -0.1510526 0.07331129 0.15792193 0.17436993 0.19452816 -0.18716048 0.15716353
이것 -0.047977038 0.044875663 -0.037717458 -0.01742148 -0.07209977 0.03849355 0.049288142 -0.062331617 -0.021497225 0.0083829025 -0.15472758 0.04346897 0.0017314592 -0.03412077 -0.014255414 -0.079658695
팬 -0.043266617 -0.014051471 -0.050002925 -0.04245023 -0.111207195 -0.019382374 0.1065712 -0.059741527 -0.006327281 0.0010470492 -0.13521817 0.055577643 0.02945496 0.011954066 -0.07277009 0.044164095
차라리 0.22366771 -0.3635155 0.15830481 0.14953567 0.22902992 -0.28747246 -0.29863143 -0.32623157 -0.22152944 0.23085913 -0.20842391 -0.29273987 -0.28393435 -0.30786753 0.19836418 -0.08308004
봐 -0.028822191 0.008746299 -0.067501314 -0.030000336 -0.015270392 -0.014852854 -0.0011108886 0.003800945 -0.05936683 -0.014444959 -0.029273827 0.0013901987 -0.049357608 -0.059556376 0.0048949583 0.020895235
절대 -0.042176425 -0.0582075 -0.066352814 0.0068914867 -0.014647286 -0.04291697 0.03647467 -0.039424784 -0.06836092 0.12663817 -0.054381568 0.0036203621 -0.07751265 -0.079049215 -0.0007049822 -0.023688829
세상 -0.122183256 -0.022320945 -0.011682035 -0.09326397 -0.12024636 -0.07509521 0.07097 -0.07036866 0.034622017 -0.051238373 -0.108079895 0.10256692 -0.017642446 -0.012959655 -0.04829022 -0.05238131
세 -0.09732189 -0.017656434 -0.027670193 0.013733362 -0.03764949 0.0144390995 0.055585846 -0.037769902 0.061334398 -0.006466272 -0.0039986647 0.04042407 0.063227735 0.06741305 -0.05507613 -0.017815223
못하 0.08652709 -0.12260359 0.0116462195 0.11420632 0.10133176 -0.18372403 -0.079615206 -0.010774155 -0.050759774 0.07114192 0.086191595 -0.13252063 -0.11054269 -0.11168344 0.06301407 0.045733362
하지만 0.010192393 0.050388545 0.040406086 0.06129673 0.043731086 0.11335282 0.03303341 0.17491294 0.034576748 -0.010104992 0.28382754 -0.06686774 0.16374446 0.10140725 0.006463277 -0.0005618944
던데 -0.063931346 -0.119733244 -0.10588139 -0.13673231 -0.10430911 -0.17486815 0.046047274 -0.13145122 0.04512648 0.028110731 -0.10101924 -0.016559314 -0.147703 -0.05904404 -0.08866687 0.26256067
욕 0.26355642 -0.046750158 0.096295714 0.23570219 0.14972642 0.108523354 -0.088330545 -0.091630414 -0.17564468 0.13882864 0.0046180356 -0.15015776 -0.123221405 -0.10717775 0.13204347 -0.03862252
봄 -0.10453832 0.01886841 0.0659192 -0.053254146 -0.06664923 -0.1325836 0.058219634 -0.09402703 0.06924705 -0.0385034 -0.2747019 0.06337298 -0.043063194 0.03284401 -0.06254347 0.020261005
감 -0.01902537 -0.08577171 0.10380573 -0.002778097 -0.027998922 0.0036999278 0.020700358 -0.025068581 -0.03314726 -0.029876208 -0.08299872 0.046695262 -0.031620506 0.048221037 0.029426381 -0.05122705
훌륭 -0.13538681 0.19024074 -0.07988251 -0.12538096 -0.17493804 0.1546097 0.13459094 -0.029799553 0.08819909 -0.090584695 -0.28438467 0.23372976 0.052890558 0.19813147 -0.08209525 0.047504775
너무나 -0.0842371 0.07501546 0.101305775 -0.15634677 -0.17169273 -0.08116339 0.15310884 -0.13205302 0.09852014 -0.06864868 -0.32082358 0.16412444 0.023461023 0.04961809 -0.03510818 -0.1438449
강추 -0.2054689 0.06719799 -0.06968928 -0.1188297 -0.1506957 0.037842903 0.08037917 0.06870717 0.1816546 -0.10896686 0.01925476 0.11097017 0.22362554 0.19691387 -0.22474885 0.10447777
해야 0.029616905 0.05973279 -0.058015082 0.02742935 0.027751572 0.059740838 -0.022876065 0.04061366 0.031402215 -0.04612722 0.08287183 0.026159924 0.11475924 0.06648218 0.021965178 0.0037685237
됨 -0.124274835 -0.022203753 -0.017041314 -0.116300516 -0.08372989 -0.043901175 0.046932086 -0.06266089 0.061568122 -0.047398936 -0.054632887 0.054429393 0.012387841 0.03364249 -0.11589461 0.07116691
ㅡ 0.0027090805 -0.048539124 -0.0029255513 0.032371636 0.028197845 0.011956388 0.015041822 -0.065457515 -0.12884916 0.03179365 -0.20182604 -0.056524962 -0.1298689 -0.05279392 0.02596224 -0.016146392
따뜻 -0.07865953 0.18327424 0.034989003 -0.14930332 -0.12959412 0.14142969 0.045089312 0.12509261 0.14147024 -0.14903374 -0.05806759 0.14250876 0.22630772 0.22398932 -0.118879244 0.05875328
빼 0.059842426 0.024078421 0.080823116 0.089511275 0.06337557 0.10646729 -0.006547459 -0.041807212 -0.08336487 0.010580087 -0.09635999 0.012430323 0.039022148 -0.009244229 0.09566272 -0.14737283
느끼 -0.056127302 -0.022391645 -0.061089903 -0.020082012 0.01932215 -0.08219698 0.0015173899 0.033672515 0.062640116 -0.028811337 0.102884404 0.028880699 0.058890376 0.082466625 -0.06899694 0.089153476
드 -0.06839657 0.003700329 -0.091996156 -0.09374742 -0.008064147 -0.091084056 0.07884651 -0.17435485 -0.022471355 0.052177887 -0.30531028 0.0021900719 -0.08245027 -0.06510888 -0.012556279 0.0135851065
도대체 0.1864704 -0.14601976 0.02674591 0.16104634 0.076533705 -0.030850409 -0.048526254 -0.058579236 -0.11486629 0.082954094 -0.02993191 -0.06589084 -0.11306325 -0.11033971 0.09923796 -0.0046339612
어야 0.0310816 -0.018200526 0.0032466834 0.044614796 0.053928908 -0.069096304 -0.011044626 -0.061004695 -0.08760148 0.078513175 -0.115338996 -0.06996998 -0.0535813 -0.10566192 0.09347029 -0.03813844
글 0.06776831 -0.07624511 0.02509667 -0.01307986 0.05989674 -0.03814196 -0.055109072 -0.029856566 -0.03336377 0.01330281 0.105198964 -0.010252246 -0.020261502 -0.024885697 -0.045622285 0.03610692
마다 -0.037262667 0.0627151 0.0025253322 -0.038134046 -0.068815544 0.0022168283 0.08493394 -0.069907606 0.030610748 -0.0056789843 -0.18408398 0.091946356 -0.095576465 -0.04985421 0.033222128 -0.057532113
답답 0.017188028 -0.1257075 0.13730185 0.096608765 -0.023260983 -0.16305622 -0.10593833 -0.093523234 -0.056303106 0.10135166 -0.057853635 -0.13016826 -0.08039937 -0.12514286 0.017753912 -0.10668642
준다 -0.09721271 -0.09704539 -0.047216658 -0.12718485 -0.029999413 -0.15676744 -0.007529142 -0.10117403 0.0735116 0.09991099 -0.14793444 -0.041087873 -0.12359367 -0.055573203 -0.04606946 0.11351667
전쟁 0.009418421 -0.009174301 -0.07194892 -0.059904248 0.04555377 -0.08964474 -0.058811456 0.06749781 0.0128169805 -0.01842199 0.21233544 -0.11815695 0.04801488 -0.026624952 0.009800294 0.047648676
놈 0.06632773 0.045815505 0.0387127 0.13066885 0.069273874 0.20134574 -0.016851794 -0.017620886 -0.053909574 -0.03956222 0.15912151 -0.024722295 0.03970497 -0.015101839 0.0074216425 -0.03992577
설정 -0.011370324 0.11516819 0.093398616 0.04753298 -0.004998679 0.054337535 0.0015717772 -0.07368044 -0.042617653 0.08723252 -0.18413885 0.01215596 -0.03707097 -0.047466915 0.090286866 -0.1605061
무엇 -0.14119186 0.044308838 -0.094936036 -0.05665653 -0.04799022 -0.12455368 0.009695684 -0.014204353 0.06906175 0.0023243998 -0.1172114 0.06767246 -0.010498585 -0.04373954 -0.07277972 0.12085269
수작 -0.25006232 0.34240317 -0.39248177 -0.26893902 -0.18947384 0.26220107 0.32527062 0.2133394 0.18555784 -0.09755459 -0.106017336 0.14719436 0.14658125 0.12395004 -0.2572049 0.3631539
그저 -0.07757862 -0.12087715 0.11612905 0.0023346138 -0.04809969 -0.36060703 -0.034064703 -0.047054857 0.04276535 0.02124805 0.11178007 -0.051348496 0.021988414 0.0068361373 0.020515578 -0.057415817
감정 -0.14295971 0.083066836 0.013077273 -0.06949843 -0.073715426 -0.025045423 0.08114207 0.06122468 0.10037045 0.015007047 -0.09460152 0.056303456 0.032638483 0.036725525 -0.024938237 -0.063558586
흥미 -0.09504911 0.09983556 0.07428788 -0.028040715 0.015724694 0.06665752 -0.063530006 0.026241971 0.022868918 -0.013133911 -0.21183959 0.036481887 0.059406705 0.13001479 -0.0057784743 -0.17362632
미국 0.08315642 -0.047582153 -0.0027720772 0.03197622 0.009630944 0.025320277 -0.08034134 0.031806175 -0.018427936 -0.043137234 0.16363817 -0.033848036 0.090011865 0.020405523 0.031521033 -0.05011974
만화 0.051129017 -0.023066849 -0.096063465 0.05233856 0.02307434 0.06824978 0.001268677 0.019856187 -0.07463607 -0.030723397 -0.13027185 -0.04145343 -0.012706 0.031038519 0.023375645 0.12573321
행복 -0.16999833 0.14203592 -0.026524533 -0.10429302 -0.17475218 0.15848678 0.1287774 0.05740964 0.111476414 -0.2758128 0.12793708 0.13839073 0.3059214 0.3110186 -0.20101207 0.09871879
신선 -0.11703557 0.1361184 -0.015155479 -0.10906754 -0.053602654 0.073248066 0.09570774 0.016403256 0.054574326 -0.14529644 -0.21502687 0.14294226 0.12356939 0.13738988 -0.13896166 -0.020998124
뻔 0.032528244 -0.050033692 0.1039498 0.04107337 0.063631296 -0.023417264 -0.0700339 0.03207787 -0.016848322 0.039022423 0.24794579 -0.0607954 -0.040349703 -0.108300515 0.028800206 -0.069798864
형 -0.0150915105 -0.030118126 0.033588603 -0.015880486 -0.07217266 0.047983676 -0.00032355037 -0.011010647 -0.0060756174 -0.03434946 -0.050968714 0.054372538 -0.0028035208 0.11177055 0.009588561 -0.066959254
앞 -0.06247946 0.065692425 0.048709016 0.01931831 -0.061847776 -0.004783299 0.09389219 -0.018225994 0.030958815 -0.010743055 -0.09847162 0.057456776 -0.020274531 0.07823488 0.031007394 -0.049225107
어도 -0.008631103 -0.0012640044 -0.0019570745 0.0027876755 0.033640422 -0.0038453972 -0.030954327 0.02936089 -0.039474964 0.045174167 0.0038130204 -0.02293325 -0.010689524 -0.084078684 0.015176712 0.019586904
허접 0.121650815 -0.12232614 0.1026494 0.13784774 0.17393655 -0.19035159 -0.13949911 -0.19414045 -0.14286259 0.20732726 -0.17650354 -0.15630941 -0.16304965 -0.21125415 0.16633718 -0.1066315
군 0.11428601 -0.0063214 0.05545815 0.05189545 0.05150734 0.061961938 -0.08166804 0.05329236 -0.058355857 0.08527897 0.018082846 -0.0061650365 -0.07009971 -0.07721577 0.07558636 -0.05270561
시절 -0.06292511 0.032052394 0.02228214 -0.0628005 -0.073357984 -0.12678918 0.024623455 -0.0059978813 0.007075312 0.024609432 -0.15102848 0.093230136 0.030827615 0.04898139 -0.06339747 -0.037300516
관객 0.08715427 -0.17924908 0.18516518 0.12692633 0.08075085 -0.15385629 -0.13502447 -0.10507563 -0.09183972 0.08488877 -0.019744217 -0.10276877 -0.0942432 -0.14795259 0.08651445 -0.049741555
배경 0.011432651 0.02208264 0.0050752573 -0.035798907 0.0013141609 0.047540225 -0.013904667 -0.067654714 0.06351312 -0.05885723 0.028486753 0.07774894 0.0323865 0.055049606 -0.0033108096 -0.10301212
6 0.014215027 0.02564962 -0.049841877 0.081361964 0.03221652 0.048063878 0.031293392 0.13083497 -0.012489234 0.020979226 0.20159888 -0.00040289544 0.05498336 -0.0025792904 0.007855321 0.056704428
의미 -0.008160442 0.0536607 0.116688274 0.0017473781 -0.009835589 0.042853653 -0.0061671655 0.0282363 0.041635267 -0.009504434 -0.08604991 0.005292719 0.08118718 0.05840174 0.038749866 -0.093861535
초반 0.0859298 -0.12808152 -0.11008141 0.06673628 0.1825364 0.07810685 -0.11177571 0.0015981848 -0.0645564 0.02539083 0.15223736 -0.221768 -0.06548801 -0.18277599 0.020380167 0.07289586
사실 0.028074374 0.03827453 -0.0030374504 -0.017311042 -0.058483034 0.09394151 0.072979584 0.022217926 0.031771205 -0.005773445 0.1437098 0.019935008 0.061071936 0.08220045 0.008861515 0.147686
답 -0.022044336 0.006192407 0.012588847 -0.0625596 -0.10026083 -0.012351687 0.028411113 -0.053227514 -0.0110954065 0.023786763 -0.062344007 0.043413807 -0.039929498 0.027615305 0.014558406 8.6111046e-05
웃음 -0.02960763 0.033865236 0.021604735 -0.01128576 -0.05747514 0.032965235 -0.018912058 -0.0013481885 0.024745729 -0.024577536 0.0304102 0.0023834947 0.016407039 0.06995243 0.0123018725 -0.06481692
엄청 -0.09271432 0.07630063 0.09264429 -0.09572413 -0.090162516 -0.14299443 0.07001579 -0.081654385 0.033310473 0.046061195 -0.29970843 0.08053511 -0.03482979 -0.002043167 -0.031142274 -0.090443246
라니 -0.007698625 -0.034596235 0.02202287 0.029717991 -0.011986927 -0.10184621 0.01203626 0.06845851 0.06645235 -0.058568925 0.27947187 -0.08007904 0.07220652 0.04642852 -0.02748777 0.004153287
더라 -0.10532164 -0.040114153 0.0009325303 -0.07836569 -0.035976123 -0.122899614 0.048669863 -0.0092894165 0.10559604 0.06276203 0.009753711 0.012566101 0.014104914 0.021233639 -0.0027461897 -0.03255054
자신 0.0059194877 -0.08360603 -0.110530704 -0.054237347 0.013847762 -0.02268096 -0.089218035 -0.049989067 -0.03173397 -0.0371218 -0.03411456 -0.10637195 -0.07246869 -0.07150062 0.017691975 -0.013597791
질 0.06439367 -0.07878902 0.036850214 0.11756286 0.09980138 -0.07307597 -0.10193243 -0.0036121428 -0.09789952 0.08837485 0.12978782 -0.10467006 -0.09793774 -0.09777374 0.14910972 -0.0015610374
추억 -0.09336945 0.050839733 -0.08087918 -0.13625258 -0.081870675 0.035475615 0.12822771 -0.02722014 0.0028698044 0.0023269854 -0.3068867 0.047508623 -0.033371214 0.012000512 -0.058243677 0.06861986
캐스팅 0.07136279 -0.054097056 0.04936354 0.058548734 -0.013392409 0.040442 -0.05254944 -0.04276474 -0.048175782 0.033415746 -0.049113948 -0.043325335 -0.03262958 -0.038956232 0.05101113 -0.085621886
머 -0.027903318 -0.056342967 -0.017092636 0.009584743 0.06271436 -0.020785635 -0.05794522 -0.041546725 -0.052063007 0.03169497 0.024262091 -0.0154107725 -0.04011507 -0.02376584 0.0050411434 -0.025506753
첨 0.06473945 -0.013682268 -0.03859313 0.06817375 0.16329591 0.0055218064 -0.08590563 -0.0008195381 -0.039992098 0.032971505 0.19511595 -0.049632896 0.011690651 -0.03571714 0.065090954 -0.02717435
멋있 -0.16201949 0.12702537 -0.035521194 -0.12527578 -0.093662135 0.049253866 0.079245925 0.18247746 0.10655417 -0.03919774 -0.11330482 0.16657406 0.14105672 0.15426868 -0.06648091 0.11225302
류 0.012076101 -0.037470605 0.09939339 -0.011679215 0.014319774 -0.10907682 -0.08031366 0.029271867 0.01726305 0.117414564 -0.09709289 0.037104174 -0.0935661 -0.07109807 0.09085388 -0.056890838
시나리오 0.0055595627 0.012510953 0.09049692 0.044286296 0.0080252625 0.0054079094 -0.017664505 -0.08720693 -0.08930783 0.08217971 -0.19575024 0.0041926196 -0.0121247405 -0.05163257 0.09336638 -0.24222967
어색 0.22125429 -0.109634764 0.050494637 0.12046422 0.17126222 -0.013142919 -0.1434951 -0.04837943 -0.1405289 0.16440327 0.008033981 -0.11485522 -0.16143928 -0.2575727 0.15860042 -0.0618095
슬프 -0.051827747 0.023850953 0.02917975 -0.09179419 0.00093328865 0.017897788 0.031947948 0.08102323 0.07976287 -0.184854 0.32706782 0.02742716 0.2540831 0.1149672 -0.119423196 0.06408636
OOO 0.14606479 -0.20737988 0.11658168 0.16369146 0.22132236 -0.16374981 -0.2594374 -0.06535569 -0.035115093 0.11587128 0.11613192 -0.1568767 -0.090500236 -0.14357324 0.11188028 -0.10873651
정신 0.054425035 -0.035880174 0.010678645 -0.025161654 -0.047949128 -0.008143747 -0.0006416203 -0.09479551 -0.04575019 0.032063045 -0.09306925 -0.01374601 -0.15230331 -0.12884434 0.022950416 -0.072055906
분위기 -0.084631704 0.124916576 -0.09095606 -0.051366247 -0.044459842 0.07501451 0.1360165 -0.074185096 0.059252974 -0.03472786 -0.22011076 0.020746695 0.02654737 -0.04585464 -0.01202507 0.033220384
소름 -0.068475924 0.1950741 -0.09154898 -0.10159692 -0.089486405 0.15035595 0.118049964 0.06998279 0.066550784 -0.13263652 -0.09042385 0.1569359 0.03340143 0.068699546 -0.13330634 0.067272864
멋진 -0.12920144 0.064624116 -0.103608325 -0.11266137 -0.09169113 0.02783983 0.06856331 0.10092351 0.110255785 -0.1297105 -0.060103964 0.11755124 0.10170977 0.029919652 -0.12195093 0.103833556
힘들 0.046169866 -0.13599022 -0.016121455 -0.014152344 0.08154972 -0.18481475 -0.13632037 -0.020119479 -0.020274786 0.04701144 0.14273518 -0.121111594 -0.11203752 -0.12221595 0.03510344 0.017511487
오늘 -0.006002413 -0.061714895 -0.040124785 0.010410115 -0.020757139 -0.018377135 0.01835952 -0.027224917 -0.028393857 0.061714586 0.029415479 -0.048186507 -0.11209083 -0.0315978 -0.020909566 0.03163215
어이없 0.27295887 -0.057102457 0.14443605 0.27616447 0.28183064 0.115922466 -0.1537032 -0.15763251 -0.26276708 0.16145024 -0.1723625 -0.13815697 -0.1984995 -0.19886087 0.24699885 -0.23434725
봐서 0.028644115 0.10563768 0.0042170603 -0.007051213 -0.010448896 0.12434022 -0.055969942 0.043160927 -0.0024716216 -0.07649306 0.03752054 0.017994625 0.085447155 0.07483655 -0.07196034 -0.0035042122
구성 -0.042597998 0.06292185 0.0033286347 -0.021279557 -0.057284094 -0.046399105 0.082147256 0.031985205 0.06615799 -0.044183806 0.018523458 0.06351836 0.036744066 0.018046105 -0.061843693 0.023998123
잡 -0.047457874 -0.043579847 0.036370035 -0.06944896 -0.0031935943 -0.174343 -0.021622013 -0.036570657 0.036735225 0.084505685 0.054296475 -0.022780115 -0.009296133 -0.04704328 0.020398207 0.07195293
엄마 -0.11778899 0.05426645 -0.058609188 -0.076454 -0.059682444 0.032723356 0.022549335 0.09335094 0.04673806 -0.09562567 0.015023827 0.13107555 0.1057519 0.055402145 -0.050380293 0.03806517
함께 -0.13316591 0.06292584 0.0146141965 -0.13174012 -0.11627505 -0.065456696 0.030768832 -0.08117584 0.1371402 -0.09039326 -0.12752083 0.079921916 0.12144677 0.08964541 -0.08624889 -0.014777368
문제 0.13145153 -0.008557851 0.04998235 0.08889464 0.14113338 0.09218183 -0.024130052 0.009323834 -0.06980157 -0.01985672 -0.018327799 -0.048732676 -0.069844075 -0.0890532 0.065149926 -0.22291172
위해 0.040376734 0.034893382 0.037447058 0.079019174 -0.012073206 0.12513998 0.010578896 -0.047661137 -0.041693952 0.022252949 -0.060990322 0.012127171 0.0024682034 0.016393868 0.023717895 -0.023924032
졸작 0.19035086 -0.28125596 0.29306877 0.24243614 0.30641985 -0.24285787 -0.43732783 -0.20541751 -0.1649161 0.22581105 -0.0559572 -0.23895541 -0.23958696 -0.26263532 0.2087997 -0.1793213
잊 -0.12974627 0.12381783 -0.29229474 -0.15111582 -0.1368915 0.15661547 0.12390199 0.13484947 0.1368456 -0.056920312 0.025676984 0.117418356 0.04818762 -0.047794495 -0.17601337 0.24267831
등 0.007461826 0.14203721 -0.041998774 -0.018367535 -0.054387104 0.13199535 0.08638408 0.013863794 0.0052109784 -0.08063404 -0.10244972 0.10585932 0.06460957 0.11693669 -0.08799277 -0.017596755
집 0.02831446 -0.07860382 -0.02229875 0.015937043 -0.03448148 -0.07323469 -0.009635529 -0.02704103 -0.01799246 0.0075440253 -0.07250036 0.02031732 -0.12924977 -0.05977155 0.011318531 0.047840577
유쾌 -0.090766616 0.10770899 -0.0005223683 -0.12169025 -0.10171101 0.21305701 0.10266535 0.17040896 0.1441481 -0.14551301 0.06756024 0.12489267 0.24428956 0.22315452 -0.11874999 0.025275707
스러운 -0.14258507 -0.045293868 -0.043775342 -0.114509664 -0.14419343 -0.11014173 0.07065123 -0.108231984 0.08107595 -0.026426705 -0.1403137 0.029090837 -0.04410165 0.094083495 -0.11388733 0.06376669
뻔한 0.028417617 -0.21164644 -0.0030203795 0.086074375 0.058623556 -0.20416573 -0.110913485 -0.079764634 -0.074600995 0.09911194 -0.015925603 -0.08099953 -0.09249919 -0.14368306 0.0379341 0.031213952
나요 -0.05311669 -0.03931631 -0.04434676 -0.08156279 0.018167729 -0.056644812 0.035168126 0.013985582 -0.0042135892 0.026613843 0.023591278 0.017086614 -0.012829889 -0.002297648 -0.04049284 0.17083718
킬링 0.010726798 0.007960129 -0.08031272 0.0051217927 -0.029614696 -0.011138146 -0.0019511485 -0.011486 0.033506457 0.030324802 -0.06987129 0.044618282 0.00805916 0.03059735 -0.064787164 0.032929897
결국 0.06446013 -0.064927235 0.023224413 0.06947087 -0.039456572 -0.023749528 0.00065006455 -0.023571352 -0.034582738 0.066617265 -0.046385035 -0.041318096 -0.050845414 -0.07554165 0.06556261 0.038167242
낫 0.029579131 0.033980794 0.032899298 0.06469326 -0.018980771 0.09802357 0.000745309 -0.024550023 -0.06473187 -0.08055223 0.09364606 -0.008590744 0.07135939 0.032072227 -0.06362971 -0.0134994015
뭘 0.18147741 -0.07182651 -0.092917785 0.0865058 0.23396775 0.15629742 -0.07163338 -0.008518787 -0.2049876 0.0758188 0.045592595 -0.21334623 -0.07238815 -0.1764215 0.10340282 0.078728996
간 -0.03146185 0.009048171 -0.00047144588 -0.05066472 -0.003397354 0.0024068968 -0.07529483 -0.013015597 0.081756674 -0.07129146 0.062158797 -0.008256881 -0.00072536716 0.0041985586 -0.019591885 -0.038117837
