9996 16
the -0.0003592367 0.038730014 0.017256295 -0.020657187 -0.044326544 -0.07676064 0.080793545 0.04466127 -0.01440838 0.25630853 -0.08168266 -0.026776671 -0.025369124 -0.07110009 -0.02887666 0.055765875
and -0.05359683 0.04276314 0.11010732 -0.046524677 -0.0050677448 -0.043694638 0.05666518 -0.0008825811 -0.015695704 0.054783884 -0.032426234 -0.04178195 -0.01616245 -0.03903318 0.0073665804 -0.025932586
a -0.045648124 0.008761692 0.033287782 -0.06785458 -0.009650156 -0.0022426487 0.08190191 0.027369421 0.025075106 0.015673285 -0.08746685 -0.056978937 -0.070955776 -0.026260842 0.03627401 -0.0010572922
of -0.031124977 0.030404132 -0.005571539 -0.06479507 -0.0784866 -0.074101195 0.07189626 0.011329715 0.05115874 0.27285784 -0.114803396 -0.10230251 -0.06919231 -0.046979085 0.04394258 0.16040978
to 0.021587815 -0.02972746 -0.07389055 0.0579477 -0.015200236 -0.06653514 0.035368778 -0.06489409 0.033497345 0.099792644 0.038117327 -0.007027205 -0.013725264 0.04566508 0.07159765 0.023587408
is 0.003043549 -0.014651093 0.028214546 -0.03388383 0.03952472 -0.05340711 0.043946803 0.050951235 -0.03376948 0.014740865 -0.0521497 -0.058014527 -0.042850684 -0.031064987 -0.010545577 0.026725741
br -0.022513323 0.07296525 -0.016056133 -0.053942636 -0.2749765 -0.08875674 0.04414807 -0.094924256 -0.05003489 0.19144219 -0.04570303 -0.025983874 0.070440784 -0.00839416 0.08063996 0.11089191
in -0.07586624 0.011567911 0.048664324 -0.08778345 -0.10351095 -0.024494337 0.051059637 -0.009155045 -0.00972298 0.09158961 -0.047631893 -0.09120476 -0.07794945 -0.024015546 -0.06209218 0.00854738
it 0.001630168 0.086216815 0.052423187 -0.086124256 -0.3135069 -0.15399449 0.04370054 -0.03650021 0.04099826 0.09363788 -0.06142179 -0.031237597 -0.01322733 -0.05239285 0.06349409 0.15550177
i 0.05734723 0.023880461 0.00039604888 0.03524667 -0.2137368 -0.041153055 0.0032368915 -0.01253962 0.0010756658 0.0701324 0.011097457 -0.03056322 -0.026573136 -0.013569725 0.048040614 0.0068632686
this 0.024483642 0.046244174 -0.0391281 -0.04351328 -0.2687341 -0.16289265 0.034666028 0.02390543 0.012839821 0.23113485 -0.04475399 -0.060899723 0.063341655 0.03736706 0.060213484 0.27007538
that 0.030918706 0.027708564 -0.049173795 0.025808103 -0.04235688 -0.06415829 0.048220873 -0.008052129 0.031752452 0.16423498 0.0013786824 -0.069470845 -0.011545304 0.02624554 0.026716955 0.062122352
was 0.06305232 -0.018319603 -0.039609574 -0.006876249 -0.16521664 -0.0767825 0.08060867 0.056033365 -0.009758166 0.14680953 -0.06541279 -0.004136099 0.030487051 0.033964366 0.016042441 0.11795824
as -0.011184129 0.05870969 -0.042169347 0.025044788 -0.036656808 -0.04646948 -0.0119109675 0.03527707 0.0052274666 0.14322701 -0.022185497 0.022751585 -0.010680677 0.036186032 -0.04129478 0.11171701
for 0.0346565 0.0695142 0.002076665 -0.051156417 -0.24175547 -0.11232541 0.05249794 -0.030328812 0.056271706 0.18634379 -0.057828512 0.0013276861 -0.0135435425 -0.003251207 0.04881061 0.1461644
with 0.062470965 0.018503424 0.01628377 0.02401222 0.0195979 -0.044313487 0.039347872 0.04685001 0.026278563 0.22218122 -0.025572529 -0.059234075 0.060065586 0.04961399 -0.035015587 0.08804218
movie 0.024845388 0.025167912 0.006374977 0.03090498 -0.20048961 -0.10855739 0.060997102 -0.09250545 0.04336459 0.17594975 -0.023323147 0.026125763 0.102544375 0.0062878174 0.013733917 0.14060415
but -0.0025326451 0.011452577 0.057068545 0.009982324 -0.010003096 0.02705465 0.025899168 -0.03967673 0.024974521 -0.09585841 -0.0046840976 -0.03141078 -0.05723875 0.01831814 -0.020617131 -0.083505645
film -0.0406402 0.1129165 0.055235647 -0.00082453503 -0.29475015 -0.11245246 0.09361107 -0.0035918728 0.009300445 0.17374428 -0.040535226 -0.014090503 -0.0030505857 -0.024468726 0.015100373 0.09053345
on 0.061574295 -0.04307666 0.018871011 0.006990642 -0.032348316 -0.022786412 -0.019348068 -0.03344067 0.008435071 0.11894707 -0.07000455 0.011196473 -0.038295597 0.045656823 -0.013126292 0.0043940283
not 0.06969282 0.030105269 0.0037640762 0.01628402 -0.23819034 -0.12773569 0.07468269 -0.07265462 0.04335701 0.23757069 -0.0005321914 -0.04988118 0.08531703 -0.00701594 -0.0082285125 0.16260122
you -0.06803733 0.07337235 0.050659064 -0.0831453 -0.2675843 0.0682017 0.056381635 0.006594647 -0.011015587 0.026038216 -0.041788362 -0.043689225 -0.08696783 -0.07798487 0.08393822 0.04783972
are 0.073375 0.014650151 -0.056358945 0.03516604 -0.054018874 -0.06790218 -0.047272276 -0.020188404 0.054169223 0.13434403 -0.016281128 0.06414416 0.0868769 0.080257535 0.06798651 0.056979414
his -0.031015562 0.054243237 0.09095103 -0.059448563 -0.034178205 0.00083867833 0.028527165 -0.021045044 -0.075572275 0.057457324 -0.07720033 -0.110010765 -0.08319263 -0.07371593 -0.034711726 0.019218627
have -0.0143003175 0.052559685 0.020998042 0.018922567 -0.16690369 -0.024498524 0.050515972 0.011055136 0.010540284 0.09589019 -0.003011947 -0.033934485 0.0065558543 -0.020800086 0.09852719 0.05550261
he 0.03797314 -0.014714514 0.017545352 -0.012642004 -0.009195285 -0.09756881 0.042990506 -0.067833945 0.014711573 0.0624711 -0.017237576 0.04108288 0.0380763 0.06257076 0.04320375 0.04412265
be -0.0026264335 0.054370165 -0.026244052 0.01992602 -0.26386592 -0.13111411 0.07416902 -0.0031605316 0.068523236 0.17813407 -0.061824676 0.017822482 -0.019345166 -0.030999597 -0.008696425 0.14808077
one 0.037197325 0.038846914 0.013852691 -0.028242469 -0.02759936 -0.01582589 0.0861204 -0.08105734 -0.022127515 0.05834883 -0.050663464 -0.011477887 -0.024834853 -0.06065156 0.059052173 0.053328484
all -0.0122004645 0.10007589 0.01081391 -0.05183773 -0.2570812 0.009292987 0.091955975 0.0013780543 -0.025139378 0.098351315 -0.13961023 -0.1101931 -0.047025643 -0.004995818 0.035521485 0.0948174
at -0.019892303 -0.056782957 -0.009988341 -0.008955523 -0.046737697 0.019010227 -0.05387776 -0.07219934 -0.01671939 0.03578387 0.011687249 0.0024463853 0.04014917 0.015281776 0.06683488 -0.01176273
by 0.032304328 -0.07288932 -0.005950601 0.05587747 0.049475655 -0.00306493 0.015808564 -0.009588467 0.080127686 -0.033550058 0.0011950033 0.04974491 0.044941075 0.0035885521 0.008351544 0.012636111
an 0.0464362 -0.008396318 0.021227665 -0.024741065 0.026654134 -0.043548938 0.044442907 0.0103941 0.044784747 0.023810335 -0.052407075 0.0056682304 0.0040735058 0.008655125 0.024547309 -0.007646906
they 0.035718065 -0.018214323 -0.033391707 0.09568774 0.008595051 -0.06931322 -0.07282203 -0.0046856757 0.029932901 -0.045088023 0.058450773 0.012486985 0.06394683 0.071169615 0.06385491 -0.07018449
who -0.009649957 0.011049068 0.0415312 -0.04594274 0.016468395 -0.02910481 0.011915671 0.003556476 -0.02350528 0.045209527 -0.0113779 -0.044303108 -0.040931914 0.01963221 0.034472942 0.016084695
so 0.052629977 -0.014081022 -0.045672636 0.07767108 -0.2730038 -0.09891824 -0.03061119 -0.0630149 0.023541532 0.15120792 0.08830561 0.055410214 0.07299606 0.07157188 0.06676048 0.035574753
from 0.048622306 -0.041506547 -0.02527343 0.04814141 -0.045167368 -0.08453889 0.0036272686 0.02203152 -0.00015219214 0.08878485 -0.024220569 0.049954653 0.05115359 0.0018538142 0.013170532 0.09375278
like -0.05999454 0.00044710806 0.03378653 0.010168147 -0.06823336 0.01967534 -0.0077804327 0.038455654 -0.0006841881 0.008908941 0.013020283 -0.052600134 -0.033735566 -0.07742998 0.022616424 -0.008496085
her 0.021662205 -0.003982359 -0.059023008 0.04161975 0.033537224 -0.02146635 0.009289987 -0.032509305 0.06515219 0.015226956 0.05978124 0.07225504 0.015119893 0.010232371 0.0072186347 -0.042737924
or 0.09252963 -0.07720666 -0.07164052 0.022012576 -0.09952649 -0.10577254 -0.05835986 -0.07831268 0.012364642 0.10634169 0.05541271 0.054160647 0.040738888 0.036303658 0.05282069 0.014121793
just 0.08067928 -0.0472914 -0.10068423 0.040498294 -0.19118002 -0.0922434 0.04174438 -0.1054049 0.035691183 0.15425795 0.055879988 0.0045780614 0.11127639 0.105001435 0.12241803 0.08119094
about 0.006383161 0.0066552297 -0.008916358 -0.036326684 -0.1407073 -0.03796934 -0.011730852 0.0543588 0.0074465713 0.03757447 -0.057374854 -0.018348021 -0.011793757 -0.027662767 0.019793691 0.059128802
it's 0.011108138 -0.00032251095 -0.01613004 -0.030175209 -0.12749456 -0.07651039 0.069611564 0.06501525 0.054564063 0.18133827 -0.044608522 -0.07365657 -0.04232497 -0.048553523 -0.05496347 0.18734555
out 0.067068264 0.00656923 -0.06631425 0.076257296 -0.1936941 -0.21337354 0.053666625 -0.09156011 0.123625524 0.1933474 -0.004629439 0.017196137 0.09117961 0.06494972 0.025566703 0.20851389
has 0.095625535 -0.09180254 -0.059553627 0.015526935 0.0028870697 -0.030501554 -0.06851636 -0.06402844 0.09489578 0.057650015 0.06807618 0.09336644 0.07198455 0.080666415 0.04610402 0.03809708
if -0.04395185 0.0937143 0.04541372 0.005544726 -0.0665812 -0.0073355148 0.054237887 0.017237078 -0.076452054 0.030733205 -0.05726886 -0.024408948 -0.042745885 0.0022553834 0.036166932 0.018963385
some 0.044750962 -0.030344428 -0.055864137 0.13048266 -0.03433752 -0.1541406 -0.10048788 -0.015963234 0.06045451 0.24439207 0.0051794928 0.0038685454 0.084757 0.105401374 0.030922422 0.14278297
there 0.0005655641 0.07888709 0.028607246 -0.0284022 -0.098783456 -0.06150141 0.096512385 -0.0074038897 0.05024897 0.13963835 0.0018021546 -0.054730315 0.041000254 -0.0015307122 -0.016018633 0.08908639
what -0.09157832 0.036645856 0.0466371 -0.10661413 -0.05018187 0.057456847 0.040782996 0.107303426 -0.033287533 0.070582055 -0.056627754 -0.092213765 -0.0766371 -0.116567515 -0.022288844 0.06328323
good 0.015451945 0.087285556 0.0742727 -0.04577535 -0.0811293 -0.07182153 0.14310224 -0.0113970945 -0.036023915 0.060860686 -0.09785881 -0.056920864 -0.047286816 -0.050255686 -0.011136421 0.17409892
more -0.028555214 0.081103414 -0.035930865 -0.010043842 -0.390405 -0.044811763 0.08321057 0.020991776 -0.018793844 0.13513845 -0.026159521 -0.04971925 -0.030344019 0.049243733 0.07123162 0.13709441
when -0.065082535 0.09287734 0.031300016 -0.095526315 -0.081919186 0.0043798494 -0.0066269124 0.019666687 -0.06979871 0.055205043 -0.059578877 -0.005058822 -0.07940934 -0.040311668 -0.07130959 0.0060906815
very 0.054491144 0.024434272 -0.042740252 -0.029825972 -0.04169125 -0.068936266 0.017728984 0.041573975 -0.018979194 0.06419128 -0.032374967 -0.029179204 -0.036750317 0.022933751 -0.0041092965 0.10963629
up -0.021753863 0.056445774 0.037372056 0.0033171782 -0.08032742 -0.02208204 0.035170395 -0.0057173707 0.0061319196 0.09705121 -0.018378844 -0.013476839 0.029524157 -0.008706926 -0.00086273963 0.09302054
no 0.09663207 -0.08155232 -0.06424976 0.05530932 0.022449324 -0.050253507 -0.050149366 -0.10543636 0.010107423 0.055265307 0.09186904 0.08177416 0.0983758 0.09780858 0.09516528 0.02715293
time 0.105140515 -0.047519688 -0.044518434 0.08186378 -0.008769726 -0.041991584 0.031468492 -0.09058063 0.053062975 0.14706634 0.009622185 0.05024663 0.07128567 0.085601 0.035680637 0.03564781
she 0.002233858 0.017792305 0.03686551 0.005147686 -0.02304889 0.04217445 0.044630952 0.01929359 -0.016248452 -0.047811124 -0.010692624 -0.058471132 -0.078296006 -0.030319067 -0.052133743 -0.0014524724
even 0.008115426 -0.045520473 -0.0065297447 0.022928772 -0.09226233 0.00854835 -0.043009095 0.040625796 -0.027138136 0.04723685 -0.03797035 -0.015764264 0.04475467 0.011434605 0.016310934 0.05105289
my -0.06492243 0.081500486 0.08213121 -0.09417002 -0.1912881 -0.007971619 0.0693643 0.02487781 -0.059447225 0.038081206 -0.053355377 -0.027129617 -0.09212829 -0.051339187 0.0059306617 0.042541012
would -0.05226773 0.058839474 0.04908624 -0.006519589 0.015544351 0.010464234 0.027953325 0.0258681 -0.07194624 0.0017301616 -0.041176237 0.025146877 -0.0588841 -0.024556402 0.022342777 -0.09309434
which 0.052169416 -0.041808657 -0.002613614 0.010507648 0.007392142 -0.024089387 -0.07629406 0.008922346 0.040500015 0.027982822 -0.013116529 0.07945824 0.022902803 0.042074528 0.015484897 0.035971623
only 0.11527313 -0.084659494 -0.09157716 0.10992532 -0.111341916 -0.09659488 -0.05829273 -0.03463925 0.07280774 0.073505096 0.029481849 0.0390258 0.095356435 0.10593867 0.13116404 0.012990868
story -0.039698366 0.05412699 -0.038456574 0.025542961 -0.07968447 -0.013240603 0.07915283 0.0117288735 0.03444858 0.05024492 0.011595218 -0.014759614 0.03966683 -0.035856746 0.043379508 0.038091503
really -0.012633662 0.053720675 -0.0036130855 0.011329389 -0.12949203 -0.089123696 0.03218188 -0.028678084 0.024532683 0.10390077 -0.021980677 -0.04334938 0.058359295 0.027539212 0.050814994 0.17144516
see -0.036814757 0.077190705 -0.019157037 -0.08978761 -0.23609695 -0.051756077 0.063901246 0.008072664 0.0018397232 0.051938877 -0.07035244 0.022265429 -0.02251139 -0.023959346 0.026529333 0.028388914
their -0.051624097 -0.041958638 0.048596904 0.021209132 0.004036147 -0.009377355 -0.042533893 0.0145752765 -0.07113462 -0.04914708 -0.020538244 0.044021614 -0.07904711 0.010175151 0.049916215 -0.054180652
had 0.013632545 0.07124164 -0.010510164 -0.068185054 -0.012829382 -0.013277476 0.024542458 0.052867707 -0.05024526 0.0448394 -0.06294756 -0.055088624 -0.007829202 -0.0942559 -0.03858575 0.07505348
can -0.048530743 0.010369513 -0.03277427 -0.06483735 -0.23183 -0.08443801 -0.00894311 -0.022765128 -0.04463737 0.0052264645 -0.045079883 -0.05663791 0.0082285 -0.0074053076 0.10208747 0.013386214
were 0.053873114 -0.05064374 -0.015677951 -0.00020896399 -0.01679117 0.008842369 -0.046899322 0.004845665 0.06048082 0.061127692 0.001015011 0.06847941 0.009817823 -0.014392317 0.00051412114 0.020553311
me -0.02662819 0.10622269 0.036349036 -0.03284205 -0.25874892 -0.104742065 0.096285105 -0.02051366 -0.03582675 0.16119908 -0.036419004 -0.045844253 0.022058988 0.024522673 -0.044770338 0.20115052
well -0.08669198 0.13830942 0.09343696 -0.1254697 -0.08597986 0.10086279 0.14259009 0.006909094 -0.158325 -0.14319159 -0.122450635 -0.1096429 -0.14174455 -0.088907704 -0.042557724 -0.0376467
than -0.06350941 0.07135367 -0.0068008094 -0.06736132 -0.22579859 -0.0755444 0.066114396 0.051068023 -0.0673215 0.13955872 -0.07392055 -0.122210145 -0.017485969 -0.045644145 0.015250011 0.20646396
we -0.092208736 0.03503636 0.06671833 -0.027941426 -0.06797122 0.017942257 0.08858995 0.05132018 -0.082699716 -0.017917484 -0.030504987 -0.021875001 -0.08423937 -0.042379938 -0.04814606 -0.024474964
much -0.019418787 0.012016713 -0.035188418 -0.030232161 -0.12542984 -0.055163827 -0.042683158 0.02867452 0.03755616 0.04305405 0.018649504 0.059932586 -0.022271475 -0.02945754 0.029705264 -0.0374169
been -0.054317173 0.10461302 0.009515898 -0.023273429 -0.20519163 -0.058090452 0.06929166 0.020759348 -0.020698722 0.05584973 -0.10181275 -0.050946124 -0.06299829 -0.039149854 0.017807359 0.019345675
bad 0.25025457 -0.009258683 -0.16031934 0.13245954 -0.39339656 -0.3351636 0.08911063 -0.19870134 0.2089256 0.23741415 0.08800281 0.04663742 0.26123416 0.23941684 0.21599033 0.27050418
get 0.034061253 -0.11941961 -0.07721702 0.07206534 0.0004624403 -0.030255606 -0.118904196 -0.04942678 0.0059981 -0.010693347 0.04852332 0.042366467 0.025328532 0.06764004 0.05111785 -0.0308388
will -0.022866316 -0.029652933 0.045899212 -0.02201255 -0.014880611 0.04073176 0.04087716 0.01333716 -0.038084198 -0.09948689 0.02507769 0.04540045 -0.014045506 -0.03739126 0.03785594 -0.09869385
do -0.075638615 0.028178195 -0.012648076 -0.049673617 -0.11353414 -0.015796456 0.020661565 -0.014864812 0.009304388 0.005276532 -0.08063369 -0.03380949 0.01745527 -0.08087353 0.0032739998 0.07515711
also -0.09164027 0.05150982 0.0187768 -0.018679317 -0.0042556124 -0.019346168 0.05522038 0.06963056 -0.036525413 0.011363404 -0.011392672 -0.0031344243 -0.019301707 -0.018641049 -0.04175157 -0.03163547
into -0.021067657 0.039830286 -0.05071131 -0.0153831085 0.062158674 -0.032968003 0.014274016 0.01730381 0.00040968347 0.09422929 0.023472976 0.012475538 0.03737782 -0.017430406 -0.022787942 0.08250252
people 0.012114751 0.039802775 0.042504117 0.02911155 -0.012288723 0.043207232 -0.0252763 0.006251298 -0.023707807 -0.06605443 -0.0027147394 -0.059881747 0.021007787 -0.037760396 0.0020889551 0.001646088
other -0.119303636 0.08590036 0.031688593 -0.09887033 -0.11535609 0.008193618 0.09317463 0.034886204 -0.032436904 0.002772572 -0.058561087 -0.08769586 -0.103394315 -0.09965122 0.021136845 0.005718209
first -0.07724741 0.13835236 0.084310696 -0.046494823 -0.15610956 0.028741287 0.10877276 0.08732922 -0.022890484 0.0019802116 -0.116085015 -0.1296935 -0.08317549 -0.07765608 -0.080363475 0.08530614
great -0.02472105 0.12883978 0.05473967 -0.10269841 -0.14454107 -0.027144948 0.20691201 0.08262132 -8.763373e-05 0.17416228 -0.18843658 -0.13183987 -0.06468968 -0.15407175 -0.17145635 0.21913767
because 0.06124317 -0.019493865 -0.031805333 0.022554219 -0.06275906 -0.034782387 -0.052652232 -0.02417036 0.025858564 0.09906833 -0.043307774 0.025781319 0.068618394 -0.02536679 0.072027795 0.058941092
how 0.03479938 0.042049114 0.00514976 -0.0476242 -0.17557992 -0.043332595 0.007496406 -0.031463183 -0.010039196 0.05965309 -0.026604278 -0.0015305835 0.0070421887 0.012716246 -0.014906745 0.0530887
him -0.053932466 -0.020262472 0.028791955 -0.032579124 -0.011057982 0.05076744 -0.05470044 0.029484713 0.01065652 -0.16949435 0.020268848 0.053320706 -0.03515066 -0.07322261 0.01803783 -0.122605905
most -0.056835923 0.09571791 0.08226881 -0.09631544 -0.10246659 0.052524604 0.06266309 0.040887687 -0.061258692 0.049069423 -0.12294673 -0.05554566 -0.10629635 -0.1353706 -0.021320768 0.047141183
don't 0.065533474 -0.058823537 0.010007217 0.06023097 -0.2284517 -0.020286467 -0.06569036 -0.06654265 0.074285425 -0.005397209 0.03118053 0.05855907 0.095222175 0.10262725 0.10057868 -0.027590951
made -0.061209142 0.013278346 0.0014146478 -0.038250294 -0.1165932 0.006078482 0.08883902 -0.008185749 0.010535361 0.045158926 -0.09094901 -0.07296335 -0.019367395 -0.051067967 -0.023727436 0.002465829
its -0.09671954 0.058952294 0.0938022 -0.15002955 -0.07187465 0.099313885 0.1298734 0.027506735 -0.05789496 -0.049898766 -0.1353678 -0.07163331 -0.107165426 -0.091435775 0.03568148 -0.035020914
then 0.023608537 0.05135368 -0.0003706303 0.021669742 -0.093354285 -0.024184646 0.04811239 -0.03630991 -0.040561367 0.024161348 0.038932394 0.032259107 -0.024690313 -0.043564186 -0.042662114 -0.013654482
way 0.020267751 -0.022169806 -0.013333156 0.023762075 -0.1522765 -0.12900524 0.02140339 0.04889017 0.02494221 0.08371334 0.03454659 0.003112891 0.035827696 0.055311352 0.0140321115 0.11513943
make 0.04157027 0.04970141 -0.045426678 0.015172703 -0.045542 -0.04888138 0.028812544 0.072071575 -0.02946061 -0.0027625314 0.032613494 -0.0389029 -0.010678063 0.021037677 -0.025073053 0.006269266
them -0.09774232 0.08174434 0.071536556 -0.12323104 -0.19147971 0.0047168876 0.1625675 0.020414976 -0.058474556 -0.019832598 -0.1324569 -0.12655376 -0.11928366 -0.06950273 0.06598867 -0.066567175
too -0.020230053 0.08053824 0.07895375 -0.03649386 -0.14945449 0.032766875 0.035528842 -0.021714374 -0.031093234 -0.022048451 -0.07139851 -0.07227489 -0.07959206 -0.07721282 0.041185014 -0.042966653
could 0.0049005984 0.029137405 -0.016061451 -0.037618835 -0.025979277 -0.04855336 -0.043699767 -0.036626995 -0.0020018308 -0.032681808 -0.009124719 0.02748469 -0.038542923 0.06340381 0.055360403 0.04188707
any 0.069683 0.010235616 -0.09335465 0.014598962 -0.050100494 -0.14562523 0.026820324 -0.020342577 0.07589654 0.119659476 0.014892592 -0.00078407396 0.095099844 0.051651143 0.023265248 0.14517279
movies 0.018346192 0.11237839 -0.012803364 -0.025308324 -0.28718168 -0.047007173 0.08114646 -0.040002074 0.0034542177 0.069236554 -0.08768126 -0.031598605 -0.0153081855 0.01699475 0.046346914 0.12583745
after 0.002191834 0.033475842 0.056405198 -0.009760884 -0.00057207455 0.032137252 0.033539332 -0.080257 -0.047288712 -0.055794645 0.023680467 -0.03627256 -0.04815303 0.0297883 0.076000065 -0.02547564
think -0.0015412613 0.052940026 0.050625388 -0.042387098 -0.13745295 0.034427352 -0.015900664 0.055888116 -0.092624776 -0.10597782 -0.05485597 0.0109943375 -0.013817696 -0.0015611914 -0.03933361 0.018248862
characters -0.07076749 0.033539735 -0.007428162 -0.07357758 0.011968003 0.0025629574 0.02557367 0.058224324 -0.042126033 -0.038194872 -0.07399917 -0.04153491 -0.048227 -0.07470714 -0.009180387 -0.08033994
watch -0.0101973 0.010965452 -0.010196545 0.005359744 -0.18109347 0.03500946 0.071587875 -0.0035341263 -0.06917808 -0.050906684 -0.02993386 -0.060521003 0.007830821 -0.0056749736 0.072698034 0.040245663
two 0.042882994 -0.057400316 -0.06830072 -0.0057510613 0.01700888 0.031289116 -0.0133796865 -0.04622242 0.0049277563 -0.025417978 -0.010908523 0.014338096 0.07209064 0.07089088 0.023171283 -0.03513177
films -0.06931701 0.06083842 0.07779839 -0.086558715 -0.26578933 -0.042389028 0.06517368 -0.032012753 -0.025884608 0.033045538 -0.10551183 -0.10424789 -0.021274425 0.005785253 0.09440065 0.087558225
character 0.06456839 0.023072084 -0.002983462 0.04927131 -0.0234427 -0.04788223 0.009770659 -0.056712184 0.06367866 0.03135883 -0.002829172 0.026955284 -0.01300528 -0.026253596 0.02525611 0.046201065
seen 0.016515208 0.111338414 0.019240083 -0.040371146 -0.17582546 -0.050020788 0.14567369 0.042233106 -0.017554745 0.083379485 -0.09740666 -0.103115946 -0.044543263 -0.005387735 -0.03854604 0.12008504
many -0.022305138 -0.03600831 0.016582064 0.059682883 -0.033008605 -0.05451143 -0.039455947 0.0032508546 0.037202414 -0.013227221 -0.008928788 0.03694963 0.043548834 0.034682874 0.039287467 -0.034144092
being 0.08390142 0.022152752 -0.077034414 0.06075794 0.032700643 -0.0927426 0.011273392 -0.015399179 0.03494389 0.22860004 0.050982542 0.015952937 0.015181026 0.020459577 -0.015359389 0.095226176
life -0.059303537 0.0055093663 0.063636966 -0.026985683 0.0009148464 0.10674994 0.023017364 0.019533014 -0.10606659 -0.100783266 -0.0014357218 -0.08955101 -0.025335368 -0.061939765 -0.03733389 -0.0020326932
plot 0.08699069 -0.006047801 -0.053196743 0.060299702 -0.07123566 -0.0084869815 -0.0383405 -0.06608562 0.06700511 -0.016857715 0.043803386 -0.0049515623 0.05723331 0.03862587 0.048563633 0.020637086
never 0.006359108 -0.010956879 -0.019016331 0.027089853 -0.10213454 -0.026273748 0.046660077 -0.0043546963 0.015093172 0.14091192 -0.04579004 -0.039898183 0.026639868 0.049316958 -0.053205777 0.1710174
acting 0.0010566235 -0.033101574 -0.06632893 -0.0030995528 -0.20932911 -0.079002246 -0.018038051 -0.011628875 -0.014463584 0.040082075 -0.04776068 0.015298711 -0.007961481 0.09360969 0.02248955 0.15554027
little -0.0663502 0.066465534 0.12170684 -0.11895828 -0.07612221 0.111562066 0.037891112 0.004652528 -0.106325425 -0.05887314 -0.10583317 -0.06469026 -0.09097487 -0.08937429 0.037295703 -0.062212154
best -0.039962243 0.106862664 0.11674203 -0.111366786 -0.16599666 0.03179344 0.122452095 0.029263204 -0.09534332 0.09249691 -0.103996485 -0.10628878 -0.086871065 -0.13862383 -0.029302606 0.06911257
love -0.0313646 0.09621886 0.026885716 -0.057309575 -0.07401625 -0.028683297 0.024529476 0.0968477 -0.006409608 0.04344443 -0.08178062 -0.047110505 -0.0066991886 -0.03490653 0.0027442276 0.070151545
over 0.02184962 -0.028684849 -0.0148710245 0.0040253107 -0.05902562 0.0030661065 -0.0039949357 0.0070642396 -0.0046816533 -0.007655848 -0.013171222 -0.0106377825 0.012830066 0.03747779 0.07201301 -0.06254406
where 0.035251323 -0.033846464 0.010649785 0.011467317 -0.06328947 -0.021613183 -0.022802787 0.0024621382 0.05058874 0.08733082 0.0037834249 0.06570615 0.017381398 0.08233768 0.06036183 -0.005624898
did -0.10973128 0.0024144992 0.0822316 -0.03862878 -0.042786703 0.09428603 0.019913865 -0.024552975 -0.06040493 -0.101332165 -0.024975404 -0.05950277 0.011006124 -0.041380744 0.062928244 -0.067312285
show -0.011025561 0.019387385 0.081743866 -0.032523267 -0.029282743 0.014125001 0.12632585 0.05254174 0.0057692784 0.039131016 -0.023338359 -0.023682855 -0.046080045 -0.091522716 -0.09210233 -0.0004293486
know 0.0082879905 -0.03462785 -0.018751927 -0.000260212 -0.15455168 -0.033229224 0.009811574 -0.003910273 0.02806687 0.008393377 0.04720309 0.055844918 0.029993918 0.023278194 0.08593766 -0.03964333
off 0.0034356609 -0.046492737 0.03530834 0.02892492 -0.07754195 -0.0029623387 -0.05332111 0.013331101 -0.022594973 0.0142857535 0.04623775 0.055393975 0.033571433 0.077744484 0.10531637 -0.041305434
ever 0.019147906 0.05883625 -0.0014668489 -0.02712436 -0.25218856 -0.094648495 0.06718527 -0.05565753 -0.021761708 0.08856926 -0.07655151 -0.01963757 0.05083722 -0.020720828 0.08785285 0.10839485
does -0.058236416 0.085043 0.024875946 -0.07552163 -0.0337784 -0.04353562 0.028734094 0.03029788 -0.05502165 0.0074299523 -0.08464193 -0.08745455 -0.056678735 -0.095224835 -0.101708926 0.10389574
better -0.026402786 0.112406805 0.037089217 -0.058742695 -0.22432373 -0.0017677585 0.11066129 0.06382435 -0.056058 0.11142258 -0.04335387 -0.057063304 -0.07057472 -0.07642844 -0.0331363 0.07953802
your -0.017462572 0.020330459 -0.059141252 0.042100765 -0.20406131 -0.13595355 0.058479287 0.02521503 0.0033946806 0.14558136 -0.0060242196 -0.051660933 -0.0002001503 -0.008103525 0.07914438 0.15481934
end -0.025357535 0.014145092 0.092537455 -0.06340435 -0.11014897 -0.029399795 0.061921418 -0.022541754 -0.003768148 -0.030113686 -0.017700125 -0.097623505 5.823362e-05 -0.07722872 0.047727685 0.050787196
still -0.05480635 0.19670829 0.08271994 -0.055276368 -0.054324135 0.015104703 0.21529323 0.09913758 -0.039945494 0.07533342 -0.19154546 -0.1692162 -0.047663957 -0.15704164 -0.14700635 0.17606874
man -0.04826389 0.058954727 0.057986103 -0.071779475 0.034347787 0.020408118 0.062718526 -0.03295214 -0.054298475 -0.08926175 -0.00401573 0.0047576693 -0.08169479 -0.0060181855 0.04638146 -0.010160884
here 0.0774342 0.044044483 -0.069136545 0.065318845 -0.19675913 -0.24613684 0.015339783 -0.13850023 0.1438798 0.2660628 0.046815146 0.04003191 0.08699617 0.07520099 0.05670465 0.26258105
these -0.005791705 0.07339609 0.05942858 -0.081467316 -0.12067254 -0.040767744 0.042615585 0.09207826 -0.037940416 0.0395578 -0.09938262 -0.071066886 0.0021473784 -0.005699446 -0.068992145 -0.00035569683
say -0.019662337 0.048887998 0.014278065 -0.002671462 -0.23902282 -0.13702618 0.08761612 0.014149716 -0.0063195974 0.24419658 0.012863244 0.002268183 0.004763726 -0.009671664 0.0065002237 0.23121318
scene 0.078108 -0.05911736 -0.063719034 0.034714747 -0.011682447 -0.10505352 -0.011308581 -0.0034992876 0.055852912 0.124842554 0.05598338 -0.0172398 0.05767582 0.07027731 0.05550876 0.06992926
while 0.007836923 -0.037379302 -0.0001413138 0.018873997 0.006737596 0.024583656 -0.049007315 -0.0237607 -0.050796002 -0.06986698 -0.047336653 -0.041016687 -0.03801756 0.011008064 -0.015824163 -0.06592668
why 0.08885227 -0.055640966 0.004809317 -0.014069459 -0.03895844 -0.09142535 0.0043051825 0.013163151 -0.006250891 0.08987938 -0.0022864428 0.0040196185 0.036129538 0.016362803 0.08954449 -0.007860939
scenes -0.020048523 0.08352597 0.020480802 -0.034049507 -0.16338368 -0.0064901477 0.017114205 0.012720755 0.0011298517 0.1366413 -0.0744762 -0.03972227 -0.055176094 0.013169656 -0.034902304 0.022383643
go 0.1096253 0.03829753 -0.079077326 0.038274758 -0.10789523 -0.089157425 0.0943008 -0.050240222 0.11230864 0.13571103 0.014222963 -0.001510433 0.102702826 0.07969617 0.0657478 0.17972793
such -0.07264187 0.06932344 0.09316378 -0.049710605 -0.07366993 0.003819624 0.056302875 0.062057775 -0.04499212 0.020375846 -0.03887487 -0.092712514 -0.008955072 -0.031573616 -0.03731364 0.015385447
something 0.07950659 0.08569295 -0.022289759 -0.0033753149 -0.08556824 -0.092232175 0.044197388 -0.006049255 0.07572837 0.10323554 -0.050570436 -0.064902514 -0.0021732142 -0.037960958 -0.10697018 0.18370888
through -0.09550835 0.05722312 0.13501038 -0.05482766 -0.1467068 0.06887748 0.036668677 0.0347298 -0.09945083 -0.10061675 -0.0808022 -0.090447165 -0.0645724 -0.06358638 0.017499577 -0.028468642
should -0.0015619735 0.024187202 -0.009049218 0.024219282 -0.24788862 -0.06514968 0.024006555 0.07334369 0.0031400474 0.059099015 0.025708526 0.005311269 -0.0006016262 0.05022478 0.07006849 0.055150636
back 0.03994876 0.023152387 -0.054843307 -0.03375 -0.25359443 -0.06458722 0.035599954 0.04103456 -0.022979122 0.11489822 -0.061233275 -0.02329679 0.0037327707 0.056075368 0.033676106 0.07541496
i'm 0.03136206 -0.0042105624 -0.05291233 0.1024954 -0.1524691 -0.1423065 -0.063629724 -0.06919129 0.058899216 0.12541355 0.015076778 0.013045274 0.10497429 0.021755122 0.07033296 0.09310571
real -0.061661102 0.022664383 0.0029491715 -0.049949605 -0.1722334 0.045254588 0.05555565 -0.060696427 -0.06055848 0.034270197 -0.11093019 -0.09292643 -0.059932645 -0.04042099 0.14189197 0.028464086
those -0.00041702262 0.043017182 0.049829114 -0.00872119 -0.2275909 -0.07971438 0.05182351 0.084096275 0.05932604 0.10803434 -0.07327785 -0.08377993 -0.037266064 -0.07229615 -0.06974656 0.04503134
watching 0.0101547735 0.06050005 -0.010755227 0.021776427 -0.18057583 -0.088327825 0.058739547 0.08128025 -0.03528008 0.14577186 -0.08564885 -0.051639907 -0.017375134 -0.040857363 -0.06785643 0.14876215
now -0.05634176 0.12816079 0.0429688 -0.119566776 -0.11260798 0.013450208 0.05758297 0.0064855516 -0.065310016 -0.08472317 -0.07356838 -0.10608858 -0.047344275 -0.09348418 0.033515763 -0.03210853
though -0.070627004 0.15123256 0.104174234 -0.07384042 -0.060731925 0.10031264 0.12533216 0.13989778 -0.097559005 -0.028860057 -0.09797452 -0.14443739 -0.120733745 -0.0990563 -0.078226104 0.075324014
doesn't -0.012567099 -0.039514 -0.024781063 -0.00028491934 -0.079061925 0.042714685 -0.058662254 -0.017426921 -0.010261442 -0.033895165 0.011683255 -0.023114946 -0.028497852 0.044813395 0.01070073 0.013781034
years -0.09183921 0.114411816 0.102874324 -0.056848943 -0.13096431 0.030997504 0.05642585 0.0505067 -0.04377647 -0.08569039 -0.060307506 -0.09825668 -0.036633518 -0.058685515 0.05239189 -0.027239779
old 0.032971874 -0.025344165 0.010291914 0.045278806 -0.22579676 -0.09168176 0.041449934 -0.0071095326 0.004258461 0.07525952 0.0029626118 -0.05857115 -0.00557445 0.018379971 0.038394045 0.09527411
thing 0.18370074 -0.008350325 -0.13533755 0.103845365 -0.123788476 -0.14355563 0.020676892 -0.16262555 0.11717375 0.16664247 0.12034838 0.061992075 0.17644805 0.11466423 0.15650564 0.13974093
actors 0.03576667 -0.008211263 0.03002824 -0.06603955 0.006843827 -0.030313736 -0.018156093 0.021337202 0.042610507 0.06835801 -0.016246388 -0.022505432 -0.009968138 0.009686271 0.03338671 -0.0019113736
work 0.019984791 0.048681617 -0.009140686 -0.021635292 -0.19075115 -0.07088757 0.00024720715 0.0403774 -0.016538413 0.04897919 0.0140022375 -0.042242732 -0.0033768683 -0.014703822 0.084443435 0.01510348
10 -0.1007577 0.19349143 0.045346506 -0.15496917 -0.3569151 -0.0714153 0.29539 -0.1607799 -0.02972068 -0.087316774 -0.2366051 -0.19217703 -0.09824171 -0.06641502 0.16334018 -0.00026104407
before -0.030486036 -0.011844174 0.06449484 -0.03934178 -0.06245545 0.015123563 0.016027218 -0.012528987 -0.02783776 -0.07058625 0.02266299 -0.001199843 -0.03714026 -0.0002929266 0.036010575 -0.009642262
another 0.023393635 -0.06450288 -0.0053516068 0.015536688 0.011203392 0.017461628 -0.020006953 -0.0827004 0.038943324 0.00024710683 0.09180318 0.052174743 0.08645257 0.08572268 0.074151 -0.074521564
didn't 0.093780294 0.041143995 -0.009425168 -0.003508267 -0.19214165 -0.08917819 0.0024624474 -0.07451849 0.09499058 0.1339332 0.05224242 0.048448503 0.05763485 0.105345115 0.041212503 0.09930206
new -0.011758552 0.07180468 0.06259546 -0.06433759 -0.15963581 -0.07062115 0.16600068 0.15944616 0.01580192 0.14694372 -0.14214939 -0.071810246 -0.05586482 -0.096672475 -0.116036184 0.15156804
funny 0.027450873 -0.026839865 0.0049225506 -0.02331189 -0.1613065 -0.103630215 0.0318989 0.010149178 0.000800006 0.16125067 0.007855474 0.02917418 0.022423917 0.026686016 0.084546216 0.036205087
nothing 0.0626267 -0.067574605 -0.022729402 0.09233465 0.043438245 -0.061465282 -0.049432248 -0.0917086 0.096507184 0.04469702 0.095380664 0.071147285 0.028171664 0.03326781 -0.007241704 0.08865261
actually 0.080831766 0.012079353 -0.02980822 0.031316914 -0.021440063 -0.03422616 -0.06917474 -0.045413796 0.07326999 -0.009479033 0.051447343 0.021031734 0.0401501 0.06658231 0.023881052 -0.034766816
makes -0.11231629 0.0236792 0.0905624 -0.016357055 0.01973966 0.1020642 0.041815486 0.00744985 -0.039721485 -0.059606608 -0.04433689 -0.007918603 -0.08070372 -0.027527537 -0.06914142 -0.06924204
director 0.016058074 0.0053204 0.06991038 -0.041282903 0.006953292 -0.013536307 0.043884628 0.0052385773 -0.02564184 0.039217718 -0.036595356 -0.006792156 -0.062468193 -0.07697562 0.0022384012 -0.00094948255
look 0.020397741 0.03641854 0.020057637 -0.074663386 -0.10695496 -0.066238776 0.045408163 0.014476357 0.04574019 0.058596283 0.013802539 -0.07378123 3.8430968e-05 -0.012549523 -0.016838789 0.09501445
find 0.030010749 -0.055392116 -0.07997219 0.056596782 -0.15716264 -0.030804818 -0.07180985 0.019211873 0.07348583 0.11793316 -0.009085848 0.064969786 0.041286167 0.0061900183 0.04271379 0.04723948
going -0.03129013 0.012778667 0.037698075 -0.07749452 -0.021722708 0.12129478 -0.000854211 0.02750388 -0.051868565 -0.075852714 -0.01927169 -0.046010084 -0.09953757 -0.014569044 -0.006686323 -0.08737278
few 0.051073857 -0.060209166 -0.07798853 0.06661853 -0.053978536 -0.04514975 -0.12700567 -0.07398484 0.041967403 -0.03679418 0.04774523 0.11546527 0.13469583 0.08645778 0.14351909 -0.040617406
same 0.07290674 -0.010680468 -0.016729187 0.039585963 -0.09860141 -0.06330724 0.03178927 -0.036385242 0.07783394 0.117102295 -3.6558282e-05 -0.01821874 0.026366115 0.08766506 0.026390852 0.048201665
part 0.1056354 -0.02276231 -0.0789775 0.07400346 -0.19774094 -0.12840886 -0.020063572 -0.049609005 0.01853865 0.15038611 0.036136217 -0.030275835 0.060157668 0.08474282 0.0995501 0.16446239
again -0.040001135 0.091894805 0.06314527 -0.052237064 -0.21994334 -0.022616817 0.0073794634 0.03892858 -0.05729214 0.050734546 -0.04761768 -0.060264666 -0.035203166 -0.013717936 0.07658402 0.05235789
every 0.011988677 -0.043922976 0.05043598 0.007156256 0.015316106 0.06699674 -0.051209055 0.029506342 0.008183713 -0.07704534 0.037716582 -0.014835689 -0.026426805 0.03401917 0.009898884 -0.014237634
lot -0.0056224302 0.022122895 -0.05709346 0.061462127 -0.13189276 -0.042537246 0.024277024 -0.019250788 -0.010110238 0.07717875 -0.034538407 0.03398553 0.07444757 0.0488189 -0.0039129774 0.053231683
cast -0.0018440537 -0.033414707 0.011374017 0.04982372 -0.021017516 0.03137326 -0.04740522 0.019156514 -0.0069265305 -0.025517635 0.061288327 0.0483036 0.05743585 0.00203758 -0.010540215 -0.012382023
us 0.036961053 0.16193424 0.01032122 -0.023280261 -0.2398893 -0.070467785 0.14621487 0.033868823 -0.009391225 0.12596528 -0.0759278 -0.14686 -0.013171929 -0.03529824 0.006038915 0.20660232
quite -0.031392038 0.099278174 -0.014862826 0.0021539407 -0.10942357 -0.06673691 0.10579943 0.07299892 -0.013730375 0.13539454 -0.038468353 -0.039216768 0.0005115915 -0.07516948 -0.0752122 0.11378823
down 0.025911352 -0.07659252 -0.024112953 -0.002976153 -0.02808588 -0.05482469 -0.050518632 -0.02995286 -0.0057167383 -0.049643394 -0.014783329 -0.043870825 -0.012479809 -0.010252452 0.07784437 -0.057217896
want -0.036891043 -0.048565056 0.037480433 -0.042782404 -0.04948059 0.021282699 -0.0615437 -0.004589162 0.015487138 -0.117963076 -0.019110816 0.038477045 -0.019195778 0.05404144 0.12351741 -0.11513656
world 0.11182506 0.10370805 -0.013778619 0.044529628 -0.13680439 -0.14302853 0.12831321 -0.03764261 0.08906091 0.12971744 -0.03559709 -0.030663168 0.10334977 -0.010542892 -0.0027010255 0.1576658
things 0.016556486 0.025691597 -0.017497389 -0.055263665 -0.11470866 -0.06496728 0.0018335925 0.039033685 -0.041012954 0.053075746 -0.054152552 -0.006704866 0.0025055741 -0.035400983 -0.017582214 0.036819868
pretty -0.026172038 0.033651482 0.070665084 -0.0039042514 -0.006788596 0.007734255 0.05161747 -0.025523204 -0.033928014 -0.070004955 -0.013262791 -0.035418347 -0.058554363 -0.055894785 0.08522073 -0.10053773
young -0.015747463 0.008510391 0.03649545 -0.053132627 -0.07713177 -0.03843034 0.08141193 0.01907047 -0.0029291802 0.1404961 -0.004374925 -0.040655963 -0.0034175543 -0.014194126 0.02632462 0.017941074
seems 0.05745737 0.06298405 0.030170368 0.027962852 -0.1537296 -0.067616075 0.06497985 0.059154883 -0.059260122 0.16747631 -0.010350452 -0.07651398 0.013698512 0.022061076 0.043097157 0.109625705
around -0.10811516 0.055218875 0.08069969 -0.09116181 -0.10790771 0.058090895 0.09451286 -0.0062432424 -0.11732712 -0.06959398 -0.07759392 -0.081246555 -0.04747772 -0.12605573 -0.062458083 -0.051269874
got 0.102780804 -0.091933504 -0.11471438 0.03635166 0.07180781 -0.048624847 -0.104965925 -0.10713103 0.037042655 0.004419 0.117806636 0.048021123 0.055470675 0.079240635 0.082951024 -0.052776
horror 0.023825701 0.051635668 0.013200877 0.044711992 -0.15481266 -0.07586523 -0.026849713 0.03953962 0.040376674 0.09747393 -0.046319164 -0.0030188665 0.006099992 0.04096747 0.019966612 0.036576428
however 0.001049927 0.10292047 -0.0006224958 -0.012489563 -0.12828857 -0.015215268 0.04803248 0.10684483 -0.0441315 0.11946544 -0.12382622 -0.043177124 -0.053193107 -0.090258576 -0.05193336 0.06891486
can't 0.010885662 0.044608865 0.04531759 -0.0627641 -0.101481125 -0.036625795 0.09093201 0.047448855 0.025085138 0.10696834 -0.053495485 -0.04111534 0.020146064 0.0026931125 -0.006637151 0.12742117
fact 0.015849628 0.010197696 0.03632183 0.034656562 -0.022294667 -0.019976312 0.10381366 -0.06527711 0.029812392 0.018951345 -0.055955276 0.0042898967 0.009341549 -0.029211152 -0.062485497 0.09500666
take -0.063019894 0.09259805 0.05506176 -0.038406674 -0.14406122 0.025502393 0.04652491 -0.03514555 -0.04869301 0.033706833 -0.021308428 -0.023040866 0.010451251 -0.01361956 0.0696125 0.0005922158
big 0.0067871544 0.13972124 0.05254592 -0.055577453 -0.15253912 -0.029967308 0.1230705 0.032573737 -0.069377854 0.102384515 -0.05266906 -0.13983479 -0.0061392584 -0.08039388 -0.047219858 0.14255263
enough 0.031006701 0.023335971 0.0028811821 -0.015025749 -0.18670093 -0.09385349 0.034139097 0.062340975 -0.03170406 0.13896945 -0.04890876 -0.03884574 0.05439519 -0.024043832 0.0071321866 0.12167537
long -0.018566228 0.07302883 0.008527462 -0.011919269 -0.07642581 0.036168605 0.041546017 0.0790847 -0.04332854 -0.0056111375 -0.08598567 -0.090302 -0.02699 -0.0067229983 -0.058572665 0.013671759
thought 0.031106941 0.041315958 -0.0035750833 0.041823316 -0.073573336 -0.024116658 -0.0025522243 0.01930212 0.024408493 0.14664422 -0.04264239 0.017235782 -0.00075550546 0.010410181 0.043985385 0.061884288
that's -0.03509172 0.038756263 -0.02294023 -0.034353692 -0.099052124 -0.08397261 0.048005436 -0.02784376 -0.014247889 0.06410518 -0.010944523 -0.049210045 -0.0154105015 -0.024502639 -0.00021569712 0.118145995
both -0.14842801 0.12308974 0.15699431 -0.17077431 -0.07664745 0.021952767 0.15992424 0.10645012 -0.15156011 0.0062679653 -0.20021226 -0.15876023 -0.16217966 -0.15361886 -0.139841 0.14538236
between -0.016131982 0.041439198 0.024593 -0.034354884 -0.050176445 0.010327709 0.023724712 0.052622814 -0.0573756 -0.03590395 -0.09445132 -0.056074534 -0.052353144 -0.060511358 -0.08259216 0.020710047
series -0.042204175 0.08999877 0.03699925 -0.085604206 -0.18609846 0.010655918 0.12786022 0.13571233 -0.08118247 0.14885801 -0.08356149 -0.12984134 -0.08658458 -0.057773925 -0.10639507 0.13296546
give -0.004401293 0.0011252203 -5.0068105e-05 -0.051273946 -0.018512102 -0.035473343 0.0038598368 -0.060977925 -0.060483273 -0.031160258 -0.019064536 0.0012295175 -0.048067648 -0.068316855 0.06010425 -0.07132104
may -0.068402424 0.08216371 0.059755523 -0.06073447 -0.12334698 -0.0059360308 0.03686539 0.09709712 -0.0111276135 0.030427516 -0.07915126 -0.044848613 0.011389711 -0.016276164 -0.010214656 0.044916626
original -0.0112706125 0.122071 0.054693032 -0.014898093 -0.0367935 0.0019234732 0.09740288 0.009206168 -0.08716005 0.09939369 -0.049487337 -0.11704683 0.012083214 -0.07999396 -0.059704803 0.0770343
own -0.016977055 -0.030534927 0.03821588 -0.04974481 -0.058013894 0.021729365 0.0065105 -0.024882646 0.014024345 -0.021768259 -0.037083905 -0.0009430527 0.006647041 0.041505598 0.023080958 -0.029046807
action -0.080953 0.07566638 0.09026136 -0.07421213 -0.15360972 0.07787398 0.03890064 -0.009710206 -0.07092266 -0.0074152765 -0.0908987 -0.041415967 -0.069560885 -0.0682806 0.03780917 0.025355
i've -0.045670822 0.107352436 0.071996704 -0.098314114 -0.16754682 0.020595487 0.0516562 0.026992103 -0.018162234 0.018447515 -0.063638225 -0.09145417 -0.07723796 -0.105263 -0.012810936 0.09130248
right -0.05477006 0.07717656 0.039402995 -0.046855807 -0.073758125 -0.045895975 0.13738863 -0.029277243 0.0030667381 0.06351544 -0.06074627 -0.09397418 -0.0066012614 -0.074957445 -0.014706559 0.099881
without 0.00038334532 0.14393914 0.0037095675 -0.03229571 -0.123001374 -0.07297826 0.0960765 0.073187746 0.013297058 0.062845565 -0.11985501 -0.121722825 -0.017995924 -0.029431695 -0.0429145 0.09057706
always -0.15254955 0.10343338 0.14868806 -0.13739327 -0.05340799 0.1663524 0.122865506 0.13889378 -0.16528204 -0.02080932 -0.18595298 -0.15011169 -0.09731529 -0.1255832 -0.105277985 0.12558663
times -0.031450048 0.06390812 0.0814791 -0.082831815 -0.1436448 0.042093102 0.08867764 0.13834806 -0.059167545 -0.00040063373 -0.025217691 -0.061823875 -0.09201497 -0.052250598 -0.07535567 0.04106542
comedy 0.11299759 0.04518595 -0.08030164 0.045073446 0.0059158443 -0.09993227 -0.033919465 -0.05764302 0.108248256 0.19339663 0.06388038 0.016804762 0.074409656 0.07995011 0.025986563 0.113540806
point 0.059364103 -0.013907248 -0.079585254 0.08019487 0.023673663 0.0027067151 -0.02515899 -0.08388664 0.101407364 -0.080013886 0.043749798 0.106652185 0.065380394 0.105728045 0.09399462 -0.035682112
gets 0.049979206 0.05579551 -0.022558525 0.017761378 -0.001772719 0.039598905 0.01940211 0.012745614 0.04344203 -0.04881473 -0.03359657 0.047535107 -0.010085106 -0.005760681 0.020785138 -0.0048407186
must -0.11464726 0.0765669 0.051589206 -0.08622025 0.009077816 0.09265389 0.028936606 0.033543926 -0.06846731 -0.06948572 -0.1018116 -0.027451713 -0.04800453 -0.0698532 0.0069503575 -0.028696524
come -0.010990252 0.13688125 -0.015102224 -0.04296938 -0.15607895 -0.056368306 0.12195726 0.030904993 -0.00016983422 0.118533514 -0.1374085 -0.066532016 -0.0049089123 -0.015721263 -0.01834869 0.12197716
role 0.06014327 0.0035919887 -0.062008668 -0.025769848 -0.09244915 -0.030005075 -0.034025524 0.026660498 0.04989793 -0.043551385 -0.025656957 0.058330268 0.052698903 0.0019000449 0.054861292 0.046340737
isn't 0.018398877 0.039472587 0.05344103 0.006889415 -0.1025312 -0.019496735 0.014235574 0.07001469 -0.065982744 0.08621123 -0.0760548 -0.068958245 -0.018529098 -0.021078767 -0.03226498 0.086867675
saw -0.097048074 0.032510106 0.0057369117 -0.09187899 -0.03292247 0.018017074 0.05920967 0.04224784 -0.092315115 -0.07147349 0.0058941725 -0.018466456 -0.007999286 -0.07515502 -0.017260104 -0.060242344
almost -0.0031878594 0.050237477 -0.016881494 0.03649555 -0.06824041 -0.023375826 0.061653204 0.03956532 -0.013613722 0.10705222 -0.054408003 -0.042690378 0.039340943 -0.020068139 -0.076678105 0.045471903
interesting 0.06852036 0.038364485 -0.041083552 0.0625854 -0.032114442 -0.08497408 0.03561046 0.038783412 0.06363408 0.09417225 0.020073537 -0.020106284 0.06756935 -0.01253346 -0.054840013 0.091021396
least 0.0055416888 0.032102313 0.06526174 -0.009309915 -0.14987764 -0.00026947758 0.029416464 0.04847859 0.008759837 0.073238984 -0.004651625 -0.07165315 -0.033472653 -0.02702144 0.003915595 0.08804557
family -0.14046715 0.19233082 0.103718035 -0.19030236 -0.1689428 0.11947663 0.13619559 0.10429572 -0.16116698 -0.0023025938 -0.18510422 -0.12942839 -0.17309009 -0.16437331 -0.13534859 0.09111243
done 0.031821005 0.08029224 0.025648475 -0.0344453 -0.22932725 -0.08682189 0.06877143 0.005578381 -0.06171274 0.12055069 -0.117151394 -0.037264835 0.032194853 -0.021477334 -0.010205417 0.15054065
there's 0.015987094 0.074205704 0.049677927 0.016867924 -0.10569097 0.00061738 0.064771 0.0068357405 0.031727098 0.104533836 -0.07120456 -0.018552795 0.014543409 -0.04165721 -0.0139140105 0.068405315
whole -0.0029236975 -0.0014165547 0.06782078 0.0063335407 -0.030080458 -0.012737813 0.025200691 0.06296791 -0.028298957 0.014579048 -0.05077037 -0.017275775 0.019107673 0.018481782 -0.038695917 0.089372054
bit -0.040702704 0.053682532 0.037916113 -0.0076371566 -0.16441068 0.011637574 0.07494947 0.01601053 -0.056185834 0.1288159 -0.062189173 -0.08112579 0.01764889 -0.04094035 -0.026155766 0.05521299
music -0.11569409 0.10446058 0.09725403 -0.12334506 -0.10372994 0.12647347 0.11473266 0.0726581 -0.09517897 -0.06124169 -0.13027 -0.10684188 -0.071285926 -0.11283921 -0.047490958 0.031167535
script 0.05251297 -0.12413669 -0.01903879 0.020831876 0.052782405 -0.07337983 -0.061163552 -0.05353971 0.016813446 -0.0762838 0.08004726 0.13036115 0.10317703 0.13681103 0.17030583 -0.111062475
far 0.025239956 -0.03345707 0.020166064 -0.03488107 -0.14081745 -0.044193625 0.027631037 0.035152335 0.025291795 0.029780023 -0.05929356 -0.026247067 0.018277016 0.057139426 0.0703186 0.038845867
making -0.04147197 0.052348875 0.036552373 -0.035444193 -0.13747254 0.031973023 0.08408798 0.04758585 -0.010187601 -0.021651955 -0.11916657 -0.093414605 -0.01018417 -0.102008 -0.04474824 -0.03208095
guy -0.038033303 -0.06372741 -0.021251883 0.0060922056 0.0063326117 0.049860805 -0.018919779 -0.050495304 -0.0038476984 -0.0675289 0.013839036 0.006476185 0.004743893 0.05220128 0.039697215 -0.046619967
anything 0.11829563 -0.047506303 -0.1033169 0.014574081 -0.15760298 -0.109167516 0.01918865 -0.11233463 0.12491008 0.115497656 -0.019651873 0.023639292 0.10339397 0.09971385 0.043971263 0.1373671
minutes 0.11966979 -0.004232694 -0.116097085 0.09708121 -0.16829997 -0.18802159 -0.04463379 -0.094440006 0.10511345 0.14106512 0.0642556 0.029980803 0.098623894 0.13214913 0.16686988 0.10885338
feel -0.044691943 0.03924587 0.011553093 -0.021825159 -0.14402346 0.03268781 0.09023991 -0.0012136858 -0.03670454 0.10052012 -0.010020109 -0.093826964 -0.07342286 -0.032946978 -0.05488215 0.103448406
last 0.1093387 -0.11444843 -0.11964878 0.036595102 -0.1510436 -0.12003893 -0.06904482 -0.110896 0.08208966 0.07187781 0.067245446 0.05254653 0.045534085 0.13886672 0.12076873 -0.0014608529
since -0.09994078 0.025291327 0.09233099 -0.118229255 -0.18231641 0.07747276 0.08710864 0.06732363 -0.074702345 -0.113053076 -0.09495968 -0.09109916 -0.10483298 -0.1002556 0.020801881 -0.0038345484
might 0.03999192 0.020660292 0.0074036173 -0.023307227 -0.050601564 -0.0815039 0.096256986 0.017507024 -0.0014308377 0.06566352 -0.06941065 -0.086686976 -0.060460202 -0.03367116 -0.098487824 0.096299574
performance 0.008067393 -0.024517814 0.029886391 0.033214994 0.03476642 -0.035148054 -0.043115273 0.020793043 -0.03861916 -0.0432021 0.037921265 -0.009679772 0.020013483 -0.03907052 0.008234162 0.022494895
he's 0.036030967 -0.03791247 -0.013241842 0.053719446 0.0999812 -0.056612812 -0.011836653 -0.010618628 0.0856987 0.015949296 0.041811824 0.06631099 0.08766549 0.03598401 0.035737637 -0.054216076
2 0.12332672 -0.028496165 -0.03719983 0.03736343 0.07177735 -0.04312583 -0.066458195 -0.045331296 0.12409609 -0.003070437 0.07929031 0.08294952 0.07677187 0.056456596 0.09504353 -0.005776348
probably 0.056367937 0.0075704977 -0.0009575713 -0.02698573 -0.21036553 -0.16874564 0.065413594 0.016654415 -0.006303534 0.14921121 0.008735405 0.036094856 0.03552122 0.024196817 -0.017308246 0.18719259
kind 0.039939534 -0.044762656 -0.07051077 0.107081585 0.009173245 -0.046684626 -0.040707607 -0.060231786 0.040124007 -0.059069086 0.058761504 0.097262874 0.08382291 0.10201822 0.10564331 -0.07845847
am -0.036204856 0.042425916 0.049233407 -0.029471338 -0.07568755 0.036474522 0.050106898 0.0700428 -0.0869305 -0.06684798 -0.08277146 -0.03076748 -0.020821255 -0.055347554 -0.035086658 -0.029378878
away 0.064631894 0.091167964 -0.026918665 0.02639418 -0.042542297 -0.13119838 0.10316204 0.00041600253 0.045202047 0.088377945 -0.05951756 -0.0065667154 0.0019966012 -0.009402464 0.033965003 0.13903566
yet 0.025293129 0.034461383 -0.038691774 -0.007980749 -0.13205871 -0.11133933 0.006818636 -0.0296788 -0.014926747 0.081220694 -0.013716785 0.017168721 -0.03607731 -0.044810276 -0.036987826 0.10062701
rather -0.14478774 0.13270564 0.16021758 -0.098573595 -0.10484118 0.09629848 0.109390095 0.010239898 -0.06795568 -0.15072328 -0.09109405 -0.080592796 -0.08825685 -0.10607696 -0.1087484 -0.021464286
tv -0.059338853 0.08450925 -0.0055239736 -0.049982376 -0.11340806 0.03783756 0.049259108 0.04231625 -0.020747833 0.0785514 -0.12887412 -0.04754587 -0.050412606 -0.041767225 -0.027695898 0.072182454
worst 0.16186874 -0.10009621 -0.1386329 0.1181141 -0.29742277 -0.17754766 -0.05268762 -0.10662573 0.18074226 0.17786492 0.10480565 0.06630157 0.17462288 0.12516011 0.20152564 0.25288364
girl 0.04241551 0.0040895003 0.00060485245 -0.0229994 0.020122455 0.034766994 -0.021150729 0.02209064 0.00560355 0.018994253 0.07323115 -0.0008435351 -0.0012617451 0.068793386 0.021532651 -0.023459336
day -0.034936324 0.0772883 -0.040211838 0.01555879 -0.0050059906 -0.010586757 -0.024403473 -0.0016948092 0.00918641 0.013772204 0.02563661 -0.04416045 0.0317034 -0.06006449 0.014637756 0.03924095
sure -0.06917986 0.050643425 0.08002644 -0.046152726 -0.11601762 -0.00039228966 0.04429212 0.008309734 -0.026532752 -0.08225276 -0.07460259 -0.0990865 -0.08335636 -0.07260178 -0.05112421 -0.029971715
fun -0.021093495 0.0452613 0.01723349 -0.013532874 -0.2652447 -0.038426124 0.07088397 0.038670547 -0.0055102333 0.045328975 -0.06937312 -0.039639257 0.025670135 -0.047568202 0.042968437 0.018879287
hard 0.049321845 0.02202072 -0.022642914 -0.029312035 -0.166205 -0.061688002 -0.0077363644 -0.010705198 -0.017265543 0.18351912 -0.024778783 0.011001455 0.02660566 0.022615405 -0.030333793 0.07612918
woman -0.054675095 -0.044434614 0.008732744 -0.051694077 0.044196554 -0.006776287 0.037804022 -0.029508777 0.012937296 -0.033850804 -0.064017095 -0.014149914 0.016436458 0.009000684 0.02364629 -0.041385572
played 0.08134744 0.02272386 -0.031093642 -0.007853185 0.0029707737 -0.0732557 -0.01242216 -0.046045784 0.086384095 0.08475174 -0.056373432 -0.010687932 0.03967691 0.051715415 -0.016767409 0.09054028
each -0.1300228 0.08026202 0.1359849 -0.15020873 -0.13723996 0.11387822 0.09615036 0.109862335 -0.052057177 -0.09763607 -0.14954929 -0.09845887 -0.06542966 -0.10474359 -0.011404332 0.024581606
found -0.04088352 0.07937618 -0.014383912 -0.01817003 -0.11785623 -0.0588329 -0.0017741867 0.03240694 -0.06334688 0.056670837 0.0047470992 -0.05006419 -0.056681488 0.013516512 -0.059855156 0.08978138
anyone -0.08558847 0.09101609 0.04104192 -0.061358355 -0.24328691 -0.015196501 0.08659529 -0.062112458 -0.06509687 0.015256115 -0.07557011 -0.13172132 -0.07509107 -0.041881572 0.07880106 0.0827294
having -0.12635769 0.16393223 0.12170433 -0.14849788 -0.11922271 0.14885604 0.116734006 0.11122292 -0.079448245 -0.019209033 -0.07680875 -0.07629012 -0.095880195 -0.13243827 -0.12992105 0.09892937
although 0.058769964 -0.016390275 0.0061094714 0.026805466 0.06489899 0.032362428 -0.032888256 -0.04828236 0.0393261 -0.019385986 0.05258726 0.016385576 0.009815894 -0.0049234377 0.03010801 -0.09207632
especially -0.031948913 0.092587404 0.081191346 -0.04617167 -0.09701786 0.074899435 0.041290946 0.07366073 -0.10852264 0.009948055 -0.09627623 -0.09039632 -0.06907614 -0.04158712 -0.067098215 0.025681313
our -0.056776535 0.063888125 0.07275323 -0.11849378 -0.048611023 0.11493818 0.04200523 0.02672948 -0.118081674 -0.056995273 -0.059631553 -0.1011483 -0.14307775 -0.0896625 -0.04693185 -0.06802848
believe -0.01954665 0.04211032 0.029116312 -0.01221509 -0.17401358 -0.058615666 -0.01970461 -0.012667884 -0.016747069 0.12757827 0.0069999583 -0.046884418 0.020057438 0.0044158767 0.001619428 0.08749006
course 0.019429347 0.012087121 0.04188822 -0.019059917 0.077511676 -0.015055499 0.013088209 -0.043487687 -0.0006910356 -0.023300016 0.03447766 0.016926315 0.032427974 -0.008132481 0.0030272575 -0.051503133
comes 0.055052962 0.06429836 0.043076742 -0.025020882 -0.051640395 -0.032585472 -0.020155916 0.052407496 0.012432879 0.11047675 -0.015803428 -0.031748492 0.049615808 -0.013927204 -0.0072962334 0.059279196
looking -0.00727002 -0.019973742 0.016143037 0.027712205 -0.045296036 -0.06290153 0.02682967 -0.008393304 0.008500854 0.13160281 0.016108306 -0.011109658 0.028752165 -0.0076159397 0.032229017 0.09905295
screen 0.017314184 -0.0010189697 0.032372583 -0.035317082 -0.072759636 -0.02787959 0.017253453 0.01947403 -0.051846504 -0.0145835765 -0.05823574 -0.050415643 0.013139754 -0.037388947 0.026157394 0.0004653051
trying -0.059209812 0.073661886 -0.018859992 -0.0324965 -0.06481389 0.045193113 0.07038815 0.033186197 -0.059065193 0.029811684 -0.06409281 -0.056987993 -0.04171517 -0.05260661 -0.012294705 0.050918374
set -0.091660194 -0.0021997448 0.019978823 -0.076744884 -0.12618631 0.047112256 0.020416563 -0.0111170495 -0.06679931 -0.09526838 0.027618865 0.02465587 -0.015787272 -0.027012832 0.091782644 -0.056437578
goes -0.10049423 0.07235603 0.10895793 -0.041737724 -0.041359268 0.051505387 0.080938905 0.08981858 -0.044530254 0.029272534 -0.11904358 -0.02737669 -0.09411913 -0.036854222 -0.048771944 0.064647056
looks 0.053114157 0.010932016 -0.038896237 -0.012494235 0.031693593 0.03537638 -0.0010866948 -0.012893293 -0.004840877 0.031142157 -0.009488509 0.04383874 0.036572326 0.0650789 0.03448757 0.0034694546
place -0.18278266 0.14515579 0.16687195 -0.1817449 -0.084622525 0.1878257 0.116168804 0.053709645 -0.10750693 -0.124083616 -0.105191596 -0.15365502 -0.10902288 -0.17551564 -0.07011803 -0.0098284995
book -0.04353252 0.085346915 0.057286482 -0.047942165 -0.14073658 -0.012717682 0.07860859 0.08580371 -0.05212075 0.089660466 -0.044306684 -0.06209792 -0.06480027 -0.038300786 -0.04621374 0.10326932
different -0.00466572 0.1437865 -0.0032192143 -0.07581327 -0.0690065 -0.0143628605 0.13139567 0.050225794 0.0014713347 0.058389015 -0.048610248 -0.04367137 -0.035101783 -0.030726843 -0.08334838 0.1415481
put -0.066007584 0.12199417 0.09104922 -0.13722534 -0.08304425 0.14592591 0.09989632 0.10561631 -0.10863285 -0.0886609 -0.09090252 -0.07897815 -0.08361638 -0.09731103 -0.15031187 0.0313577
ending -0.012058532 -0.016511686 0.010976764 -0.045700174 -0.13952954 -0.020518452 0.05553727 0.026422879 -0.005628427 -0.05536251 -0.0689917 -0.053131968 -0.051336296 -0.025645444 0.07305646 0.0007532809
money 0.04613455 -0.015562827 -0.055891365 0.0047767693 -0.16481517 -0.1851416 0.016757332 0.026054054 0.08308867 0.13639405 0.05452141 0.038961355 0.09170798 0.093563445 0.008870549 0.1662625
maybe -0.05183731 -0.015355588 0.01269441 -0.056528766 -0.029038321 0.06757638 0.061743174 0.036427394 -0.05020132 -0.013339582 -0.011357434 -0.03128692 -0.019305553 0.018190268 0.020393178 -0.00029498877
once -0.15911846 0.12384859 0.108535506 -0.11299483 -0.027410023 0.098721035 0.11401018 0.08795649 -0.12899995 -0.07934228 -0.17060865 -0.11129901 -0.13078716 -0.15259987 -0.05328835 -0.062527604
sense 0.0030181347 0.09226669 -0.0028806413 -0.016225055 -0.14173555 -0.08448161 0.048740994 0.009725905 -0.026549205 0.09736644 -0.064486444 0.004582566 0.047819447 0.0152537655 -0.038104083 0.13998556
reason 0.09893628 -0.07068125 -0.114695325 0.095051214 -0.04971416 -0.1612755 0.0047068503 -0.08961763 0.08607693 0.08128097 0.026043188 0.0904096 0.061357718 0.13472141 0.06333413 0.13199072
true 0.03303378 0.058363065 -0.021040756 -0.08628816 -0.09898956 -0.041129075 0.060773015 0.012690617 0.037420798 0.09083747 -0.033663657 -0.079255976 -0.015685514 -0.010913437 -0.048851322 0.080288924
actor -0.055284448 0.018819842 -0.00078245107 -0.08107592 0.028118854 0.0056032906 -0.014341448 0.031950496 -0.04955984 -0.010484156 -0.08771057 -0.0138724735 -0.06796421 -0.059389144 -0.0039103217 -0.012075793
everything -0.070285164 0.024851535 0.009254105 -0.045451168 -0.02210963 0.009541431 0.028293872 0.014216533 -0.08583344 -0.047614276 -0.02744405 -0.048895128 -0.086897455 -0.022094792 -0.05982767 0.009152704
wasn't 0.061636776 -0.0030161543 -0.050467815 0.06900102 -0.15835503 -0.17811076 -0.042825513 -0.11836443 0.07823135 0.109758966 0.056484833 0.037769124 0.07341416 0.11893807 0.11701284 0.08029361
shows 0.033832602 0.045115486 -0.04887351 -0.029834852 -0.11193743 -0.020539308 0.021112403 -0.013164305 0.01726644 -0.015173218 -0.024108905 -0.049641903 -0.036051914 0.059267335 0.06850549 -0.01698164
dvd -0.08514855 0.10516783 0.04611754 -0.07262568 -0.18168694 0.018347202 0.151231 0.011070203 -0.058974355 -0.027283547 -0.15905176 -0.12770236 -0.104362115 -0.041281674 0.041954525 -0.009131021
three -0.015522352 0.006068472 0.022627763 0.009652987 -0.08174734 -0.033222295 0.054234784 0.056143176 -0.04375947 -0.04175665 -0.0056811217 -0.051048525 -0.007911809 -0.007658614 0.048735984 -0.0064246226
worth -0.09717221 0.09029236 0.03983511 -0.09108012 -0.0657319 -0.0051658056 0.08143501 -0.036392074 -0.019986792 -0.008282886 -0.076659836 -0.08001 -0.100733034 -0.09377927 0.037194833 -0.016788848
year -0.08454747 0.055831756 0.048660066 -0.050824437 -0.14280622 0.069641955 0.07454873 0.066854335 -0.030569049 -0.01969671 -0.06431719 -0.015449697 -0.080045685 -0.04625428 0.035819244 0.020227946
job 0.063136555 0.052138973 -0.047896538 0.03892895 -0.061691124 -0.0327397 -0.017134955 -0.031007186 0.009252535 0.0459904 -0.036112797 0.026505135 0.0015956971 -0.026666887 0.017647894 0.09562425
main 0.015017733 0.036412735 0.022773568 0.01302664 0.05044583 0.040251806 0.029102713 0.020862577 -0.081667766 -0.02013605 0.027537312 -0.041935567 -0.06214935 -0.038113654 0.044359468 -0.085569784
someone 0.10112073 -0.054845937 -0.12066783 0.12868054 -0.03276526 -0.1436777 -0.13422215 -0.05537201 0.09190711 0.12269222 0.12971444 0.13650604 0.10015939 0.15207899 0.10621243 0.0756886
together -0.062314276 0.058617145 -0.018170696 -0.064892024 -0.113667265 0.009924345 0.08327399 0.036402225 0.007196508 0.13993011 -0.03087461 -0.02668869 -0.06471617 -0.02699729 -0.022587202 0.12524758
watched 0.010387841 0.1581445 -0.005171354 -0.0645522 -0.11706135 -0.029595625 0.111458205 0.10085313 -0.05173265 0.105647355 -0.11896114 -0.15364079 -0.07717435 -0.06995654 -0.06519425 0.09181977
play -0.031398922 -0.005411159 0.051714018 -0.08298052 -0.0910761 0.024041396 0.024998585 0.02665897 -0.007404363 0.05222315 -0.05684802 -0.035591055 -0.004027218 -0.025028652 0.0017369579 -0.0075465287
american -0.1716378 0.13801837 0.114877954 -0.15667444 -0.06953818 0.17215563 0.11644924 0.07934103 -0.14369339 -0.1013788 -0.17172478 -0.16483183 -0.17211047 -0.17613491 -0.12064778 0.04672179
plays 0.07746957 -0.008412469 -0.028714772 0.0032605024 0.035282053 -0.01814485 -0.026468469 0.022036279 0.06777432 0.019665176 0.04871661 0.08105629 0.04031613 0.048398443 0.029121695 0.023552662
1 0.042664398 -0.040298373 -0.09069943 0.08355592 -0.00039569454 -0.05443484 -0.013552875 -0.11471694 0.09201003 0.030597588 0.020246847 0.064271174 0.015400219 0.12729692 0.018755328 0.0134397475
said -0.021510856 0.08799699 0.028420804 0.0117292525 -0.072265476 0.03191655 0.0006836222 0.010195868 -0.034450307 0.042682227 -0.07232505 -0.03482224 0.012982465 -0.009250393 -0.009584847 0.04662715
effects -0.018262364 0.07283454 0.048957504 -0.049056027 -0.0051880414 0.0765893 0.03989089 0.07467723 -0.0713357 -0.07141455 0.0074710827 -0.010417731 -0.0698511 0.0011762837 -0.0018600042 0.050051022
later -0.08122901 0.20859386 0.042655617 -0.105821334 -0.107619576 -0.06436728 0.19499697 0.018009514 -0.035250776 0.059362296 -0.1753049 -0.08467489 -0.039827194 -0.14183505 -0.051632285 0.093528524
takes -0.012865545 0.02712802 -0.0014540565 0.040409375 -0.04780031 -0.010372388 0.047365263 -0.010826926 0.010225465 0.043915335 -0.060414273 -0.03257498 0.009225929 -0.05313726 -0.029778443 0.1203987
instead 0.06475657 0.02738054 -0.08104716 0.04716771 -0.18562098 -0.14801075 -0.029763497 0.014498096 0.06559354 0.17500456 -0.0140734585 0.03256664 0.05066906 0.082703084 0.080828115 0.10381437
seem 0.020113131 0.007266705 0.03889044 -0.03843151 0.003909953 -0.047211558 -0.0009215701 0.037691504 0.031390067 0.033647016 -0.06723627 -0.034735333 0.008502337 -0.02683232 -0.0047310814 0.038994618
beautiful -0.20862603 0.15414782 0.14150286 -0.19346786 -0.15897 0.118614316 0.17189427 0.17610128 -0.17533854 -0.0041161217 -0.19056642 -0.17971742 -0.23380834 -0.23338945 -0.15255997 0.0993815
john -0.010213834 0.046156038 0.07484195 -0.0020828848 -0.09736067 0.00933508 0.006115397 -0.0010726041 -0.050098296 -0.02177886 -0.02664122 -0.03426401 0.0095972335 -0.09274414 -0.04627753 0.0469351
himself -0.068043254 -0.021534462 0.06707922 -0.025702195 -0.08391511 0.009108112 0.018694237 -0.0051844823 -0.013909543 -0.042248372 -0.05684748 -0.015213401 -0.018208593 -0.04501771 0.0147537505 -0.0068452847
version -0.08855528 0.033565614 0.044408467 -0.066779144 -0.11557729 0.062839344 0.097337335 -0.0013629477 -0.07843534 -0.021094792 -0.07536216 -0.058245562 -0.03585252 -0.07707771 -0.03401764 -0.0039888457
audience 0.008742757 -0.013831759 -0.010870341 0.03927139 -0.008131668 0.019105913 -0.07967168 -0.091036424 0.025794445 -0.043071907 0.010408839 0.0797116 -0.0031116998 0.05057098 0.023471996 -0.034897182
high 0.062443245 0.065131515 -0.017021125 -0.011001072 -0.096520945 -0.03193183 -8.224418e-05 0.040176056 -0.04298132 0.08273242 -0.058535416 -0.0701883 0.0022180043 0.036463387 0.004405358 0.12202445
house -0.053327113 0.076320715 0.08515754 -0.03687023 -0.10491791 0.06835845 0.014093763 -0.010757617 -0.08139333 -0.12417315 -0.108837776 -0.01793284 -0.074091196 -0.056783054 -0.0071176207 -0.0194909
night 0.039400484 0.012447743 -0.058359712 -0.0060820975 -0.040731646 -0.034064043 -0.065150365 -0.039803065 0.019755375 0.021047061 0.009986583 0.0006418373 0.037107483 0.05374158 0.08035777 -0.07319761
during -0.065020956 0.09175789 0.015444428 -0.0881205 -0.095419265 -0.011183945 0.06344568 -0.0055124075 -0.050311007 -0.030400055 -0.030380595 -0.064574055 0.0012478109 -0.06543939 -0.05183156 -0.016620576
everyone -0.02873201 0.03332526 0.007310307 -0.05415512 -0.1802635 -0.027751857 0.0026764458 0.026194904 0.017960476 0.028923849 -0.043437544 -0.040285535 0.019776605 -0.059141323 0.009402203 0.11767948
left 0.098995045 -0.05850981 -0.0875139 0.029468382 -0.07501987 -0.077349596 -0.067156896 -0.087255895 0.057632435 0.06488022 0.08091354 0.08917421 0.13076937 0.08083802 0.06590562 0.06811036
special -0.08215138 0.06594778 0.020905463 -0.013409474 -0.045411523 0.02554658 0.06707871 0.04489036 -0.06224064 -0.040530715 -0.037671577 -0.10995019 -0.0281622 -0.07260555 -0.10635076 0.068820626
seeing 0.029493695 0.025805918 0.033595886 -0.0055516064 -0.12609461 -0.05432969 0.04250173 -0.045007907 0.013081323 0.022197006 -0.02679045 -0.007661096 0.0009720718 0.03388706 0.00015541096 0.052263767
half 0.067041844 -0.01942321 -0.02667608 0.007660415 -0.11563351 -0.14053123 0.009537011 -0.075751625 0.021097666 0.09915389 0.008051676 -0.021641856 0.03503443 0.086961396 0.029964969 0.095472656
excellent -0.17333236 0.15297115 0.19960536 -0.12870404 -0.029188478 0.1952091 0.13110992 0.067564026 -0.19281033 -0.12607805 -0.16827777 -0.1678349 -0.19135424 -0.17778008 -0.110087015 -0.03363276
wife 0.028162146 -0.013802032 0.026491942 -0.027262801 0.026246494 0.012486762 0.006648168 0.0017717895 0.023854854 0.005987171 0.037923645 -0.017334195 0.018568672 0.002635882 0.0253018 0.008383224
star -0.022419292 0.095423244 0.08748122 -0.015979778 -0.01812685 0.050719447 0.029958794 0.059331466 -0.07616141 -0.044195693 -0.08393366 -0.041952644 -0.08345834 -0.10524947 -0.044004485 -0.042915408
shot -0.047419265 0.048569165 0.07610207 -0.028709803 -0.120908834 0.03409785 0.055947885 -0.009229816 -0.017674573 -0.06478094 -0.030719535 0.024342889 -0.065966226 -0.024731731 0.060801305 -0.0007148149
war -0.08989366 0.086289965 0.043518264 -0.122524485 -0.18751732 0.08180326 0.06789924 0.087328 -0.039606296 -0.06364642 -0.092886604 -0.11421349 -0.040187307 -0.019765478 0.011272849 -0.023404073
idea -0.053052567 0.06481821 0.0748162 -0.028822212 -0.051312726 0.03545051 -0.003081055 0.018317603 -0.072569676 -0.047052022 -0.0022815622 -0.04390713 -0.06435005 -0.09360313 -0.069403246 -0.024698257
nice -0.16980314 0.10886837 0.109718606 -0.17060734 -0.068008296 0.113793425 0.07932758 0.10757942 -0.12879735 -0.085208654 -0.14898348 -0.12959482 -0.17779468 -0.11594818 -0.048986774 -0.0140062515
black 0.07030011 -0.024170617 -0.06633214 0.073194616 0.008464535 -0.08199503 -0.06283198 -0.016718555 0.06725479 0.011884202 0.045029636 -0.0015722895 0.028023142 -0.00432441 0.026922947 0.07410313
less 0.024134202 0.014925161 0.0006535294 0.039947044 0.008530673 0.02576477 -0.059373703 -0.056693748 0.041067477 -0.043091785 -0.03750839 0.04397069 -0.024045698 -0.026347032 0.07590184 -0.080212004
mind -0.030865658 0.057648513 0.050816204 -0.03942527 -0.058802176 0.09139605 0.09224905 0.07862643 -0.049831428 -0.04355027 -0.055346478 -0.05486335 -0.06531563 -0.101350665 0.01249055 -0.005776291
simply -0.033059005 -0.012352703 0.03818148 0.0060278806 -0.116686754 -0.08353997 0.037087902 -0.027033651 0.0028670626 0.080096886 -0.00992279 -0.040404264 0.0029086163 0.029256266 0.06914322 -0.003306652
read 0.0150516555 0.06692702 -0.0743149 0.028127113 -0.005822065 -0.08808838 -0.002090032 -0.06663067 0.06349095 0.037179988 0.049082406 -0.034341205 0.0668683 0.070864424 0.015109457 0.12948465
second -0.007405599 -0.043852244 0.022339396 -0.006209675 0.058221713 0.044327356 0.009082512 -0.04926295 0.0003656309 -0.03965136 -0.071844906 -0.03858148 -0.04227748 -0.06474122 0.037669353 -0.07405374
else -0.018950934 0.033709913 -0.062833026 -0.0017912362 -0.090555705 -0.05552661 0.023254436 -0.06258926 0.020901687 0.0036663902 -0.002615213 -0.026320372 0.020530349 0.01719974 0.076674 0.0040299394
you're 0.050830346 0.0024463558 -0.0589378 -0.023609012 -0.19050379 -0.045964044 0.006806956 -0.043411914 0.013474326 0.09931476 -0.04542692 0.042802263 -0.0155345965 0.030968351 0.06954288 0.080322586
father -0.13208818 0.061765295 0.07204069 -0.058293857 -0.07474062 0.057717364 0.12151775 0.11170463 -0.04146253 0.070647895 -0.13375394 -0.13028628 -0.048691034 -0.112007774 -0.1251417 0.10443937
fan 0.024068959 0.0033009807 -0.025053304 -0.042898867 -0.15910879 -0.0036915336 0.03326588 -0.013389312 0.054977536 0.011295806 -0.011131551 -0.010368455 0.045964345 -0.016552063 0.05824391 0.0068005216
poor 0.004888647 -0.050111838 -0.05662361 -0.0003241253 0.04635519 0.008889078 -0.03252266 -0.011247966 0.015125913 -0.02644929 0.0078484295 0.009436209 -0.018232493 -0.002883537 0.037156023 -0.016400883
help 0.018790582 0.018261604 0.010477573 0.043037537 -0.019155543 -0.0034495185 -0.015466305 0.010424632 -0.0020722565 0.018484017 -0.004535253 0.05466542 0.0040009846 -0.006427211 0.03184011 -0.04432458
completely 0.11981835 -0.043639135 -0.06763174 0.08839076 0.06016969 -0.0067444425 -0.076123215 -0.028286308 0.12202818 0.058516704 0.09017116 0.058892854 0.10713885 0.060219944 0.07551995 0.012291523
death -0.021845168 0.034242425 0.010994755 -0.05264237 -0.009186732 0.0415654 0.02203493 0.025986202 0.01944952 0.042151302 -0.029069599 -0.09836935 -0.0052628675 -0.010611908 -0.0650131 0.0668033
3 0.21379907 0.04182874 -0.15001184 0.14748172 -0.25572255 -0.25580505 -0.04398601 -0.1336061 0.19208781 0.24346983 0.07589933 0.07395687 0.19970945 0.13850285 0.063732415 0.20783153
used 0.06977238 -0.0087206345 -0.035445683 0.11321955 -0.047548566 -0.010471532 -0.03169604 -0.08975912 0.115851514 0.020787852 0.039236873 0.10382138 0.101735 0.09241339 0.10073756 -0.03298048
home -0.044268165 0.007670792 0.09142505 -0.07368696 -0.1689174 0.031331453 0.10991072 0.047366973 -0.04887855 -0.10404392 -0.1171012 -0.023225764 -0.07141018 -0.111921765 -0.0041433554 -0.09532862
either 0.054332964 -0.09753906 -0.053958092 0.04135082 -0.00081865443 -0.080900446 -0.047423247 -0.03531186 0.066553004 -0.02040272 0.089471854 0.0867277 0.078486994 0.06573599 0.09068152 -0.017076934
short -0.0010003117 -0.0053120037 0.03770194 0.021910032 -0.039376765 0.0028447644 -0.008355608 -0.0459187 -0.040182754 -0.06320251 -0.03257466 0.017787676 0.029245911 -0.048931826 0.055489834 -0.031187953
line 0.020392023 0.030871196 0.006047788 0.040252957 -0.14320904 -0.08112397 -0.022823522 0.031417124 0.029897053 0.048442286 -0.0042526075 -0.0032169996 0.052572433 0.047868147 0.015734538 0.025481358
given -0.13034059 0.08595603 0.13302757 -0.0629405 -0.09000291 0.070876464 0.14026555 0.08563446 -0.09771853 0.024292285 -0.08722499 -0.10350513 -0.11231375 -0.14398238 -0.08446778 0.020530967
men -0.0008948537 -0.033970963 -0.010360353 -0.01789062 -0.114370175 -0.098152444 -0.04145502 0.043752845 -0.007969005 0.0853105 -0.027531039 -0.047056127 0.034119442 -1.3266952e-05 0.04327988 0.057739694
top -0.13414341 0.16374694 0.12545492 -0.12512514 -0.09676804 0.092861995 0.17080285 0.065045886 -0.19092187 -0.10572688 -0.1579463 -0.09486309 -0.12418675 -0.16135252 -0.087911025 -0.028001763
dead 0.112915106 0.034346934 -0.09565895 0.04076097 -0.09175327 -0.106226705 -0.0023425047 -0.084110335 0.07935636 0.14558138 -0.024553848 -0.009816128 0.10494462 0.03055042 0.036679853 0.07658578
budget 0.061096936 -0.061062433 -0.13570625 0.12565026 -0.030794218 -0.08017816 -0.039618514 -0.06774907 0.08725825 0.08828591 0.0556187 0.11876857 0.13329342 0.1205506 0.075617746 -0.011600115
try 0.03536687 0.039715346 -0.043510918 -0.031064164 0.07068067 -0.00018591754 0.003918421 -0.0040758923 -0.04783936 -0.08660887 0.050535593 0.0058106724 0.0463206 0.002888971 0.0077704214 -0.042871665
performances -0.13418885 0.13181284 0.092452124 -0.07370003 -0.14763622 0.032661244 0.09739184 0.08605131 -0.061756894 0.039722938 -0.09869613 -0.079971895 -0.0869008 -0.059380516 -0.107301675 0.12600544
wrong 0.00023020676 -0.002493899 0.06065731 -0.0072583733 -0.10863966 4.3964246e-07 -0.0032256464 0.014331802 0.005243448 0.06465684 -0.059812278 -0.044743393 0.024741666 -0.055917192 -0.045049336 0.067242354
classic -0.006138743 -0.012403723 0.086043745 -0.07961663 -0.2232979 0.031004317 0.112172514 0.0044435947 -0.06465555 -0.020494496 -0.027199162 -0.015585566 -0.037390303 -0.017983068 0.07505348 0.010723123
boring 0.08699401 -0.0156120155 -0.07339331 0.027096868 -0.08119937 -0.055508543 0.06353265 -0.102486156 0.05787139 0.0331053 0.05265097 -0.034372404 0.0332451 0.06595588 0.11183314 0.03693027
enjoy -0.058755826 0.10844001 -0.024326656 -0.046369944 -0.16596402 0.0115526635 0.02179061 -0.0676467 -0.05014242 0.037112165 -0.106457286 -0.09498162 0.017383065 -0.04312476 0.0575719 0.07914297
need 0.041064277 -0.03077597 -0.06079872 -0.023050342 -0.018843155 0.047456276 -0.03739888 -0.029039497 -0.025579477 0.0051709823 -0.013322771 0.04499591 0.012328784 -0.024305733 0.06557601 -0.032818116
rest 0.053031884 -0.09609458 -0.0644505 0.045824517 -0.004081344 -0.1392508 -0.08952187 -0.07827296 0.047982763 0.09153833 0.020002514 0.05734454 0.11868492 0.026836822 0.073009074 0.086647406
use -0.035765193 0.07366805 0.0070282444 -0.026257329 -0.05875628 0.03685489 0.08065638 -0.03439577 -0.07482032 -0.07380268 -0.0054400438 -0.06463918 -0.060556654 -0.025178922 0.026883053 0.013292785
kids -0.044851236 0.035785228 -0.010119765 -0.0046874112 -0.003483519 0.024256669 -0.056913275 -0.03974835 -0.03599044 -0.11654605 -0.041412473 0.022948857 -0.06056733 -0.010748652 0.028491832 -0.084080644
hollywood -0.04744903 0.028041154 -0.016743843 -0.06521009 -0.108942464 0.00024561692 0.008882902 0.06504017 -0.050031707 0.038703784 -0.0512783 -0.018902544 -0.036705863 -0.057287786 -0.007521635 0.03822344
low -0.04928965 -0.052618027 -0.0065828534 0.03175414 0.06806815 0.10126868 -0.116252586 -0.014935194 -0.06012231 -0.1667674 0.10787734 0.06838552 -0.004638272 -0.015236579 -0.020820612 -0.10728138
production -0.054180454 0.04692505 0.043312732 -0.10567173 -0.052158915 0.10972715 0.022237506 0.08787727 -0.04652827 -0.0007128621 -0.074259005 -0.036451172 -0.012443352 -0.043689474 -0.012936574 0.056938086
until -0.03378044 -0.057742342 -0.019570244 0.047225457 0.07085729 0.01858353 -0.040046316 -0.099339 -0.007216881 -0.019116512 0.0709829 0.06208335 0.05142054 0.067480214 0.051758043 -0.039319605
along -0.084201686 0.15488784 0.06953485 -0.12017828 -0.076390654 0.031565398 0.13590498 0.06245891 -0.14565723 -0.0020244461 -0.13371561 -0.12514192 -0.104001686 -0.13540463 -0.07057227 0.0646589
full -0.03155551 -0.04975667 -0.012881342 0.011202379 -0.05709845 0.029917866 -0.031519894 -0.059362087 -0.003041986 -0.12066623 0.051387463 0.012888487 0.011483683 0.05535517 0.09583487 -0.033864193
friends 0.055518042 0.03788382 -0.041320946 0.0012706791 -0.034494795 -0.09274479 0.03396577 -0.04075312 0.05008342 0.044691052 0.020097384 0.030614298 0.09392896 0.07869674 0.046917636 0.08434523
camera -0.018915283 -0.041348647 -0.032595795 -0.015948411 0.055973265 -0.04319426 -0.0682477 0.010788855 0.03979987 -0.05398661 0.050220665 -0.0055881506 0.0532756 -0.032488883 0.027463563 -0.045623526
truly 0.07774093 0.071286954 -0.07152513 -0.01250969 -0.11416454 -0.09291964 0.054248888 -0.036459133 0.096845895 0.10723616 -0.047058225 0.0023095137 0.07139567 0.06846678 -0.03581488 0.1680588
women 0.10205195 0.003805919 -0.14206447 0.11167322 -0.08796389 -0.122152045 0.0014509824 -0.13689198 0.08563266 0.11678333 -0.03144049 0.019391023 0.1515434 0.09090641 0.09509653 0.16835982
awful 0.15142109 -0.08575187 -0.10177877 0.04831292 -0.028561832 -0.12308204 -0.07009178 -0.119592845 0.1215515 0.10430149 0.11534479 0.08030013 0.067060836 0.107415535 0.11877937 0.01433633
video -0.046461683 -0.06423109 -0.017422395 -0.057833485 -0.09981277 -0.02080493 -0.046659973 -0.0526006 -0.02678567 -0.078296 -0.013826724 0.0018434864 0.034745444 -0.019974578 0.066120066 -0.017900493
next 0.036466002 -0.034224447 0.01893313 -0.02514583 -0.016363904 0.023708943 0.018392554 0.04556682 -0.010206263 -0.035124023 0.01528896 0.0076188683 0.0072407564 -0.06048654 0.022397483 0.02717499
tell 0.024731133 -0.05099662 -0.018607516 0.07924002 -0.020824306 -0.08990916 -0.027193056 -0.044359103 0.03314464 0.102742694 0.011775301 0.06763154 0.05598617 0.09661716 0.02491707 0.1077439
remember -0.024708733 0.031760134 -0.021100262 -0.04290215 -0.018025748 0.03820654 0.004260024 -0.01998362 0.04745196 -0.04787443 0.03214137 -0.005805277 0.033765044 -0.023428516 -0.021432571 -0.056382097
couple -0.113086574 0.100681156 0.08453912 -0.06926703 -0.058916137 0.16768919 0.019138651 0.032244094 -0.10227982 -0.16207449 -0.055465788 -0.09280265 -0.067450576 -0.119942285 -0.055804417 -0.033390068
stupid 0.06966944 0.014516887 -0.08265608 0.03860558 -0.11271191 -0.08037198 -0.012135185 0.006333086 0.03778835 0.05521178 0.021995598 0.073148824 0.06623131 0.09754576 0.097063094 0.047215227
start 0.005724729 0.0036971876 -0.004381888 -0.0152805345 -0.041121725 -0.061378773 0.040640436 0.0017336584 -0.00369699 0.10771886 0.043749187 0.0005988334 0.02314459 -0.014763723 0.030964334 0.13350564
stars 0.08800149 0.11148379 -0.04514028 0.00903726 -0.20652361 -0.15884368 0.0686958 -0.08653772 0.105577275 0.08798772 -0.08171201 -0.0050452985 0.097205825 0.11148959 0.106960505 0.1592081
perhaps -0.041836474 0.056569256 0.062270846 -0.034030423 -0.11139841 -0.070796445 0.054167967 0.019980267 0.007370787 0.08342206 -0.047251172 -0.0076854387 -0.03728375 -0.047764163 -0.02484056 0.07078717
sex -0.032902785 -0.02125693 0.084156156 -0.0931889 -0.008895819 0.09141619 0.057328764 0.052363798 -0.04750852 -0.010106675 -0.0792233 -0.039530385 -0.026416324 -0.0017179014 0.048485998 -0.006794963
mean 0.122919224 -0.0362912 -0.07691177 0.07983434 -0.08268055 -0.13259234 -0.06143219 -0.06996274 0.09055462 0.049868315 0.018684873 0.08686261 0.061973955 0.14951082 0.094199374 0.04756504
came 0.02587827 -0.010158525 0.029967174 -0.042225372 -0.013893132 -0.00020379393 -0.038921863 -0.00035902567 -0.03597274 0.028236942 0.04019015 0.051195446 -0.0025508115 0.0057005356 0.0030127766 -0.06784279
recommend 0.010918183 0.13628648 0.048461556 -0.093448065 -0.24572928 -0.09223852 0.16322465 0.019514842 0.00481606 0.0794489 -0.1344418 -0.113158174 0.011005452 -0.069336146 0.057330295 0.09686732
let 0.008496157 -0.059297018 -0.015472486 -0.031602494 -0.053298444 -0.031546414 -0.038121667 -0.0137045095 0.014141707 -0.023021117 0.062009778 0.037397735 0.0497391 -0.010544316 0.081508994 0.0148417605
moments -0.011898043 -0.01751895 -0.014424126 -0.017190855 -0.1383667 -0.06283147 -0.0346223 -0.059659213 0.072763845 0.04378532 0.043603275 0.0007994659 0.0039359243 0.032604635 0.07096243 -0.017260658
wonderful -0.103312865 0.13271365 0.14495078 -0.090315744 -0.1258969 0.08513953 0.07740635 0.09662767 -0.061622497 -0.08849688 -0.13289022 -0.13058013 -0.06782774 -0.15430374 -0.04620412 -0.03967625
episode 0.038315997 -0.01627563 -0.025967479 0.03714022 -0.025528945 -0.11469277 0.044925194 -0.015830765 0.04141458 0.062306765 0.00308512 -0.04152507 0.01772019 0.022345008 0.008280845 0.13565171
understand -0.034971777 0.010320521 -0.0071160286 0.032470282 -0.027597746 0.059194814 -0.03250776 0.027757997 -0.04182484 -0.0670982 0.024628693 0.056961607 0.009785108 0.053942375 0.028445808 -0.04896093
small 0.048923712 -0.06116131 -0.008020358 0.05063766 -0.055880524 -0.02736006 -0.0354371 -0.036156837 0.039298274 0.10257978 0.08017975 0.008208223 0.0827172 -0.0018722124 0.041977633 0.0042845984
face -0.03471271 0.043998238 0.06918536 -0.037589975 -0.076289326 0.054839313 0.05717572 -0.010240441 -0.06537316 -0.050350923 -0.061234247 -0.0044225487 0.0061213495 0.005449236 0.016061308 -0.042647325
terrible 0.04167383 0.045399897 -0.032164425 -0.0009972606 -0.10704584 -0.1929904 0.062610045 -0.06831144 0.009874693 0.08453777 0.018572597 -0.005450149 0.1305171 0.05664828 0.14143437 0.09019725
playing -0.050795138 0.012931951 0.047982194 -0.028538913 -0.0049548433 -0.03760526 0.03177917 0.0007930921 -0.08219485 0.051843654 -0.07132837 -0.026650991 -0.049938265 -0.08521216 -0.033252947 0.09014389
school 0.08489321 -0.041532315 -0.06983621 0.03669528 -0.08530144 -0.14533946 0.045113344 -0.030799696 0.095044196 0.124218784 0.013981998 0.03763856 0.0874751 0.09613084 0.0115325935 0.12991174
getting -0.008761822 0.0053436095 0.0123287635 0.012284299 0.05759095 -0.041782048 0.02904207 -0.0019438475 0.0523602 -0.058457233 0.015794624 0.0049961032 0.027539784 -0.009720852 0.010617588 -0.053011928
written 0.13069883 -0.08649078 -0.09368821 0.046426766 0.0063206214 -0.10183675 -0.09656081 -0.10103835 0.06883627 0.03722821 0.13100433 0.088635035 0.12418177 0.07841096 0.14678067 -0.044526115
doing 0.03083133 0.05847532 0.026416661 0.014687913 -0.10764944 -0.039671242 0.036671493 -0.018624958 0.05001345 0.084316455 -0.08226294 -0.07787071 -0.010615347 -0.058671363 -0.051834047 0.039189048
often -0.06967149 0.04569138 0.047632612 -0.11935669 -0.04423019 0.060106605 0.048226252 0.027135823 -0.13899489 -0.02010333 -0.118608125 -0.04139693 -0.11972417 -0.08077323 -0.07717445 -0.038900528
keep -0.049056984 0.07770967 0.046728082 -0.054373104 -0.09554323 -0.0063746977 0.06943491 -0.0082627125 -0.048484206 0.102753356 -0.08204011 -0.061429355 -0.055631965 0.029683154 0.014882453 0.064029366
early -0.060198132 0.0128700305 0.061065916 0.016613208 0.024468826 0.021641916 -8.790348e-05 -0.01260589 -0.029698221 0.05118707 -0.08592537 -0.0118203 -0.026060844 -0.014780493 -0.06386372 -0.022372823
name 3.4327677e-06 -0.089885324 -0.0022996254 0.0881622 -0.016217332 -0.09714665 -0.053563073 -0.06690423 0.05742659 0.05363119 0.03364774 0.03492217 0.043400794 0.08432371 0.08901104 -0.003989259
perfect 2.3651563e-05 0.005065254 0.049698565 -0.08524887 -0.007967911 -0.030816955 0.038794696 0.05086851 -0.043822758 -0.039878096 -0.0018180348 -0.037479237 -0.07893768 -0.039522067 -0.022512076 0.001457844
style -0.08715149 0.049295437 0.09872841 -0.09580042 -0.09021616 0.015286041 0.021278258 0.06353312 -0.05719338 -0.04302344 -0.09612136 -0.045285314 -0.08899355 -0.084556475 0.060353145 -0.05719831
human -0.10409381 0.08869515 0.023933373 -0.11204008 -0.075867645 0.051675037 0.11589845 0.07679415 -0.043816708 -0.058845486 -0.036000848 -0.057671532 -0.12339392 -0.10070112 -0.00036324066 -0.026762273
definitely -0.10554499 0.14818038 0.09764289 -0.112008154 -0.16053979 -0.0059046084 0.114981726 0.086236365 -0.14763747 -0.00744999 -0.120212235 -0.120781936 -0.14043745 -0.106396265 -0.06740051 0.06579614
gives -0.04523148 0.016748486 0.07564806 -0.06649388 0.0268694 0.027511135 0.063660644 0.0022596756 0.0002839919 -0.09076435 0.00912881 -0.005191546 -0.058726918 -0.04270613 0.014974177 -0.04227317
others 0.03645709 0.059239026 -0.021731833 0.01613764 -0.08493917 -0.09348293 0.093271144 0.0097329095 0.08133818 0.071165316 -0.026224444 -0.031665687 0.0112520605 0.015996391 -0.02657097 0.15057549
itself 0.11701857 -0.014635842 -0.17322205 0.09878397 -0.112525955 -0.2154614 0.08602345 -0.12417205 0.15826038 0.10739494 0.05991364 0.05873154 0.17653343 0.15169652 0.123250395 0.16417912
lines 0.08723086 0.050221026 -0.006028219 -0.005330111 -0.073083594 -0.08124553 0.048130326 -0.065669805 0.07027924 0.079157725 -0.031500723 -0.004039894 0.047646236 0.07788233 -0.014946096 0.12883133
live 0.020138368 0.011445617 -0.008013694 -0.04082855 -0.1013158 0.0065110773 0.06435033 0.07552314 -0.059223656 0.022465719 -0.09605613 -0.0030883253 -0.08577926 -0.09115118 -0.039414644 0.07063929
become 0.051448114 -0.03199076 -0.05141573 -0.004287866 0.033892404 -0.066330545 -0.07809253 -0.0419053 0.007631766 0.026798207 0.035604805 0.06408228 0.008097137 0.07064539 0.027975269 -0.03938792
dialogue -0.012163327 -0.029064948 0.026841177 0.055174574 0.00751331 0.004088203 -0.008425954 -0.035286717 0.024913501 -0.0017917546 0.0064212084 0.009555516 0.013617779 -0.006174942 -0.008184463 -0.082200885
person -0.08946441 0.09545248 0.0943357 -0.05842033 -0.037181213 0.011267354 0.089526586 0.064372726 -0.023965674 0.055984322 -0.08813688 -0.049740866 -0.07207858 -0.08082956 -0.09883934 0.098114446
lost 0.039848223 0.007105731 0.002272123 -0.025768358 -0.055918083 0.0529462 -0.013372144 -0.0057622716 -0.00085091224 -0.033552308 -0.01650352 -0.040329892 0.0110443225 -0.00037867663 -0.044078935 0.0078675905
finally -0.03146062 0.06783615 0.047180396 0.0025879445 0.04468274 0.0816578 0.029331643 -0.019281037 -0.06368814 -0.0492812 -0.025809579 -0.043792106 -0.02109552 -0.053042326 -0.015862234 -0.033918973
piece 0.08049128 -0.01920492 -0.12570743 0.04524571 -0.16454107 -0.17538154 -0.036253575 -0.08299621 0.15403731 0.21733482 0.019895818 0.06319075 0.0896205 0.1022391 0.09012863 0.17502846
head 0.06633086 -0.032853864 -0.13725306 0.1096544 -0.1477396 -0.1257846 -0.02133046 -0.06957881 0.10365781 0.17349622 0.059057575 0.10429911 0.10685033 0.1378259 0.10028589 0.076010436
case 0.096672714 0.09310596 -0.046411525 0.102420405 -0.040261876 -0.10652891 0.0010714671 -0.11562959 0.035822738 0.059022855 -0.006497684 0.011513491 0.123995595 0.120995596 0.099147454 0.11675889
felt 0.00091575645 0.020384688 -0.016384538 -0.020787776 -0.029432638 -0.0056723636 0.044840455 -0.022293858 -0.0067284433 0.008586676 -0.00604514 0.0017631047 -0.07029413 -0.047101676 -0.048216816 0.044545628
yes -0.13065827 0.07050035 0.10817093 -0.046994366 -0.097811565 0.04793229 0.040678278 0.048328903 -0.017225096 -0.02868514 -0.09734993 -0.11056877 -0.10576632 -0.069806375 -0.08446136 0.079511955
liked -0.041035846 0.12599468 0.11203231 -0.03232932 -0.0056382883 0.11992605 0.052996363 0.01345639 -0.12519051 -0.0628779 -0.07648505 -0.09373896 -0.107959226 -0.09470984 -0.11952477 0.0647114
supposed 0.12715687 -0.08015693 -0.08967128 0.047627978 -0.07385498 -0.048812147 -0.08219082 -0.10847342 0.076650165 0.05155641 0.09445484 0.07953001 0.12248702 0.124265194 0.0397257 0.038567573
title 0.054600254 -0.059333943 -0.01797245 0.029694755 -0.055549335 -0.011652106 -0.002271229 -0.03146538 0.011251836 -0.056951664 0.013583382 0.065550186 -0.0131225325 0.06827281 0.027471522 -0.092772454
couldn't 0.053215187 0.043401938 -0.034493975 -0.014763395 -0.12701772 -0.1076953 2.526625e-05 0.001607564 0.02358588 0.09201942 -0.005790036 -0.0015077351 0.037477013 0.060028926 0.06293795 0.1002682
absolutely -0.064408645 0.09510711 0.06587301 -0.010069545 -0.024621975 -0.0042443527 0.04385283 -0.06776918 -0.022253405 0.0782018 -0.13835932 -0.06864363 -0.0020369547 -0.016439933 0.0027283041 0.05303162
white 0.009305658 0.05942175 -0.011944467 -0.028121822 -0.031543735 -0.032752212 0.023591569 0.041891467 -0.018596565 0.05978127 0.034309275 -0.062165417 -0.014795169 -0.045962356 -0.030184448 0.0061789067
against 0.015754553 0.059341893 0.06681297 0.008350898 -0.061862703 -0.014521411 0.056430094 0.06660016 -0.009602094 0.03617927 -0.043559037 -0.005611803 -0.071208686 -0.07621635 0.004423409 0.038232215
boy 0.02762154 0.054875776 -0.0017599852 -0.004366376 -0.051689364 -0.04614265 0.055077385 0.04776694 -0.057687785 0.032001033 0.01446454 -0.04965477 -0.0055372277 0.019372288 -0.030524159 0.018418496
picture -0.062413666 0.037315216 0.06933104 -0.021748025 -0.11748568 -0.00014724385 0.005173686 0.0630366 -0.035864618 0.024873685 -0.07448407 -0.054758906 -0.07961514 -0.04431606 -0.0468197 0.14535813
sort -0.10720128 0.082444094 0.13209566 -0.07124551 -0.083646126 0.09514352 0.068823084 0.09342604 -0.12916856 -0.06273414 -0.10377004 -0.1224945 -0.09350873 -0.09532108 -0.15834983 0.0896162
worse -0.025186287 -0.005385146 -0.00877291 -0.024136664 -0.095515296 -0.045856602 0.04123113 -0.085390285 -0.01892003 0.0078077433 -0.025313335 -0.005291278 0.060575955 -0.024718236 0.022482561 0.012386109
certainly -0.122779906 0.0830336 0.11208383 -0.037887644 -0.06298818 0.12752928 0.049968418 0.06663759 -0.07223743 -0.10150413 -0.07080186 -0.086189196 -0.034654774 -0.061509907 -0.023860468 -0.016146481
went 0.07373258 0.037436664 -0.117680505 0.02660171 -0.08306195 -0.17170432 -0.023888167 -0.07373137 0.04611077 0.10058858 0.02842818 0.020383416 0.05533491 0.119805336 0.050518334 0.12397923
entire 0.009094872 -0.031687547 -0.08190624 0.081263885 -0.08443537 -0.069894664 -0.05699854 -0.045405347 0.08363278 -0.10641987 0.0858338 0.0867722 0.10618146 0.13544278 0.11287297 -0.137307
waste 0.104146935 0.000117051444 -0.042946268 0.01901287 -0.24116312 -0.17425552 -0.03454697 -0.06303016 0.09762218 0.20587412 -0.012805796 -0.004864772 0.187417 0.067375325 0.122540414 0.25650412
cinema 0.061915938 0.04841036 -0.014316105 0.044556193 -0.20062737 -0.050897848 0.11460977 -0.077725224 -0.000102870516 0.116205275 -0.07573951 -0.055479765 -0.026624793 0.014312967 -0.0035770913 0.12661381
problem -0.0031203246 0.0042323777 0.033318765 -0.002702379 -0.042885106 -0.04828868 0.009882144 -0.024699537 -0.026034852 0.022032278 -0.04162424 -0.03842438 -0.042701982 -0.037078947 -0.04076545 0.009432189
hope -0.04796332 0.06427896 0.1051358 -0.02819549 -0.06424425 0.065121 0.06890672 0.0849852 -0.09692824 -0.08313397 -0.055212926 -0.105513856 -0.038691904 -0.0972806 -0.0672501 0.031066727
entertaining -0.02919062 0.08700274 0.0681407 -0.025115883 -0.12958065 -0.055955686 0.10305283 0.057260074 -0.020834431 0.088293314 -0.055482958 -0.03915895 0.0062950705 -0.07092117 -0.0026234044 0.089154184
she's 0.04623302 -0.031846337 0.015106187 0.05793542 -0.024363644 0.007075768 -0.074647896 0.030414699 0.02749642 -0.008792591 -0.02446718 0.06589229 0.059669048 0.034834046 -0.016147662 -0.024608098
mr -0.10146173 0.08386372 0.1155495 -0.0507498 -0.06510277 0.12975375 0.10355869 0.023362525 -0.13352768 -0.086192966 -0.11961677 -0.052272264 -0.09159613 -0.048511628 -0.042454083 0.08809007
overall 0.02091742 -0.016306309 0.029292839 -0.0009665314 -0.06301495 -0.0879158 0.009101287 -0.00018665349 -0.026400898 0.12912028 -0.062190555 -0.024709778 0.013945477 -0.0015138882 -0.018812986 0.051424257
evil -0.01808387 0.011723787 0.0342227 0.016380506 0.023630101 -0.018665856 -0.026855502 0.03218685 -0.030553613 0.0055652685 0.016899688 -0.035267822 0.016205568 -0.022840908 -0.02271103 0.017452987
called -0.033850532 0.01480457 0.010852892 0.026229806 0.008066604 -0.015841307 0.053688608 -0.024067542 0.027139375 0.050079465 -0.0022158357 -0.0030350965 0.014338655 -0.048428304 0.011969142 0.06950602
loved -0.015198026 0.039786533 0.0036913005 0.039954882 -0.12976138 -0.056950677 0.0124311475 0.02388507 0.029281111 0.11129467 0.038313925 -0.048227735 0.026184388 -0.02684017 0.059501197 0.02512233
based -0.038325127 0.078260005 0.047749422 -0.1002741 -0.15066552 0.058659904 0.06831312 0.09636367 -0.019053817 0.08247539 -0.09963278 -0.01745884 -0.04861022 -0.013993661 -0.07700858 0.11092396
oh 0.08449584 -0.033166382 -0.07353174 0.06954812 0.02393118 -0.015593715 -0.10931661 -0.029900638 0.07010247 -0.09850951 0.12747477 0.061264116 0.0517203 0.031549975 0.07700504 -0.073483594
several 0.00033014014 0.03365914 0.016463066 -0.07201727 -0.06967716 0.09190567 0.045205396 0.09312379 -0.05560496 0.024171282 -0.0029188567 -0.051544182 -0.004956742 -0.080827795 -0.041757535 0.06676603
fans 0.043067355 0.11458966 -0.059762806 -0.044109356 -0.07823749 -0.11171488 0.18703987 0.057862498 -0.018767355 0.11042054 -0.096348 -0.10126321 -0.033284523 -0.081197426 -0.012504992 0.118366085
mother -0.041299388 0.053706978 0.015709162 -0.05561165 -0.026042456 0.031546004 0.07968175 0.01861307 -0.06361312 -0.070702836 -0.09305363 -0.021394782 -0.045786217 -0.043598525 -0.012190502 -0.02909965
drama -0.0037680515 -0.03398968 -0.026509555 0.031458512 -0.02257029 -0.032185186 0.058530625 -0.030024374 0.029690739 0.06515935 0.011301486 0.041719675 -0.0070177275 0.012543235 -0.03274184 0.030555073
beginning -0.0942818 0.08224775 0.12764105 -0.04289483 -0.04110318 0.05663788 0.108050734 0.06479997 -0.13538899 -0.05754006 -0.12230056 -0.04970788 -0.108648375 -0.08859984 -0.049776904 0.015994448
killer 0.05935401 -0.002129411 -0.08373334 0.024763402 0.06443018 -0.009875893 -0.05491384 -0.076659895 0.009934215 -0.042497735 0.012021407 0.07633667 0.07940942 0.08705821 0.080509454 -0.050620377
lives 0.023362467 0.028893275 -0.025296694 0.043695785 0.011218319 -0.04897182 -0.024115874 -0.042428464 0.011379118 0.09687088 -0.0021385825 0.013105836 0.05402384 0.07075601 0.063541785 0.03257819
5 -0.0146461995 0.23123008 0.049351644 -0.14657131 -0.1264564 0.0155416 0.22456072 0.035143267 -0.05594194 0.03439979 -0.19384313 -0.14389546 -0.120279714 -0.11293232 0.031407606 0.09407321
direction 0.084198296 0.070832394 -0.034272388 0.06999096 -0.030821558 -0.10120341 -0.004184766 -0.064676985 0.056922298 0.06747863 0.032176796 0.024615085 0.11739029 0.030071124 -0.009895704 0.15838881
care 0.05591502 0.035350826 0.004412756 -0.026181996 -0.054233305 -0.078342766 -0.0032648267 0.002815995 0.019115347 -0.005828779 0.027887786 0.0024993513 0.06060522 0.008604608 0.06159636 0.025714219
already 0.03558337 0.028682979 0.006480765 -0.009632436 -0.17155802 -0.016903957 -0.012410705 -0.027591469 -0.011599992 0.047768027 0.007884101 -0.06731013 0.0153316595 0.050330378 0.01687578 0.032583125
becomes -0.08338503 0.08832204 0.060325116 -0.015785025 -0.08838553 0.07941947 0.0052405577 -0.017250072 -0.022391142 -0.076103106 -0.02895192 -0.08487154 -0.077086 -0.057554618 0.008339081 0.031120112
laugh -0.02197413 0.05916071 0.030218804 -0.04015626 -0.051248442 -0.0029942268 -0.030557849 -0.019162662 0.0066698 0.058896888 0.04354506 -0.032994036 0.011987733 -0.01773665 0.050803334 0.0058214506
example -0.11587749 0.08346982 0.14372323 -0.10620589 -0.106415674 0.11588491 0.12693548 0.11382057 -0.06440092 -0.038522556 -0.13702619 -0.06205236 -0.08269729 -0.116664484 -0.13492656 -0.0090655545
friend -0.083016954 0.123793095 0.1393619 -0.09034599 -0.18075335 0.10206851 0.17664336 0.10820493 -0.11616867 -0.027467186 -0.117984116 -0.14549108 -0.07268312 -0.10069807 -0.08430063 0.0350932
dark 0.040166564 0.014030246 0.050943993 -0.025141373 -0.1704294 -0.022614708 -0.0013260951 -0.0063145277 -0.019153075 0.12919387 0.009126565 -0.005238944 -0.02561863 -0.028181015 -0.00083439087 0.06241277
despite 0.010127124 0.021390978 0.033100054 -0.00089054625 -0.058243576 -0.070732564 0.007847156 0.02379894 -0.03586547 0.0771438 0.030869288 -0.030989751 -0.023282086 0.016724514 -0.009439464 0.026008599
under -0.08651904 0.01823388 0.031934325 -0.026805963 -0.05068781 0.11614017 0.07695349 0.015434848 -0.050546523 -0.12270524 -0.089514375 -0.09454377 -0.029645076 -0.026689881 -0.0016157086 -0.107057534
seemed -0.09527531 0.123379454 0.06528675 -0.13843486 -0.026551345 0.10023673 0.12879738 0.04664307 -0.13866666 0.007439444 -0.12236492 -0.0865078 -0.06605232 -0.15478696 -0.10648231 0.09548466
throughout 0.010804283 0.084235854 0.06763342 -0.0777143 -0.11306791 -0.08359809 0.09097135 0.09065477 -0.0011278791 0.042560674 -0.10698004 -0.0758204 -0.069040805 -0.088490374 -0.0070905657 0.07825136
4 0.20161118 -0.056261957 -0.15168445 0.180704 -0.16641384 -0.22754154 0.052030474 -0.18044356 0.20200989 0.2191211 0.08488985 0.052546103 0.1495151 0.21533984 0.15504654 0.18760897
turn 0.025035435 -0.037624165 -0.047550775 0.029264895 0.041996855 -0.03905134 -0.009453159 -0.020128407 -0.005683933 -0.041804656 0.012525798 0.029435499 0.0862333 0.043098617 0.0090719415 -0.07047005
unfortunately -0.07800181 0.01842404 0.054853953 -0.051053617 -0.056560263 -0.02188411 0.05878099 -0.006001604 -0.033262763 0.021239532 -0.07626446 -0.03232781 -0.03432679 -0.055518992 -0.015975151 -0.016982343
wanted -0.041114025 0.113263115 -0.0007938696 -0.045897704 -0.1320764 -0.06939817 0.0983966 0.026635865 -0.05653421 0.13650459 -0.05600025 -0.07619621 -0.006542893 -0.039828844 -0.031854473 0.16401403
i'd -0.10007108 0.12837073 0.11386033 -0.14421698 -0.032985132 0.08769325 0.11484837 0.08937208 -0.12942758 -0.021868031 -0.10434924 -0.047503613 -0.11485547 -0.08440838 -0.105455026 0.043370076
 -0.022118675 0.04640413 0.027000634 -0.06866717 -0.024193125 0.049762618 0.037101552 0.038985204 -0.07631428 -0.08724197 -0.027708206 -0.0022798814 -0.089476585 -0.015988782 0.04407014 -0.03214391
children -0.06467322 -0.0421633 0.0021891824 -0.046031732 -0.03791353 0.0039378107 0.048404798 0.025032587 -0.011130177 -0.043616366 0.010513615 -0.002489645 -0.07894357 0.0093899 -0.0028451108 -0.055262767
final -0.089882605 0.062123038 0.119742595 -0.08500128 -0.12699082 0.017207123 0.055705402 0.052640956 -0.06258769 0.017247487 -0.11923385 -0.14280872 -0.1411404 -0.061215587 -0.07481622 0.11040111
fine -0.10694655 0.12815352 0.12836203 -0.1010658 -0.06391087 0.12938519 0.06355835 0.098630644 -0.11543173 -0.0834428 -0.13766034 -0.0919378 -0.121422954 -0.087646455 -0.1116954 -0.022041501
history 0.061540905 0.036366977 -0.04423464 0.037435293 -0.09842471 -0.070767954 0.0764127 -0.092936955 0.097068 0.055041272 0.01673869 0.022386959 0.045294806 0.00079703965 0.09712245 0.011858114
amazing -0.12818436 0.11188776 0.09534912 -0.08115644 -0.11101501 0.1377173 0.075410165 0.080039226 -0.11895704 -0.03641556 -0.13464192 -0.109257266 -0.12860148 -0.1540862 -0.043821335 0.020264573
sound -0.018840976 -0.018155638 0.0008628861 -0.0012552822 -0.043863494 0.06218623 -0.040653862 -0.005870657 -0.01923601 -0.045488976 -0.050274458 0.049371667 -0.06230278 0.010286478 0.09167538 -0.054955453
guess 0.15024428 -0.006986066 -0.13479523 0.05182035 -0.015843794 -0.12611035 -0.03738439 -0.13955268 0.084417574 0.12575677 0.08085365 0.08993604 0.16626003 0.1399347 0.10970484 0.10088116
heart -0.1103704 0.051888384 0.050820168 -0.0120353075 -0.09473257 0.110527195 0.10566386 0.030637087 -0.073952936 -0.09720804 -0.045428425 5.3711425e-05 -0.03931638 -0.109641194 0.029507762 -0.026606135
totally 0.047071647 -0.036439806 -0.065280214 0.026251767 0.026245648 0.0117734205 -0.04420785 -0.0847125 0.045018125 -0.0985156 0.0388901 0.11752174 0.07998898 0.06191359 0.08599838 -0.061496772
lead -0.052584104 -0.016110832 0.025759228 -0.033560183 0.009858337 -0.009410145 -0.007269865 0.0046482645 -0.009795097 0.040310666 -0.011641624 -0.025545187 0.029465947 0.014304539 0.01350405 -0.045313597
humor -0.071932286 0.047896046 0.066209905 -0.062738374 -0.054218724 0.08222858 0.021212671 -0.030992253 -0.04743202 -0.08710175 -0.084266566 -0.02020267 -0.07887971 -0.020363111 0.046702065 -0.0094398
writing -0.008533135 -0.018002022 -0.029378342 0.03331578 -0.0368113 0.05213778 0.037575506 -0.020115579 -0.05277059 -0.11231863 0.018949997 -0.022105595 0.022790328 0.027767252 -0.02053475 -0.08065986
michael -0.081755094 0.13439414 0.09621974 -0.09965535 -0.052708507 0.0876558 0.11485504 0.06001581 -0.08814418 -0.016516367 -0.15215367 -0.14466725 -0.11235162 -0.09902953 -0.12379019 0.108603135
quality -0.049328983 -0.017105272 -0.015858388 -0.02337376 -0.07639752 0.037693918 0.02323404 -0.057853233 0.019089825 -0.0083294045 0.059201613 0.055726532 -0.03590943 0.011231631 0.08367664 -0.054493774
you'll -0.01237129 0.07151245 0.020538045 -0.05724905 -0.13101579 -0.018134406 -0.05423893 -0.046920624 0.017725008 0.05166339 -0.047625612 0.024307935 0.05252801 -0.024198296 0.0372803 0.07424214
close -0.08470651 0.09983435 0.15118662 -0.09965667 -0.081857026 0.051876724 0.1582167 0.11531628 -0.07067885 -0.110502094 -0.0627325 -0.12978688 -0.104275025 -0.101030566 -0.10394324 0.05905322
son -0.00316246 0.05046448 0.02507355 -0.026883071 -0.077303976 0.046106625 0.008850799 0.025486743 -0.0551262 -0.028996712 0.0005947015 -0.08175102 -0.0545159 -0.026852043 0.003886853 0.05645629
guys -0.06363573 0.006440251 0.050791632 0.008263676 -0.035337497 0.041302323 0.033689454 0.035787523 -0.081615284 0.018754737 -0.07664458 -0.070583984 0.0072444705 -0.0142823905 -0.041694414 0.05344362
wants 0.0315948 -0.029207516 -0.0030808821 0.0049792295 -0.019372722 -0.02651448 0.055173825 0.0066214562 0.0013310772 -0.018080778 -0.008649372 -0.024882069 0.012985937 -0.0272821 -0.049710974 -0.003465247
works -0.14756727 0.19945464 0.21143149 -0.14438795 -0.15508196 0.16231726 0.15396798 0.1325353 -0.12563132 -0.096124746 -0.18428487 -0.16511118 -0.19522329 -0.16452993 -0.011201673 0.015941443
behind -0.0312817 0.044552874 -0.029854756 -0.00085374265 -0.14345376 -0.0598706 0.03150888 0.008560603 -0.039522566 0.066639476 -0.06405881 -0.06755081 0.032670062 -0.0112203965 -0.015818907 0.11515742
tries -0.02515566 -0.01102905 -0.033392984 -0.024274752 -0.062022194 0.024751429 -0.04839321 0.019929895 0.05728955 0.0115234265 0.05578479 -0.0056463974 -0.0055303443 0.047504816 -0.009243005 0.049388286
art 0.08972467 0.07030268 -0.03605513 0.061011396 -0.05710081 -0.10457978 0.015779462 -0.0015153805 0.07047417 0.0965141 -0.033950735 -0.027864682 0.051595237 0.07471752 0.015044122 0.100205705
side -0.03643523 0.09269189 0.023325965 -0.06336643 -0.049286008 0.100059405 0.079933584 0.048046175 -0.09412313 0.03449389 -0.08546699 -0.035011895 -0.029058216 -0.124393724 -0.07556964 0.090352505
game 0.047158863 0.011731502 0.02743829 0.058545306 0.043213595 -0.04843204 -0.01156413 -0.022714186 0.03706304 0.004978411 -0.019699123 0.030365992 0.055139534 0.03100158 0.0067139883 0.007334219
past 0.03316505 -0.02760138 -0.055281542 0.072261065 -0.037845507 -0.005012531 0.001821255 0.014484274 0.02250985 -0.0381305 0.072059385 0.01232982 0.073534735 -0.008047664 0.0011751325 -0.09214981
able -0.110473566 0.0325272 0.084624246 -0.077104956 -0.06459029 0.062265348 0.055599157 0.12367068 -0.076644465 0.051336154 -0.03993946 -0.038652077 -0.04863171 -0.024863452 -0.040518403 0.076788485
b -0.08026958 0.051790673 0.06222104 -0.08188284 -0.019406226 0.05358737 0.020310178 0.009739066 -0.05788441 -0.03611952 -0.09786533 -0.10655817 -0.032658175 -0.10414343 -0.009916648 -0.063685834
days -0.0045403824 -0.016208395 0.050834525 -0.041665804 -0.09771934 0.07459165 0.049152154 -0.004134213 0.016394118 -0.008291114 0.04165601 -0.03917818 -0.0044979053 -0.014392887 0.041379146 0.028471954
